encog,BasicNetwork,java,3.1.0,1,1400093395875
[BASIC]
[BASIC:PARAMS]
[BASIC:NETWORK]
beginTraining=0
connectionLimit=0
contextTargetOffset=0,0,0
contextTargetSize=0,0,0
endTraining=2
hasContext=f
inputCount=2124
layerCounts=585,51,2124
layerFeedCounts=584,50,2124
layerContextCount=0,0,0
layerIndex=0,585,636
output=##0
##double#2760
   0,0,0,0,0,0,0,0,0,0,0,0,0,0,0,0,0,0,0,0,0,0,0,0,0,0,0,0,0,0,0,0,0,0,0,0,0,0,0,0,0,0,0,0,0,0,0,0,0,0,0,0,0,0,0,0,0,0,0,0,0,0,0,0,0,0,0,0,0,0,0,0,0,0,0,0,0,0,0,0,0,0,0,0,0,0,0,0,0,0,0,0,0,0,0,0,0,0,0,0,0,0,0,0,0,0,0,0,0,0,0,0,0,0,0,0,0,0,0,0,0,0,0,0,0,0,0,0,0,0,0,0,0,0,0,0,0,0,0,0,0,0,0,0,0,0,0,0,0,0,0,0,0,0,0,0,0,0,0,0,0,0,0,0,0,0,0,0,0,0,0,0,0,0,0,0,0,0,0,0,0,0,0,0,0,0,0,0,0,0,0,0,0,0,0,0,0,0,0,0,0,0,0,0,0,0,0,0,0,0,0,0,0,0,0,0,0,0,0,0,0,0,0,0,0,0,0,0,0,0,0,0,0,0,0,0,0,0,0,0,0,0,0,0,0,0,0,0,0,0,0,0,0,0,0,0,0,0,0,0,0,0,0,0,0,0,0,0,0,0,0,0,0,0,0,0,0,0,0,0,0,0,0,0,0,0,0,0,0,0,0,0,0,0,0,0,0,0,0,0,0,0,0,0,0,0,0,0,0,0,0,0,0,0,0,0,0,0,0,0,0,0,0,0,0,0,0,0,0,0,0,0,0,0,0,0,0,0,0,0,0,0,0,0,0,0,0,0,0,0,0,0,0,0,0,0,0,0,0,0,0,0,0,0,0,0,0,0,0,0,0,0,0,0,0,0,0,0,0,0,0,0,0,0,0,0,0,0,0,0,0,0,0,0,0,0,0,0,0,0,0,0,0,0,0,0,0,0,0,0,0,0,0,0,0,0,0,0,0,0,0,0,0,0,0,0,0,0,0,0,0,0,0,0,0,0,0,0,0,0,0,0,0,0,0,0,0,0,0,0,0,0,0,0,0,0,0,0,0,0,0,0,0,0,0,0,0,0,0,0,0,0,0,0,0,0,0,0,0,0,0,0,0,0,0,0,0,0,0,0,0,0,0,0,0,0,0,0,0,0,0,0,0,0,0,0,0,0,0,0,0,0,0,0,0,0,0,0,0,0,0,0,0,0,0,0,0,0,0,0,0,0,0,0,0,0,0,0,0,0,0,0,0,0,0,0,0,0,0,0,0,0,0,0,0,0,0,0,0,0,0,0,0,0,0,0,0,0,0,0,0,0,0,0,0,0,0,0,0,0,0,0,0,0,1,0,0,0,0,0,0,0,0,0,0,0,0,0,0,0,0,0,0,0,0,0,0,0,0,0,0,0,0,0,0,0,0,0,0,0,0,0,0,0,0,0,0,0,0,0,0,0,0,0,0,1,0,0,0,0,0,0,0,0,0,0,0,0,0,0,0,0,0,0,0,0,0,0,0,0,0,0,0,0,0,0,0,0,0,0,0,0,0,0,0,0,0,0,0,0,0,0,0,0,0,0,0,0,0,0,0,0,0,0,0,0,0,0,0,0,0,0,0,0,0,0,0,0,0,0,0,0,0,0,0,0,0,0,0,0,0,0,0,0,0,0,0,0,0,0,0,0,0,0,0,0,0,0,0,0,0,0,0,0,0,0,0,0,0,0,0,0,0,0,0,0,0,0,0,0,0,0,0,0,0,0,0,0,0,0,0,0,0,0,0,0,0,0,0,0,0,0,0,0,0,0,0,0,0,0,0,0,0,0,0,0,0,0,0,0,0,0,0,0,0,0,0,0,0,0,0,0,0,0,0,0,0,0,0,0,0,0,0,0,0,0,0,0,0,0,0,0,0,0,0,0,0,0,0,0,0,0,0,0,0,0,0,0,0,0,0,0,0,0,0,0,0,0,0,0,0,0,0,0,0,0,0,0,0,0,0,0,0,0,0,0,0,0,0,0,0,0,0,0,0,0,0,0,0,0,0,0,0,0,0,0,0,0,0,0,0,0,0,0,0,0,0,0,0,0,0,0,0,0,0,0,0,0,0,0,0,0,0,0,0,0,0,0,0,0,0,0,0,0,0,0,0,0,0,0,0,0,0,0,0,0,0,0,0,0,0,0,0,0,0,0,0,0,0,0,0,0,0,0,0,0,0,0,0,0,0,0,0,0,0,0,0,0,0,0,0,0,0,0,0,0,0,0,0,0,0,0,0,0,0,0,0,0,0,0,0,0,0,0,0,0,0,0,0,0,0,0,0,0,0,0,0,0,0,0,0,0,0,0,0,0,0,0,0,0,0,0,0,0,0,0,0,0,0,0,0,0,0,0,0,0,0,0,0,0,0,0,0,0,0,0,0,0,0,0,0,0,0,0,0,0,0,0,0,0,0,0,0,0,0,0,0,0,0,0,0,0,0,0,0,0,0,0,0,0,0,0,0,0,0,0,0,0,0,0,0,0,0,0,0,0,0,0,0,0,0,0,0,0,0,0,0,0,0,0,0,0,0,0,0,0,0,0,0,0,0,0,0,0,0,0,0,0,0,0,0,0,0,0,0,0,0,0,0,0,0,0,0,0,0,0,0,0,0,0,0,0,0,0,0,0,0,0,0,0,0,0,0,0,0,0,0,0,0,0,0,0,0,0,0,0,0,0,0,0,0,0,0,0,0,0,0,0,0,0,0,0,0,0,0,0,0,0,0,0,0,0,0,0,0,0,0,0,0,0,0,0,0,0,0,0,0,0,0,0,0,0,0,0,0,0,0,0,0,0,0,0,0,0,0,0,0,0,0,0,0,0,0,0,0,0,0,0,0,0,0,0,0,0,0,0,0,0,0,0,0,0,0,0,0,0,0,0,0,0,0,0,0,0,0,0,0,0,0,0,0,0,0,0,0,0,0,0,0,0,0,0,0,0,0,0,0,0,0,0,0,0,0,0,0,0,0,0,0,0,0,0,0,0,0,0,0,0,0,0,0,0,0,0,0,0,0,0,0,0,0,0,0,0,0,0,0,0,0,0,0,0,0,0,0,0,0,0,0,0,0,0,0,0,0,0,0,0,0,0,0,0,0,0,0,0,0,0,0,0,0,0,0,0,0,0,0,0,0,0,0,0,0,0,0,0,0,0,0,0,0,0,0,0,0,0,0,0,0,0,0,0,0,0,0,0,0,0,0,0,0,0,0,0,0,0,0,0,0,0,0,0,0,0,0,0,0,0,0,0,0,0,0,0,0,0,0,0,0,0,0,0,0,0,0,0,0,0,0,0,0,0,0,0,0,0,0,0,0,0,0,0,0,0,0,0,0,0,0,0,0,0,0,0,0,0,0,0,0,0,0,0,0,0,0,0,0,0,0,0,0,0,0,0,0,0,0,0,0,0,0,0,0,0,0,0,0,0,0,0,0,0,0,0,0,0,0,0,0,0,0,0,0,0,0,0,0,0,0,0,0,0,0,0,0,0,0,0,0,0,0,0,0,0,0,0,0,0,0,0,0,0,0,0,0,0,0,0,0,0,0,0,0,0,0,0,0,0,0,0,0,0,0,0,0,0,0,0,0,0,0,0,0,0,0,0,0,0,0,0,0,0,0,0,0,0,0,0,0,0,0,0,0,0,0,0,0,0,0,0,0,0,0,0,0,0,0,0,0,0,0,0,0,0,0,0,0,0,0,0,0,0,0,0,0,0,0,0,0,0,0,0,0,0,0,0,0,0,0,0,0,0,0,0,0,0,0,0,0,0,0,0,0,0,0,0,0,0,0,0,0,0,0,0,0,0,0,0,0,0,0,0,0,0,0,0,0,0,0,0,0,0,0,0,0,0,0,0,0,0,0,0,0,0,0,0,0,0,0,0,0,0,0,0,0,0,0,0,0,0,0,0,0,0,0,0,0,0,0,0,0,0,0,0,0,0,0,0,0,0,0,0,0,0,0,0,0,0,0,0,0,0,0,0,0,0,0,0,0,0,0,0,0,0,0,0,0,0,0,0,0,0,0,0,0,0,0,0,0,0,0,0,0,0,0,0,0,0,0,0,0,0,0,0,0,0,0,0,0,0,0,0,0,0,0,0,0,0,0,0,0,0,0,0,0,0,0,0,0,0,0,0,0,0,0,0,0,0,0,0,0,0,0,0,0,0,0,0,0,0,0,0,0,0,0,0,0,0,0,0,0,0,0,0,0,0,0,0,0,0,0,0,0,0,0,0,0,0,0,0,0,0,0,0,0,0,0,0,0,0,0,0,0,0,0,0,0,0,0,0,0,0,0,0,0,0,0,0,0,0,0,0,0,0,0,0,0,0,0,0,0,0,0,0,0,0,0,0,0,0,0,0,0,0,0,0,0,0,0,0,0,0,0,0,0,0,0,0,0,0,0,0,0,0,0,0,0,0,0,0,0,0,0,0,0,0,0,0,0,0,0,0,0,0,0,0,0,0,0,0,0,0,0,0,0,0,0,0,0,0,0,0,0,0,0,0,0,0,0,0,0,0,0,0,0,0,0,0,0,0,0,0,0,0,0,0,0,0,0,0,0,0,0,0,0,0,0,0,0,0,0,0,0,0,0,0,0,0,0,0,0,0,0,0,0,0,0,0
   0,0,0,0,0,0,0,0,0,0,0,0,0,0,0,0,0,0,0,0,0,0,0,0,0,0,0,0,0,0,0,0,0,0,0,0,0,0,0,0,0,0,0,0,0,0,0,0,0,0,0,0,0,0,0,0,0,0,0,0,0,0,0,0,0,0,0,0,0,0,0,0,0,0,0,0,0,0,0,0,0,0,0,0,0,0,0,0,0,0,0,0,0,0,0,0,0,0,0,0,0,0,0,0,0,0,0,0,0,0,0,0,0,0,0,0,0,0,0,0,0,0,0,0,0,0,0,0,0,0,0,0,0,0,0,0,0,0,0,0,0,0,0,0,0,0,0,0,0,0,0,0,0,0,0,0,0,0,0,0,0,0,0,0,0,0,0,0,0,0,0,0,0,0,0,0,0,0,0,0,0,0,0,0,0,0,0,0,0,0,0,0,0,0,0,0,0,0,0,0,0,0,0,0,0,0,0,0,0,0,0,0,0,0,0,0,0,0,0,0,0,0,0,0,0,0,0,0,0,0,0,0,0,0,0,0,0,0,0,0,0,0,0,0,0,0,0,0,0,0,0,0,0,0,0,0,0,0,0,0,0,0,0,0,0,0,0,0,0,0,0,0,0,0,0,0,0,0,0,0,0,0,0,0,0,0,0,0,0,0,0,0,0,0,0,0,0,0,0,0,0,0,0,0,0,0,0,0,0,0,0,0,0,0,0,0,0,0,0,0,0,0,0,0,0,0,0,0,0,0,0,0,0,0,0,0,0,0,0,0,0,0,0,0,0,0,0,0,0,0,0,0,0,0,0,0,0,0,0,0,0,0,0,0,0,0,0,0,0,0,0,0,0,0,0,0,0,0,0,0,0,0,0,0,0,0,0,0,0,0,0,0,0,0,0,0,0,0,0,0,0,0,0,0,0,0,0,0,0,0,0,0,0,0,0,0,0,0,0,0,0,0,0,0,0,0,0,0,0,0,0,0,0,0,0,0,0,0,0,0,0,0,0,0,0,0,0,0,0,0,0,0,0,0,0,0,0,0,0,0,0,0,0,0,0,0,0,0,0,0,0,0,0,0,0,0,0,0,0,0,0,0,0,0,0,0,0,0,0,0,0,0,0,0,0,0,0,0,0,0,0,0,0,0,0,0,0,0,0,0,0,0,0,0,0,0,0,0,0,0,0,0,0,0,0,0,0,0,0,0,0,0,0,0,0,0,0,0,0,0,0,0,0,0,0,0,0,0,0,0,0,0,0,0,0,0,0,0,0,0,0,0,0,0,0,0,0,0,0,0,0,0,0,0,0,0,0,0,0,0,0,0,0,0,0,0,0,0,0,0,0,0,0,0,0,0,0,0,0,0,0,0,0,0,0,0,0,0,0,0,0,0,0,0,0,0,0,0,0,0,0,0,0,0,0,0,0,0,0,0,0,0,0,0,0,0,0,0,0,0,0,0,0,0,0,0,0,0,0,0,0,0,0,0,0,0,0,0,0,0,0,0,0,0,0,0,0,0,0,0,0,0,0,0,0,0,0,0,0,0,0,0,0,0,0,0,0,0,0,0,0,0,0,0,0,0,0,0,0,0,0,0,0,0,0,0,0,0,0,0,0,0
##end
outputCount=584
weightIndex=0,29784,135984
weights=##1
##double#135984
   -0.0606025812,-0.3857873594,-0.2453208689,-1.8670138639,-0.2239415979,-0.5603235297,-0.7734564776,0.3245958104,1.3549160128,0.1125122962,-0.3018698666,-1.6376230147,-0.8447124962,-0.1809534404,-0.0202777683,-0.9696880248,0.743976107,-0.698103892,-1.2258749919,-1.1246552622,0.2908627362,-2.106202608,-0.4215764421,-0.2683775132,-0.0959209595,-0.3876519774,-0.486053506,0.0627076957,-0.8497811768,0.4499497081,-0.1402911452,-0.633263678,4.934805548,0.5654003656,-0.3987336427,0.778053984,0.3283641552,-0.0123068871,-0.6044095547,-2.401502242,0.0615355672,0.9861295053,-0.3847315626,-0.304030419,-0.1406100674,-1.1366334607,-0.5191483294,-0.0997094861,-0.2833125027,-0.9033111871,-1.1783048377,-0.1276582146,-0.7730601627,-0.6028987604,-0.9010654616,-0.2318479393,0.2589187461,-0.9005070231,-0.9770486613,4.9451115576,-0.5960500387,-1.6702343344,-3.0445052498,-0.6739756312,0.510242287,1.1118717906,-1.2698223284,0.2308917515,-0.7388075107,-5.9959181824,-6.4771720163,1.7400203904,-1.2945143311,-0.6055973737,-0.0211330241,-0.6617641574,-0.7347819715,-0.7744940666,0.0419339232,-0.7478459258,-0.3097260221,-0.3942026254,-0.1929702037,7.0575412851,0.1721282061,-0.2414054717,0.7445405575,-0.6153450155,0.5199646435,-1.4604515257,-1.2041100232,-0.4128989503,0.6782055945,-1.2630379881,-0.0241853951,0.1653883564,-0.1308807238,-0.3072765045,-0.4157084207,-0.5575541946,-0.3665874888,-0.490111645,-1.4871847798,-1.6731094571,-0.282947821,-1.2383959839,-1.2952976596,0.2272362166,-0.9107709146,-4.954305663,5.5191804429,-0.11681987,-0.7934468974,-3.1442623758,-0.4417547342,1.4426846828,-0.4246451195,-0.6637735512,0.0279391193,-0.6250380368,-16.5959024926,-2.5091284371,4.3814450341,-0.9052161976,-0.6466042102,-0.6674690852,-0.1407323259,-0.1358759583,-0.1261440494,0.1673624231,-0.5555096808,-0.0599656874,-0.8635002902,-0.9653967364,10.3262363366,0.2900061798,-0.1580024497,-0.2838027765,-0.4269691375,0.4669813285,-0.9562927672,-4.2805032701,-0.4751873048,1.2364175044,-1.0752572586,-0.5014994707,1.6102827887,-0.5741074147,-0.5727091881,0.8041980488,-0.9870573957,-1.3660330462,-1.2974775968,-0.1934491963,-1.4994615129,-0.683791347,-0.3183945846,-0.6849551341,0.3775748494,-1.1723911464,-0.3453124066,6.0118561349,-0.0880358291,-1.0427777765,-4.3302986245,-0.5591598419,0.3777093493,-1.1027443227,-0.5498219194,0.6742078764,-0.1621809392,-1.4336851664,-3.9288640727,-1.8157052866,-1.2871215011,-0.4901693514,0.0613045254,-0.1118326724,-0.3420854752,-0.5965903339,-0.1271002652,-0.8691297188,-0.3415885018,-0.7795868975,-0.4284230304,5.9690365914,0.4396070187,-0.5976274882,0.8906980648,-0.0749976782,2.467369113,-1.2611218699,-4.95380454,-0.0332290733,0.8172073031,-1.902569611,0.0037693897,3.0557663155,-0.7375497899,-0.2063448868,0.6402964255,0.4578769811,-0.6712723125,-0.965735909,-0.9909064483,-0.9115376274,-0.4808855334,-0.9228996694,-0.3893104167,-0.0622145448,-0.2754946901,-0.64019714,2.8582135744,-2.1148051855,-0.4435525352,-3.0188849597,-0.5943395983,0.0993409633,-0.2039173064,-1.0661289484,0.1937125788,-0.803795332,-3.1382541367,-3.0264300632,1.6336090341,-1.4436628905,-0.7147419673,-0.0934100175,0.071520964,-1.4597902795,-0.5237726957,-0.0894391907,-1.0682250761,-0.5420526868,-0.4786204326,-0.1550822502,4.9496759,0.7179826032,-0.7242624165,0.7700054279,-0.5978088306,1.6385770981,-0.7092212877,-2.9768633745,-0.1270954185,3.2077298422,-0.559096257,0.4248786571,0.2630943892,-0.6300896073,-0.7892744903,0.8162241258,-0.0498528004,-0.105238854,-1.1227141853,-0.9367051445,-0.8224448658,-0.225126653,-0.2067741512,-0.0890514984,0.3429000502,-0.5225296068,-0.7044085839,2.1812511102,-0.5445934604,-1.262784044,-4.0301491511,-0.6124958046,0.3088213912,0.4453426386,-0.8515159763,0.0783263239,-0.6660298255,-0.883326559,-6.0680198827,2.4030545712,-1.1482883239,-0.6269600695,-0.6297706713,-0.3784179757,-0.279869544,-0.4800121263,-0.0705290421,-0.2065392669,-0.6383232464,-0.5299452567,-0.2461622757,4.933017041,-0.165286529,-0.7904628092,-0.3548046305,-0.604542758,1.7382894849,-0.6495966166,-1.8946745379,0.1010883925,3.607158616,-0.5781128331,0.1338777174,-0.1619677741,-0.3889909924,0.0083714825,1.4481570542,-0.1793400807,-0.3725961782,-1.1277012592,-0.132980096,-0.6562843906,-0.4811101043,-1.1796301073,-0.9695037377,-0.4188454634,-0.4513046245,-2.3274901581,1.4540930593,0.0613949463,-0.999261605,-2.4961244941,-0.3669072653,0.6289709439,-0.2241421489,-1.6223559805,-0.4292772388,-0.722907026,-18.6492034177,-1.6944850686,7.0083127153,-1.866163425,-0.4340408035,-0.1319372989,-0.135274572,-0.2643037035,-0.6759361637,0.7251046175,-0.5175492746,-0.4548339535,-0.8848702804,-0.3861573443,7.0316760341,0.339431127,-0.2359706633,0.4498824993,-1.2196783433,0.3668046242,-1.0701961763,-2.784914173,-0.030925896,1.2042800545,-1.1068395256,0.0657416224,0.0045528787,-0.8491722927,-0.4856295017,3.6768069882,0.0853749754,-1.8791967878,-0.585598614,-0.1805234555,-1.2597692136,-0.5409696822,-0.266681233,-0.5661616379,1.3085256615,-0.9298584164,0.8990000915,3.6192303099,1.6306649709,-1.121277049,-3.2843967932,-0.3018853128,-0.3006928595,-0.3466070276,-1.6007669624,-0.2012138889,-0.5898289833,-2.6705779256,-1.4463682087,-3.5771912001,-0.7946472462,-0.6681604665,0.1059255031,-0.0886487632,-0.3824671818,-0.021694296,0.4552294053,-0.7223715889,-0.247076662,-0.5070914536,-0.6355691627,7.6953102954,-0.4154505732,-0.6369640135,0.3398577607,-0.2562494854,1.763104939,-1.9271562187,-5.7190167545,0.0777779214,2.7180518398,-0.8517457228,-0.3304734124,-0.2655304724,-0.2439074309,-0.5260716785,2.3128379747,0.3644742094,-0.2947815547,-0.651978449,-0.3161831417,-1.5948487139,-0.6667060108,-1.2541952998,-0.3637024395,-0.0258372416,-0.5123459504,0.3160667289,2.2021141767,-0.081210278,-0.8553329751,-4.7716967866,-0.3690729842,0.518887762,0.2060342312,-0.7063516009,0.3789800836,-0.4701871234,-6.4517717976,-0.7697652719,-1.7199055843,-0.76894018,-1.0662974611,0.5778011392,0.2576192587,-0.5708674701,-0.6078956065,-0.0653121373,-0.4091304671,-0.1166972449,-0.3937398819,-0.4247044352,4.9413212536,0.295176026,-0.6673407439,0.0498073084,-0.3745053852,2.3197424301,-0.9547984193,-7.0273172066,-0.1807935746,2.1803250175,-0.5309950136,0.1617898643,2.3471734112,-0.9819797352,-0.5316052517,4.17231939,-0.0849213424,-0.5391934712,-0.4919914831,0.0338235746,-1.4636360324,-1.8616700857,-0.5880790066,-0.8410734863,-0.3189276491,-1.1345586921,-0.3123918226,6.4756040584,-0.5302576068,-4.6570731833,-2.4668373432,-0.4853389971,0.1581652652,1.1161390532,-0.1828766339,-0.4478571797,-0.8980446275,-1.341095638,-0.4083426911,-0.8408746332,-0.8872986286,-0.197471691,-0.0154598878,-0.6199125566,-0.4796002279,-0.176545333,0.6194847376,-0.3651094048,-0.4674529115,-1.6575343369,-0.279125296,5.591565501,-0.6961378623,-0.2169898195,-0.2559957025,-0.0693495592,1.3690723175,-0.1734109466,-8.6693835736,-0.2078944041,1.8224423449,-0.6076075484,-0.53113303,4.3814030375,-0.2785097087,-0.5076609739,4.5392981277,-0.4830309197,-0.3434319961,-1.7908257966,0.1848294808,-1.2233559497,-0.7003920067,-0.2239617442,-0.7544672645,-0.2048886001,-0.4221034681,-0.3403545652,3.8113763786,0.2995134235,-1.0182434472,-3.8892670217,-0.5255424655,0.3496144829,-0.5424707197,-1.121728629,0.0370914296,-0.5038358597,-0.7752080741,-3.4783851703,-3.4181986259,-1.4199853701,-0.0978299609,-0.3482128021,-0.272055493,-0.8307907121,-0.0022021668,0.4790342712,-0.6344459509,-0.1867492482,-0.2029424946,-0.6406853012,6.0388009067,-0.2087168005,-0.693787833,0.4348198132,-0.7200137235,1.4894064825,-0.3263385991,-7.179620323,-0.1813228334,3.7236188156,-0.215380879,-0.2718287555,0.9553857813,-0.5482242346,-0.3108310078,6.08922189,0.2668269604,-0.5743036601,-1.8151411461,-0.2540109098,-0.8381417334,-0.2504318367,-0.0782444845,-1.0416850188,-0.2438600365,-0.6609185937,-0.3141636523,1.768625013,0.6591352895,-1.8139185151,-3.2091373924,-0.5378776176,1.4941399165,-0.300537935,-1.2166843627,0.2633329742,-0.4841541542,-0.7332676904,-1.9922717616,-2.6565664847,-2.0800078137,-0.6064175458,0.2309896859,-0.1080447814,-0.7240585531,-0.5256370234,0.1479996139,-1.3961556575,-0.6693548056,-0.3060510345,-0.4464013226,5.0145152906,0.0081288831,-0.2771460767,0.4995989943,-0.7991697271,2.2557219085,-1.1730258247,-7.1365992721,-0.0391983684,4.7736349291,-0.1264454516,0.0740781004,1.1209206166,-0.2851757691,-0.3183394227,4.6745984019,-0.2047504352,-0.9328572241,-0.8470143134,-0.5912769487,-0.6551549353,-0.3428465115,-1.248865907,-0.4096063362,0.1074948531,-0.683668196,-0.7897239268,1.8808410304,0.0600959904,-0.9182154877,-5.0123141963,-0.1438934301,0.1794141688,0.0994297146,-2.2381538249,-0.1283324162,-0.279302531,-1.1882428248,-2.6266549911,-0.2560009239,-0.9040422931,-0.4697811737,-0.0690165658,-0.0793093218,-0.8483833823,-0.5288101305,0.9534804253,-0.8816747776,-0.6478345999,-0.7967996617,-0.8125075507,5.0214506509,0.2133849303,-0.7130537336,0.9810700855,-1.0600481471,2.3584593213,-1.9896586187,-2.7561429958,0.0033783253,2.6920766277,-0.5875933713,0.4433412744,1.5866218279,-2.0923114126,-0.4771134643,7.4117551249,0.1672838777,-0.6192341196,-0.4329328024,0.6628576947,-0.9979484647,-0.2877727733,-0.666123072,-0.4874596035,-0.5464772946,-0.6132367256,-8.6788616743,0.4737851983,-0.5897049192,-0.2388964375,-4.3437347822,-0.5436517926,0.5736300073,3.7195216871,-0.6093018742,-0.4932179645,-0.5977862321,-3.0234424242,-3.714013922,6.6085669391,-1.5049698548,-0.0857415524,-0.7575788154,-0.7639136347,-0.2329541846,-0.3045161378,0.2299893157,-0.7636701446,-0.3139617893,-0.9387621593,-0.2832173101,9.3419889654,-0.7634751781,-0.0541411148,-0.3673512886,-0.7229004542,-0.2551642358,-0.7534825492,-1.5519965119,-0.4464645628,2.1833872916,-0.1901662271,-0.2546652851,0.7765689058,-0.4796958347,-0.4433275698,2.1022911419,-0.2252125555,-0.0969238671,-1.4346932529,0.5199082176,-0.7753058573,-0.4985139929,-0.7424169401,-0.6802651356,-0.1286322288,-0.2796030763,-1.5022144643,2.3994359488,-0.3683700301,-8.8599436828,-2.6788479928,-0.3590121749,1.1289476988,2.2665523585,-0.3882263093,-0.123984147,-0.8131006649,-7.2205897349,-1.4729818108,3.3987270873,-2.1806118605,-0.243932991,-0.6861276871,-0.5842257507,-0.3641064073,-0.7684378187,-0.5695394503,-0.4055233762,-0.5021674189,-0.5595893664,-0.368599618,7.7374450619,-0.4973083436,-0.2001427175,-0.3521520665,-1.0025046275,0.0413307269,-0.9639409789,-0.9765516651,-0.251124924,2.3657169852,-0.4173400131,-0.3691818424,-0.1024566065,-0.2132673246,-0.5190133237,1.6252674764,-0.0258958732,-0.3542497415,-1.3360961569,0.3867543381,-0.4469148702,-0.7404432092,-0.0901993286,-0.5747441888,0.4349879825,-1.0794753992,-0.59104808,2.676852958,0.3440849662,-2.2742159616,-2.4906160368,-0.0844154391,0.203012527,0.6122789989,-0.4222965882,0.1139407719,-0.7720202466,-1.8727158428,-5.7267099684,0.3731803518,-1.7399499697,-0.6125227467,0.0434071491,-0.2155623425,-0.4817524675,-0.746591463,0.4782716355,-0.3576989471,-0.3362996973,-0.6963283266,-0.7957961795,5.8800081877,0.1695036729,-0.5001569083,0.1006675419,-1.2024791883,0.6889761683,-0.6084178035,-2.5622453232,0.0009589575,4.4791510245,-0.516971571,0.2104042473,0.0099208317,-0.3079114471,-0.4045256918,1.2828086819,0.0667691721,-0.1226646876,-1.8928244386,-0.5484822438,-0.7206310196,-0.4199335365,-0.3943815942,-0.7112409707,0.4288578432,-0.7408735356,-1.1911562199,2.8808993758,-1.9295881711,-0.2955264478,-4.7020188073,-0.136749425,2.0265309675,-0.0539555315,-0.947295964,0.1022226168,-0.2178347585,-2.8907391485,-3.0403386723,1.72746713,-1.2229822113,-0.1733315692,-0.3388091638,-0.2713159219,-1.8119057239,-0.1056274712,0.75914703,-0.3426746683,-0.3126614794,-0.6598881803,-0.928063866,2.8028926565,-0.1904965187,-0.6179111103,0.9491933388,-1.2802542755,1.990653218,-1.2948226419,-3.1229507517,0.0266706874,3.6695970995,-0.8230177437,0.1065038386,2.1865496059,-0.5325869155,-0.3141814093,4.0588772282,-0.3323903102,-0.6730562122,-1.918462534,-0.12416721,-1.361294825,-0.6255601365,-0.3782364773,-0.3757088891,0.0102281812,-0.5465475724,1.0000846901,5.2620815994,-0.1103260716,-2.0458289246,-3.3968221264,-0.6160518488,0.5304608724,0.2885138344,-0.2544817124,0.0236310719,-0.7559519111,-1.5194404617,-6.1344783635,-2.0019544203,-1.7060654058,-0.2716740361,-0.230662166,-0.1150832308,-0.2313489913,-0.6246367324,0.6145617073,-0.1726786248,-0.5195886638,-0.84577333,-0.1269260435,6.6343254988,-0.6111269201,-0.2720401223,-0.2655029604,-0.174158405,0.6896593504,-0.59971942,-4.2275324892,-0.3786115387,4.1023321663,-0.8489267726,-0.2640525941,-0.0409147675,0.0200142717,-0.6600046284,2.3946757981,-0.2424556065,-0.5516751407,-1.4053764071,0.1473599338,-0.9493277447,-0.2003930858,-1.0141060248,-0.8163032051,-0.4177613762,-1.1638857076,-0.6846452779,3.4382002481,-0.1651790087,-1.6900528219,-4.331518513,-0.6992089365,0.3763356438,0.9062512508,-0.8678714865,-0.0559984932,-0.553611616,-16.2402697646,-1.7438529903,-2.0175559703,-0.6302694599,-1.0982264265,0.1187716891,-0.7492263561,-0.4937559666,-0.7012702264,0.5820651867,-0.4800587232,-0.3583260428,-0.6440290622,-0.1573027719,5.1559887162,-0.1163567033,-0.2066390841,-0.1274671701,-0.2921470812,1.3221592318,-0.3056301047,-3.5705492802,-0.1370537906,3.7643669203,-2.5713780397,0.3479616017,1.4549141649,-0.3697166497,-0.0741040951,4.4487054768,-0.3052228174,-0.8055945652,-1.0037195626,1.3585199696,-1.1987514274,-0.7699659027,-0.8818105062,-0.8965966428,-0.080169981,-0.5189395282,-3.8907576847,0.5040530262,-0.4848086804,-1.7974172624,-4.3831561306,-0.4811878631,0.4601147281,2.0132720134,-0.2528998123,-0.0329777684,-0.6758751362,-18.2155156815,-4.4374669264,1.7916493009,-0.847317272,-0.4921851816,-0.7625929369,-0.6845714458,-0.4355110568,-1.2691580509,0.95932452,-0.4810157725,-0.1263693258,-0.4767304797,-0.2819708051,9.0319669164,-0.2334285851,-0.1497677057,-0.4886727242,-0.7143467142,-0.1009208937,-0.4685516996,-2.1526351798,-0.4926934103,2.5499665459,-0.6241555572,-0.4060579027,0.0117384721,-0.1084806757,-0.0972331653,4.8179682181,-0.6328742729,-0.7172956519,-1.3799087044,0.6635017218,-0.4723942741,-0.4437163759,-0.2494830143,-0.4021914126,0.7487646649,-0.5625209334,0.2714691274,-0.0079326626,0.3877976133,-3.4538243681,-4.4648047595,-0.2509017644,1.3248238931,0.2836566806,-0.7941998284,-0.3809319753,-0.1742460178,-17.8830063729,-1.7179884986,0.0204316497,-1.2741692243,-0.7315310053,-0.0807133057,-0.018759411,-0.5137056526,-0.7152332648,-0.0534858721,-0.5166547316,-0.251211469,-0.5434018526,-0.6776429875,6.0017062485,-0.4184115748,-0.2398403165,0.5500555439,-0.1834806671,2.0139468951,-3.5996133249,-1.0294931036,-0.2623960078,1.9342204857,-1.2529599178,0.0081938973,0.3087812279,-0.820882256,-0.3721981405,3.1848831949,-0.1712039576,-0.0749981109,-0.7403238298,1.6831275064,-1.1982089999,-0.5464167976,-0.6522439968,-0.2246914463,-0.2728784859,-0.722124407,1.6859420587,-0.1736997095,-0.5109257904,-4.5921803347,-1.3270548547,-0.3132134874,2.553295564,1.5738651211,-0.5704661895,-0.2493255614,-0.0785277361,-0.3618888602,-0.5784479686,-6.2843143709,-2.2267583707,-0.7654186466,-0.0057325587,-0.0782277606,-0.1088675455,-0.4277032268,0.9585827739,-0.8355540238,-0.5915143055,-0.7305296267,-0.6687990458,5.2181987959,-0.0821018981,-0.5064183109,-0.2277780373,-0.3950580528,-0.0907568166,-0.7571556128,-1.651531905,-0.226730183,5.1215301548,-1.1460502773,-0.5816667297,-0.09999981,-0.1312320297,-0.1811673552,-0.0544201561,-0.0985088562,0.1530747186,-1.3787309934,0.9358829413,-2.829856309,-0.2938277787,-0.0994648236,-0.3332803926,-0.1830746652,-1.1647234646,-0.5124835155,3.9935502929,-0.2515345244,-4.0873821682,-3.2050188948,-0.5119189446,1.9659908232,1.0399346017,-0.3422416266,0.0090782473,-0.7246102959,-0.6294246151,-2.3262127852,-5.442181,-0.8481887935,-0.4320106163,-0.6551752225,-0.4971655033,-0.6582451995,-0.5587101954,1.5143855662,-0.1892489418,-0.7572700904,-0.9549634139,-0.7752289126,7.3628830498,-0.5358071115,-0.2175117866,-0.0021887734,-0.5140658066,0.683743083,-2.6338007755,-4.8102280087,-0.0341860369,3.4693999661,-0.0520301216,-0.0024083251,2.2142402278,-0.569911068,-0.5174378974,4.3119920625,-0.1257558529,-0.073346229,-1.3508419473,-0.2499641948,-1.0973675132,-0.5231888505,-0.5257858087,-0.8289609333,0.1348345107,-0.2071620609,-3.4779444032,3.194554841,-0.2797369323,-9.5006727501,-1.6021559584,-0.6010859175,0.2546441731,1.2656128787,-0.9074941297,0.0762756068,-0.2960485651,-23.6487865702,-3.0127136632,3.1276943494,-1.4877675795,-0.5872171324,-0.5719040014,-0.7948980001,-0.3202371955,-0.4403965636,0.7271012282,-0.5073752893,-0.3483096388,-0.4570077777,-0.3078649533,6.5427394281,-0.6252047538,0.0449089108,0.2548823678,-0.7334963658,0.2320408636,-0.6549707989,-6.0064984502,-0.2024320461,4.2002769909,-3.3356010385,-0.2813363838,12.13850196,-0.4137596207,-0.7712042094,0.0428218712,-0.2127509035,-2.0505766388,-1.2230610505,-0.6782090524,-1.0440531117,-0.7518016759,-0.481912988,-0.9951294164,-0.0534354358,-0.4245378645,-2.8298104983,6.0115129519,-0.49202463,-6.822578099,-5.5338923316,-0.4722032796,0.0475056535,0.1180283414,-0.6681090395,-0.2369786682,-0.5192152668,-8.535759711,-6.7833185286,1.8908114978,-0.4628969609,-0.2724176734,-0.6272204484,-0.91241266,-0.4812322087,-0.1185781711,0.6983536762,-0.8654244102,-0.2876873601,-0.4885935024,-0.7021034319,15.5488009544,-0.7133889089,-0.2041088311,0.3106591857,-0.7477105909,0.5340345134,-1.7538717054,-6.0221581285,-0.5789034162,2.2316289528,-0.3811456895,-0.3037501547,5.8945274751,-0.0654738125,-0.3345933065,1.6311460589,-0.1985084821,-1.1096937977,-1.1932160021,-0.5549962535,-3.4473430117,-1.0347225721,-0.1807973383,-0.3482566811,-0.3869076632,-1.4283547504,-0.9153802012,4.6252304781,-0.4838144984,-3.1512142755,-2.5099947079,-0.1019577353,0.9944784027,0.5046212642,-0.4734308478,0.5881745796,-0.9473322521,-6.5532040577,-3.3133515251,-2.6530968602,-1.4523335354,-0.6247948156,-0.2184634356,-0.061767395,-1.0729644539,-0.6270257535,1.5956713415,-1.0088291179,-0.8042859044,-0.342640662,-0.831482883,7.1258907362,0.0417385442,-0.0997043455,-0.1959442324,-0.3778974939,0.9282510704,-0.4311429569,-6.3040593171,-0.0319326456,4.284415038,-0.3215378622,-0.4570549549,3.745460009,-0.4670524605,-0.3439044182,4.0168060464,-1.7013337531,-1.0725198449,-0.7621279383,-0.553217462,-0.2615389796,-0.5424053236,-1.4240906999,-0.7001378158,-0.1054302939,-0.4908291188,0.1956607794,1.5012146938,-0.5237144819,-0.2580186485,-2.6939615852,-0.1158674261,0.9592999315,-0.2332244785,-0.8934280878,-0.0916432574,-0.2838538684,-0.6161203573,-2.0089453083,1.7010772343,-2.6898616921,-0.5833037441,0.1661474905,-0.2650083108,-0.2150783957,-0.1786997281,1.0410179206,-0.5691502586,-0.4389533145,-0.7337393116,-0.3873225275,4.1654105885,-0.1559298465,-0.5176308914,0.1226131245,-0.7682595476,1.1301910169,-3.6144549896,-5.0537815668,-0.3654706368,3.9021318729,-1.6497779339,-0.3564888826,0.5809818566,-0.4442968414,0.0276119635,5.3661486811,0.0010216102,-0.145671803,-0.8506116058,0.0081788049,-0.4995773111,-0.5227829766,-0.1175383814,-0.7316532322,2.7676700206,-0.9006639696,-0.3911488907,1.1935752523,-0.5596982899,-0.41695319,-3.0096541526,-0.3776858664,-0.3111712931,-0.5362711221,-1.281795659,-0.0315259779,-0.2364689583,-0.5629620521,-8.3319718303,3.5967186852,-2.1801461499,-0.4838807178,-0.2012525033,-0.2881090132,0.0230992106,-0.2242887364,0.9654648532,-0.3213477227,-0.1131832959,-0.7502890717,-0.126253853,7.8945893559,-0.17199634,-0.7184235622,1.5177166087,-0.33289377,1.4380661764,-3.1530084456,-2.1864826368,-0.5562233467,2.1964421796,-0.9177822568,-0.0974542528,0.1293214319,-0.419720409,-0.1388048845,0.030296062,0.1289328602,0.0000482307,-0.7621905691,0.3595200563,-0.3889359326,-0.0284874137,-0.4070232739,-1.1629627903,-0.1229078638,-0.2915169353,-1.0228568025,0.8498815485,0.1571864584,-2.014905953,-2.8240216215,-0.5155125806,1.1568830048,1.0523792882,-1.4979476353,-0.2228030693,-0.3900701225,-8.5326223752,-3.6894132911,2.215200698,-1.8836073677,-0.6048031759,-0.544102233,-0.1798787192,-0.9035498109,-0.7428341094,0.8679522213,-0.7752308068,-0.5031337268,-0.3757404695,-0.0566074468,3.0900269,-0.4687054668,-0.7502152434,0.502467884,-0.6893654023,0.9478416924,-2.4797618585,-0.1180513471,0.0467935641,4.1590440404,-1.2825925752,0.195103875,0.364837071,-0.6739278278,-0.2724153081,3.5298554811,-0.2351978525,-1.4540308834,-1.0234546296,0.4924868314,-0.7922193022,-0.1624707592,-1.1407171158,-0.524214511,1.4452186027,-0.8786599752,-0.3243810549,0.7159678926,-0.5131631329,-0.8682280506,-2.7373526429,-0.3495958923,0.8725606297,0.0941117172,-1.1149034674,0.2768404478,-0.3324978567,-5.7899998634,-2.0257868349,-0.4423044777,-1.8610939382,-0.8990517583,-0.271815173,-0.5337169712,-0.0226309731,-0.5489105533,0.7726712903,-0.9101419361,-0.525820484,-0.1566333363,-0.4752169244,5.0239357267,-0.5313615503,-0.2125236111,1.147726714,-1.4167179371,1.3269691686,-3.2087904716,-1.8149761847,0.1089167946,1.8229337305,-0.9505687478,-0.5818335435,0.4690961277,-0.5580094398,0.7535685464,4.7118271662,0.159276333,-2.4450568126,-0.8382536867,2.1201941444,-0.7468501852,0.0095310442,-0.6118656658,-0.840215386,0.3727445941,-1.0488494532,-0.4469678251,0.0323087705,-0.2364331057,-3.6196103587,-2.3566195473,-0.2750767503,0.732219161,0.9696263718,-0.779665012,-0.1915453712,-0.611160725,-1.8221663946,-2.6332211805,-3.2610463584,-1.6801853545,-0.6480373769,-0.3303418623,-0.632007954,-0.1200058201,-0.5472519734,1.6682619005,-0.4216804494,-0.7008103963,-0.1033744655,-0.2008292224,3.8120624781,-0.1823580446,-0.1964779981,0.0862119861,-0.6269161921,0.5707631503,-1.2918933035,-2.0764423689,0.006667231,2.3104842212,-0.3723579784,0.028769685,-0.2737994508,-0.6503896368,-0.0469699053,5.1543799957,0.0369488611,-0.4521081624,-1.3110453096,3.2890961142,-0.5322521583,-0.1146928622,-0.6815678135,-0.9521598331,-0.6403964461,-0.2640407509,-0.6629620669,0.3680772008,-0.6375109087,-5.9603134454,-3.992629794,-0.5108809639,0.1234710291,3.5296667935,-0.3226753243,-0.4497214106,-0.590125075,-6.34726675,-5.8231934185,3.1947376677,-0.6143467309,-0.294199376,-0.5747845387,-0.7181416858,-0.595728813,-0.8613047024,0.1979630556,-0.6845371046,-0.5739009479,-0.1891785681,-0.3643793573,8.5465151091,-0.4453821909,0.055743247,0.2838076608,-0.4436976597,0.1477094491,-2.298182287,-1.4851457357,-0.0709026101,3.9616986442,-0.4057202365,-0.683496325,0.0497850233,-0.4434177296,-0.4938906187,-0.1282809586,0.181807679,-0.1174620044,-1.6917461366,0.5013170387,-0.5997010977,-0.4714225472,-0.5036388463,-1.6748272496,-0.1015190049,-0.3616746509,-0.4041584591,-0.0418834876,0.0636263245,-1.2354439284,-2.2921630669,-0.1590667849,0.5349597326,-0.0112537506,-0.7495331082,0.0372294624,-0.6736419576,-18.3323004026,-2.4432160504,-0.5948465352,-2.1363667232,-0.5452428855,-0.0691093183,-0.225232146,-0.5957295159,-0.766147669,0.0002256904,-0.6364332518,-0.6090397585,-0.2952321375,-0.6973814863,5.6916509051,0.1750594824,-0.3948481141,-0.0809412926,-0.0634947935,0.7224759813,-0.3546202871,-4.1243473507,-0.0593505443,4.1016203759,-0.6848960859,0.3122527312,-0.0177301836,0.2676517246,-0.3153648291,1.60191447,-0.18213309,0.0648231878,-0.395810299,0.0160096288,-0.7682841844,-0.6196347685,-1.0100814303,-0.0884830825,0.1003494404,-0.3887471867,-0.2223649568,1.6909302343,0.4727507211,-1.0424650508,-2.4314074401,-0.0726302148,0.662292946,0.293530824,-0.9402538996,-0.3818892851,-0.7383337015,-3.1486705942,-6.3899319274,1.1173205042,-1.2163150355,-0.6512011066,-0.3366260865,-0.1696439457,-1.1958410771,-0.6217613987,0.8895555043,-0.6164837253,-0.2408093929,-0.2514981896,-0.4211765895,4.4849167088,-0.0379191978,-0.2373899923,0.0822281773,-0.3164273923,0.8569611473,-1.1620631535,-1.2694017211,-0.3497067519,2.8766718995,-0.5280399239,-0.3364347048,0.0956784599,-0.5174577381,-0.591902827,2.6379053421,-0.2980795146,-0.0102573362,-1.0441966283,0.4446490161,-0.3687464474,-0.3575565468,-1.3885291607,-0.7942830727,0.4455573104,-0.223190655,1.8091524288,0.6697872659,0.1907700832,-0.9473826789,-2.3165629374,-0.0594720011,0.1936833492,1.8755972698,-0.549367096,0.2457546226,-0.2477088516,-1.0210727784,-3.7805063335,-3.7070461323,-1.3395580871,-0.6540442466,-0.5022959761,-0.1588254285,-0.4282212406,-0.4534529769,-0.100581269,-0.5610579265,-0.2906509192,-0.6311133709,-0.3451849213,3.7291103181,0.2185116845,-0.3935119711,-0.2339581677,0.2043162623,1.2212102639,-1.5879691701,-0.7758834029,0.0221575159,2.1640219135,-0.7911633763,-0.4388897355,0.4212243153,-0.7013965664,-0.0755082009,-0.0102691382,-0.4368859643,1.1844097263,-0.9794452317,2.7382085494,-0.5512294922,1.417656327,-0.6747565205,-1.794637912,0.0537453101,-0.4829799468,0.190046577,-0.0952397172,0.3777241451,-1.5600046682,-0.9452834678,-0.0778618468,0.418319542,0.8126437746,-1.0087125407,-0.1237177058,-0.2643809948,-8.7011406177,-1.9773189774,-2.7524916032,-1.2960545974,-0.709264485,0.0190139488,-0.53426889,0.0807269565,-0.4574417452,-0.0204645141,-0.386424367,-0.6790982926,-0.3314469257,-0.3628837976,3.9023221751,0.1163412267,-0.5020548943,-0.691128391,-0.3271748571,0.3413195251,-1.4451639872,-0.9829766183,-0.5119818714,1.6468153879,-0.3472133333,-0.5332894569,-0.3323444138,-0.2499908205,0.5439292567,-0.4240020002,0.381031284,0.3512807253,-0.7673876834,6.2284854304,-0.6504487916,-0.1608347858,-0.25064169,-0.9070981366,-0.2750263366,-0.508259258,0.1433860441,-0.6366215396,-0.0603879584,-6.5742702411,-0.6930819317,-0.1535240525,0.6902826847,2.7218260328,-0.6421510125,-0.6850085297,-0.6906527802,-3.4596470712,0.4014865459,-0.2472341188,-0.5080740591,-0.40262826,-0.2320002503,-0.1471450436,-0.2425897155,-1.2922250983,-0.1244055934,-0.3459866048,-0.4014923443,-0.4218360663,-0.3423414847,1.9845998985,-0.059750063,-0.4719298157,0.0137447169,-0.724050715,-0.0672005761,-0.4490199237,-0.5696874494,-0.5450767454,-0.2999112807,-2.1978055508,-0.1457357175,-0.1550134396,-0.4723048955,0.4698269356,-0.0223253169,0.5135974966,-0.1298814293,-1.5368452704,6.66400125,-0.3182003043,1.534283233,-0.3757265052,-0.338398033,-0.4484564951,-0.2192828678,0.2475403132,-0.4877698628,1.1150443297,-3.5275575118,-1.3906767235,-0.4696014339,0.4825219242,2.151323122,-0.1407493272,0.2192074011,-0.577432083,-1.0050882094,-2.7318002911,0.2922005412,-0.964585945,-0.4720680942,-0.1476559642,-0.2298733144,-0.3043107794,-0.7054885435,-0.574188105,-0.5421792651,-0.4662845581,-0.8053225617,-0.279187324,1.4058976689,-0.9780320828,-0.6281247239,-0.297108461,-0.239385432,0.2212890049,-2.8851409906,-0.2538298456,-0.5049065756,-0.3729937124,-0.7718677557,-0.3952985473,-0.2959157419,-0.1016658437,0.780571554,-0.4259781907,0.7809369336,0.2404491385,-1.4836762173,3.5020295946,-0.1855398066,0.3776564515,-0.7379980885,-1.2345913906,0.2067128195,-0.4178847038,1.3588266407,-0.1678829983,1.6866885039,-2.7681396498,-1.2482505958,0.072170732,-0.0394704348,2.2498732607,-0.5706568474,-0.2981000655,-0.8288386438,-20.7300613109,-1.5096781532,-0.4358629978,-1.1908500006,-0.9949165325,-0.036759042,-0.0389390969,-0.3648259456,-0.6419223286,0.3410684243,-0.2420498674,-0.4121760058,-0.2887578275,-0.5548564039,1.387287113,0.0005615763,-0.5994531938,-0.5209202118,-0.197698466,0.0039228133,-1.7605732744,-0.4308208853,-0.0221116513,1.4322579325,-0.7009679162,-0.2511740103,-0.4408286712,-0.094371688,-0.5046982759,-0.5842224783,0.1611967997,0.868309126,-0.6310664381,1.6087016212,-0.5598947051,-0.6514865401,-1.1787417862,-1.4885111548,1.401840044,-0.6863541268,2.3825610118,-0.0302166807,0.3025186447,-1.4153038213,-2.7150850431,-0.0825808051,-0.0638212332,1.4966876821,-1.0122210436,-0.346000466,-0.5550187803,-18.3161214633,-1.9162496188,-0.2287679517,-0.4132796035,-0.6575524215,-0.6054447104,0.0206154102,-1.2419804542,-0.8554144097,0.658464812,-0.5748539638,-0.6618268843,-0.1209788857,-0.5006420341,3.5324663712,0.1189463338,-0.4429199582,-0.4682851882,-0.1136457094,0.9449620568,-2.4310581301,-0.2126024654,-0.0474221113,1.9906277624,-1.1841247945,-0.0782752245,0.686691511,-0.3894125228,0.1565015382,0.1818638991,-0.0120100129,0.3766972852,-0.1767398134,1.3700881655,-0.7172404068,-0.0350110575,-1.881649836,-1.1366199712,0.4699279033,0.3383853835,-0.0956803829
   1.5091297968,1.7247913877,-2.7246087088,-3.4213093492,-0.3154071909,0.8544248384,1.2174445445,-0.3843918829,0.0891697688,0.4682372981,-17.6159854647,-0.4741977222,-2.0718511759,-0.9802930834,-0.2512643438,-0.6407787435,-0.4587692426,0.0030676488,-0.4527759966,-0.1985631933,-0.6443792202,-0.2145479276,-0.4658895362,-0.3642223794,3.3308601976,-0.4356271316,0.1652782735,0.0173009727,0.1630577392,0.6280930152,-0.8301922207,-0.8448077789,-0.0442112608,0.0049073246,-4.2063258373,-0.4602798245,4.68487568,-0.4260413162,-0.3911752759,0.4448227406,-0.3741008476,0.2463419784,-1.0733283366,1.9048684277,-0.6847388619,-0.1066387837,-0.6447215154,-1.3423043761,0.0165514688,-0.3179164319,2.3063600134,0.2657818139,4.7463473739,-1.5594935913,-2.6222773605,-0.129459149,0.6511233539,0.6614565483,-0.6437416672,0.0018746157,-0.7624773364,-10.6656932642,-0.9177751183,-2.0819144615,-0.9876286671,-0.39056174,-0.0562580019,-0.0799351237,-0.2480663183,-0.3981417267,-0.0595187534,-0.4460108848,-0.1513769671,-0.4673403739,-0.5084821503,4.3091819162,-0.4390930203,-0.2321342022,-0.4744306558,-0.2762997447,-0.423847263,-2.4304939295,-0.2896375994,-0.5684519894,3.2922255699,-3.3378502399,-0.2470113549,0.0845883215,-0.1310070325,-0.4873092555,-0.1958308468,0.1392378478,-0.1781308909,-0.4770696912,1.4481509436,-0.3546912082,-0.1315192476,-1.27208728,-1.210143297,-0.0478819573,-0.488979113,-0.5951569811,-0.0326135147,-0.5211717089,-5.4637378525,-1.144343678,-0.2324374173,-0.1372296755,7.2365375062,-0.4413740974,-0.2518202107,-0.0093731798,-1.63291614,-0.0810873878,0.6690750607,-0.1046593075,-0.4313112392,-0.9735085264,-0.4079684239,-0.0786902907,-0.5767297026,-0.088860498,-0.0470553596,-0.532397455,-0.8118571684,-0.2606773334,3.0942973468,-0.3972564407,-0.3442246711,-0.2973983261,-0.6382392741,-0.1223701063,-0.1193708544,-0.3552837318,-0.1442712991,0.0880273669,-2.535818521,-1.3275547918,-0.7046919366,-0.151557413,-0.056385189,-0.5729965052,-0.384163935,-0.651658091,-1.2981063951,4.4855043231,-0.3951991149,-0.103175774,-1.8202439548,-1.3265360491,0.365212847,-0.1319317604,3.3263774887,-0.0534526847,0.3135884265,-0.6889240574,-0.8030248772,-0.7068400866,0.2532648637,2.4297772558,-0.1489149102,-0.4692753757,-0.5287241959,-9.227267144,-3.6713572536,0.3924561148,-0.6058976936,-0.7437982553,-1.865758104,-0.1999526939,-0.0306489555,-0.346660017,-0.343496533,0.0203002343,-0.0914850727,-1.3712157364,-0.4516429252,2.065172037,-0.0819433032,-0.0882972459,-0.3624224793,-0.4264634441,-0.5102989321,-0.3875361997,-0.6944577374,-0.5491195514,-0.167626341,-1.1288544588,-0.1024927792,-0.0215990641,-0.4883114446,0.0855830771,-0.1953721813,-0.2243812742,0.2116992317,-1.2888871079,4.0515329177,-0.5818960866,-0.6173231681,-2.4915791763,-1.2245512677,-0.2888425013,-0.4771152275,0.4127564591,-0.6259048013,1.4914503034,-2.9706400926,-0.7983802429,-0.7155663523,-0.180455459,1.4445405765,-0.7563974519,-0.1435141476,-0.2931734655,-0.4830576769,-0.5451657832,-0.3970499001,-0.152707918,-0.2818152223,-0.4145596638,0.0959220987,-0.5090957518,-1.2002266632,-0.0685678311,-0.415738278,-0.5537091077,-0.2326972998,-0.6172097157,2.7067425248,-0.2620823588,-0.2909265835,-0.4269531217,-0.6775081603,-0.611683097,-0.4509099642,-0.2010604649,-0.2749811433,-0.5440754621,-0.5195697999,-0.1856987221,-0.2393669627,-0.2727477774,-0.312442496,-0.3147096604,0.1398183041,2.5283622412,-0.6857251695,3.7106442665,-0.6777385512,-0.3083706689,-0.8206346192,-0.9647422276,-0.2931082051,0.0013759067,0.4787287925,-0.2922771185,0.4913344417,-3.4310204635,-0.6718465976,-0.4866354801,1.017031553,4.9095619085,-0.5658684525,-0.1303210734,-0.0862368424,-4.6420950334,-0.9959606604,0.0307787521,-0.6129759703,-0.3980818445,-0.7769135106,-0.464408783,-0.6455170021,-0.3017448812,-0.6221707182,-0.2916037256,-0.2412034209,-0.7134776451,-0.4823007521,-0.0826628308,-0.6000729096,-0.4767612597,-0.3438406096,-0.5395386356,-0.0990436896,-0.3776401367,0.0425418746,0.0224645318,-0.4329964994,-0.5879062687,-0.458127775,-0.6496100475,-0.622901465,-0.4627120834,-1.040108842,-0.1354147386,-0.5217610268,-1.2640311244,4.7806674781,-0.4822492331,-0.0916631287,-1.7480456849,-0.3562162777,-0.0610044147,-0.3684518438,-0.0048339715,-0.4840550065,0.1326171551,-2.2503643231,-0.8151964914,-0.4690987233,0.7458962109,2.4722849156,-0.6201590899,-0.1582779058,-0.1260608193,-2.1165180999,-1.950143621,-0.270949761,-0.1969605374,-0.1536017014,-1.5785074732,-0.1444779163,-0.6907799285,-1.2625330042,-0.8071205029,-0.3216623632,-0.3107352226,-0.3204801963,-0.25677786,0.1293186406,-0.3955019458,-0.709670793,-0.5037567609,-0.392509282,-0.2704379379,-0.601599427,-0.5487546285,-0.3638370551,-0.2769937251,-0.6115280448,-0.3723579549,-0.6634515311,-0.2789931291,-0.0159798025,-0.8081042635,-0.0032754416,0.2818502876,-0.6859356149,3.6515564908,-0.5957808211,-0.5587230898,-0.4956852649,-1.1329773269,-0.2901016725,-0.6624421101,2.0616657535,-0.1115503249,0.093324425,-0.0694844661,-0.3711448245,-0.2483203207,-0.0904001229,2.2335780332,-0.3863217509,-0.2577417126,-0.1117163419,-0.1248597887,-4.6440417393,-0.486046026,-0.3238176574,-0.4391028794,-0.8448458719,0.3934796405,-0.7025193728,-1.8418942156,-0.6099375278,-0.5364803185,-0.5777957935,-0.5161707912,-0.3843710915,0.7938385255,-0.4382564137,-0.3688878032,-0.7150235937,-0.0402573807,-0.0005516381,-0.3120357026,-0.6059201281,-0.7255090268,-0.4973467219,-0.4162730995,-0.1688794612,-0.5365361748,-0.6872027803,-0.093708293,-0.5477929124,-0.3588216076,0.0396915205,-0.143543024,5.1365474678,-0.8361755234,-0.6467805997,-2.2154147159,-1.5189793641,0.1525270212,-0.1294510434,-0.1161413988,-0.319679507,-0.6551583275,-1.4448522231,-0.3146253405,-0.6162600751,1.8174295234,0.7257279002,-0.3637927806,-0.4421854649,-0.3684322571,-2.8112640257,-3.4047989551,1.0953021413,-0.624382117,-0.4945826256,-0.5534993335,-0.5240236938,-0.2251578878,-1.0652820786,-0.3476031399,-0.4996492305,-0.3324065964,-0.8669279977,-0.3801772352,2.8762442867,-0.6065843482,-0.4600636255,-0.0160520559,0.0082482308,-0.7458954055,0.084560086,-0.8781083492,-0.5248542341,-0.0877073549,-0.6109429793,-0.6737529559,-0.7429577591,-0.0289778362,-0.2797896365,-0.7276524775,-0.0697327987,-0.1866951242,-0.2337457065,4.7811521173,-0.6589475248,-0.8438252072,-1.2982570247,-2.148389352,-0.3138712567,-0.2370972816,-0.2186634672,-0.4817421742,-0.0572171986,-2.1799894271,-1.2754669807,-0.5342622505,0.6789461423,0.9236356273,-0.3484490217,-0.5482779407,-0.5615132513,-18.2675973432,-2.5015790542,2.3741941121,-0.3346493331,-0.5558390531,-0.6902702049,-0.1462668124,-0.6740589787,-0.6981665397,-0.2073554196,-0.6357321071,-0.4498640308,-0.7786309307,-0.4927998862,3.0319265214,-0.5832610061,-0.114282418,-0.1985708143,-0.0586601442,-0.2568770921,-0.3179147482,-0.2057474251,-0.7410600946,0.2936920156,-0.2574968492,-0.0750138205,-0.361655264,-0.6897143009,-0.5136829951,-0.0907046967,-0.1105537113,-0.1495595292,-0.4936498352,4.0181589256,-0.7383472875,-0.7613886313,-0.4223648633,-2.1631996322,-0.1435890185,-0.3270849414,-1.6286883252,-0.3978962986,-0.5056858917,-3.7132967308,-1.5880542412,-0.5014081663,1.7964986592,0.6522934523,-0.6913946218,-0.525183794,-0.2691528187,-2.7527746911,-1.3664715442,0.5330416712,-0.442328159,-0.4587602592,-0.2014888678,-0.3163030746,-1.6947713256,-0.3539787492,-0.3042219569,-0.3026023154,-0.1513382231,-0.4693031056,-0.6811994885,3.9984045358,-0.2891236549,-0.5653037803,0.0137414215,-0.7963386607,-0.2179356626,-0.3755904593,-0.6770755513,-0.1524802559,1.0813407696,-0.4912087394,-0.1520344435,-0.2442046014,-0.4171534305,-0.2510941961,0.0018172809,-0.1485046748,-0.4347872284,-0.4458213172,-0.1967146889,-0.8189753191,-1.3575593431,-1.2675490538,-1.4827107819,0.17159077,-0.3698247789,-0.3394433147,-0.06940227,-0.637472888,-3.4782794351,-0.7143182264,-0.5296538692,-0.2348394172,4.4972884113,-0.2544082057,-0.5476408637,-0.4308475255,-7.4380357124,-0.5102936675,1.1931787791,-0.6125167196,-0.1683019481,-0.5167313397,-0.616551908,-0.2873677116,-0.4916647039,-0.034841015,-0.7088378154,-0.2665851638,-0.9171999073,-0.3123021681,4.4441976277,-0.2258553878,-0.0629233909,-0.6730049799,-0.3122846396,-0.0636815753,-0.1325807575,-0.5038832317,-0.113188188,1.0923658236,-1.6297387359,-0.6241967059,0.0207264754,-0.4163114523,-0.1662077254,-0.0678662235,-0.4979781491,-0.4669052301,-1.2108288993,2.6453044567,-0.6925800679,-0.8088250919,-3.8324699357,-1.0086270939,-0.0918019865,-0.7265394858,-0.3316534092,-0.0757167618,-0.2416103728,-2.5564361428,-1.3714693341,-0.4669979952,0.5214247275,1.8571682553,-0.2358900988,-0.4227495791,-0.487507464,-6.5782978565,-3.3009584316,1.6054499966,-0.4693028272,-0.2942399413,-0.2032832309,-0.3952226341,-0.6714483171,-0.6212643368,-0.3834765929,-1.8927608,-0.1847149359,-0.2005023929,-0.2110867933,3.8298885899,-0.1802624663,-0.2799594746,-0.1154954361,-0.6332460161,-0.0390160515,-0.1701858786,-0.526073009,-0.2661024853,0.7506610544,-1.0810247536,-0.355567803,1.537872771,-0.4501910009,-0.2420839524,-0.4586609974,-0.0394500992,-0.2133142536,-0.806954043,0.6177037437,-0.2836889653,-0.1153171033,-1.8500525677,-1.4217253557,-0.2100767015,-0.7220249277,-0.0267770167,-0.3317419493,0.0921680006,-1.0728648414,-0.6606099799,-0.7000314004,-0.2747309879,5.8446255902,-0.5525662244,0.0047564877,0.0005273324,-2.0437506518,-2.302434555,0.5828330312,-0.2512604581,-0.2133308318,-0.9882828513,-0.3305718442,-1.7023848942,-0.638805129,-0.0205020866,-0.4528158451,-0.3784804544,-0.4489820194,-0.3502062242,1.3658636154,-0.4065807713,-0.0974653865,-0.0827740506,-0.5274191735,-0.7367938272,-0.6018945132,-0.3640731606,-0.2197409769,0.3693262882,-0.4302380265,-0.4308344251,-0.0601385183,-0.7246399179,-0.5208297942,-0.1496102568,0.0553599586,0.2477139561,-0.9726064213,2.2692027091,-0.7351273138,-0.4409715619,-1.760998502,-2.1112986514,-0.2434685376,-0.672336045,1.671219497,-0.0414205887,-0.5108961342,-1.1328817222,-1.0873164326,-0.0985333236,1.0365923169,3.6570754428,-0.0557445803,-0.5884334641,-0.0031374965,-0.5613628041,-2.9700043187,0.0349374856,-0.1271667097,-0.3394591438,-0.6565875056,-0.1504751305,-0.6764183211,-0.8773525663,-0.5870321304,-0.4037912515,-0.439503271,-0.5816127997,-0.4685608955,-0.0878366187,-0.6986869709,-0.4084966528,-0.5300557869,-0.0368192204,-0.154833772,0.8349018953,-0.0669998863,-0.4013438728,-0.5251716787,-0.3465993389,-0.8040664187,-0.1243849904,-0.6811085114,-0.5773360228,-0.331069884,-0.5589769277,-0.2189608662,-0.470896773,0.3876516582,-0.5444492819,-0.6984323623,-1.8181737341,-1.3349325066,0.3114348397,-0.2791420878,-0.5087130021,-0.2719903185,0.1135360977,-1.6990864791,-0.5500044074,-0.0292824123,-0.2893282094,6.9905397075,0.0340529536,-0.6841729283,-0.1966742068,0.5122489218,-4.1986379044,0.0298404268,-0.199464987,-0.2935318916,-0.417313307,-0.6692865999,-0.7170333719,-0.8220680945,-0.6027785506,-0.3543552616,-0.2972621085,-0.350368992,-0.6822798066,-0.4028679582,-0.2610020532,-0.2994891267,-0.0134576746,-0.1600703147,-0.2664638529,0.0463864982,-0.4745477022,-0.1941006887,0.0351283377,-0.877267032,-1.0546112959,-0.3343559526,-0.5214143883,-0.005293852,-0.0062909074,0.0991810784,-0.1580162779,-1.309107665,0.7691466426,-0.6385884836,-0.7424767059,-2.1367648777,-2.4941670307,-0.2630661489,-0.692535527,-0.6364161206,-0.636608644,0.1454348078,-0.3169151429,-1.1954215722,-0.7485527295,1.9335574073,4.0515264086,-0.1256323596,-0.157300395,0.0022851451,-1.4444689381,-2.880442558,0.4086622611,-0.4678391079,-0.2930138144,-0.3307188177,-0.3524344136,-0.6595859712,-0.9276628561,-0.6074349092,-0.2918384813,-0.5514006381,-0.283006215,-0.4997856461,0.5378171521,-0.554475334,-0.4684002017,-0.1020207192,-0.0781802309,-0.0688784656,0.0921764991,-0.3286663873,-0.0655536882,0.354985194,-0.4983790047,-0.3145309448,-0.0611971055,-0.2744020262,-0.1046278616,-0.179347557,-0.5473755527,-0.1181819453,-0.1980350664,4.1483405656,-0.3564225438,-0.213343281,-2.3199822323,-3.1210150394,-0.5113014014,-0.2837849421,0.4859260169,-0.6356893317,-0.2233476512,0.0927939655,-0.9835763516,-0.6493069024,0.1585258047,0.6433299626,-0.756347634,-0.434402708,-0.5271528196,-1.1025755786,-2.759842964,2.3296581577,-0.4148491014,-0.1601724251,-0.2325667805,-0.2570006012,-0.9277767512,-0.3099585829,-0.3032606935,-0.1987856132,-0.2263489504,-0.6932504541,-0.6231161492,2.0750809636,-0.7042117659,-0.0858680075,-0.3176088392,-0.8907681093,-0.2820758281,-0.2121118367,-0.6006433154,-0.7741456095,-0.0608976045,-0.3069026487,-0.5131660211,-0.0212581452,-0.2770686456,-0.0284703933,-0.0364061673,0.0203045141,-0.3791011518,-0.2502851312,3.736487993,-0.0508885116,-0.2760101682,-1.3798025647,-2.2775714087,-0.2582485318,-0.3061109717,-0.8402295724,-0.0669621856,-0.195155168,-1.548662311,-0.5834955793,-0.2889734728,-0.0143741338,1.4402294378,-0.2841755734,-0.735747535,-0.4169222928,-0.8351818402,-2.514001777,0.5537312306,0.0454595872,-0.1923171614,-0.1093411104,-0.3383842351,-0.6470878445,-0.9169158507,-0.579875019,-0.3889238878,-0.2812009972,0.0051961887,-0.4238072806,2.2903906946,-0.5117426457,-0.0134967301,-0.1437585829,-0.8710157509,-0.4386362621,0.1546934473,-0.6172824371,-0.7175752876,-0.0275827588,-1.2035525794,-0.8014835827,-0.6808277835,-0.588556639,-0.4940478741,-0.5802608726,-0.2168581105,0.013174607,-1.0817086351,2.4509885585,-0.185145196,-0.2813241612,-3.8135140206,-2.7324219061,-0.0528213797,-0.5630574309,-0.0225478539,-0.1159536335,-0.4621686029,2.3423825167,-0.2765857785,-0.8063196268,-0.0680492361,1.7594412071,-0.2630147117,-0.1774132732,-0.0096529812,-0.1424275022,-2.9755095171,-0.1843605771,-0.4641905072,-0.0037919335,-0.2300324098,-0.232473166,-0.390495679,-0.7245489993,-0.2452474283,-0.4110713277,-0.3787447401,-0.5918338452,-0.1279395942,1.1851733042,-0.125382014,-0.6845311627,0.0136295142,-0.5550527452,-0.5825198705,-0.1374374571,-0.2619328631,-0.0222726149,-0.1149857059,-0.7604217576,-0.2700221413,-0.6069839023,-0.2360896509,-0.7216236107,-0.1421418368,0.2024997386,-0.3433456106,-0.7385260365,1.9944236,-0.1777502643,-0.558188794,-3.4862263693,-1.625898299,0.754828321,-0.3491126079,-0.5766453009,0.1439292543,0.8862614995,-0.4960265293,-0.5937232795,-0.0069429306,-0.0919549165,2.5333770431,-0.1724360307,-0.2994519331,-0.6610117319,-4.2438222703,-2.2166954732,1.3222680755,-0.2799121415,-0.3614510199,-0.0677196566,-0.1095062191,-0.4407199127,-0.2590262929,0.0370309754,-0.6342932915,-0.3111523429,0.0120863024,-0.5645072604,-0.4131478434,-0.6507485973,-0.1849358056,-0.3640206151,-0.5964532643,0.0049444243,-0.2527769236,-0.5909244653,-0.3966998792,-0.2863814404,-0.6991209418,-0.7885215606,-0.1761389742,-0.2414446868,-0.3961568493,-0.4180933518,-0.160269184,0.2810846581,-1.1274644333,2.7320688526,-0.1110702125,-0.2178804511,-1.1060752571,-3.199291324,0.2080016114,-0.327823732,-0.5028468226,-0.0956408305,-0.1198541108,-0.8545389693,-0.5952747805,-0.6781066235,0.7879824703,2.0679801752,-0.3945846838,-0.7190258154,-0.3636666634,-0.3763635695,-3.3623117835,2.2020772893,-0.2996989703,-0.3445672259,-0.0440852029,-0.101742319,-0.3437526513,-0.3460599112,-0.1113111247,-0.4966519153,-0.7289942625,-0.5381049064,-0.2030520563,-0.0581943343,-0.4443475244,-0.2914217851,-0.5634577863,-0.826307726,-0.2718275152,-0.0054697927,-0.464337534,-0.7803698392,0.4037800088,-0.1454055326,-0.3995859255,-0.5840975104,-0.1748014471,-0.4310657157,-0.2715942405,0.4837068296,-0.6215330602,-0.5456377201,0.5361872191,-0.5549463186,-0.3778641195,-1.651972818,-1.7592493464,0.1091266853,-0.0559415284,-0.2196224718,-0.1866688001,0.1030544018,-1.986188102,-0.6360198408,-0.5888323296,-0.4524535443,3.5857620571,-0.2700201707,0.1779232108,0.0568846973,-0.8624261467,-0.998062558,0.7101498836,-0.1742098542,-0.2141751754,-0.2668433063,0.0209894368,-0.1364180615,-0.5647820602,-0.6444382083,0.0083589489,-0.2551724414,-0.2167670895,-0.1614508037,-0.0359623785,-0.5753629614,-0.6551764229,-0.434986943,-1.1508911667,-0.4003364802,0.0143566823,-0.7759130825,-0.1800110191,0.4171869492,-0.721750803,-0.3986121352,-0.1799640725,-0.3754454683,-0.3893335946,-0.0401974876,-0.3801726785,-1.1247188494,-1.1403137916,1.3606658847,-0.676248392,-0.5685668192,-2.2231365549,-0.8261542313,-0.3840504487,-0.2385989902,-0.049440106,-0.5188425761,0.0583424496,-1.3297247504,-0.4157993832,-0.4278179087,0.142231243,0.9206756472,-0.1667241761,-0.027631308,-0.4607192851,-0.4535718341,-1.2868166268,1.5715462364,-0.4971489151,-0.3291702704,-0.6877181831,-0.4763657631,-0.3871440832,-0.702980823,-0.620304529,-0.1897207498,-0.2415619929,-0.4453521078,-0.479231225,0.2306765633,-0.5304039626,-0.3211231007,-0.0070348603,0.00558159,-0.2820899798,-0.0277076875,-0.4175063219,-0.4182764796,-0.3184945926,-0.3202054362,-0.607113161,-0.2860248834,-0.4925624074,-0.1932337221,-0.2681079097,-0.0995838762,0.3445013699,-0.502585543,2.3030400613,-0.4861497222,-0.4984759368,-2.0560444311,-0.9047651827,-0.3712312077,-0.1976814367,0.3039200542,-0.0837122625,1.3033066377,-0.4641290583,-0.6238520343,-0.7212852436,-0.1388161797,2.2248638344,-0.3850972298,-0.2509950255,0.0059538773,-0.4212880874,-3.2161463331,-0.1474674494,-0.1749549449,-0.593522102,-0.7319300721,-0.0619473332,-0.4488100333,-0.4838786353,-0.0494474257,-0.6851530678,-0.6748597416,-0.6010643132,0.3763294126,-0.0915108187,-0.7333995035,-0.4934518657,-0.3353164558,-0.1386058614,-0.1431102185,0.0519158766,-0.3725855076,-0.4899444682,-0.5053777813,-0.237835477,-0.416591688,-0.0829230466,-1.2232908043,-0.1621178034,-0.6947825253,-0.347434706,0.203726194,-0.2481229948,2.8559203234,-0.7170429345,-0.0976110464,-2.4387119874,-1.7911180845,-0.6045032252,-0.0468860094,-0.597109309,-0.4293184427,-0.5471391811,0.0663160447,0.0042110806,-0.7175350067,0.0411963186,0.7651887766,-0.3491720887,-0.5709712757,-0.5865164971,-0.5269926127,-3.1483784047,0.3848992731,0.0993769008,0.1486247987,0.0787292851,-0.3908063727,-0.5472823618,-0.5139003427,-0.0537275923,-0.2231208634,-0.6217544047,-0.0739415439,-0.0619175696,-0.223185879,-0.6564787026,-0.1951644777,-0.4945029081,-0.7973525751,-0.5403544715,-0.0161470675,-0.4460546253,-0.2629683125,-0.1719161903,-0.2514941821,-0.4222668948,-0.0931883978,-0.5074552663,-0.3822203074,-0.002744775,-0.4307930722,1.9463769193,-1.4411029588,1.2231570864,-0.759895021,-0.6455256972,-0.5065649567,-1.3508900675,0.1637162448,-0.4001976704,-0.4394537698,-0.4331185961,0.1312993094,-2.4423837301,-0.1770603787,-0.725474664,-0.0703893888,3.3342060516,-0.5688998044,-0.4443969307,-0.6274832846,0.1718516997,-4.310996827,0.1965940338,-0.3623841231,-0.186189926,-0.5560509471,-0.0596828296,-0.1031061311,-0.5763490822,-0.1396357084,-0.654989677,-0.5356845599,-0.0093714463,-0.6486073663,-0.3423331886,-0.2033129578,-0.3530283981,-0.0396961905,-0.3713485368,-0.4041295938,-0.169953138,-0.6432843232,0.2051771194,-0.3403402548,-0.7066186467,-0.168373691,-0.3609244824,-0.4243590638,-0.4285399166,-0.3379343265,-0.5053962871,-0.0019413917,-0.2241727269,1.2661555547,-0.5922538354,-0.6108571087,-2.4113405352,-0.8873678313,0.1002726273,-0.2033276086,-0.3920685871,-0.0970442368,-0.5450180883,-1.4205858165,-0.3900255526,-0.0265172976,-0.5278408186,1.2204659051,-0.216925551,-0.1154809662,-0.6361064406,-5.1388702401,-1.4150972922,-0.1775274215,-0.453444493,-0.5171672673,-0.5640439663,0.0740765079,-0.3203456033,-0.0255394536,-0.5449463464,-0.3826657924,-0.6637794156,-0.5525968763,-0.4529885104,0.1871708676,-0.4961644079,-0.3175476048,-0.004614973,-0.0061272614,0.0117488299,-0.0166856189,-0.4628085742,-0.0149070802,-0.406766087,-0.2277186423,-0.7645009228,-0.5096267573,-0.1968658717,-0.0547172227,-0.479685914,-0.3714912501,0.892243605,-0.5185587894,0.5793626676,-0.7029326561,-0.5037869564,-1.2896973329,-0.9133190195,-0.0480425279,-0.0831450014,-0.0034180386,-0.5100874849,1.4784884208,-1.1055612436,-0.539455933,-0.6220879209,-0.5063937257,2.7508009686,-0.1957537506,-0.3074699224,-0.5562561968,-0.4232654626,-3.7189785587,-0.6314849033,-0.1630117476,-0.1236483769,-0.332294278,0.0993981291,-0.4837282146,-0.656312878,-0.5095839908,-0.2234196205,-0.6209702775,-0.4130504739,0.102547759,-0.2990634685,-0.6781532063,-0.532587927,-0.6420079766,-0.5043003293,-0.1111880349,-0.4306789833,-0.0649578338,-0.1945374512,-0.1428451509,-0.7096212092,-0.0619384411,-0.1052696662,-0.1893282255,-0.2259435127,-0.2460033795,-0.0485713372,0.9203954719,-0.7025132882,1.996566842,-0.4637667826,-0.1542380523,-1.9766535437,-1.2516417252,-0.3710354436,-0.3757691804,-0.0430524843,-0.4646277548,4.0771720095,-0.1718748395,-0.4471817611,-0.3963483923,-0.2207162439,2.152857588,-0.0495604663,-0.5947643805,-0.3138592213,-0.1443364128,-4.0191570809,-0.0598952702,-0.3969368579,-0.3899033751,0.009158896,-0.3653317212,-0.3672629266,-0.0362847787,-0.0473625493,-0.3759116777,-0.3144817932,-0.2779000347,-0.1975699032,0.1197677837,-0.173128754,-0.0734206707,-0.6022431597,-0.3077436621,-0.6478579957,-0.3177395361,-0.5306187618,-0.3276974552,-0.1452970408,-0.5303911393,-0.5119529727,-0.1162347462,-0.5988110542,-0.1545360026,-0.2589045212,-0.5685646471,0.2448801844,-1.1910375745,2.1760127585,-0.4240407518,0.0005133207,-1.0049661614,-1.5366712046,-0.0892595418,-0.6425361357,-0.3716908438,-0.3718079839,1.161339223,-2.1507007698,-0.5227303487,-0.6060071822,-0.0033271039,1.4675645716,-0.6617611471,-0.3420835252,-0.6425171147,-0.1515406106,-2.4020768128,0.3334504427,-0.4701329193,-0.4422580246,-0.1059493451,-0.0766000863,-0.1681038715,-0.4395292219,-0.3263791449,-0.3118039996,-0.391940821,-0.207756701,0.0470979661,0.3243965388,-0.5220634566,-0.0062309236,-0.4677667297,-0.1565287467,-0.4441485524,-1.0711275952,-0.5672532849,-0.517710114,-0.0486328475,-0.6606290882,-0.5727878758,-0.296783214,-0.0667887545,-0.3924578015,-0.28935966,0.0768583401,-0.418382042,0.0312001229,0.4785229253,-0.1692356184,-0.4057747991,-1.0961154665,-0.7635379311,0.0388512757,-0.2499054819,-0.225754408,-0.2577201072,0.1458588677,-1.8558920036,-0.1859804378,-0.125498622,-0.2344926562,2.2754602885,-0.731053295,-0.5843366098,-0.4315616579,-0.5435603921,-2.5658865469,-0.285076128,-0.4228033543,-0.0640405901,-0.6144931381,-0.0814509008,-0.5301450605,-0.3137305808,-0.3212495998,0.0153798465,-0.6639412855,-0.5927140553,-0.0258404033,-0.1120393598,-0.2509809045,-0.4625697479,-0.5065485473,-0.2371033038,-0.2051364528,-0.5164684472,-0.2742428167,-0.5646348491,-0.1906771741,-0.6570744266,-0.1038907537,0.0656195118,-0.6817280141,-0.3144843677,-0.5800260256,-0.0478447633,0.0218153991,-0.5529408663,1.22202494,-0.3400302704,-0.403086998,-0.3986681061,-0.8187462759,-0.3013086315,-0.3153479317,-0.2464298668,-0.1912372687,-0.462597656,-3.0612574475,-0.447414045,-0.5332157997,-0.394502206,0.153941695,-0.0589871602,-0.1561466361,-0.4794612275,0.0808810689,-2.4087210763,1.2981351954,-0.5184978359,-0.0661606582,-0.4832600091,0.9613449656,-0.7244726071,-0.7818269307,-0.2882210772,-0.5951734598,-0.5930259957,-0.6190820777,-0.3076997016,-0.0929027587,-0.3415870219,-0.5861501489,-0.0555256415,-0.3925064484,-0.5703129659,0.2460567445,-0.5688311978,-0.1568253983,-0.015913177,-0.452002995,-0.204136859,-0.3491564867,-0.3756089205,-0.2706356918,-0.4753156732,-0.4321287324,-0.287985853,-0.617119549,-0.258708104,-0.3801426468,0.0476242991,-1.1793774991,-1.5789554813,-0.0119430461,-0.0339407561,0.0965385983,0.1120221624,0.8041799,-0.4114751253,-0.0400868149,-0.4372601846,-0.5310405638,0.2875665857,-0.2416499408,-0.3526059273,-0.0747869879,-0.0382497332,-2.749592775,0.2897598659,-0.4759137571,0.0412424245,-0.2291584564,0.9155267694,-0.2222116352,-0.4535225279,-0.4779991016,-0.3568757217,-0.4289250548,-0.6834468832,-0.0664099988,0.2892411029,-0.4170686714,-0.6971897582,-0.5366066716,-1.0295231289,-0.5627067487,-0.359150342,-0.095766931,-0.2752110495,-0.2303754133,-0.6064393324,-0.4822103181,-0.0738069897,-0.7209955818,-0.3909307128,-0.0691455925,-0.2650169098,0.6527094719,-1.1611343095,0.3735981629,-0.2271770438,-0.3473299435,-0.990520703,-0.9522761253,0.1142646984,-0.5342855848,-0.0532105261,-0.1029359461,-0.2196425296,-0.7319006893,-0.2949067656,-0.4626732003,-0.3039659006,0.5027869946,-0.6080851204,-0.2042894748,-0.1273292984,-0.5080843419,-3.8047318462,1.0372784096,-0.6535524229,-0.1879945994,-0.4634048315,0.1148129504,-0.4007908467,-0.3545101285,-0.2120620046,-0.3825997091,-0.5829172994,-0.3282267442,-0.1882331981,0.0188746599,-0.5793269579,-0.493815862,-0.4342130586,0.0122812191,-0.0862289533,0.1060852055,-0.2537390607,-0.2195468204,0.1865988672,-0.3528604237,-0.7321057284,-0.4225729028,-1.2631657626,-0.4616713747,-0.6096326168,0.0746827461,0.0693879287,-0.2519015546,0.1916699675,-0.6778563988,0.0299883457,-0.3209931319,-0.0120252497,-0.2094374702,-0.4431835564,-0.4749567563,-0.0792156492,-0.3180911531,-3.2272899865,-0.7440923218,-0.0466875388,-0.4001325431,0.1011905036,-0.244929488,-0.3932497164,-0.5865144975,-0.2647503583,-0.8283962958,0.9815406992,-0.5904478033,-0.0280275257,-0.3020630462,0.1790176934,-0.6909017602,-0.5379497037,-0.333909485,-0.1603419089,-0.0574559578,-0.2850615373,-0.0667253396,0.1589852165,-0.5272775047,-0.7173126596,-0.7323653173,-0.1631924535,-0.6875324915,-0.3871520549,-0.5736760575,-0.3727536589,-0.2799352604,-0.6675599205,-0.2210599394,-0.6458679096,-0.1061759936,-0.2949851231,0.0200939698,-0.147012751,0.0303573028,-0.692744468,0.4406494,-0.3411443743,-0.5309425998,-0.7293829082,-0.4711839951,0.0624997772,-0.3941275268,0.173113248,-0.2420738258,-0.3977171164,-2.846894222,-0.164182154,-0.1238077666,-0.2658009303,0.9000687444,-0.1259352928,-0.1108237032,-0.6886082879,-0.0498583026,-1.6326576615,-0.4976458166,-0.8106816692,-0.6224155472,-0.2801326185,-0.1044044108,-0.2537793605,-0.0819674797,-0.6837788996,-0.10652119,-0.6824163089,-0.5653730861,-0.6115876125,-0.3876708226,-0.1495621374,-0.5047947596,-0.5123140306,-0.5216479264,-0.33809581,-0.2614675552,-0.0341144802,-0.5782957187,-0.7062898736,-0.6511332589,-0.0903357712,-0.4964815651,0.0141211633,-0.2680128562,-0.2044883241,-0.0805840519,-0.0042826668,-0.219878394,0.6019187357,-0.3783790816,-0.7024166074,-0.2454761122,-0.0796497454,-0.1042558774,-0.3156513644,-0.1269530399,0.2024108886,-0.1078777659,-1.889989753,-0.4223526232,-0.2879872489,-0.468939761,0.0863939322,-0.0946020297,-0.4071751296,-0.650996385,0.248108144,-2.4199341967,0.6312117189,-0.6547283754,-0.3910536668,-0.4803134044,-0.0661523923,-0.3337784868,-0.3678590514,-0.1618121514,-0.757330637,-0.7154040588,-0.3105052477,-0.1985646832,-0.179094019,-0.2814162022,-0.3162256673,-0.2359682027,-0.574762442,-0.4078983681,-0.6846495366,-0.3349338278,-0.5178397341,-0.5202477356,-0.7441909651,-0.1653005559,-0.3223204753,-0.0196319623,-0.3673473332,0.084240282,-0.0814225274,-0.050770358,-0.5178533269,-0.308678644,-0.1586051737,-0.5400946828,-1.5756121519,-0.4786374598,-0.3094044657,-0.459403638,0.0706345763,0.4296674936,-0.0540280343,-0.9390600585,-0.2863072094,-0.3037913242,-0.0138778455,0.1805104121,-0.309559334,-0.1944136362,-0.7541423778,-0.5727439573,-2.6673020951,2.6091456512,-0.4859971764,-0.2489946089,-0.300602222,-0.4810405823,-0.5369262822,-0.1546546563,-0.0341918423,-0.5726682728,-0.1954112048,-0.2904827145,-0.5932101578,-0.2628163026,-0.4201655292,-0.5340653404,-0.287335781,-0.495845333,-0.1076707201,-0.9755814489,0.0045676732,-0.2330972151,-0.3565647038,-0.4586445857,-0.3014390613,-0.1505952206,-0.3939756037,-0.4196697319,-0.2862021069,-0.1935050225,-0.0153212721,-0.8653863924,-0.6501891149,-0.6674002004,-0.7114057701,-0.409574884,-0.2060056879,-0.6742121383,-0.7593088238,-0.0956639288,-0.3534665108,-0.4168969249,-1.1081038914,-0.4997154816,-0.220238865,-1.0151680476,1.7642448817,-0.4803726758,0.0477543858,0.0229784628,1.2656891145,-2.5173503027,0.0005906065,-0.5598900546,-0.4986907082,0.0915923882,-0.1687177858,-0.3002169232,0.067942014,-0.2172557549,-0.4246667749,-0.4731190037,-0.4028445577,-0.3322441872,0.1329666523,-0.0669131352,-0.0370599268,-0.5248488492,-0.465542541,-0.0736766922,-0.4542924444,-0.377558567,-0.3422215492,-0.2747507792,-0.5026300456,-0.0681982131,-0.3531595185,-0.1918327468,-0.4372526919,-0.3293997736,-0.0155355283,0.0790807579,-0.793498211,-0.3932741758,-0.7124528078,-0.4522893259,-0.4783026648,-0.0488452685,-0.267953269,-0.9311830035,0.3159995316,-0.4356951136,-0.5392739118,-1.6556917733,-0.192060143,-0.2278734579,-0.3370743507,-0.054222179,-0.0601806313
   -0.3593133563,-0.7368753508,0.9636282857,-2.2037556615,1.4001153703,-0.7083315995,-0.3803520558,-0.1613725975,0.6156539621,-0.6321236937,-0.6870282024,-0.440283055,-0.2866158868,-0.2097504248,-0.4808302389,-0.6009817854,0.2957567932,-0.6463963058,-0.401630437,-0.0341138134,-0.5841894372,-0.5202433255,-0.6606429525,-0.048824738,-0.1693585769,-0.6302690501,-0.6076483392,-0.0905651011,-0.4163175081,-0.0168740111,-0.4427505245,-0.2510243401,-0.0719217881,-0.2526810382,-0.4747532296,-0.7640835538,-0.1222037268,-0.164218553,-0.7283539449,0.0271346034,-0.6477437855,-0.7330904726,-0.672691654,-0.5152073736,-0.3635093177,-0.6356886783,-0.4368551044,-0.1509296777,-0.5742147089,-0.3742529978,-0.095055006,-0.1216121815,-0.4620064485,-0.0915458532,-1.6382809042,0.8340500747,-0.4461553021,-0.5699718402,0.1764869607,-0.1316255247,-0.5536428993,-0.4207983343,-0.1828264291,-0.0027243128,-0.5076833604,-0.2482769138,-0.4446224675,-0.3789778199,-0.2724405132,-0.370450007,-0.4515355996,-0.2962938769,-0.2528543624,-0.2065500958,-0.3759449675,-0.4678180438,-0.2574516763,-0.5434818725,-0.0644460028,-0.0160259738,-1.1474744402,-0.7150706754,-0.0260181516,-0.2448483073,0.2425386622,-0.7356584,-0.3401966935,-0.3696792477,-0.2875829362,-0.3771877136,-0.6485950114,0.0605329813,-0.5286873206,0.4156853392,-0.0032546304,-0.1059042777,-0.6066143654,-0.6440417391,-0.1939589905,-0.2934209966,0.329694115,-0.1407836428,-0.0177055006,-0.7308057422,-3.8579272146,-4.3571020532,-0.5431786497,-0.6152876803,-0.7405268023,0.2714883008,0.5368706256,-0.7585598053,-0.3039958579,-0.1836965929,-0.5548588624,-0.0273572401,-0.2251582734,-0.0339114143,0.8356029465,-0.3684056605,-0.4817216925,-0.6088441866,-0.046844484,-0.4036935968,-0.6236048595,-0.2410905111,-0.2802522949,0.0079312336,-0.2891129273,-0.5937441568,-0.4611780485,-0.6312811182,-0.600525228,0.0357126719,-0.4465482469,0.1646166533,-0.6176030449,-1.016901277,-0.3456577515,-0.4213218588,-0.3325015334,-0.3483720663,-0.6375517139,-0.4526078285,1.2619775771,-0.488310837,-0.2650651667,-1.5846008541,-0.7399780211,-0.0371602813,-0.1936167678,0.3696097441,-0.5888202466,-0.26545725,-0.6203759298,-1.3373188586,-1.4900515591,-1.6047454874,-0.7395838609,-0.5065238804,0.6105170756,0.0048849695,-0.5092976793,0.0447705718,-0.5255251646,-0.7497691437,-0.2305354784,-0.4800605981,-0.3207810815,-0.1461606452,-0.0363452231,-0.1980253101,-0.5260765433,-0.3816718977,0.0297569896,-0.0932113624,-0.0616663529,-0.0035768591,-0.2294939633,-0.6491375564,-0.4799566735,-0.1579938142,-0.339170305,-0.4282724761,0.1486807405,-0.3908685949,-0.0036955767,-0.5781763252,-1.2785031994,-0.1238338382,-0.6634905917,-0.5664651768,-0.2200297233,-0.4252706564,-0.5939032219,-0.4958667816,-0.1049421315,-0.7685183909,-1.1539604668,-0.1137218234,-0.5761312754,-0.9481712123,-0.1894621277,-0.3151987933,-0.1418691075,-0.2529253328,-0.2652494138,-2.6231212109,3.4356494996,-0.0920795218,-0.6891991748,0.187538731,-0.0925005281,-0.0304438733,-0.1204194884,-0.6974561554,-0.1692245751,-0.5258119183,-0.1596088714,-0.3435309347,2.1059022402,-0.3912873545,-0.4163350266,-0.5231710408,-0.1980910373,-0.4860703363,-0.3889432373,-0.3257109487,0.016046385,-0.4240697154,-0.1501334611,-0.2815052637,-0.1487545443,-2.0106764646,-0.2924910791,-0.5748762833,-0.4577292287,-0.1706285907,-0.9131772775,-1.1376288227,-0.0033451689,-0.1402497437,-0.3357033674,-0.2409452228,-0.5016334372,-0.6653691091,-0.5799195474,-0.2700367187,-0.313251026,-2.0352841411,-0.3582219544,-0.6017213089,-0.1992055526,-0.86176021,-0.5951271142,0.0140330751,-0.3422497089,-1.3133227675,-1.9245268871,0.1091844797,-0.4157384606,-0.0989408315,0.8133698845,-0.065958386,-0.1173906664,-0.662847746,-0.8131092263,-0.1644770816,-0.7292555379,-0.0990526975,-0.0485514966,0.2799825452,-0.4761193662,-0.4604691024,-0.0076712163,-0.4286545156,-0.5275910911,-0.4578394919,-0.5319976382,-0.4311960948,-0.4539456178,-0.4047622059,-0.2211594532,-0.2644297781,-0.2646025205,-0.3416893805,-0.1684744586,-0.485080782,-0.0119444136,-0.5194598632,-0.9209962669,-0.4753916307,-0.7068361512,0.1305055334,-0.2529389105,-0.5071919819,-0.7701109234,-0.340553536,-0.0032115585,-0.0276394914,-1.5439378149,-0.5272504957,-0.6659641222,-0.4183946954,-0.7358309397,-0.6803531372,-0.0176151105,-0.25560995,-2.4784461602,-2.6524860869,0.9580746981,-0.3098232996,-0.2588964348,0.6532348446,0.916416098,-0.5901346155,-0.2490300148,-0.4648759379,0.0273597318,-0.1904509354,-0.4648575109,0.0537671945,-0.1988508217,-0.7277604454,-0.4011397644,-0.2375096899,-0.028203245,-0.3946520949,-0.8456807708,-0.6218267657,-0.0801075891,-0.1473370432,-0.6520190505,-0.2033318196,0.049663605,-0.3270866262,-0.2750015721,-0.2596750635,-0.2399093955,-0.0107600281,-0.8593772453,-0.6157029483,-0.1214835634,-0.5387545368,0.1082750998,-0.6080945807,-0.6663243211,-0.5216932661,1.4732823964,-0.6012559075,-0.475353219,-0.9936664446,-0.5691646952,-0.3174197655,-0.6281276501,-0.719459016,-0.0116616975,-0.1490937689,-0.5308208616,-11.8032974281,-2.8133196115,-0.0070461153,-0.6067906124,-0.3556460894,1.2716621912,0.2498707268,-0.5224884674,-0.2790169322,-0.4758385673,-0.5174967848,-0.1675121982,-0.0809911107,-0.3300099616,0.4797364612,0.0235971067,-0.4041205712,-0.4961439935,-0.411859984,-0.2637328897,-0.6459896139,-0.5180382206,-0.3509203761,-0.6527653702,-0.2033638242,0.0646737266,-0.0117803963,-0.5062055484,-0.6861106555,-0.1814736591,-0.3404836155,-0.0374553245,-1.3849833004,-1.1843475751,-0.0509232374,-0.2302458585,-0.1748676857,-0.0163949909,-0.5984112204,-0.3409652797,-0.2634580106,-0.568894214,-0.1541213674,-1.7584243454,-0.1670889409,-0.7658280273,-0.6758977579,-0.8968824507,-0.3478870478,-0.1846229684,-0.3136136824,1.931867448,-2.2235998541,1.5750061389,-0.584769062,-0.5063965497,0.9707996712,0.6925515354,-0.2320985726,-0.640971561,-0.5431678513,-0.3978203971,-0.6826465179,-0.5123511662,-0.3145063155,0.1301934706,-0.561952416,-0.146109692,-0.1984065996,-0.6739772202,-0.5241879626,-0.1205739932,-0.6698077357,-0.3224381616,-0.7166605988,-0.6761771345,-0.0265940616,-0.4487334313,-0.7821553293,-0.1630240638,0.4489182144,-0.1950828996,-0.0538932253,-0.6986148325,-0.8450811315,-0.2722345031,-0.0723164825,0.1809541187,0.0669796356,-0.3369320175,-0.3901605037,0.0113910739,-0.4495212595,-0.1687489975,-1.4647042974,-0.5830399042,-0.3998025225,-0.6705960153,-0.1981848478,-0.5649273824,-0.2306125714,-0.2172457837,-3.3927565682,-1.4164453186,-0.4223433338,-0.4322505742,-0.566439609,0.539381963,0.3582265094,-0.8031533246,-0.0935127848,-0.3595203476,-0.3034012893,-0.5333372896,-0.4863744179,-0.3628002037,0.3414881266,-0.6912458019,-0.6980244246,-0.4978719761,-0.3245006042,-0.0087905754,-0.7002441046,-0.6012398794,0.0241228244,-0.573435804,-0.583682596,-0.3488777839,0.061536821,-0.5893466956,-0.0916837123,-0.2626476461,-0.4327581885,0.5312962746,-0.5703198448,-0.5642864056,-0.6277944883,-0.1789758572,0.3307231289,-0.3467788423,-0.0952668948,-0.2401305188,-0.1390388737,-0.4343500612,-0.524564985,-1.1311595611,-0.3477697512,-0.6246763249,-1.1912095879,-0.0089972147,-0.3042768559,-0.6438422365,-0.4508632821,-12.7653909363,-1.8446903816,-0.0284824166,-0.4478805956,-0.5139477142,0.0571600141,0.6495457699,-0.6221762401,-0.154555547,-0.7967362448,-0.6166276438,-0.2293877201,0.0662280735,-0.2694136396,1.2710709603,-0.0113894433,-0.8183836807,-0.356049804,-0.5946648216,-0.020000648,-1.0950962859,-0.6482526963,-0.3073904213,-0.2748168787,-0.1271070052,-0.3004002927,-0.2238042649,-0.2842426301,-0.6103970561,-0.1304633683,-0.4759706969,-0.1032083958,-1.0344743546,-1.5392016898,0.2325997821,-0.3640784492,-0.242225083,-0.0582023773,-0.540955017,-0.6103517344,1.0238778928,-0.3479068602,0.1485291487,-1.5285222496,-0.3904736602,-0.8806166634,-0.9850577732,-0.1131575843,-0.4365510391,-0.3366368467,-0.2599204349,-12.6944614001,-0.4006029257,-0.1059494748,-0.7098074747,-0.0994364735,0.8073472272,0.6158701627,-0.5272460023,-0.6424586315,-0.65799512,-0.6281756343,-0.3792951831,-0.0404952895,-0.0810813676,0.2955681789,-0.0999044502,-1.0426834879,-0.4543825671,-0.1976593319,0.3584602129,-1.1119112529,-1.0280482421,-0.0753958425,-0.2124773807,-0.0674691591,-0.2138112286,-0.5427242847,-1.5960173536,-0.4740357124,-0.0910392183,-0.3491193868,-0.074371124,-0.7563530061,-0.3197549846,-0.2257137045,-0.1212831949,-0.2364713875,-0.2268977023,-0.3006737695,-0.4192706348,-0.2170053364,-0.0793931665,-0.5433978538,-0.0807969191,-0.6075236881,-0.6485342472,-0.1120240563,-1.2295595823,-0.0328294357,-0.6735048373,-0.0982133111,-38.571971261,-2.3395359648,0.2502237055,-0.5081002206,-0.7278193343,0.9992229931,0.4710645808,-0.2019835093,-0.121801606,-0.7618473571,-0.4985665992,-0.4375005157,-0.3357928847,-0.0891958145,1.3364657509,-0.0981143033,-0.4761391314,-0.4325979578,-0.587196597,-0.3056367213,-1.3164121441,-0.4164603954,-0.4652540154,-0.3254224747,-0.1773146926,-0.4243968811,-0.0242294803,-0.381983323,-0.4828574381,0.4298831246,-0.972056248,-0.4328715697,-1.3097720688,-1.717882026,-0.5065955674,-0.2897007608,-0.0469184233,0.0434630166,1.1362997038,-0.3177588216,0.0791315422,-0.1349871303,0.3986993395,-1.1806235514,-0.1774372292,-0.4020139542,-0.6612218051,-0.670441521,-0.5969405043,-0.342328827,-0.4261604593,-2.020723974,-1.1180195158,-2.0837143366,-0.4012119032,-0.3511724842,0.1796071251,1.0609082307,-0.2945791958,-0.2956073987,-0.7731257312,-0.2895385304,-0.4908220067,-0.1957091058,0.0265405839,1.171734231,-0.3931299389,-0.8403556975,-0.5576161118,-0.3286302945,-0.3199502529,-1.6087798976,-0.5882519018,0.2847791352,-0.6705448456,-0.5982168287,-0.7186201587,0.1050120359,-0.4355287195,-0.4400462877,0.2081329986,-0.4365924571,-0.4198814219,-0.7223483435,-0.3554069393,-0.5472262722,0.0763201993,1.5189444144,-0.1450165079,-0.1220168768,-0.5130205392,-0.0956120987,-0.4235526656,-0.0184168997,-2.1986578307,-0.4981652367,-0.3557789387,-0.5788656735,-0.5470060433,-0.4453656944,0.0067786264,-0.4562190003,-2.0901075465,-2.8596458958,0.2059079709,-0.3469648697,-0.1066395377,0.6506922082,1.5612918719,-0.3955137627,-0.3997897945,-0.7221695958,-0.206210331,-0.5431845607,-0.2383158822,-0.3359552403,0.6927498532,-0.6771870985,-0.5775642615,-0.5239806186,-0.5324081653,-0.5453886668,-2.1127600707,-0.5059374423,-0.0425108955,-0.6481819934,-0.0205925449,-0.0947037263,-0.1422195907,-0.4615812408,-0.5767946503,-0.1068987952,-0.2733017014,-0.2608312173,-1.1356828666,0.1044661756,-0.6391838728,-0.3251773423,0.660776604,-0.2016642257,-0.265115753,-0.2757497735,0.0750097978,0.0515567119,-0.6651776491,-2.1526518063,-0.4280287254,-0.302075712,-0.3455492943,0.027489964,-0.8220078125,-0.7018139465,-0.6371698501,-8.9445444165,-3.4762107434,0.698081756,-0.2978760848,-0.105739763,0.1907612299,1.006144814,-0.382612298,-0.4352777249,-0.7491171574,-0.3766998501,-0.3122113985,-0.5280595752,-0.5613092434,1.6879817835,-0.2360654113,-0.7964187748,-0.7524196247,-0.7192277619,-0.0562447067,-2.1751827198,-0.2976243466,-0.170506939,-0.7142317194,-0.1574380225,-0.472133117,-0.3701793861,-0.3266945095,-0.1026537554,0.555586468,-0.3697444546,-0.1961745758,-0.7867075646,-1.1386210998,-0.1411269575,-0.5592645247,-0.0344779808,0.0436749305,-0.5395058929,-0.4232493973,0.2360616135,0.0256514752,-0.4408349772,-0.7926168276,-0.0654433015,-0.7434669167,-0.3730023725,0.7867040951,-0.6035476737,-0.5462569224,-0.7577700754,-12.6648593133,-2.3687551653,-0.8824772533,-0.5734075417,-0.5243371173,0.9858569399,0.3449690403,-0.2527391049,-0.1691974768,-0.4398043676,-0.5757402723,-0.5065400468,-0.1718787661,0.0057106344,0.7550294754,-0.3322120033,-0.7362132677,-0.1749219949,-0.5541100411,-0.0653945114,-1.0426459497,-0.2547093107,-0.2579115123,-0.5444007208,-0.175985133,-0.4200439623,-0.0717746053,-1.0647530142,-0.4801315589,-0.1292839417,-0.203691473,-0.0550751741,-0.9065063185,-1.7583140579,-0.3914858928,-0.0677618054,0.1564135253,-0.1537638548,0.6048679201,-0.2723400444,-0.191556849,-0.3566201428,-0.2315884706,-1.4286970216,-0.5329974666,-0.2335386919,-0.2815064448,-0.2139751007,-0.6580656821,-0.6819347376,-0.2908206241,-3.9784019685,-2.4358986506,-0.0790451377,-0.7423993025,-0.8858395851,1.124166337,1.2119467574,-0.1053105104,-0.4071171238,-0.7672007698,-0.0647778549,-0.8445147318,-0.3715424595,-0.359059559,-0.1152920282,-0.5540979593,-0.3779417355,-0.4440843434,-0.0637398326,-0.662426958,-0.8187075406,-0.2862917125,0.0655748632,-0.5978754898,-0.6501555641,-0.1462640801,0.1858917923,-1.0058120139,-0.3974674066,-0.2219823745,-0.4600358781,0.0116202032,-0.0727900974,-2.4985671447,-0.5287187053,-0.4317075403,0.2055533205,-0.3343227251,-0.4627190934,-0.52467237,-0.0891418081,-0.7077444066,-0.3521354897,-1.4557773438,-0.0540196503,-0.6414914596,-0.1073391404,1.1165804676,-0.5073626559,-0.7248132516,-0.4935839789,-5.9127077017,-0.9182041262,-0.8140201833,-0.8179671161,-0.4655065056,0.9573560331,0.69586646,-0.1633222818,-0.2472840926,-0.723482242,-0.4626032038,-0.2536893048,-0.353939619,-0.256053715,0.2845159488,-0.1063036238,-0.5144327222,-0.5959636288,-0.3760612395,-0.0357904856,-0.379048748,-0.5977208121,0.1057558155,-0.551785112,-0.4263465729,-0.3139565309,0.0822622119,-0.5571250299,-0.7078674715,-0.4023112171,-0.2143889924,0.2937155048,-0.8007628698,-0.6569423266,-0.5974561748,-0.3358245287,0.1026981453,0.0050874714,-0.7100173528,-0.5477190621,-0.0008540867,-0.4707379565,-0.553534259,-3.6054687144,-0.0411935519,-0.763553901,-0.2038932311,0.0519716722,-0.760217275,-0.6839967284,-0.5457528836,3.3665204761,-2.0761654026,0.153298308,-0.5035453754,-0.0904588461,1.1970067779,0.5210239887,-0.2697868904,-0.54173021,-0.1844323667,-0.5649250338,-0.3017345768,-0.3944661348,-0.0309095544,0.840219726,0.0075771093,-0.6293679067,-0.6862155697,-0.3217945946,-0.2986571639,-0.6618831048,-0.5553443517,0.0469047221,-0.2507112534,-0.5987102978,-0.4753861084,-0.5999967771,-0.2131798542,-0.4840723816,0.1431339011,-0.3922139923,-0.215690265,-1.1141986723,-0.2983671985,-0.5481018919,-0.0550235535,1.1664412335,0.0845943077,0.0466412116,-0.4035037895,0.1538226431,-0.2244724091,-0.1792284861,-1.5454225159,-0.7559497601,-0.3161557412,-0.1900035496,-0.2942457318,-0.5271294323,-0.3274855648,-0.5650454425,2.1465020394,-1.7991556746,-4.2442215349,-0.5615710965,-0.8601247438,-0.1213884926,1.2255322705,-0.4404990267,-0.2269197662,-0.4903788769,-0.7322204584,-0.3821097279,-0.6600468022,-0.465255944,0.0900667646,-0.4589042357,-0.6381039895,0.0343073067,-0.296478776,-0.1948320731,-1.025926033,-0.1614190004,-0.5109287106,-0.7281586333,-0.3848208095,-0.590207127,-0.5310488099,-0.4977550244,-0.6556748951,0.1051614154,-0.0606813657,0.1816806429,-0.3554946742,-0.7259444754,-0.2548385715,-0.3317121333,0.7876975161,-0.2056167254,-0.4503157593,-0.6250829509,-1.6994163756,-0.714710081,-0.5907100617,-1.0953943584,-0.299265873,-0.2858308016,-0.5579180871,-0.6276562561,-0.8422074256,-0.4495571395,-0.5039714165,-1.2323555682,-2.9816993135,-0.2022477515,-0.875325999,-0.1880727834,0.2542460895,0.8042565778,-0.20058043,-0.5925673872,-0.4381305359,-0.3867660677,-0.8730767282,-0.6296470014,-0.3572741074,0.7338407724,-0.3547896653,-0.587187096,-0.3557960429,-0.1896656586,-0.5875973218,-0.0681477469,-0.2387012445,0.4834598118,-0.4275079927,-0.6660325891,-0.0873445508,-0.0829495462,-0.1247821057,-0.4504385464,-0.2917560392,-0.7756737032,-0.1718273709,-0.2328768709,-1.0509723243,-0.3314769166,0.0837365046,0.5062032703,-0.054471682,-0.6183285723,-0.2753718699,-3.8420148179,-0.4827530411,-0.0253146838,-1.0403978413,-0.7539435009,-0.8319016773,-0.1772749414,-0.1324926863,-0.4523514757,-0.6046433214,-0.8217903992,-0.8271878224,-0.8676156582,-0.4455083831,-0.3444107067,-0.8222235945,0.3876958219,0.1670612464,-0.6429317353,-0.1040636357,-0.1534531106,-0.1221993435,-0.2924632558,-0.3332769036,-0.2179824164,1.6054946371,-0.6438768936,-0.7447624585,-0.0323068815,-0.4095293259,-0.462275384,-0.703530911,-0.3355072428,-0.2468585226,-0.6869730561,-0.1840278839,-0.6129976565,-0.0848737114,-0.280909945,-0.1117025644,-0.2464822944,-0.0727926183,-0.0161585672,-0.812549029,-1.4225127513,-0.356059843,-0.1499224753,0.2637019957,-0.1553454401,-0.2973186961,-0.7433092097,-4.0764417662,-0.0762321941,-0.0609863224,-1.2889401881,-0.006499854,-0.3620872331,-0.0290598502,-0.6286540429,-0.5163445494,-0.5438090123,-0.4200042814,0.8557080264,-1.5331085201,0.0549636027,-0.8506873398,-0.4046240753,0.2786603728,0.2842242273,-0.423643031,-0.5242057971,-0.7655567183,-0.1699777843,-0.4109404195,-0.7016754225,-0.0408294869,1.1669745454,-0.292528125,-0.8453164437,-0.2998293699,0.0282159059,-0.4604769166,-0.9749272948,-0.4693968103,-0.3132830294,-0.3603458061,-0.3613482302,-0.492008026,0.0238752226,-0.1027634468,-0.0367455129,-0.0248718747,-0.5660507988,-0.3335202928,-0.7612523033,-1.7154128795,-0.2043276356,-0.0487906726,0.7088560589,-0.3285517674,0.3156060881,-0.1927875601,-0.34330796,0.3348830628,-0.4488543368,-1.8334876285,-0.5593338042,-0.8063411999,-0.0876596551,-0.1399062054,-0.7767817558,-0.1455190625,-0.8359197046,2.1010123732,-1.6639738091,-2.5174833543,-0.5889958929,-0.6175791175,0.6346496629,0.1659088388,-0.6065933849,-0.4493667774,-0.2496618793,-0.2059274144,-0.8266211319,-0.0207788575,-0.1458015517,0.2793268007,-0.3043782081,-0.229690228,-0.426247951,-0.358793128,-0.2596246888,-1.4950309437,-0.4332960457,-0.5888873384,-0.687321812,-0.5516911056,-0.5290845916,-0.0031807787,-0.4912752245,-0.062116689,0.1675042072,-0.034777636,0.3343854252,-0.407556202,0.2215852821,0.0293978486,-0.451529897,-0.0349009839,-0.2462908679,-0.1074537509,-0.3382235385,-0.178847305,0.0566225963,-0.5697929373,-3.3637344777,-0.236889974,-0.6180969218,0.0252657605,-1.295493192,-0.8484536343,0.1209156192,-0.7773146089,-0.6643324579,-1.5447299008,-0.4572260692,-0.8251877541,-0.734471151,0.1426956761,0.2963495868,-0.5520718004,-0.2827941243,-1.0099774162,-0.0193959951,-0.5415801899,0.0428833791,-0.2225968234,0.4777040389,-0.4546903108,-0.5698040942,-0.6076167516,-0.1529555023,-0.3573168969,-1.0612674456,-0.4220701011,0.5051933811,-0.1825447716,-0.7145370281,-0.3229539512,0.0345902507,-0.609931031,-0.3522348275,-0.1355318188,-0.5572955526,0.002396282,-0.3334431753,-0.9699313331,-0.2132145639,0.2633778446,1.0629780384,-0.2864102429,-0.2504952397,-0.3593253007,-0.6728652626,-0.1517364289,-0.907997186,-0.8603772541,-0.2946312174,-0.4888603517,0.0792720385,-1.0241599937,-0.3252310375,-0.0188524906,-0.8092577336,-1.3808514809,-1.4870216426,-0.2086385497,-0.9457697875,-0.3450887129,0.4462672789,0.2057911783,-0.2858840423,-0.769837367,-0.7572374741,-0.4644154762,-0.5263812454,-0.1710273866,-0.152638471,-0.2555270347,0.0853992599,-0.8869867167,-0.5772939954,-0.1990914549,0.0666956443,-1.8206994754,-0.5920261413,0.0125099869,-0.3337530159,-0.2376548969,-0.4180310667,0.1339545732,-0.239897458,-0.5366505292,-0.0119549961,-0.3052628635,-0.3406701143,-0.7570598283,-0.1354278306,-0.0195548682,-0.03680026,1.021132347,-0.3374398433,0.7449117157,-0.8200755523,-0.5367977364,-0.2082222595,-0.2087938381,-1.2907283203,-0.5435917726,-0.5919715943,0.0524685025,-1.0291168469,-0.210830677,-0.3752551385,-0.3719610744,0.0001830726,-2.6557156747,-2.1525198358,-0.5686298967,-0.7229556871,0.067658015,1.1403169311,-0.2675917518,-0.0589464668,-0.5323966532,-0.3157336428,-0.3345371735,-0.3513648518,-0.4390204028,1.1698788063,-0.5877202775,-0.709773506,-0.1406913144,-0.3276070154,-0.6256295067,-1.5456709203,-0.5225160117,-0.0924590631,-0.0248236418,-0.1219454695,-0.734631951,-0.4305586983,-0.5900842056,-0.5666268527,-0.0272891683,0.0070630799,0.1511006302,-1.37289437,-0.4817679667,-0.0765110927,-0.3696223744,0.1215502421,-0.0054919875,0.5574087963,-0.6065643944,-0.4818321035,-0.1342190259,-0.0939432053,-3.6424031615,-0.097967626,-0.2978323225,0.143895318,-0.1784449505,-0.3659169667,-0.0835806606,-0.8365604602,-0.5528284137,-0.5947822868,-1.4426257492,-0.8628033293,-1.1276509616,0.2351876328,0.3426045893,-0.5865995501,-0.2707859376,-0.7198217636,-0.4552212057,-0.5081175594,-0.5529235389,-0.1046117836,-0.3705482539,-0.2460394774,-0.7363854421,-0.0568428501,-0.1905589154,-0.2224782382,-1.2225271893,-0.2343309709,0.4033331415,-0.1995978998,-0.079567337,-0.3956708783,-0.2354224787,-0.594273033,-0.4818089411,0.2337273752,-0.4874277784,-0.5924807433,-0.6351719847,-0.0947469901,-0.7405297351,-0.1679803395,-0.1257362837,0.3183371347,0.4762636488,-0.6802796526,-0.050041568,-0.4019101548,-0.8272213384,-2.2434712129,-0.2357173613,-0.4869706917,-0.0692450565,-0.9920090476,-0.4656323402,-0.3717713439,-0.4937727645,-1.0914442295,-2.0565306005,-1.394363765,-0.8505788631,-0.7114272485,-0.1576405847,0.7419708444,-0.5563352218,-0.0939187128,-0.2094161392,-0.0151208892,-0.4850481883,-0.4140745998,0.1251876077,1.4883646542,-0.3670466941,-0.7396414498,-0.2447124266,0.1272930405,-0.7074111472,-1.9116043989,-0.4833159954,0.2159748425,-0.7296411826,-0.1169421251,-0.3031234188,0.302902984,0.0673172246,-0.2987843562,0.0003082903,-0.5016674048,-0.1344515236,-0.8925552173,-2.0344735896,0.2717545299,-0.2907226168,0.3907024402,0.016009922,0.6250989201,-0.376341438,-0.4909134259,-0.3522040818,-0.2527490442,-1.5981512732,-0.0067545879,-0.4067754277,-0.423687655,-0.5358087878,-0.5963258036,-0.3737409893,-0.2178176703,1.3320668283,-1.4206723405,-0.4747049765,-0.7856015554,-0.40822421,0.0997999129,0.9833075541,-0.4749844083,-0.6391882256,-0.7743140423,-0.2260080071,-0.5282791369,-0.6380588359,-0.4383893718,0.1481674748,-0.4058740627,-0.927953389,0.0147546992,-0.0495555195,-0.2509537786,-1.284593062,-0.3630099577,-0.1336490751,-0.1764611686,-0.2849321432,-0.2166864275,-0.5671005621,-0.2658878951,-0.1680073626,-0.3352671273,-0.1187681598,-0.2691496776,-1.2848560909,-0.3428836596,-0.397307402,-0.2332272338,0.1468780284,0.1589058989,-0.0889823791,-0.3452273932,-0.089233042,0.0197993032,-0.7398379627,-1.2178188714,-0.1315442399,-0.6410195449,-0.1631967332,-1.5485344173,-0.7952675101,-0.5297464782,-0.354669412,-4.006911142,-1.4957720253,-0.5245530276,-0.8474417796,-0.738261689,0.0402959175,0.3052415399,-0.4367192359,-0.3426036581,-0.3895655825,0.4870260708,-0.5738747459,-0.6015124284,-0.4988456154,0.5442760394,-0.3001116193,-1.0177943645,-0.3661861883,-0.4352991371,-0.3495403246,-0.717874015,-0.0387864335,-0.3806545716,-0.4071752458,-0.1942113108,-0.4300146755,-0.1811290976,-0.1837039768,-0.3849199195,-0.1981634477,-0.3189417749,-0.224503331,-0.6081941532,-1.8670271484,-0.4400410953,-0.1382406151,0.0953163033,0.7484131412,0.8535533375,-0.7116329579,-0.3572162502,-0.1821228369,-0.5104986565,-3.5129753948,-0.3355024177,-0.5358350276,-0.517108047,0.1725019838,-0.641792022,-0.4300428254,-0.1854024811,-0.7203522839,-0.9475181994,-0.7913788797,-0.4230673283,-0.5939428654,-0.0337016054,0.5834405631,-0.4784626743,-0.518208363,-0.7787647873,-0.3574835234,-0.7354556618,-0.1724267257,-0.0400358872,0.0785462801,-0.1180128605,-0.9380735575,-0.0279525946,-0.0350788061,-0.3829696803,-1.036886204,-0.2038797791,-0.5972934798,-0.3621660471,-0.0507013875,-0.2793657938,0.0363436453,-0.5001899919,-0.2988567809,-0.1052353388,-0.2343978984,-0.1520882146,-1.1682832442,-1.0964352795,-0.5766361923,-0.5285198372,0.8946513792,0.2167054889,0.5339980437,-0.4885752587,-0.3999668579,0.0079315641,-0.5529762998,-4.0151553582,-0.4709068025,-0.4574335588,-0.1082995365,-0.4542660059,-0.5319355846,-0.6897053431,-0.1731213602,0.1553518827,-1.3670216495,-0.0021791186,-0.6184034063,-0.6670404119,0.4117764901,0.3821324893,-0.0788388868,-0.3056560003,-0.5480291105,-0.0932061922,-0.3411399037,-0.5831846252,-0.0465340343,0.8771821789,-0.0535215455,-1.2069997586,-0.4211936254,-0.555860452,-0.554005766,-0.6875500872,-0.1340587593,-0.4925755179,-0.1874366967,-0.3160786181,-0.1766868386,-0.6061428666,-0.0071748726,-0.1096629914,-0.0615670543,-0.4916090218,-0.1483410052,-1.3910622519,-0.5258641259,-0.4916246279,0.9677787972,0.5811238686,-0.1614269616,0.3685903508,-0.7751896572,-0.7591386568,-0.4112262524,-0.8172582974,-4.111165972,-0.6550590104,-0.8416940022,0.165044306,-0.0268044958,-0.1022181907,-0.3844222971,-0.3139749161,-0.1408734831,-1.0861958212,-1.0919271884,-0.7717236666,-0.9540927517,-0.1427900766,0.7003473126,-0.820500926,-0.5568868573,-0.5391805749,0.0358017592,-0.5807907166,-0.5167458861,-0.1549501909,-0.1175378407,0.1153427609,-0.9429875279,-0.4586474128,-0.182662046,-0.2359875129,-1.2867034303,-0.3403476817,0.6722434365,-0.2995014823,-0.7432285306,-0.0193212201,-0.409646743,0.4254009214,-0.2792018218,-0.2841607218,-0.5473191164,0.0290665952,-0.724804584,-0.4963698714,-0.4944213035,-0.138978393,1.1220211577,-0.0164258592,1.6599207385,-0.6609497722,-1.1237942781,-0.432928596,-0.2883897119,-2.0659529276,-0.0975983656,-0.5888964344,0.0164993998,-0.2962834207,-0.7868587782,-0.3240721293,-0.644446922,0.0403931607,-1.6299358461,-1.6249814783,-0.6530963383,-0.6004231249,-0.1806896186,0.469032024,-0.0979670529,-0.6563364906,-0.2959461421,0.011858204,-0.6823800875,-0.3134479705,-0.1434743276,-0.1702037482,-0.3373119301,-0.4782323989,-0.7508488837,-0.3951464698,-0.5896302069,-1.4086321082,-0.4182178952,0.6718358012,-0.3158960013,-0.5019687755,-0.3664211118,-0.4395549284,-0.115196196,-0.5159422645,-0.1384926573,-0.6168694791,0.7788760409,-0.6718172408,-0.4295295314,-0.0979341635,0.5717596021,0.0195636507,0.0854860708,0.5155527183,-0.1201862883,-1.4080875029,0.5691611037,-1.2861518183,-2.0098115432,-0.1521205423,-0.7502777352,0.203313737,-0.8069107216,-0.2680038861,-0.5328270938,-0.4911852941,0.2251875577,-0.9409225064,-1.0236018197,-0.6673691176,-0.7067857101,-0.0284874038,0.301772818,-0.0369706953,-0.4900107968,-0.6647789817,-0.2708637507,-0.6201917112,-0.4348012662,0.0001335754,0.0217296095,0.0265788112,-0.6532860719,-0.5888513189,-0.6319450844,-0.5302092057,-1.3103693703,-0.0185257245,0.3843859701,-0.7063043627,-0.7662857182,-0.3307702053,-0.3420728991,-0.2127743938,-0.6697169747,0.0284388517,-0.3777292943,0.8363275752,-1.5481023706,0.0258197946,-0.1366394835,0.3658603504,-0.1969829534,-0.040280797,1.0458321502,-0.5097161359,-0.3598101536,-0.0195374409,0.1303932577,-0.5374380782,-0.2241740964,-0.628729472,-0.2856712005,-0.4765782781,-0.2666056172,-0.5489742929,-0.7530849766,-0.1469284965,-3.1675274251,-0.0809546421,-0.8616015541,-1.4931846863,-0.1137592794,0.3343060969,-0.719702592,-0.4594411309,-0.1622640223,-0.5843967668,-0.7867109826,-0.0472650907,-0.2583360682,-0.3824520074,0.3927497761,-0.4995980857,-0.7670140602,0.2846780718,-0.1179886008,-1.4214380292,-0.414233328,1.5641221854,-0.4609391129,-0.555583006,-0.4436889685,-0.0693414983,1.141109561,-0.4409787066,-0.2160897003,-0.091080244,-1.9915210417,-0.3912211962,-0.3113207621,-0.6443413386,0.5129808787,0.8274923557,0.1848974383,1.1368318403,-1.0351396006,0.1807873825,-0.0793782307,-0.4115413434,-2.3222638486,-0.4101154135,-0.5758395986,-0.4322245104,-0.4687748229,-0.5893315575,-0.0790668718,-0.6012140142,-0.5513118221,-2.0886462911,-1.5373971208,-1.1176902871,-0.5074389747,-0.2701800725,0.5122522302,-0.8351602608,-0.7064462266,-0.5379266797,-0.330857884,-0.6502568616,-0.3470658737,-0.4702591008,0.0885115911,0.1695486436,-0.6634805404,-0.7777924434,1.2629966712,-0.2376936035,-1.6208532638,-0.1981122678,0.4861297777,-0.3565205621,-0.6310162786,-0.4454030599,0.1099127844,0.3706570033,-0.0450337912,-0.732534932,-1.7553079023,-0.3928900707,-0.5267950311,-0.2312000877,-0.4855573032,1.498351676,0.4062411736,-0.0527153629,0.4765684221,-0.4333608975,-0.3472837823,-0.6698643573,-0.5462906739,-1.7501435699,-0.5506787401,-0.7956697247,0.2156141292,-0.3411096571,-0.7969132576,-0.6044393946,-0.4698010915,1.5638867457,-1.8554373012,-1.0765513921,-0.9455477592,-0.3918925275,-0.0277684525,0.2637787388,-0.7029707451,-0.6452158056,-0.8974489061,-0.2539558196,-0.2104047885,-0.0685692767,-0.1058015791,0.1009708256,0.0469547473,-0.4217745523,-0.7064439511,0.1825967325,-0.1492801574,-0.9836696434,-0.6129984554,0.4138728169,-0.916031609,-0.2216415273,-0.2757785966,-0.2837969746,-0.0201679658,-0.6830775667,-0.3303956376,-0.165131615,-0.2293583347,-1.0043917903,0.1406750074,-0.3054605776,-0.3023386292,1.2870727829,0.3764764897,1.0170294292,-0.7804966532,-0.0545144832,-0.5214445626,-0.0327799,-4.0776910006,-0.6590851005,-0.6178729155,-0.2412916053,-0.7814662145,-0.4468215923,-0.0531021428,-0.3183670682,-3.8245559209,-1.4010485766,-0.9191216384,-1.0620025497,-0.9082972185,-0.4496928592
