encog,BasicNetwork,java,3.1.0,1,1400093044571
[BASIC]
[BASIC:PARAMS]
[BASIC:NETWORK]
beginTraining=0
connectionLimit=0
contextTargetOffset=0,0,0
contextTargetSize=0,0,0
endTraining=2
hasContext=f
inputCount=2124
layerCounts=585,51,2124
layerFeedCounts=584,50,2124
layerContextCount=0,0,0
layerIndex=0,585,636
output=##0
##double#2760
   0,0,0,0,0,0,0,0,0,0,0,0,0,0,0,0,0,0,0,0,0,0,0,0,0,0,0,0,0,0,0,0,0,0,0,0,0,0,0,0,0,0,0,0,0,0,0,0,0,0,0,0,0,0,0,0,0,0,0,0,0,0,0,0,0,0,0,0,0,0,0,0,0,0,0,0,0,0,0,0,0,0,0,0,0,0,0,0,0,0,0,0,0,0,0,0,0,0,0,0,0,0,0,0,0,0,0,0,0,0,0,0,0,0,0,0,0,0,0,0,0,0,0,0,0,0,0,0,0,0,0,0,0,0,0,0,0,0,0,0,0,0,0,0,0,0,0,0,0,0,0,0,0,0,0,0,0,0,0,0,0,0,0,0,0,0,0,0,0,0,0,0,0,0,0,0,0,0,0,0,0,0,0,0,0,0,0,0,0,0,0,0,0,0,0,0,0,0,0,0,0,0,0,0,0,0,0,0,0,0,0,0,0,0,0,0,0,0,0,0,0,0,0,0,0,0,0,0,0,0,0,0,0,0,0,0,0,0,0,0,0,0,0,0,0,0,0,0,0,0,0,0,0,0,0,0,0,0,0,0,0,0,0,0,0,0,0,0,0,0,0,0,0,0,0,0,0,0,0,0,0,0,0,0,0,0,0,0,0,0,0,0,0,0,0,0,0,0,0,0,0,0,0,0,0,0,0,0,0,0,0,0,0,0,0,0,0,0,0,0,0,0,0,0,0,0,0,0,0,0,0,0,0,0,0,0,0,0,0,0,0,0,0,0,0,0,0,0,0,0,0,0,0,0,0,0,0,0,0,0,0,0,0,0,0,0,0,0,0,0,0,0,0,0,0,0,0,0,0,0,0,0,0,0,0,0,0,0,0,0,0,0,0,0,0,0,0,0,0,0,0,0,0,0,0,0,0,0,0,0,0,0,0,0,0,0,0,0,0,0,0,0,0,0,0,0,0,0,0,0,0,0,0,0,0,0,0,0,0,0,0,0,0,0,0,0,0,0,0,0,0,0,0,0,0,0,0,0,0,0,0,0,0,0,0,0,0,0,0,0,0,0,0,0,0,0,0,0,0,0,0,0,0,0,0,0,0,0,0,0,0,0,0,0,0,0,0,0,0,0,0,0,0,0,0,0,0,0,0,0,0,0,0,0,0,0,0,0,0,0,0,0,0,0,0,0,0,0,0,0,0,0,0,0,0,0,0,0,0,0,0,0,0,0,0,0,0,0,0,0,0,0,0,0,0,0,0,0,0,0,0,0,0,0,0,0,0,0,0,0,0,0,0,0,0,0,0,0,0,0,0,0,0,0,1,0,0,0,0,0,0,0,0,0,0,0,0,0,0,0,0,0,0,0,0,0,0,0,0,0,0,0,0,0,0,0,0,0,0,0,0,0,0,0,0,0,0,0,0,0,0,0,0,0,0,1,0,0,0,0,0,0,0,0,0,0,0,0,0,0,0,0,0,0,0,0,0,0,0,0,0,0,0,0,0,0,0,0,0,0,0,0,0,0,0,0,0,0,0,0,0,0,0,0,0,0,0,0,0,0,0,0,0,0,0,0,0,0,0,0,0,0,0,0,0,0,0,0,0,0,0,0,0,0,0,0,0,0,0,0,0,0,0,0,0,0,0,0,0,0,0,0,0,0,0,0,0,0,0,0,0,0,0,0,0,0,0,0,0,0,0,0,0,0,0,0,0,0,0,0,0,0,0,0,0,0,0,0,0,0,0,0,0,0,0,0,0,0,0,0,0,0,0,0,0,0,0,0,0,0,0,0,0,0,0,0,0,0,0,0,0,0,0,0,0,0,0,0,0,0,0,0,0,0,0,0,0,0,0,0,0,0,0,0,0,0,0,0,0,0,0,0,0,0,0,0,0,0,0,0,0,0,0,0,0,0,0,0,0,0,0,0,0,0,0,0,0,0,0,0,0,0,0,0,0,0,0,0,0,0,0,0,0,0,0,0,0,0,0,0,0,0,0,0,0,0,0,0,0,0,0,0,0,0,0,0,0,0,0,0,0,0,0,0,0,0,0,0,0,0,0,0,0,0,0,0,0,0,0,0,0,0,0,0,0,0,0,0,0,0,0,0,0,0,0,0,0,0,0,0,0,0,0,0,0,0,0,0,0,0,0,0,0,0,0,0,0,0,0,0,0,0,0,0,0,0,0,0,0,0,0,0,0,0,0,0,0,0,0,0,0,0,0,0,0,0,0,0,0,0,0,0,0,0,0,0,0,0,0,0,0,0,0,0,0,0,0,0,0,0,0,0,0,0,0,0,0,0,0,0,0,0,0,0,0,0,0,0,0,0,0,0,0,0,0,0,0,0,0,0,0,0,0,0,0,0,0,0,0,0,0,0,0,0,0,0,0,0,0,0,0,0,0,0,0,0,0,0,0,0,0,0,0,0,0,0,0,0,0,0,0,0,0,0,0,0,0,0,0,0,0,0,0,0,0,0,0,0,0,0,0,0,0,0,0,0,0,0,0,0,0,0,0,0,0,0,0,0,0,0,0,0,0,0,0,0,0,0,0,0,0,0,0,0,0,0,0,0,0,0,0,0,0,0,0,0,0,0,0,0,0,0,0,0,0,0,0,0,0,0,0,0,0,0,0,0,0,0,0,0,0,0,0,0,0,0,0,0,0,0,0,0,0,0,0,0,0,0,0,0,0,0,0,0,0,0,0,0,0,0,0,0,0,0,0,0,0,0,0,0,0,0,0,0,0,0,0,0,0,0,0,0,0,0,0,0,0,0,0,0,0,0,0,0,0,0,0,0,0,0,0,0,0,0,0,0,0,0,0,0,0,0,0,0,0,0,0,0,0,0,0,0,0,0,0,0,0,0,0,0,0,0,0,0,0,0,0,0,0,0,0,0,0,0,0,0,0,0,0,0,0,0,0,0,0,0,0,0,0,0,0,0,0,0,0,0,0,0,0,0,0,0,0,0,0,0,0,0,0,0,0,0,0,0,0,0,0,0,0,0,0,0,0,0,0,0,0,0,0,0,0,0,0,0,0,0,0,0,0,0,0,0,0,0,0,0,0,0,0,0,0,0,0,0,0,0,0,0,0,0,0,0,0,0,0,0,0,0,0,0,0,0,0,0,0,0,0,0,0,0,0,0,0,0,0,0,0,0,0,0,0,0,0,0,0,0,0,0,0,0,0,0,0,0,0,0,0,0,0,0,0,0,0,0,0,0,0,0,0,0,0,0,0,0,0,0,0,0,0,0,0,0,0,0,0,0,0,0,0,0,0,0,0,0,0,0,0,0,0,0,0,0,0,0,0,0,0,0,0,0,0,0,0,0,0,0,0,0,0,0,0,0,0,0,0,0,0,0,0,0,0,0,0,0,0,0,0,0,0,0,0,0,0,0,0,0,0,0,0,0,0,0,0,0,0,0,0,0,0,0,0,0,0,0,0,0,0,0,0,0,0,0,0,0,0,0,0,0,0,0,0,0,0,0,0,0,0,0,0,0,0,0,0,0,0,0,0,0,0,0,0,0,0,0,0,0,0,0,0,0,0,0,0,0,0,0,0,0,0,0,0,0,0,0,0,0,0,0,0,0,0,0,0,0,0,0,0,0,0,0,0,0,0,0,0,0,0,0,0,0,0,0,0,0,0,0,0,0,0,0,0,0,0,0,0,0,0,0,0,0,0,0,0,0,0,0,0,0,0,0,0,0,0,0,0,0,0,0,0,0,0,0,0,0,0,0,0,0,0,0,0,0,0,0,0,0,0,0,0,0,0,0,0,0,0,0,0,0,0,0,0,0,0,0,0,0,0,0,0,0,0,0,0,0,0,0,0,0,0,0,0,0,0,0,0,0,0,0,0,0,0,0,0,0,0,0,0,0,0,0,0,0,0,0,0,0,0,0,0,0,0,0,0,0,0,0,0,0,0,0,0,0,0,0,0,0,0,0,0,0,0,0,0,0,0,0,0,0,0,0,0,0,0,0,0,0,0,0,0,0,0,0,0,0,0,0,0,0,0,0,0,0,0,0,0,0,0,0,0,0,0,0,0,0,0,0,0,0,0,0,0,0,0,0,0,0,0,0,0,0,0,0,0,0,0,0,0,0,0,0,0,0,0,0,0,0,0,0,0,0,0,0,0,0,0,0,0,0,0,0,0,0,0,0,0,0,0,0,0,0,0,0,0,0,0,0,0,0,0,0,0,0,0,0,0,0,0,0,0,0,0,0,0,0,0,0,0,0,0,0,0,0,0,0,0,0,0,0,0,0,0,0,0,0,0,0,0,0,0,0,0,0,0,0,0,0,0,0,0,0,0,0,0,0,0,0,0,0,0,0,0,0,0,0,0,0,0,0,0,0,0,0,0,0,0,0,0,0,0,0,0,0,0,0,0,0,0,0,0,0,0,0,0,0,0,0,0,0,0,0,0,0,0,0,0,0,0,0,0,0,0,0,0,0,0,0,0,0,0,0,0,0,0,0,0,0,0,0,0,0,0,0,0,0,0,0,0,0,0,0,0,0,0,0,0,0,0,0,0,0,0,0,0,0,0,0,0,0,0,0,0,0,0,0,0,0,0,0,0,0,0,0,0,0,0,0,0,0,0,0,0,0,0,0,0,0,0,0
   0,0,0,0,0,0,0,0,0,0,0,0,0,0,0,0,0,0,0,0,0,0,0,0,0,0,0,0,0,0,0,0,0,0,0,0,0,0,0,0,0,0,0,0,0,0,0,0,0,0,0,0,0,0,0,0,0,0,0,0,0,0,0,0,0,0,0,0,0,0,0,0,0,0,0,0,0,0,0,0,0,0,0,0,0,0,0,0,0,0,0,0,0,0,0,0,0,0,0,0,0,0,0,0,0,0,0,0,0,0,0,0,0,0,0,0,0,0,0,0,0,0,0,0,0,0,0,0,0,0,0,0,0,0,0,0,0,0,0,0,0,0,0,0,0,0,0,0,0,0,0,0,0,0,0,0,0,0,0,0,0,0,0,0,0,0,0,0,0,0,0,0,0,0,0,0,0,0,0,0,0,0,0,0,0,0,0,0,0,0,0,0,0,0,0,0,0,0,0,0,0,0,0,0,0,0,0,0,0,0,0,0,0,0,0,0,0,0,0,0,0,0,0,0,0,0,0,0,0,0,0,0,0,0,0,0,0,0,0,0,0,0,0,0,0,0,0,0,0,0,0,0,0,0,0,0,0,0,0,0,0,0,0,0,0,0,0,0,0,0,0,0,0,0,0,0,0,0,0,0,0,0,0,0,0,0,0,0,0,0,0,0,0,0,0,0,0,0,0,0,0,0,0,0,0,0,0,0,0,0,0,0,0,0,0,0,0,0,0,0,0,0,0,0,0,0,0,0,0,0,0,0,0,0,0,0,0,0,0,0,0,0,0,0,0,0,0,0,0,0,0,0,0,0,0,0,0,0,0,0,0,0,0,0,0,0,0,0,0,0,0,0,0,0,0,0,0,0,0,0,0,0,0,0,0,0,0,0,0,0,0,0,0,0,0,0,0,0,0,0,0,0,0,0,0,0,0,0,0,0,0,0,0,0,0,0,0,0,0,0,0,0,0,0,0,0,0,0,0,0,0,0,0,0,0,0,0,0,0,0,0,0,0,0,0,0,0,0,0,0,0,0,0,0,0,0,0,0,0,0,0,0,0,0,0,0,0,0,0,0,0,0,0,0,0,0,0,0,0,0,0,0,0,0,0,0,0,0,0,0,0,0,0,0,0,0,0,0,0,0,0,0,0,0,0,0,0,0,0,0,0,0,0,0,0,0,0,0,0,0,0,0,0,0,0,0,0,0,0,0,0,0,0,0,0,0,0,0,0,0,0,0,0,0,0,0,0,0,0,0,0,0,0,0,0,0,0,0,0,0,0,0,0,0,0,0,0,0,0,0,0,0,0,0,0,0,0,0,0,0,0,0,0,0,0,0,0,0,0,0,0,0,0,0,0,0,0,0,0,0,0,0,0,0,0,0,0,0,0,0,0,0,0,0,0,0,0,0,0,0,0,0,0,0,0,0,0,0,0,0,0,0,0,0,0,0,0,0,0,0,0,0,0,0,0,0,0,0,0,0,0,0,0,0,0,0,0,0,0,0,0,0,0,0,0,0,0,0,0,0,0,0,0,0,0,0,0,0,0,0,0,0,0,0,0,0,0,0,0,0,0,0,0,0,0,0,0,0,0,0,0,0,0,0,0,0,0,0,0,0,0,0
##end
outputCount=584
weightIndex=0,29784,135984
weights=##1
##double#135984
   -0.3751396592,-0.0421713995,-0.9967872691,-0.6800521288,-5.2008182581,-0.5691072159,-1.1526792023,2.6174724252,-0.5099098993,-1.1584506859,-0.7570624908,5.0923829589,-0.0640391481,-1.2459976714,-0.4070360805,-1.5050272437,-0.0793307596,-1.0975106397,-0.0392269023,-301.4664936794,-0.5482039252,-1.065629071,-0.2719174884,-0.6612085405,0.3790108229,1.4655957627,1.4643097099,-1.2784250963,0.3034804404,5.9843074116,2.871527813,-0.4030755495,-2.0487778895,2.2014269784,-0.2567974549,-1.3297843117,-0.0764081939,1.8487340476,-26.88632454,-0.5386027863,0.6505835409,-0.2219858734,-0.3328270021,-0.3369875384,-1.1876574402,-0.8746818678,0.7678053701,-0.6789069661,-238.7227239876,-1.2340222372,-0.4905035564,-0.7629842494,-0.535844953,-0.866168278,-0.2339404494,-4.3031518206,0.0000863322,-0.5101831623,2.4399661094,-0.3970873911,-1.0295235655,-0.4398032824,5.4975647647,-0.6652554197,-0.8165182989,-0.3152470416,-1.7031759095,1.075311656,-1.4494344834,0.1615122321,1023.8785700371,-0.3902883717,-0.8268872305,-0.4323041074,-0.0874858461,0.222321695,1.8808936111,2.5086406677,-1.5718694706,0.578626082,5.3668063916,2.4528777858,-0.4436759069,-2.1711693938,0.6454813453,-0.5465883264,-2.6081762125,0.1744185717,0.8345669552,-51.9680125376,-0.4209828165,0.1701917192,-0.4804974527,-0.8495810804,-0.2492368432,-1.1018925139,-1.0093745879,1.2142128834,-0.2812444584,11.353984574,-1.8246651079,-0.5099947336,-0.5197028343,1.4498316199,-1.1209017061,-0.8148712448,-3.8843420598,-0.4850335356,-0.3343904088,1.8682669883,-0.3241047452,-1.0584723158,-0.2848163109,5.7302759216,-0.09482465,-0.8248044771,-0.2927931477,-1.5250528038,0.8701672044,-0.9496189385,0.0671244496,-349.3933476606,-0.7164159254,-0.7943853817,0.0407740541,-0.1635902059,0.567583207,2.0203502942,1.1608996848,-1.6611557609,0.8610820234,5.396504431,2.4906632082,-0.5933372471,-2.5134696392,0.6990025287,-0.4111752764,-2.0545972061,-0.0272035681,-0.0802973621,-50.8909620762,0.0108866027,-0.7036233246,0.2239251956,-0.5086783713,-0.457608975,-0.6421454833,-1.3143833938,1.2010116378,-31.662039806,-73.8546481504,-2.2407113635,-1.1562746954,-0.8177204162,2.43547523,-2.138996462,-0.6745826337,-4.050749044,-0.2698844294,-0.7749252672,2.4687691771,0.00221853,-0.8490257714,-0.4039122535,4.5594439895,-8.5545261538,-0.7390665295,-0.3298634044,-1.7939004758,1.0752163135,-1.0790036184,-0.2031464149,-37.8687724693,-0.1397100063,-0.5919029073,-0.1096889004,-0.5825618058,0.2862918252,2.1508753474,-2.2594206757,-1.9160387092,0.0420167535,6.2622910127,2.0481638847,-0.2740182671,-1.3484806652,1.1666817934,-0.289700063,-1.7042181473,0.0381168013,-0.0144579327,-44.0293825311,0.0477239515,-0.4508505913,-0.6157544027,-0.7510454895,-0.1996361603,-1.0615195804,-1.0228020349,0.2563609814,-0.2574413607,-688.661489231,-1.3097488074,-1.6605199492,-0.7252843188,1.6864574611,-0.4147467163,-0.6835380361,-2.5165164481,-0.4176820588,-0.8336366472,2.7269054745,-0.1906377194,-0.8008891709,-0.0654132213,4.0928469335,-0.0494798299,-3.3068832493,-0.6577484182,-1.2342289732,0.5175055009,-1.3930570767,-0.7866764643,-391.9225890241,-0.2097038709,-0.8178137981,0.2742212633,-0.1148534669,0.4267186773,1.8227417598,7.7523505277,-1.4864265533,0.0083593139,5.8998746994,2.3331345144,-0.4493523759,-2.1812672483,0.7604494899,-0.6791067113,-1.4557625932,-0.5023414284,-0.2908011751,-31.605300572,0.1193857578,0.2140188181,-0.2573422441,-0.5835093719,-0.5136675268,-0.8799167516,-1.6076489615,-0.0058414579,-1.238903119,-235.8372714101,-1.2737901608,-0.8450104469,-0.6230011611,0.9357864234,-0.3453709108,-0.4107918257,-2.731514314,-0.5263337963,-0.310587091,3.1995605173,-0.5308297933,-0.9416171582,-0.4891503862,4.9291220794,-0.8519824525,-4.5348609129,-0.7327852328,-0.8522361452,-0.1379976587,-1.3348507731,-0.2108109299,-220.657072818,-0.7590810672,-0.7549109082,0.2078093513,-0.5567497683,0.2512923953,1.6538759571,0.887189665,-2.0199483495,-0.3795073411,5.9448700611,2.3670344068,-0.6969890589,-1.4516428485,0.6066606521,0.7237842396,-1.1686078059,0.4997101148,-0.6972694855,-16.5968040331,-0.1200989633,-0.248418493,-0.2616956018,-0.4984798776,-0.395186061,-1.6774407801,-1.4302885278,-0.3570956153,-0.8219947576,-1571.2038008126,-1.9629915001,-0.1903965069,-0.3503817789,1.0578122761,-0.5423434506,-0.7309433643,-0.9073268384,-0.324914455,-0.4625852496,2.2364215896,-0.5728515221,-0.7687800017,-0.4877056754,6.0267019204,-0.9466033574,-3.8415802933,-2.324635949,-0.8017369569,1.0236671111,-0.8808808056,-0.3434280302,-280.5938000905,-0.7409865061,-0.4038812766,0.2038971982,-0.1821563199,0.036680312,1.389116234,0.2536253639,-2.0139134472,-0.0854298717,6.2752129188,1.7484049356,-0.8522531039,-1.5218422552,0.5641685785,-0.8590641138,-0.8818607283,0.3099548755,-0.5242280384,-14.2868487703,-0.3541139185,-2.5513739383,-0.5249041012,-0.1842161704,0.0930593366,-1.6200259461,-0.8888014659,0.6609475711,-4.0025161275,-201.6452022238,-0.8632394835,-0.8725360099,-0.4668746581,0.6027226518,-0.2934210566,-0.5522588387,-2.4071964123,-0.49725612,-0.5472916443,4.3590942817,-0.4484299751,-0.6446284739,-0.2014125319,4.6613821454,-1.4914508496,-1.7491115317,-1.4571756767,-1.4409111832,0.0894460051,-1.7460171522,-0.0343841778,-100.6704164871,-0.3044620857,-0.4458139036,-0.3322164119,-0.3365816531,0.1237700624,1.3320291738,-1.4473969889,-1.3026236228,-0.5443191294,7.8361606836,1.9670518385,-0.4344024773,-1.0010460228,1.025178881,-0.5027069494,-1.1403404184,0.582382152,-0.8089412467,-21.3489379583,-0.4789105701,-2.046187801,-0.4616840734,-0.2724880874,-0.4625067673,-1.118489598,-1.7070490696,-0.1685576189,-0.4900609205,-419.1201666893,-1.8711630561,-0.3452302246,-0.2417225445,-0.1315546906,-1.1226675381,-0.2748764013,-1.7798811154,-0.1419420855,-0.7630539647,4.6620969669,-0.6986356517,-1.087498535,-0.2948761752,6.2914530173,-3.3163918031,-2.3457770266,-0.0972449102,-0.6872424998,0.0971997358,-1.338227545,0.260791419,-285.0286173487,-0.2047669825,-0.6195309588,-0.7613764242,-0.8776964469,0.4363864428,1.2518461809,-2.2128815271,-1.2194237179,-0.5974028454,8.3248441996,0.381099402,-0.1852794132,-0.9399064218,1.0278231453,-0.461790062,-1.2631181249,-1.039629186,-0.6303342165,-26.7380360792,-0.3149515242,-0.4147813531,-0.5622174072,-0.4946849656,0.0117268275,-1.1234714705,-1.1946461533,-0.6352232691,-0.3646110893,-724.2237842466,-1.4170976883,-1.5233417564,-0.2827560295,1.8715970074,-0.6457321237,-0.1773887017,-2.3160897835,0.0478655176,-0.4366282037,3.4050508846,0.1352167797,-0.8826048376,0.2219704532,4.9196007184,0.492060756,-1.3761427558,-1.4984041873,-2.2280580297,0.2955466105,-1.5261226102,-0.7402352176,-16.6665948296,-0.8662733663,-0.2982189946,-0.4577899426,-0.0678505107,0.406572863,2.0076629619,1.0225390858,0.136840913,-0.460922748,10.5903427976,0.7440590103,-0.8320739007,-2.1194179183,0.6151775521,-0.2801992754,-1.926570207,-0.4445261894,-0.7988559572,-24.0428648004,-0.3889713157,0.023086448,-0.4457221767,-1.0552744772,-0.2684005568,-0.5089858155,-1.9718881485,-0.6682468553,0.1785618909,-674.9600863962,-1.6772075797,-0.4330511756,-1.3784564686,0.3446246842,-2.6039739607,-0.5380057091,-1.1859275429,-0.5623928315,-0.2772919451,3.3775704739,-0.1811331494,-2.4763234317,-0.0849596803,7.2580373301,-1.3892307208,-6.0714668718,-0.5898542583,-1.8501044835,1.5637128416,-0.6782383012,-0.5285869694,-303.7399486335,0.1461403016,-0.0938053628,-0.714382977,-0.6144034207,0.0803762019,1.4807076349,-3.3490680599,-1.6681998579,-0.0032450292,8.5955269552,-0.5176259896,-0.2402699138,-0.7689648581,2.3619397931,-0.546792326,-1.4873271546,-1.6762550929,-0.971694416,-15.1217662116,0.1073586136,-0.4872069156,-0.6447715504,-0.7366634566,-0.1228903865,-1.6940384444,-0.635329316,-0.3241775853,-0.2932096936,39.5405877618,-0.4970813466,-1.4897795539,-0.5620167302,1.5519209748,-1.239200926,-0.5432853732,-0.5858789526,0.0186719914,-0.0793102876,4.3496540977,-0.2253537972,-1.8612158561,-0.5674990506,6.2920514154,-32.1544128068,-9.1065421762,-0.5280493793,-1.0524120855,0.4699365369,-1.5175332007,-1.0926455163,-265.0494736039,-0.7118684803,-0.3929640976,-0.5262152483,-0.5307475547,0.63409327,1.5781109431,5.2988175708,-1.7457977555,-0.5496618969,7.5973286977,-0.3637510462,-0.4368561416,-2.4475789254,0.6483755115,-0.6961158409,-2.4231470436,-0.5197098648,-0.3579217406,-8.754494332,-0.538015353,-0.039205913,-0.5071675607,-0.2512739199,-1.0879803963,-0.4989232807,-0.666727816,-0.5144332577,-0.8156885514,-46.9497167492,-0.4218450002,-0.9182501854,-0.6077625426,3.038882805,-1.9028168716,-0.5718822707,-0.1831220388,-0.277920894,-0.7582765255,4.492800066,-0.3918069452,-0.9225923617,-0.6981976271,5.1207570543,-0.264903923,-5.3093022968,-1.7096710228,-1.691385149,1.3286555379,-0.741452501,-0.6279484837,-328.8971500724,-0.3061211465,-0.1781131943,-0.4527374019,-0.0232249926,0.0709447065,1.6803592689,2.8196528443,-1.8148969317,0.2182593263,7.4045014118,-0.0833349919,-0.4560149511,-1.8339853664,0.4889661807,-0.6470419397,-2.3840896693,-1.1700514279,-0.2573101434,-9.0536094766,-0.4426055556,-0.3097356325,-0.5397149428,-0.8948217864,-0.1628008869,-1.5554916489,-0.7101285765,0.12967303,-0.333483482,-228.4261787121,-0.4366349136,-0.8852716738,-0.6773080767,1.7821732553,-0.7371067548,-0.3105479704,-0.549323482,-0.197790127,-0.3395177563,4.2298513631,-0.381860981,-0.558276551,-0.0056537829,4.3674956133,-2.93181224,-2.6954632822,-0.3969382806,-0.8351471951,-0.1630944048,-1.3330675782,-1.3903093615,415.0758234332,-0.6652034944,-0.565035827,-0.1855797482,-0.2494597901,-0.2092870633,1.8055401644,5.3545934572,-1.7090039728,0.2392547111,6.7701035314,2.0165253538,-0.2192961731,-1.4080380339,0.57738418,-0.5070753365,-2.2946625577,-1.4844656912,-0.7347514231,-0.5040436967,-0.6282171586,0.329581318,-0.4404285101,-0.3430954396,-0.4357539953,-1.82153869,-0.6397698757,-0.6696701734,-1.2191943755,-299.5199055478,-1.727371133,-0.7473280778,-0.7883156166,2.2225477322,-1.2730189039,-0.4788577087,-0.1786824813,-0.2532674316,-0.3389049634,3.7753229778,-0.0925827755,-1.8122679219,-0.3480436906,4.2490053962,-0.144862828,-4.6175226259,0.0454425726,-1.4849149504,0.3144883409,-0.6318480849,-1.485812449,65.9628123909,-0.9686770559,-0.2061302126,-0.0359139643,-0.3985005626,0.3433015694,1.9473179691,2.3757785484,-1.5323153227,0.2334530719,6.6910807143,0.2722528089,-0.4908340786,-2.1554556991,1.1405272324,-0.0450970237,-2.7371824561,-0.8127429577,-0.7666400608,5.4584474705,-0.0110369742,-0.1004236267,-0.2816640167,0.2163467354,-0.7893858223,-0.890220856,-1.1970395094,0.3935611189,-0.2524973494,-26.7583083203,-1.7524607861,-1.2724875009,-0.678510513,-0.5342285715,-3.6234601137,-0.1798833983,-0.3232439137,-0.4567642437,-0.4451761683,3.9877776071,-0.6488863365,-1.282118315,-0.1909338064,6.6622748309,-0.773018104,-5.729996039,-0.750972639,-0.7500714403,0.9634498517,-0.7227861922,-0.8103598865,647.9882457432,-0.8206468201,-0.3769715241,-0.0039404078,-0.1961937549,0.3187962345,1.3884266601,-2.8428470187,-1.6837872841,0.0407324106,6.9792718644,-0.6165788041,-0.6360031051,-1.8733302441,2.1606173406,-0.5452614649,-2.0833656918,-0.143278953,-0.2233930111,5.9056721336,-0.5673225866,-0.6262329468,-0.7843078374,-0.6676109974,-0.937021137,-0.929915367,-0.8590043625,1.3833827824,-3.6721600223,-273.6033996483,-1.3278962086,-1.219034556,-0.7788158662,2.0626077168,-1.1133134609,-0.6697131783,-0.0234656931,0.1539851488,-0.1050895989,3.8342228297,0.0214060963,-1.7288785054,-0.1767755998,4.9786443419,-0.9003129587,-4.2086622225,-0.229617431,-1.9188587504,-0.0806699599,-1.0664379911,-1.4772849784,284.8617423426,-0.6795113699,-0.7840843581,-0.2259199074,-0.017612375,0.2192115855,1.8379463232,-1.3710918773,-2.2886885021,0.0504610541,6.3472132231,-2.7186733794,-0.6982693116,-1.5434729099,0.570786382,-0.670674725,-2.1838909263,-1.189149142,-0.6257613938,-9.4671336058,-0.5111297442,0.9350231655,0.392920597,-0.313913807,-0.677361547,-1.3196654377,-1.8379899188,1.2469487699,-0.8267081389,-311.2227522026,-2.5683036227,-0.299965555,-0.5432037716,0.0886115389,-1.4925111909,-0.4087823301,-0.6978288942,-0.3351779703,-0.8911468433,4.9647980872,0.0100024262,-1.2696199155,-0.3281278638,6.4675529763,-4.0773120237,-2.7913867309,-0.6256544843,-0.8707317768,0.8483188199,-0.6429026402,-0.6152461974,1103.3252443402,-0.3702420488,-1.0700316896,-0.6631075505,-0.3554749943,0.0062360234,1.2714306512,-5.3716191158,-2.1466684133,-0.1601125762,8.5331113349,-1.341940051,-0.5556170912,-1.1425454504,0.5439617373,-0.7009354288,-2.3800969947,-0.8503851532,-0.3655332482,-7.4257738607,-0.3958721952,0.2072346035,-0.6106964871,-0.4406312664,-0.2815555475,-1.4563909552,-0.557673198,1.5202315987,-0.6728920135,-268.727573967,-2.6748219121,-1.1627026769,-1.1357437501,0.4362030961,-2.4331599253,-0.8654331655,-1.1444626686,-0.6761618863,-0.6271053613,3.3427778916,-0.14097466,-0.8578951056,-0.3621842451,7.1118122127,0.780589564,-1.9311086614,-0.8620034349,-0.5997031564,0.1523307763,-1.106272198,-0.3026143631,1279.8602716365,-0.7249435963,-0.8697437033,-0.5300858506,-0.9114291122,-0.1360135741,1.8496175756,1.4456537247,-2.4691646424,-0.0688634122,7.9045920092,-0.3592108275,-0.5453374907,-1.0129118542,1.6278202372,-0.6691873668,-2.6042790924,-0.7169486712,-0.7617115967,-0.27706335,-0.3214509709,0.8925570653,-0.6560886589,-0.4476030992,-0.429480362,-1.6105485985,-1.2857554416,0.6282935177,-0.1946653252,-68.0602076512,-0.492170166,-0.3973531301,-0.901679015,1.3753404363,-0.9405027205,-0.0925984773,-0.4941257875,0.5838559305,-0.6814882657,4.6289173044,-0.1526606048,-1.3607027419,-0.1994613777,4.4173928602,0.4623848597,-1.9914604036,-0.5256901908,-0.9879197741,0.4029868667,-0.741216732,-0.8677226913,481.931091769,-1.2656592972,-0.7378656156,-0.3948725316,-0.1029506476,0.0584649117,2.016797403,1.4835070975,-2.5910511504,0.3490235585,8.8232391958,-0.5557976322,-0.2347100675,-1.7324252321,1.3709062081,-0.8328581474,-2.1257935871,-1.5466066934,-0.1672054134,2.2284714487,-0.1280895682,0.2398498167,0.0046138198,-0.2918520427,0.2776413675,-1.4928208738,-1.0812082886,0.8027935431,-50.8571570663,-691.1790453705,-3.4202814229,-1.0359704019,-0.6586222503,-0.5764660359,-3.828704925,-0.3090967179,-0.3329319703,-0.4119864763,-0.1359819219,2.8548216768,-0.3608933309,-0.454104943,-0.2972438521,6.8803525792,-2.0585536954,-0.5315379522,-0.1692424626,-0.7550701579,-0.2580672726,-0.6218284268,-0.8763778786,249.660896202,-0.941238754,-0.6900563946,-0.5340002649,-0.7115945603,-0.0344672196,2.0783513566,-3.5267466141,-2.7102481124,0.071619191,9.2355593645,0.1871145818,-0.6382115531,-0.9301113867,2.9467046463,-0.5919976085,-2.4734474213,0.253587091,-0.5465682845,13.7870737569,-0.293829505,-0.6493245628,-0.5970086196,-0.2431156734,-0.2648694671,-1.9272422417,-1.2376747449,1.1928824266,-0.5386967966,-1589.9607314346,-3.2702687194,-0.5210444385,-0.2395386265,-0.2412912246,-7.4240858868,-0.3124793983,-0.6355489808,0.0364533519,-0.7781059188,2.9100767821,-0.2333629761,-0.0386511246,-0.5100669334,6.6298813764,-0.3937848957,-2.2045431536,-0.4065285605,-0.4273132652,-0.027151833,-0.6374762658,-1.6263919041,-62.759630146,-0.3016974712,-0.733868367,-0.6467740515,-0.8659908295,-0.3114062303,2.0207824442,-2.5913908259,-2.3330803663,0.5028736159,10.8170526178,-0.2149598348,-0.794055399,-1.4086684956,4.7976686446,-0.7481371565,-2.8412454929,-0.8969379609,-0.537887549,25.8848251349,-0.529066268,0.0326926081,-0.2236753307,-0.3067292868,-1.0134840715,-1.8640696401,-0.7626077391,0.2718831951,-2.6009643152,-1867.0869454435,-1.1299675634,-0.6946405253,-0.7512448001,0.0139115524,-6.1614509153,-0.6954328015,-1.1541538849,-0.6686292533,-0.6338182892,4.9184198854,-0.2823939689,-1.2837385875,0.3584341397,7.3034480401,-4.0348174662,-4.877302172,-0.8588959109,-0.5414960819,1.7309241576,-0.542735762,-2.8097177179,1279.6028355768,-0.7378428967,-0.7637004541,-0.6688182148,-0.8134090392,-0.2160909583,2.3803531936,-1.5431700442,-1.3549459145,-0.1644299942,13.1274537784,1.236271982,-0.9585311155,-2.659830384,3.7618578261,-1.2239066752,-3.2002456708,-0.8252511738,-0.2708105812,32.2599553368,-0.3494545299,-0.3459611394,-0.6477126414,2.177741428,-2.1609639099,-0.9538305543,-0.2752754444,-1.012677451,-0.9030631183,-1522.0152634605,-0.9110948953,-1.2536258893,-0.1643331161,2.6695491643,-2.7120271995,-0.2990510098,-5.99875619,-0.2489857499,-0.5335752789,15.0547848926,-0.261732503,0.4465187763,-0.4648880261,15.8087149529,-13.3835603368,0.2588158107,-0.668590347,-1.0588668522,1.5632172788,-0.6402713957,-0.6869888687,347.7797322366,-0.8672583218,-0.4257997475,-1.8407487724,-0.6519750028,-2.1021499047,4.1731538272,6.5593525976,-1.6282564887,-0.3625033262,21.7620652448,1.2909557454,-1.0818957109,-4.7205437654,-11.0239032122,-0.619764367,-4.7772805505,-0.9613111109,-0.4218024445,31.0705897115,-0.5711914686,-3.1917599374,-0.197166604,-1.2130895743,-2.4544664448,-0.5627277625,-0.6394418564,-0.6711815384,-66.6876107129,-1433.2772287686,-0.1617536427,-0.0301598406,-1.3878176392,2.8311053062,-0.7719691276,-0.3223764016,-1.3026856922,0.5351545499,-2.6834517596,13.1353756675,0.1200894532,1.5913592136,-0.3310285036,12.9644215568,-0.2271200161,0.6058413053,-0.5149195318,-1.5812462439,1.718941232,-0.075061873,0.200126425,136.3777478662,-0.4622313702,-0.454354544,-1.5110002078,-0.3753708902,-1.3770622162,4.03018291,12.5772604582,-0.4527388453,-0.4130959193,20.1044676504,1.1563717561,-0.4298225747,-0.9935298527,-10.125157141,-0.904755172,-3.0308713693,-4.7606696539,-0.3944793057,13.3365298529,-0.4943622394,-0.6846829742,-0.296250674,-0.7107806564,-1.1938309717,-2.1174899942,-1.1408301126,-1.089217584,-10.5400388597,-930.0097716794,-4.9330677046,-1.3880534169,-0.2100828267,2.3153711356,-3.3981874573,-0.6623672509,-1.0111312691,-0.4681458869,-1.9755753622,5.4823810226,-0.0015481215,0.5041687452,-0.4171667491,7.8039906576,-10.8052376127,-2.0962439449,-1.5001167406,-0.9288149886,0.7579645397,0.0640067088,-0.5276026099,-21.9430389885,-0.6626685756,-0.7237100725,-0.915754552,-0.3786355083,0.5004628177,2.004400606,-1.7123731253,-0.7421711639,-0.2329466139,9.9388673456,-1.0037892709,-0.9605455423,-2.5354621144,-0.5252747801,-0.8275665025,-2.1534975586,0.1494782963,-0.2559885171,5.9895649437,-0.4130154347,-0.2679145371,-0.1676878455,0.8531831584,-1.122382007,-1.3474425652,-0.7019906623,0.0666583779,-1.4565567016,-1863.1400216346,-3.0931603327,-0.8163030837,-1.1083063357,2.2257975551,-3.2058539035,-0.5387688196,-0.2173206197,-0.0758867099,-0.7598801668,4.3726125109,-0.0598792766,-1.1719226052,-0.2458384318,4.3583136626,-0.2398443806,-6.1702481548,-0.1303724417,-1.0833656078,0.9422160862,-0.8650264783,-1.3495022926,-489.2729159643,-0.7910285704,-0.8058712478,-0.1002844386,-0.3179253136,0.6388138484,2.2479325311,6.8728655526,-0.5541556316,0.4779694334,7.3168573568,-0.3880366251,-0.6340044003,-1.7942906877,1.8351721539,-0.924623808,-2.2720411049,-1.8587584886,-0.5743493492,12.6013387598,-0.2314246167,0.4450244159,-0.3796367011,-0.2307238741,-0.5042495575,-1.0464406198,-1.441611876,0.3154343204,-0.3579360746,-316.2187707544,-2.0680801418,-0.7074110057,-0.4420094146,1.3164408379,-2.3822556101,-0.3862239136,-1.7864313735,-0.123393154,-0.3170278594,4.3745200347,-0.1970733633,0.1753045656,-0.3045705111,3.8886331796,-0.0279101206,-3.869212343,-0.5559173318,-0.8392878107,0.54709679,-1.1438062031,-1.7576076274,513.2686847049,-0.8094880989,-0.376598519,-0.2155457947,-0.6435023449,0.4718631588,1.8592482928,5.3606110635,-0.3989281912,1.1334135576,7.6144086069,0.5147538344,-0.3486075495,-2.6067346694,1.2184559528,-0.8443892872,-2.2079099561,-1.554984908,-0.1863387475,1.1717502519,-0.4624034861,-0.0438030986,0.0068148841,-0.3942209084,-0.6658996225,-0.4256440842,-0.9290781767,0.0844866351,-4.4373933443,-28.9887238543,-1.6933100376,-0.7461615601,-0.1629260741,0.7565871961,-2.9938993475,-0.7808944542,0.0376078231,-0.297990853,-0.3452089789,3.8904659208,-0.4732834655,0.5103114982,-0.188350853,4.0926397507,0.0763304367,-2.5445864092,-2.688180925,-0.5684733436,0.3100841118,-1.1136940563,-0.8170583614,-413.4417886468,-0.4081952622,-0.196401872,-0.3856503488,-0.4851696814,0.3813801542,1.9989390571,16.506230711,-0.682673573,1.2922211305,7.8723725005,0.8635217126,-0.4346706366,-2.4192013224,3.4884440819,-0.2112781346,-2.385897689,-1.2682054024,-0.0080955952,-4.2646849366,-0.516776947,-1.2903808219,-0.5337552545,-0.6490914951,-1.0841587418,-0.9338559222,-1.3634066683,0.0958102971,-1.5772002476,9.1894495094,-2.7721916912,-0.3778515627,-0.4335792707,-0.4623465717,-3.2436634661,-0.718804126,-0.0384288297,-0.2396410725,-0.8412563645,3.8173465666,-0.4410636926,-0.1038829815,-0.6015112449,6.311921747,-0.681995919,-3.7954063196,-1.408520629,-0.6492352109,-0.1309854602,-0.1755040039,0.1251393891,-12.4235641603,-0.6800975592,-0.720459953,-0.6377453962,-2.3149101605,-0.0798411439,1.559428633,-2.0688460435,-1.1773465911,1.4705779425,5.932991263,-0.8109725957,0.0593596432,-0.7149771593,5.0795640792,-0.6136438819,-1.3563031911,-1.4028826529,-0.2926705661,-6.1161143151,-0.5430651724,-1.4228925635,-0.2312259586,-0.1940868041,-0.6047714897,-2.3197682329,-1.0060397144,0.6719465037,-0.57827777,-809.8302373217,-1.971689505,-0.743113336,-0.3662931553,0.0961727356,-2.3602142693,-0.5542919506,-0.6853174805,-0.2985525826,-0.7595263157,3.8912048892,-0.2077202819,-1.0645305809,-0.2366153573,5.6548468212,0.6749146958,-5.7346528929,-1.8304951631,-0.3256919908,-0.7552542819,-0.5651104716,-0.8496768178,3.1102176734,-0.9679382902,-0.3292369275,-0.7580038611,-1.216023304,0.0427013761,2.2882488575,4.2115127499,-1.4074293031,0.7007238394,5.713234418,-1.0512992094,-0.5395876645,-1.2823790878,4.6855953624,-0.5790264127,-2.3280164995,-0.3742059955,-0.7412113885,4.8302513478,-0.3183838396,-0.7198611448,-0.4283747904,0.3818052746,-0.4846034384,-1.5324982481,-0.4924626131,0.2644486299,-31.3286670534,-91.3749478946,-0.910948198,-1.5236536039,-0.2359335627,1.674747545,-1.0010462146,-0.691799226,-0.3069412315,0.5762051145,-0.7289391134,4.3855037343,-0.2542507024,-0.5515232888,-0.5961835959,3.7248798765,0.2587700476,-5.6848139367,-2.9398110448,-0.8236815159,-0.5744964394,-0.9031558149,-0.982538217,475.6274427507,-1.0442437487,-0.4428362924,-0.2517082499,-0.726364599,0.2252324332,2.0864963452,-0.9543980125,-0.9924843497,0.6451810789,6.6536010324,-0.5982908535,-0.2307946477,-1.2632715935,2.2624385544,-0.6799449105,-2.1079119376,-0.4347921736,-0.5532629343,9.8231961393,-0.3521344269,-0.4379591723,0.5321652805,-0.2565358713,-0.6877594417,-1.2057165287,-1.1645911134,0.0759909919,0.2549199355,-3.1258377452,-2.0166171615,-0.9504914428,-0.8430632641,0.4727835341,-2.3071368894,-0.1797372968,-0.3929494504,-0.1380450318,-0.8539930753,4.8057613697,-0.2288208915,-0.577370919,-0.0769225011,5.2731596376,0.527730893,-6.466668374,-2.2395615742,-0.5317802473,0.2422145759,-0.4028413767,-0.7855531444,222.5942299983,-0.707873715,-0.1525905956,-0.296646728,-0.6885250875,0.5255282667,1.6594370063,4.5923803035,-0.4196551887,0.1861548806,7.5314083786,-0.2149082745,-0.7536062065,-1.7883188188,1.7113967318,-0.4826787603,-1.9874032611,-1.3220766233,-0.4930969907,5.1399518247,-0.2289731248,-1.1920726138,-0.4956419626,0.233844071,-0.0920836214,-1.1964103426,-0.5634859748,0.3365525298,-2.5448106073,17.6005560632,-0.2104297317,-1.4928783441,-0.7220320941,1.4656845038,-1.8160222415,-0.7621101758,-0.7602108913,-0.5485282666,-1.6855073046,4.8035707248,-0.2173095682,-0.0453925469,-0.1933397788,4.2538989484,-0.5477677028,-2.7451906597,-2.8464141915,-0.7356186126,0.0802086057,-0.3152962748,-0.7199499869,70.6802111762,-0.1085088638,-0.9915626787,-0.4614530771,-0.9303869438,0.6933043774,1.2651704923,3.0341212209,-0.5812109459,-0.0715095922,8.8000559241,-0.3691223908,-0.5327593946,-1.2857154461,0.9853324097,-0.1266145769,-1.465539087,-0.4124506837,-0.3237011798,2.156087458,-0.6789564673,-0.1864748096,-0.406510763,0.9986279957,0.0860313854,-1.4085464477,-0.5757727826,-0.2340771095,-1.1068022521,-63.6815216398,-1.4810315371,-1.0333995877,-0.6507886571,0.8191469726,-0.9964669239,-0.3539705708,-0.4839160776,-0.4012766449,-1.6768107728,3.3024097858,-0.1852394487,-0.3975270784,-0.7455994866,4.3318726278,-0.0901161867,-0.4247341826,-1.0557373193,-0.5132945702,-0.4108749178,-0.5831447253,-0.3830681952,-904.2633812818,-0.2279501078,-1.6613502862,-0.3357914184,-0.8578172932,0.6259502852,1.4906044216,2.6839996202,-0.640301865,0.0392039343,8.2480442166,-0.9384830421,-0.1106217908,-0.9963638633,0.4341915133,-0.6010338375,-1.4609787554,0.4343328982,-0.1003453861,-5.6230547656,-0.5979882458,-0.0093923414,-0.3574726823,0.3095827378,0.0024846412,-0.921544263,-1.3382942858,0.9904931738,-0.4444963096,30.3596261048,-3.0793723729,-0.8790435663,-0.7936067083,-0.5576171451,-1.1756597154,-0.1239023922,-0.4825413177,-0.1375305531,-1.084895784,3.5179264914,-0.5682014517,-0.5162046765,-0.7805088369,3.6168265224,-4.0898803202,-4.0989655687,-0.8476161652,-0.5532842417,-0.4588967955,-0.9983150389,-0.8842918647,-922.6490228283,-0.3166152347,-1.3878356404,-0.3085462983,-3.4254722536,0.3335471351,1.5708832563,2.0432092884,-0.885429037,0.2281164615,9.2154619272,-1.0384543624,-0.557496664,-0.6961477324,4.3597974443,-0.2615306054,-1.6792329889,0.3784256502,-0.7072482916,-1.0998703552,-0.7100926313,-0.3441199406,0.0797761988,0.1927510002,0.1448693292,-0.8391249412,-1.6415901711,1.4640996303,-0.6905300851,-285.2580679994,-3.4511032102,-0.1021141952,-2.026007478,-0.9019068358,0.0543227757,-0.4200348487,0.2851915449,-0.187901948,-1.819361265,3.8096881694,-0.2327275913,-1.2577330741,-0.4703965427,3.7160013768,-0.6941975873,-0.3072895777,-1.5187361961,0.0276989853,-1.6477084663,-0.618261684,-0.6305121182,-626.9501771283,-1.0885702698,-1.3941491821,-0.0430528766,-3.5341159749,0.2413513546,1.3029794452,1.9958608953,-0.465363661,0.3343940621,8.7270066674,0.9965855094,-0.4995648916,-0.7021328292,4.6648404982,-0.1199576752,-2.0532382161,0.451859944,-0.2133128064,10.7534633997,-0.1115231531,-0.0956465996,0.1914284288,0.1542848305,-0.0691041936,-0.7884691388,-0.6771564181,1.2906094684,-0.4569411958,-805.4753597317,-3.6048270291,-0.929017098,-0.4222716443,-1.4172052945,-0.0185974797,-0.5383675032,0.5439443826,-0.2340898996,-0.8321353404,2.9933198513,-0.6218140968,-1.6072876493,-0.4262657265,4.6470077019,0.3839693001,-2.1063701461,-1.1082324428,-0.2942898464,-1.6123201857,-0.8627229186,-0.6842054206,-473.7263247906,-0.8406363966,-1.1235707621,0.0418768771,-4.0475408456,0.1827741595,1.4554652223,2.3862992554,-0.2241209528,0.2081775566,7.8148018291,0.203103173,-0.2423840028,-1.0423333757,5.1272929615,-0.1748723099,-2.0729956696,0.2178020205,-0.8405211374,16.4922461355,-0.1598866718,0.0408179894,-0.1286837812,-0.1844743098,-0.1028016733,-0.7685587488,-1.4198841372,1.2944723279,-173.0218152183,-5.161767623,-3.4938850724,-0.2380432927,-0.4967398374,-0.4787234891,-0.4426899834,-0.0427782899,0.160541737,-0.5673076012,-1.2523787459,4.351751494,-0.372425561,-0.5639011628,-0.1842992398,4.8946654992,-3.9065687041,-0.2288705332,-0.9714813736,-0.3365709726,-0.7034277334,-0.1381912743,-0.1406123309,-826.4228919861,-0.89358878,-0.6741176439,0.2881526814,-6.3575548221,-0.0570440602,0.8736125756,2.6941113747,-0.7364623711,-0.4399461922,9.6326309803,1.1080530993,-0.6331468094,-0.7257317226,3.838166155,-0.1486867952,-1.6565986862,0.0008746758,-0.2681910973,14.1063424805,-0.0574440218,-0.6450267396,-0.4175633923,-0.3324950269,0.3331474202,-0.9570160464,-0.9040825555,1.4954352917,-0.4042572333,-1625.0138723965,-2.815449474,-1.4669432602,-0.3883367042,-0.1606206055,-0.3153619077,-0.2751220513,-0.502672101,-0.4624232094,-1.3015069597,4.2105881263,-0.6692444527,-0.9111108397,-0.643882432,5.4749279112,-3.9384499627,-0.603813153,-0.6106104001,-0.4672891227,0.0358494395,0.0847034748,0.3709474864,-30.1684152187,-1.1575337639,-1.4999702667,0.1320662257,-5.7406340826,0.1286527082,0.8827054439,1.164605271,-0.3514222596,0.1375007268,9.5179004069,-0.3351865878,-0.1365271313,-1.0039147283,1.4571300015,-0.5346087808,-1.1763294875,0.0963809813,-0.1458263964,28.0858227448,-0.0613263432,-0.3265473574,-0.4301177408,-0.1779546856,0.5197443929,-1.3083535726,-1.1149676356,1.5035231392,-0.3155824517,-1910.4553530296,-1.9587540822,-0.4874398609,-0.3611732952,-0.0690633162,-1.1587058609,-0.0328677271,-0.8017528237,-0.5192503355,-1.5310232231,4.6057441501
   -0.315179467,-0.2064026288,0.0415964279,5.9158516325,-0.361768123,1.7225300655,-1.2450953483,-0.309717934,0.5759556246,0.2518423083,0.5538018795,-635.43677454,-0.7571351842,-0.6349834383,0.2892560621,-4.6898691278,0.4772835494,1.0310873511,0.6955766048,-0.8835865229,-0.5422592452,8.1340978273,-1.5087841668,-0.2629035626,-0.531731402,0.8715291811,-0.5152956171,-1.4193043745,0.3948571935,-0.6336899647,23.3825892133,-0.3314786203,-2.087522803,-0.672943567,-0.0149396185,0.5599315971,-1.6847671967,-1.0361007343,0.8738354092,-0.1464302739,-1943.4371738015,-1.2231706617,-1.4971280876,-0.6351749201,0.1598821615,-0.1100014978,-0.6231874835,-0.4436875067,-0.2158788838,-2.1722344695,4.8415509234,-0.4576995874,-0.2253015543,-0.2935829309,4.5635038095,-0.5439491856,0.6414574044,-1.2490840516,-0.7528997983,0.3941773035,-0.2257288607,0.1795606123,-463.2289020004,-0.3436312496,-1.8035053794,0.2362333033,-5.2336931011,0.3526296373,0.5252463818,4.8997561059,-0.5134389674,-0.0728589056,8.897416037,-2.2240103811,-0.6249945504,-0.7177411368,1.5921184139,-0.851305417,-1.0693447286,0.6888301947,-0.3686521623,32.7535571528,-0.8047803617,-0.5500773681,-0.3065983113,-0.413438263,0.4446648406,-1.036435169,-1.2115059345,2.220281029,-0.4601814847,-1929.4804832908,-3.331678567,-0.1249161608,-0.7429641222,-0.4643299651,-0.6816448501,-0.1292790246,-0.0259741199,-0.3726005911,-1.4702554292,4.9934364914,-0.5413465617,-0.3394736088,-0.1523478256,4.4211828118,-0.1416301622,-0.4309882939,-0.6672257063,-0.4819700279,0.1431137146,0.0576611973,-0.3089865106,-122.6224563095,-0.6123530103,-2.2744110371,0.4215562227,-6.487384132,-0.1357121799,0.2742904105,3.8966614444,-0.610181249,-0.1895183797,8.4952167673,-1.3486848366,-0.4196929518,-0.5052637666,0.9030023035,-0.2402346593,-0.986554148,1.4952989306,-0.5241636632,33.3334292389,-0.5367325741,-0.1895749682,-0.3274946459,-0.4281258279,0.2835630497,-0.4218185774,-0.8018571778,1.7530451303,-11.9415802393,-1926.5910539959,-2.5643647574,-1.405987928,-0.2771279761,-1.08812766,-0.9331943514,-0.4857856454,-0.4490314329,-0.3276875572,-1.2641549896,4.9889825508,-0.3975729283,-0.377506465,-0.2837568018,4.2753466811,-0.9231142605,-0.7244169335,-2.0672097892,-0.1769831005,-0.4502037801,-0.1255971022,-0.5302453922,-623.9107065901,-0.1905651236,-2.0202568656,0.3370323868,-4.5245679166,0.1454071178,-0.1573125031,-5.2248013561,-0.8717093832,-0.2326513267,7.9402153011,-1.3034201306,-0.0236830103,-0.5122053387,2.2926539182,-0.6823359798,-0.708112312,1.3043140285,-0.4238102675,31.6080356007,-0.8554371408,-0.3765745028,-0.260459086,0.005337542,-0.2417181872,-0.1578521178,-0.7296259632,1.4701500518,-290.1305291193,-1985.1755333879,-2.5861313236,-1.4487751706,-0.5002147782,-0.5595030937,-1.1705327334,-0.5799233756,-1.039479885,-0.7373234908,-1.5421789079,6.3369770159,-0.2974130275,-0.1580141399,-0.7338496803,3.2888847698,-0.3306436612,0.5401652025,-0.7789125873,-0.0639817869,-0.13874209,-0.1142199037,0.1738450986,-690.3120825201,-0.1386378813,-1.615107945,-0.0174645161,-5.7374311776,0.0926998272,-0.1036117903,-0.0737542761,-0.913870266,-0.3170094279,9.0869847072,-1.6334573354,-0.2927168252,-1.2014210712,0.4861781239,-0.7571153065,-0.6020215061,1.9489853447,-0.4585997301,32.1596470812,-0.6502325118,0.00669601,-0.5179255154,-0.3753041351,-0.5069144058,-0.5328700452,-0.1344331563,1.6227966069,-0.1845384966,-1055.0634103951,-1.9884626817,-0.3398313802,-0.0903513811,-1.4072523494,-1.2391253458,-0.4922451975,-1.4427504252,-0.1549565416,-0.90091805,5.1330863948,-0.4808127278,0.1594855224,-0.5164807408,3.4687742465,-1.6814796052,-0.1287071637,-0.1013234827,-0.312522886,-0.2283476895,-0.2096083923,-0.4475362351,-785.1515592932,-0.5363233001,-1.9125792422,-0.0161193028,-3.3478260717,0.1855545095,-0.0418232404,-3.3902611016,-1.0561151855,-0.3937810886,8.888118447,-1.9644185809,-0.6644638913,-0.5322204194,-0.2167183247,-0.7070768187,-0.6007923898,2.1173844829,-0.3353178683,33.9243770825,-0.4581959694,-0.2519894593,-0.5961666933,-0.2176584489,-0.6857320362,-0.4747680823,-0.8950491,1.7579218737,-57.9323884812,-1953.7086264723,-2.7922918737,-0.7010454505,-0.1374389464,-1.3143952231,-1.6714174135,-0.7017190646,-1.0608445529,-0.2260814925,-0.4471193379,5.8480864876,-0.6088481606,0.1376492938,-0.7561905928,2.5590395062,-0.8933246709,-2.1393579427,-0.3649036155,-0.4288607052,-0.8982741117,-0.1061933756,-1.2452673943,-957.2956033125,-0.1082444803,-1.4551141079,0.0768548026,-3.6205738747,0.5020702701,0.1804840975,3.3251556605,-1.230342702,-0.8159715826,7.9853030105,-1.4862824484,-0.2843082754,-0.9670397576,0.8269158962,-0.838615216,-0.7142664951,1.6327370814,-0.5225766991,33.0884782808,-0.6249230487,0.404722043,-0.1513601221,0.0831893467,-0.6818973604,-0.24808894,-0.4695282468,1.055041147,-3.5092187352,-1948.1697748814,-1.8620625085,-0.4520702825,-0.3940678445,-2.1192050467,-2.4522781138,-0.4300970468,-1.237099764,-0.0761521746,-0.3152905639,5.1659287665,0.0016031578,0.100587489,-0.6933480786,3.5177209064,-0.5212827537,-5.901264022,-0.5066213659,-0.6713538485,-0.6212204171,-0.1118796624,-0.9483603477,-621.3219045556,-0.1651974639,-1.7939809076,-0.1346838783,-1.96223696,0.6549924091,0.4238946081,3.5644502734,-1.3554538551,-0.7109944794,7.5681124622,-2.1041483553,-0.9859948294,-0.6137898089,1.7098221145,-1.4878837076,-0.5891663979,1.5674040289,-0.6751015219,35.6063450328,-0.6326687811,-0.3343253256,-0.2674011677,0.2690774094,-1.062901532,-0.0864306771,-1.3745625557,1.6309952676,-3.3555249591,-2246.0377975094,-1.6832667262,-0.2821051583,-0.6559806202,-0.1009537175,-1.9119903484,-0.6562277657,-3.0863277092,-0.3062568766,-1.0512650037,6.7457923503,-0.2334078269,-0.4853579362,-0.0009365313,2.2555350111,-4.224060749,-2.8824802228,-0.1523637996,-0.7752367046,-0.1563477277,0.1711125599,-0.5930593721,-581.6515715055,-0.5535550872,-1.4016705852,0.0647493106,-1.9191674051,0.5438031303,0.4163096665,0.1219550203,-1.1113437039,-0.6428627748,6.1846039075,-4.0216920442,-0.7082145327,-0.2373449831,2.4232593002,-0.3375463664,-0.632387711,1.5689247395,-0.237953277,25.5813180156,-0.5641392634,-0.0087756214,-0.0078492906,-0.4171880273,-0.7396488678,-0.8427495942,-0.5387830219,0.6889754131,-348.7199032109,-2002.9622057672,-2.585222859,-1.1998345557,-0.4317095347,0.5223120757,-2.1333960627,-0.4381297773,-0.7262993658,-0.2833394049,-1.4347357897,6.4475405372,-0.4416642502,-0.0031265995,-0.1847900427,3.8851544326,0.0555769171,-1.3896215463,-0.5840802477,-0.2869844172,-0.1502782413,0.4487591081,0.0796238773,350.6343364352,-0.6288145753,-1.8403946098,0.1810457934,-4.1779228621,0.360294235,0.0998466324,2.0617794787,-0.6084035103,-0.0928093778,6.9518894034,-4.0414044823,-0.5440680533,-0.4671434691,-0.2517790251,-0.4227057251,-0.4607048421,1.196315471,-0.4866294224,28.5153952193,-0.1723672324,-0.2027342588,-0.5981521183,-0.7093102951,-0.6767604328,-1.3265312203,-0.4293094028,1.3074137979,-44.807633474,-1935.8650395578,-2.0285238466,-1.075130662,-0.4274606019,1.2240991784,-2.0074464769,-0.7663757722,-2.0550747197,-0.4236662605,-1.7791453025,6.0956653656,-0.4145339979,0.0526521548,-0.0404296823,2.9812646589,-0.6022561095,-1.4776891492,-0.4452251721,-0.6553889483,-0.0625455661,0.024273398,-0.8252931092,-267.1059700562,-0.6253853996,-1.3329740526,0.1478145534,-2.1291021646,0.3253690519,0.4935108894,4.8900401672,-0.5785067502,-0.3101655049,6.1930411349,-4.1808535773,-0.2609337722,-0.2509988499,-0.2737493499,-0.6958045881,-0.4649426218,1.4063843273,-0.5539294097,26.4957141556,-0.2149220977,-0.5567758425,-0.5007256206,-0.2684268917,-0.8281864816,-1.2206639963,-0.3693105748,0.8143693273,-175.3469195439,-1002.3169159726,-2.0639998024,-1.0136225339,-0.2113372753,1.1385524591,-0.7311875989,-0.2942929339,-4.0420604779,-0.5719979725,-2.4569795605,6.5462833872,-0.3792829638,-0.1042303744,-0.0169934731,2.1288423649,-0.2782047719,0.0154603652,-0.1969152206,-0.7548083277,-0.1781189738,-0.5232828749,-0.7968235854,-24.6971787075,-0.667914217,-0.7738968129,0.1192042693,-2.8289301979,0.5059570628,0.4732003275,16.8580591181,0.1612338392,-0.2915032109,7.4774084498,-4.4919374507,-0.0638981669,-0.3152130779,1.2265855783,-0.3474990539,-0.3930638392,0.8040886675,-0.7268658588,22.4820752814,-0.5084777082,-0.4407320797,-0.3872951053,-0.1758361832,-0.6404740654,-0.9567334096,-0.6348532472,0.6036532645,-8.7449177682,-831.1030392516,-3.0773159656,-0.5499983773,-0.3185259692,0.0608448602,-1.7592555961,-0.6879969705,-3.8068172478,-0.3783498959,-0.5950705512,6.2800881081,-0.1977827096,0.581849388,-0.2700692025,2.5246664094,-1.4853270633,-0.6951166788,-0.0867740321,-0.6390701889,-0.1153229543,-0.4467305655,-0.9914239183,-801.948591038,-0.5698219903,-1.7755930727,-0.2768122072,-2.721617843,0.3145765344,0.6248651996,5.6481575705,-0.344917737,-0.3138392639,7.4257418377,-4.4906661399,-0.0982754434,-0.9677865609,0.2157540841,-0.7559248496,-0.3896867789,2.2755693121,-0.7031866453,5.5510356592,-0.0749558972,-0.4042704635,-0.1541987995,-0.6494683842,-1.0331771738,-0.433473682,-0.3788146531,0.6871076769,-2.9781960348,-1932.4016951227,-1.9296294356,-0.2387761219,-0.2350013236,0.005677953,-0.8544198804,-0.075440068,-3.5014896488,-0.344664135,-2.3671526267,6.2737992179,-0.0178734001,0.4297946708,0.163356555,2.0511761383,-0.6256324267,0.4637635277,-0.4400364843,-0.6734062724,-0.0145223798,0.0955825593,-0.1610426856,-486.1874067772,-0.6764782926,-0.711697529,-0.3667656187,-3.9549217329,0.4317486496,0.1435186078,2.108541211,-0.2563503793,-0.0990430502,7.8466285036,-3.8957969551,-0.2931149466,-0.5721627833,1.1645142081,-0.7141297655,-0.3846236838,1.4032062172,-0.6982334191,23.5357187506,-0.5417232231,-0.49814749,-0.6916131949,-0.5087259668,-0.26427434,-0.6161796381,-0.2969860915,0.6200894574,-4.1965604304,-305.1192569075,-1.877236923,-1.28266691,-0.7717525618,-1.2346852296,-1.1624986552,-0.5566673316,-2.5270574396,-0.6378945701,-0.6553428059,4.5727411599,-0.2588887676,0.364427687,-0.5398162542,2.6693435743,-0.4739866999,-0.3210548827,-0.3257281979,-0.28387317,-0.3625269221,-0.4009858749,-0.6427079879,-425.0356920563,-0.5709995197,-0.9853260628,-0.3514120768,-3.0122738131,0.1749169928,0.614230655,-3.1934866557,-0.9727920939,-1.0516413903,6.6986850667,-3.4815025952,-1.2902738156,-0.3338158793,1.4959728161,-0.9235459197,-0.1610679204,2.1752758619,-0.1733523699,21.2302808412,-0.6515109745,-0.3193718834,-0.6722891629,-0.2476776406,-0.4711715002,-0.2284720222,-0.3800024064,0.8129861516,-7.0778469024,-40.9467175427,-1.556375599,-0.3486904665,-0.0659608061,-0.3079563124,-0.8602475823,-0.5451522113,-3.2180097577,-0.322653541,-1.2639071274,5.704646733,-0.3743230413,0.6057499758,0.5485107441,1.5013350717,-1.2820431848,0.2960659335,-0.628961185,-0.5754938247,-0.248244949,-0.2758364634,-0.6442903984,-469.6045610983,-0.5000862759,-0.5198170633,-0.416680346,-3.6564698365,0.0910810935,0.7295605095,-2.4833604533,-0.725170971,-0.6977749215,6.89350975,-3.5850541108,-0.7147860213,-0.516115633,1.7275812404,-0.8103490586,-0.2137287112,2.0205002057,-0.6688755168,16.5954143421,-0.4518851876,-0.5169249829,-0.5579166966,-0.5283928149,-0.2095076598,-0.3666123661,-0.1160575189,0.2591118357,-70.2598899256,-47.0612913218,-2.2076522411,-1.4105119968,-0.541069693,0.569952643,-0.5115928479,-0.7035836844,-0.9702515644,-0.2808210497,-1.9830579013,6.1282243952,-0.1658408486,0.3546015019,-0.2083257568,1.1524552527,-0.3846609691,0.0898659558,-2.152583523,-0.6734489346,-0.4777666584,-0.3190116324,-0.6137008452,-380.3863221238,-0.482587457,-0.9564780894,-0.4418757431,-3.1126381084,0.2168516671,0.496067035,-0.9131187758,-0.7244847474,-0.6985480222,7.3462927779,-3.0923469645,-0.001582824,-0.2319568177,0.3239953102,-1.9438674498,0.0288045347,1.8255176155,-0.0602093088,19.7084353111,-0.8040449187,-0.4876194116,-0.2398053211,-0.4248066499,-0.6183027885,-0.1134964956,-0.3199532246,0.2372135812,-1.5783401448,-12.7323129228,-1.881532957,-0.9873219667,-0.3068857684,-0.2421999941,-2.3817410924,-0.4090701725,-1.4477501495,-0.5426088675,-0.6941600291,5.509064385,-0.0393692543,0.7075189091,-0.577435143,2.973201678,-0.5893633873,-2.447690696,-0.6331863536,-0.8566170558,-0.6947540877,0.1200179128,-0.9947331309,-832.6241335561,-0.2258658672,-1.464955543,-0.4822653868,-1.9163182548,0.121761625,0.6365992418,-1.6913835493,-1.2242079855,-0.4764828912,7.6769990262,-2.4403943817,-0.6984818663,-0.4767318907,0.0964330949,-1.3873516103,-0.2121129316,1.4140916207,-0.1385013771,22.0773012489,-0.1245458014,-0.7357661578,-0.6149883109,-0.5984562428,-0.9242411294,-0.6594327707,-0.4044774481,0.6059491784,-10.3309538916,-294.8780969129,-1.5209997229,-0.2440927389,-0.0818930912,0.6824654804,-2.3883896692,-0.7453917725,-2.1271829366,-0.9471655743,-1.5451974226,6.1707030291,-0.0631758519,0.7043557155,0.1754477148,1.5752579586,-3.7005480182,-1.0353538627,-0.2562171487,-0.6485208337,-0.3819074081,0.0433994912,-1.0335902685,-735.297878158,0.0322172822,-1.2871198556,-0.2230166453,-3.6113431807,0.4320049275,0.3608089483,-2.2941468607,-0.6511703697,-0.4446913753,7.233128235,-2.7958335596,-0.334390303,-0.4958942839,2.2364226961,-0.8986362974,-0.1124300685,1.0546427098,-0.3627457531,22.170961148,-0.2424092606,-0.257734656,-0.2392333156,-0.5281559499,-1.0345442549,-0.4474420529,-0.0659125046,0.0014798509,-14.5631991667,-380.9548192171,-2.0584655498,-1.2930311415,-0.5395126606,-0.0856583071,-3.043749768,-0.5047639436,-1.33039273,-0.4756055958,-1.2193253938,5.4155095215,0.1327720509,0.7517347515,0.0093778638,1.1505223343,-10.7451466113,-1.6026139037,-0.7054821852,-0.8475363804,-0.7551789757,-0.2052307062,-1.4944290841,-639.8629701531,-0.2249610932,-0.3603910108,-0.4180373062,-2.9779866845,0.1276970864,0.4282227098,-2.3622456123,-0.4849140852,-0.6240253011,7.2147543692,-2.4191404122,-0.5677532128,-0.6543641342,3.0743167709,-1.3950802581,-0.2601950669,0.8880868627,-0.5961863228,27.1685595745,-0.7131770089,0.07566675,-0.3146820192,-0.6175092743,-0.8834198582,-0.6793706314,-0.0691440254,-0.1714445049,-7.0447456041,-349.1477888775,-2.0018702044,0.0142853724,-0.1497554382,-0.2292523692,-1.7172768831,-0.6246022516,-2.489739705,-0.5014936361,-0.9187492814,5.0421677326,-0.1313032655,0.269455788,-0.3260189473,1.643383001,-1.0223257158,-3.327937421,-0.1948598527,-0.4791116536,-0.8469438912,-0.1429729582,-1.4885282142,-551.9965271718,-0.3144855959,-0.6171140384,-0.5115940779,-1.5873833514,0.0897498333,0.4717713068,-0.6151684726,-0.790416887,-0.4480395592,6.121810701,-1.7319008461,-0.369939063,-0.1543080317,2.324182969,-1.1972503027,0.0665336445,1.0972752205,-0.084470199,21.1803766173,-0.5008815244,-0.4712284087,-0.7385976481,-0.5546804322,-0.8551118505,-0.5022350605,0.3911797528,-0.255352887,-8.2815228931,-990.8200094491,-1.9484058936,-1.0918362322,-0.0706867668,-0.2042202824,-1.6370063057,-0.0800779714,-2.3547946726,-0.2741465589,-1.6608601306,4.6730786626,-0.1795181468,0.6647465786,-0.0206475717,1.9931158095,-0.3778053166,-4.2255887447,-0.2992581208,-0.7871005822,-0.4716431461,-0.0032403849,-1.542123158,-320.8073808913,-0.6543140774,-0.2988892698,-0.517009041,-2.4913989468,0.0971091601,0.5705788734,2.4357353144,-0.6933093443,-0.2387751814,8.3517199314,-1.2371579559,-0.4959608808,-0.8217253374,2.0894115451,-1.2136970793,0.2050041476,-0.036211584,-0.7178815305,18.383721806,-0.0407490553,-0.0191708743,-0.3864365857,-0.2848090339,-0.4972225397,-0.3338366196,-0.0452243935,0.0128979716,-2.5066705465,-1697.1950051906,-1.9280289478,-0.8502667875,-0.1726327492,-0.3898968823,-2.4312108009,-0.3021504229,-2.6168369298,-0.507047012,-0.5828211763,3.6357577784,0.0350340053,0.4205900906,-0.097253216,2.6078426225,-0.2532361836,-3.91276376,-0.062260209,-0.8012755705,-1.0276037833,-0.3217260208,-1.5839130979,-290.8877118738,-0.4839847085,-0.228756565,-0.7169000107,-1.3200883472,-0.2290150484,0.720481782,1.3160434288,-0.8236188403,-0.1276139364,8.9523275721,-1.5916402059,-0.4907010658,-0.8626867483,1.5102754915,-1.0610534712,0.1159908704,0.0160156375,-0.2185198256,21.732113573,-0.6899046143,-0.0375734875,-0.7226416009,-0.8139826208,-0.6395833491,-0.5801087103,-0.1085679331,-0.4964483083,-8.4064286862,-980.3496127284,-1.3699639772,-0.061212521,-0.0993696001,0.1768569855,-2.9641931745,-0.209064252,-2.5286718213,-0.4248382424,-0.4737553757,4.0741376444,-0.3061921694,0.7159227931,0.0361985105,1.6625729893,-0.9819049282,-2.6994490259,-0.2622786377,-0.7949059714,-0.7196780989,-0.3257957281,-1.4368796187,-727.1343020367,-0.2812233031,-0.8882754546,-0.7235517404,-1.9089438743,-0.0498363924,0.5082357367,-0.2658355075,-0.5618923577,-0.3328251605,8.9076886124,-1.9800338094,-0.7815771222,-0.5996222879,1.2175072955,-0.9113594742,0.0796982404,0.0360507204,-0.426452505,15.1128408878,-0.360630488,0.2620610874,0.0212519113,-0.6559612909,-0.530417811,-0.0495813422,0.2107395333,-0.0801233903,-3.71252292,-1975.9316163444,-1.599375903,-1.1057004149,-0.1100133746,-0.2597738448,-2.8459906632,-0.5117349754,-1.5809705254,-0.8615705269,-0.7053976836,3.6877412862,-0.5858220357,0.6800419506,-0.012716839,1.1752280365,-10.8909601014,0.0913150661,-0.4562998174,-0.5549590381,-0.6523632678,-0.555324622,-1.4199847772,-128.1661285841,0.0369329963,-0.5944996459,-0.7859394295,-1.5673745431,0.022797284,0.3655654009,-4.9961870582,-0.0879801792,-0.5413667282,8.6408863782,-2.0303585873,-0.2980855786,-0.8274014011,0.8328200082,-1.2783842268,0.2716713203,0.3302901459,-0.1573947673,16.4228189359,-0.1845386584,0.1127523245,-0.3868027623,-0.753958172,-0.4770780704,0.0410356401,0.4226696134,-0.5046729752,-0.356728186,-1696.3484880932,-1.965320638,-0.7666925844,-0.0628623528,-0.7852501346,-2.497228614,-0.6985761693,-0.6563615031,-0.7458091736,-0.9569129504,2.6218871694,-0.124661142,0.8127595443,-0.5053338232,1.8448800566,-0.4639913199,-1.6789853416,-0.6789891951,-0.482521885,-0.8730796603,-0.3827708296,-1.297060359,-369.9175728181,0.1509612586,-0.5148479561,-0.7636679275,-1.2028532614,0.0226729212,0.5882033195,-1.8859650762,-0.121645027,-0.4104900912,8.2760629353,-1.7151390838,-0.4799209246,-0.4491995601,0.3282461927,-1.3227389396,0.1437786134,0.3442191534,-0.6974115434,9.538404857,-0.1453282654,-0.2185602132,-0.5181139569,-0.3366480326,-0.411573925,-0.1871191645,0.3024584091,-0.5140476121,-25.2991826323,-9.9481930471,-1.9118771042,-0.4873452739,-0.2128086419,-0.0541981887,-2.9308841689,-0.5312803641,-1.4270435736,-0.4634971202,-1.7758337686,4.1810035296,0.0714470582,0.7297551208,-0.1837672493,1.4859230549,-30.0156789834,-3.0517763655,-0.7209664585,-0.6091992685,-1.1429331545,-0.3474703694,-1.0980770465,-112.6272998919,0.1946791162,-0.1348988033,-0.7825870837,-0.5619036285,0.0680140932,0.5953861263,0.8677062576,-0.0844795576,-0.3996844218,8.1051185196,-1.6154538636,0.0256033174,-0.3354334366,-0.1274849317,-1.2214794571,0.0249145373,0.1071227713,-0.2928122162,-6.5111065941,-0.6607245787,-0.1303077132,-0.6022435313,-0.3876765267,-0.580760516,-0.1775780457,0.6469279421,-1.1076096089,-22.4281208806,-19.1956389512,-2.0219687113,-1.3229946705,-0.3464460988,-0.1579744348,-3.2116407069,-0.6266371991,-2.3560268018,-0.2352147037,-0.7791062719,4.3190128409,0.2252952474,0.6061309295,-0.5517776072,1.2374374611,0.1726800729,-1.0408776478,-0.5351970092,-0.6241545153,-1.0189294806,-0.7423515919,-1.3840183052,-24.9810106096,-0.0719225638,-0.3514031519,-0.7928894605,-0.9170324041,-0.0748570142,0.5636583849,-1.5606584915,0.0832524649,-0.689587914,7.9622101307,-1.4917751956,-0.6007784661,-0.705582081,0.667256493,-1.4391807552,0.0253743932,-0.1482838458,-0.4337788265,-21.9335182911,-0.0368399501,-0.0178227115,-0.3443592375,-0.4459941085,-0.5402183274,-0.1389731211,0.7528386891,-0.879242288,-0.3369658246,-1643.3136072705,-1.6063175631,-0.2036419849,-0.3062495873,0.2421871152,-1.9609559748,-0.3903949405,-2.0678392052,-0.7877440449,-1.1504304451,3.5197343011,0.0594494763,0.2839182025,-0.3798894741,1.8162562329,-0.2932899968,-1.7047504197,-0.6429554002,-0.5632886791,-1.5316210862,-0.5335844379,-1.1184407719,-54.6094301625,-0.2102683645,-0.1132139001,-0.7505568161,-1.0210132082,-0.1241877575,0.4800542474,-0.9222205206,0.3351798462,-0.4652119186,7.9693692138,-1.4881824235,-0.9321099948,-0.3831599092,-0.1290836831,-1.1335333791,0.2619697307,-0.2599326751,-0.094103527,-14.3330598092,-0.6920529202,0.9382998177,-0.7160279241,-0.217195416,-0.5627629317,-0.3133921819,0.5483913653,-1.01009727,-15.0715816338,-1644.6438763811,-1.1345477298,-0.6959473335,-0.3256376293,-0.6403727618,-1.5565393882,-0.6230305922,-1.2365302438,-0.9562575374,-0.8826406442,2.6010297653,0.3030199916,0.2241441827,-0.1644835112,2.0052279846,-0.6288747055,-0.7633244237,-0.6836943823,-0.364142557,-1.1242572425,-0.4761027717,-0.9897675018,-164.0941084991,-0.4649807572,-0.7498546316,-0.886935825,-1.2558614124,0.0538057851,0.4149198283,-2.031747931,0.1136008568,-0.3529495293,6.968715301,-1.5289872057,-0.3722889123,-1.0766011124,-0.1113647595,-1.1979760079,0.2266353773,0.409048815,-0.3391174571,-21.8012066357,-0.3133768749,0.8235709001,-0.2924182042,-0.1806113091,-0.6840260038,0.0250363393,0.5412166982,-0.7497113264,-0.5200952215,-2016.0709692614,-1.7572635809,-0.5250819044,-0.5365473396,-0.4383688429,-0.8814308687,-0.1175444458,-1.2928501025,-0.3918018244,-1.1916186433,3.2087623458,-0.247257301,0.0986138121,-0.6722677882,1.3591403782,-0.7288227086,-0.9532841389,-0.4336981234,-0.5487233648,-1.2411719541,-0.387259728,-0.6509636546,-31.3585889464,-0.1258462197,-0.0624905671,-0.9150726497,-1.4833355755,0.0143287255,0.3635229932,-3.8892387111,0.0624961458,-0.3738419517,6.8765841789,-0.8273996723,-0.6408707586,-0.4805037693,0.6960788247,-1.1983944886,0.2893358482,-0.3457393775,-0.0663461841,-31.0426435807,-0.7280416827,0.005876729,-0.3464375104,-0.2349021815,-0.5239643981,-0.3927008243,0.7527048211,-0.7815401233,-1.3787382839,-2051.859200691,-1.8452086132,-0.349586797,-0.6141228843,-0.3167111553,-1.2005127185,-0.5304936425,-1.0924834431,-0.2626590222,-1.2628579226,2.5367471149,-0.1651297253,0.1210959001,-0.5414571797,1.7134281508,-0.3918336407,-2.1334139576,-0.3506424699,-0.2017874942,-1.0727474658,-0.4828520601,-0.7299626237,18.5890243898,-0.1754001362,-0.1694097861,-0.8596635843,-1.6325767958,-0.0119394464,0.2823842953,-10.2026218766,0.0646597316,-0.4047670592,6.4001895942,-1.0428246303,-0.5461400563,-0.8143351959,0.1901608252,-1.3608246777,0.3952172669,-0.3656350875,-0.0187560724,-7.6456011038,-0.1768332143,-0.2717045504,-0.6665309067,-0.4333439702,-0.3032433311,-0.3487074768,1.0673650003,-0.7986990627,-14.3597858261,-1925.2966359791,-0.868918868,-0.5608765601,-0.7114006777,-0.9936182648,-1.5211859287,-0.2838410677,-0.9203854176,-0.2096782976,-0.4440493509,1.8615421871,-0.1640479167,0.3428237024,-0.6769892813,1.5501507407,-0.7247460847,-3.5620396083,-0.3653273368,-0.3745463672,-1.1733642995,-0.6234993163,-0.8596907523,-52.6516407739,-0.6119485287,0.1134979602,-0.6559917084,-1.1058871248,-0.0182627655,0.4789677604,-7.1373172773,0.0073709709,-0.5499281917,5.4874135011,-1.5130132922,-0.5644239613,-0.7517671866,-0.0319267935,-1.1957558509,0.2975396168,-0.0052162284,-0.0750389543,-4.1843188636,-0.4340953688,-0.3447208542,-0.1363994184,-0.5690070072,-0.3688527255,-0.1268206327,0.8317939765,-0.9050252611,-21.3837786305,-37.5438408809,-1.3495934787,-0.2904113806,0.0049097959,-0.6141121303,-0.9133913154,-0.1053526097,-0.521996831,-0.3197464322,-0.5477986902,1.8044293963,-0.3396280671,0.378397601,0.0056373549,1.0200422043,0.1492946363,-3.8177884821,-0.1865328814,-0.5406212549,-0.9122477994,-0.3542642139,-0.9342492066,-138.3480439288,-0.2279079842,0.2393630727,-0.4555720038,-2.2304565421,-0.1083557141,0.4421264856,-3.2788315476,-0.2409923455,-0.2345586098,4.6715598532,-1.083350404,-0.1885513951,-0.744118105,0.0354844118,-1.3148747073,0.3531695874,-0.4369841114,-0.3508621433,-5.6038822617,-0.2252584778,-0.2322394094,-0.5502358996,-0.6635932775,-0.4255306379,-0.3330072691,0.7107703186,-1.0015599741,-249.9086686621,-1628.5428046928,-1.2631869913,-1.1508245842,-0.5362347506,-0.2217495006,-0.6667404056,-0.1793929602,-0.5486008089,-0.1288575781,-0.4268839699,1.5491981558,0.0109056381,0.2948038796,-0.4728399569,1.1974411001,-1.2763089884,-4.1142149986,-0.1173719553,-0.573577346,-0.8386745757,-0.2536800478,-1.1038259284,4.9930488496,-0.4462190962,-0.0986778444,-0.4861535676,-1.8593934742,-0.2506497687,0.4321749236,-2.4229144483,-0.4715063497,-0.3398776129,4.1158276506,-1.4265522778,-0.2966820723,-0.3633619215,-0.9984597841,-1.3343902634,0.2797311277,-0.2272528177,-0.1764018613,-4.1020275996,-0.5776600369,0.0558548059,-0.6090227049,-0.2298134874,-0.2995616504,-0.4955783974,0.7564833594,-1.0322012602,-42.773691971,-1943.0897229653,-0.8665106556,-0.8818687306,-0.4276029051,0.0450991561,-0.6472494704,-0.4713934782,-1.2378290525,-0.2532490016,-0.0558698277,1.3750408802,0.025148736,0.0801331786,-0.7073969224,1.2007452601,-0.4740127456,-3.3456998759,-0.6774017407,-0.6347679744,-0.695137796,-0.6418566017,-0.9801900514,1.5674803109,-0.508973367,-0.2423980853,-0.3882203638,-1.0184913279,-0.1007241288,0.3909324998,-7.1349637711,-0.4537276456,-0.1779228179,4.300131886,-1.8932332459,-0.5687478955,-0.5942349588,-1.3362313715,-1.0511476481,0.1532202457,-0.315533032,-0.2281571728,0.6488051707,-0.7323252418,-0.140138107,-0.0457531845,-0.4757776087,-0.4486960781,0.0122212934,0.6445033302,-0.8525203505,-52.0553564614,-1869.1303097425,-0.7710706244,-0.5587107903,-0.2506721937,-0.7051074245,-1.0700332791,-0.3139481875,-2.2654288722,-0.1331914608,-0.2257968094,1.5705684579,0.169844732,0.1111408871,-0.4892223742,1.7752022159,-0.0036877905,-4.3879101236,-0.6517143511,-0.2145405939,-0.5788177396,-0.7081806144,-0.8578185458,-15.6088116154,-0.5981381001,-0.5618424496,-0.342615058,-0.1690673554,0.01631406,0.4281062634,-7.6874593154,-0.7587380646,-0.0720394521,3.9702168495,-1.6121842989,-0.5185240617,-1.2357153315,-0.474799435,-0.8815315054,0.1297017808,-0.2559944917,-0.3097374438,-3.2578388377,-0.2128601326,-0.739778344,-0.6009841612,-0.5394294043,-0.6531806276,-0.1194116911,0.7128255112,-0.6746375728,-52.298131862,-703.2606348098,-0.2995329229,-0.3388533142,-0.5929536266,-0.026923098,-0.6919268395,-0.0909164102,-1.1894932572,-0.3170732856,-0.555512791,2.0705047689,0.1474707467,0.1869940658,0.0141014466,1.0576799632,-0.2035823985,-5.453230633,-0.5794972614,-0.1724199066,-0.6701330971,-0.5238498718,-0.7361243683,94.4983583242,-0.3229615835,-0.1912770905,-0.2497472568,-1.3944650819,-0.2100602396,0.5153069147,-3.426079224,-0.6522224555,-0.304180885,3.145710594,-1.6730815802,-0.5674567905,-0.7489417727,-0.4115147639,-1.1569409739,0.2841642059,-0.3056685745,0.2338713529,-4.0800533477,-0.7089764736,-0.5050970496,-0.7269907191,-0.5057838336,-0.4912022916,-0.378194249,0.8229640609,-1.1343793151,-16.2441996827,-725.5156445374,0.0804259883,-1.4862896455,-0.5556802014,-0.4632519039,-0.3905228644,-0.489236731,-0.8377120908,-0.6307279208,-0.3151929373,1.4160283705,-0.1905111703,0.1296612414,-0.360075003,0.4887868196,-0.2087731168,-4.8857247183,0.1070760464,-0.3900496244,-0.4648715969,-0.7288529008,-1.0517297435,-83.5010091562,-0.3573019707,-0.463387301,-0.163117834,-2.1571927228,-0.3016635532,0.5932899502,-1.0810287765,-0.535176174,-0.3923684686,2.69290853,-1.2148088512,-0.4482672223,-0.4359120619,-0.0846712586,-1.4828129232,0.3882274078,-0.2583478246,-0.0401732495,-5.9400678077,-0.1789045787,-0.3197780794,-0.1627373275,-0.0164364219,-0.5890530175,-0.5156767583,0.6461867425,-0.8903563721,-0.2483665011,-725.9513245901,-0.4887874189,-0.6881637555,-0.479382512,-0.7345972242,-0.6729025175,-0.1386492682,-1.0279743438,-0.576438488,-0.4537846911,0.9296020812,-0.2007035369,0.1114488974,-0.3926922544,0.5458767574,-27.5317206325,-4.9926331425,-0.0924037527,-0.1456344831,-0.3020007476,-0.6645431221,-0.8534517216,12.8378605165,-0.4967725292,-0.4507900051,-0.0712326277,-1.6029198705,-0.1995046165,0.4473139879,-15.1297679787,-0.5324064928,-0.2519074847,2.5275836723,-0.9882107423,-0.3349810473,-0.4054535503,-0.2232270771,-1.3693783888,0.2349725497,-0.1007395466,-0.2017602185,-6.4069388012,-0.3210940517,-0.6655758953,-0.2287706514,-0.3518897377,-0.4438637993,-0.1529896878,0.7610550692,-0.8440439229,-100.2660292233,-1576.6067887407,0.0509946981,-1.3351115704,-0.1639368094,-0.7796050033,-0.7257610521,-0.1470799593,-1.2691534232,-0.7163898809,-0.308610761,0.12163445,-0.1284059097,-0.0608554878,-0.5253456791,0.9006091259,-0.9230706666,-5.7735514743,-0.1296204275,-0.0905920476
   -0.6450650743,-0.7557819262,-0.8923790132,10.9375870303,-0.2176560706,-0.5231196291,-0.0369057997,-0.64021842,-0.0566940726,0.3098263435,-3.3262896695,-0.5827872089,-0.1614181659,2.6761742916,-0.3594341805,-0.5152763018,-0.481710218,-0.546371955,-1.0009040525,0.153587671,-0.2769244958,-0.06641191,-8.0695583157,-0.5239094527,-0.467744874,-0.5237943276,-0.3347305583,-0.5316282245,0.0281456786,0.5808002275,-0.8401422227,-444.0680758354,-1572.8705975776,-0.2521365714,-1.3272942099,-0.4441010738,-0.3073157278,-1.1066005727,-0.4886331825,-1.3833034054,-0.6135818934,-0.2824553826,0.5038794356,-0.3210463283,-0.1109839906,-0.6009398831,1.0361122512,-1.3977575647,-4.5264482321,-0.2114798949,-0.5133200067,-0.3515134628,-0.7439949496,-0.8950061561,35.5795542786,-0.3190863748,-0.2989972575,-0.0389093684,-0.5722102737,-0.0333685355,0.2891554455,-15.3215965372,-0.5147363738,-0.101719017,2.635399423,-1.2223364331,-0.5794905168,-0.8157184199,-0.9532048176,-0.9362504556,0.1468529818,-0.2466867285,0.1368094615,-15.8486876785,-0.494082902,-0.3287390546,-0.5265130498,-0.4132214853,-0.676036515,-0.0487062402,0.6973308941,-0.9300557394,-1.7545748237,-1868.9156046134,-0.0672094948,-0.7210745703,-0.3539461286,-0.3620447979,-1.2084282463,-0.4959321813,-1.2186564097,-0.6167229823,0.0044465099,0.0039094757,0.0004630132,-0.1167830391,-0.7160767119,1.215212722,-0.0256947968,-4.2024716273,-0.0476530475,-0.7357170756,-0.2749175837,-0.8155734326,-0.969719268,-906.7061431168,-0.4705079248,-0.3984261013,0.0242535107,-1.2448392656,-0.0009789326,0.4359985876,-5.5752790045,-0.4016394629,-0.3010765177,2.5163743455,-1.3761877436,-0.4932668344,-0.8949810163,-0.0171021733,-0.8553654927,0.1178321258,-0.4413347854,-0.3046237402,-30.8147071925,-0.0177850338,-0.2999356602,-0.3003808004,-0.3332447869,-0.7200227421,-0.3332295175,0.3819370826,-0.95354649,-111.2926572611,-3.6676479854,-0.2274956942,-0.0052770485,-0.2888846858,-0.0881174887,-0.6527891318,-0.2083757508,-0.8343079107,-0.2079775001,-0.0826520372,0.1440828926,-0.329718572,-0.3673249393,-0.6674728836,0.7929075162,-0.424255052,-4.7861490448,-0.4529823886,-0.8562392764,-0.3352464617,-0.6875991247,-1.1225552248,25.7869097801,-0.0130826132,-0.45104063,0.0499245391,-0.2053323247,-0.1001240045,0.5218155994,-17.5926413833,-0.1711646882,-0.5229307436,2.5544231515,-0.5490507934,-0.2581777797,-0.2437684656,-0.2891959762,-1.2882645396,-0.141847415,-0.7510114715,-0.1051052506,-15.6417486483,-0.2061475552,-1.3569424999,-0.4625564259,-0.0288403432,-0.3806873361,-0.3853935177,0.5785509943,-0.9721522567,-1.8790580819,-1528.6178920235,-0.2775370772,-0.9310954744,-0.4751952274,-0.226132395,-0.7446327723,-0.4627785918,-1.0909359335,-0.5285103161,-0.2292047026,-0.5972524654,-0.5493009448,-0.3756550853,-0.1890415605,0.7049890283,-0.6940796917,-5.0173495867,-0.4096879233,-0.5992165375,-0.4540813945,-0.893879116,-1.0493093673,68.1318266326,-0.5245839151,-0.3451204237,0.0732758315,-0.0312294204,-0.1431675115,0.411492039,-4.5378649224,0.0758776942,-0.4248966563,2.7311294145,-0.4270660824,-0.7536858892,-0.7638644188,0.0587052691,-0.6163730865,-0.280788642,-0.3443620928,-0.1243710457,-33.3220385695,-0.3186946327,-0.451138921,-0.3743897821,-0.1713752042,-0.4230181639,-0.1668972694,0.731437612,-0.9476524482,-125.1994848306,-1529.787149992,-0.1521510063,-0.9130697861,-0.3484968545,-0.203590493,-0.8253306991,-0.4623663467,-0.8206277756,-0.8013993103,-0.5321071476,-0.671945315,-0.0881784662,-0.0074793399,-0.1690160044,0.6636740241,-3.9214291698,-3.2167784386,-0.2469164106,-0.3645279121,-0.3668793329,-0.7934638737,-0.6243251871,-943.2830096102,-0.6485803046,-0.6073661901,-0.0082030709,-0.4270481879,-0.1080581513,0.083886971,-5.591146055,0.0607558159,-0.262915524,2.0987864239,-1.0001312203,-0.4309940906,-0.5932879274,-0.9949592901,-0.7659755685,-0.1801769986,-0.0124485711,-0.2743689248,-25.6936770644,0.0406401331,-1.0105249801,-0.2651993,-0.2842560109,-0.252961443,-0.6536614439,0.7457606523,-0.780808942,-0.5133647826,-1587.6886747423,-0.0532983953,-1.0603121992,-0.5887890358,-0.623695311,-0.9139819763,-0.2616704827,-1.2625466626,-0.615422834,-0.077525568,-1.2076164632,-0.3086142677,0.2335996451,-0.35394059,0.5951247936,-1.3383498014,-3.5439746126,0.2177815304,-0.7333161545,-0.5203786892,-0.8770745488,-0.585091182,-877.6026802864,-0.4779097715,-0.0628955,-0.0319802527,-0.2800893102,0.0025663777,0.1906300245,-4.2074041459,-0.1294708943,-0.2221203851,2.2617805038,-0.8386866937,-0.6354254034,-0.530009077,-0.5640622203,-0.8501574243,-0.0077473959,0.0565947741,-0.0867285345,-27.5762852696,-0.5764990286,-1.5293454057,-0.3622691309,-0.2226850454,-0.2091659301,-0.3272369335,0.5489300965,-0.8605053219,-4.0054604028,-1584.178589273,0.1994286123,-0.9147344088,-0.1516790537,-0.5556481872,-1.1343448368,-0.0894222041,-0.9865448248,-0.1287587199,-0.5355367945,-1.7244681676,-0.0906194672,0.2899904456,-0.1308234114,0.652180547,-27.1458525241,-2.9256895619,0.0127275501,-0.8472863768,-0.7390863125,-0.8450858858,-0.5076151631,-964.6561964034,-0.5206007845,-0.0787254742,0.045582475,-0.7475717686,0.1659250596,0.2723614366,1.0282057967,0.1995553336,-0.1152767569,2.0707841223,-0.4517700682,-0.4483923005,-0.7084244744,-0.642023717,-1.0641050927,0.0493548321,-0.2841104232,-0.3065524439,-13.7160161178,-0.3839846097,-0.8879535478,-0.4811387496,-0.226314925,-0.2681880047,-0.5594229497,0.2383533197,-0.8642004514,-45.4440227964,-1866.2966499973,-0.184030956,-0.7982806442,-0.0361239188,-0.5921684514,-0.9485917348,0.0320626537,-1.0794347935,-0.157372707,-0.9052127237,-1.0947406329,-0.221206376,0.1440358495,-0.3303250927,0.4157788767,-3.571528367,-4.9790702533,0.1042619977,-0.566476423,-0.4812256528,-0.6330856667,-0.4352444398,21.9662354269,-0.4503868462,-0.3188084951,0.1928125261,-0.709874572,0.1893794534,0.3498864714,1.9109960403,-0.0503355532,0.0648249559,1.1938473938,0.2795924603,-0.4405420441,-0.3656416567,0.0341078501,-0.9570155084,-0.1567908498,-0.163669963,-0.3453604788,-12.3279349137,-0.5549499268,-0.8585460607,-0.7698378079,-0.0442629342,-0.3972892447,-0.5800103255,0.5364190902,-0.9488005822,-413.9074370125,-599.0708924876,0.149388414,-1.4360230054,-0.0376533371,-0.7903764893,-0.8079953678,-0.1020463052,-1.231600136,-0.1107171248,-0.5929571609,-1.0601665161,-0.1900042053,0.0644816955,-0.2950963283,0.4017771597,-0.3321431437,-3.9733651554,-0.0113950032,-0.8247481395,-0.4290448217,-0.7828545892,-0.3988140921,13.3094397536,-0.628279648,-0.5233611811,0.1898448201,-1.0741056743,0.1213780938,0.4501157342,-3.8983548939,0.1422399992,0.1600598775,1.6468696559,0.0019251747,-0.3968990346,-0.109643933,-0.3340155999,-0.7469350772,-0.3781273527,0.0940364748,-0.5034851224,-15.0927594782,-0.177428993,-0.7425406437,-0.4913241142,-0.2796376174,-0.350679781,-0.5930121059,0.3025718113,-0.8834579965,-65.722071188,-1929.3755643227,-0.4324173662,-1.2291844237,-0.4215368422,-0.7382253819,-0.7574885056,-0.3833939462,-1.2370971384,-0.7142928079,-0.287851754,-1.6891466145,-0.5376903917,-0.0744793198,-0.3429022986,0.6869743712,-31.2521788455,-3.5925307891,0.2549003861,-1.1860488735,-0.4067417557,-0.9879415242,-0.5100362375,27.6840329692,-0.6966280348,-0.449429549,0.1876113512,-1.655991966,0.0185748193,0.4969205898,-4.1512325666,0.2184981699,0.2426581495,1.9627994936,-0.1511810785,-0.616200204,-0.7471626334,-0.0635177343,-0.6198924336,-0.4092145207,-0.2240683376,-0.4260846031,-29.6425044463,-0.2626478321,-0.0558182107,-0.2912431079,-0.1282319003,-0.3576687422,-0.4000979275,0.0763863479,-0.6360045961,-1.0667938299,-2175.9316647014,-0.0611791681,-0.0718004898,-0.3270347617,-0.4847697282,-0.6173401023,-0.0827429432,-1.2717410611,-0.2937854806,-0.4177863627,-1.2814485208,-0.1395369426,-0.1440779087,-0.4171174189,0.7614130183,-1.1871542762,-2.9576894257,-0.1163869049,-1.0065699599,-0.8565254967,-1.0578417914,-0.3601004722,-1511.0380100658,-0.7217858959,-0.3213556431,0.0976616138,-1.0503457316,0.0627977941,0.4703885425,-5.4500482167,0.3395107651,-0.0911155829,2.4551700724,0.2389783521,-0.6664770331,-0.3458517375,-0.31303745,-0.6551567066,-0.4324794204,0.1838249863,-0.3312705848,-32.2424793905,-0.6708981875,-0.8263048658,-0.3523417639,-0.0224195107,-0.2943949206,-0.1241241192,0.1255378508,-0.9985965124,-43.4697007251,-2188.817384378,-0.2521554847,-0.9831715457,-0.1881415875,-0.1666770393,-0.4102541448,0.126739132,-1.0629959841,-0.4731090195,-0.6254325805,-0.9568912608,-0.3854448063,-0.0243777224,-0.66171987,1.1571271471,-10.472258976,-4.6570566124,-0.1497838859,-0.5546361855,-0.7230540615,-0.7387241301,-0.156200982,41.5664101427,-0.6149794451,-0.4760596835,-0.0335093752,-1.0942953888,0.1737755439,0.351457013,-2.25586106,0.2633708267,0.1147077701,2.2713584708,0.5347662689,-0.1553800208,-0.8036914059,-0.0015835831,-0.6931964907,-0.355537343,0.1082338139,-0.2915064494,-29.4533903785,-0.2424316465,-2.459450429,-0.6381987021,0.3293192113,-0.1080599594,-0.1361259778,0.7701758773,-0.9153690072,-232.5008729704,-1581.3325069563,0.0252088947,-1.4824306089,-0.5088088754,-0.3091100983,-0.8921075446,-0.1912848833,-1.0660096451,-0.1863667688,-0.2745925472,-1.8073968419,0.0245845141,0.1676210056,-0.4276668663,1.2421659102,-1.602119693,-5.2762478309,0.1649488544,-0.9589644001,-0.7132073365,-0.8191531513,-0.4783415476,84.8749885482,-0.748203976,-0.513137554,-0.0809666322,-0.3224356992,-0.0141510667,0.4770548161,-0.8038683473,0.4576270189,0.1045156617,2.3852021647,0.0770639294,-0.5439943119,-0.5390726639,0.0236980884,-0.9740182393,-0.3023485801,0.0367935911,-0.6334893496,-18.0607988276,-0.0669139575,-2.3496134464,-0.3485621903,0.5461663961,-0.0750496557,-0.4989063294,0.5221803637,-0.8920687567,-30.8144945789,-1864.1582106222,-0.149541045,-1.0860528594,0.0014437934,-0.7088559947,-0.7725408952,-0.3056220581,-0.9069446223,-0.2019447985,-0.0437334093,-1.4597221439,0.0073027554,0.1757796358,-0.2345477626,1.4962299867,-0.8606429313,-2.9447141217,-0.3447983221,-0.9885141566,-1.0551014286,-1.0863614392,-0.2219577188,46.157722389,-0.6779172208,-0.0152121288,-0.0819663035,-0.6721434958,-0.0130728618,0.3775595005,2.4732761767,0.9953100588,-0.1983785132,3.2306830513,0.1025522645,-0.3515576128,-0.782462944,-0.1101354619,-0.8690619674,-0.4125394858,0.3167548766,-0.3453455322,-22.4748698922,-0.515982958,-2.2773401894,-0.5600058165,0.3066474795,-0.1304617684,-0.394618371,0.2889225819,-1.397265695,-5.8624774753,-6.0005878701,-0.4441469615,-0.8853705112,-0.0758929397,-0.9960105181,-0.8057083829,-0.1006550294,-0.9385140304,-0.3708006278,-0.0660285259,-1.736726286,-0.1046283756,-0.1773941258,-0.7940381765,1.4938300768,-8.9072213414,-4.3582494068,-0.2265224081,-0.8868721664,-0.8791256833,-1.1769374552,-0.375409585,31.1803145422,-0.5694704037,-0.7697751419,0.0078592873,-0.1299594321,-0.0628489359,0.4206194828,1.2634231718,0.5820943346,-0.1332526712,1.9933577999,0.0142582607,-0.3187106432,-1.0237225802,-0.3008170055,-0.8738421552,-0.7026282086,0.3145511933,-0.1650779363,-36.847604194,-0.3623248326,-1.7485547383,-0.3744817904,0.1477632348,-0.1838882214,-0.2378722448,0.3073191713,-0.7617753131,-17.762632784,-1468.3102242422,-0.5438305828,-0.1759004743,-0.2276412244,-0.5287158482,-0.7772129532,-0.0862986136,-0.7937958635,-0.0233433148,-0.6209259371,-1.6053096782,-0.2849025334,-0.1974198951,-0.3427666045,1.2403247336,-3.2524847006,-4.1649745136,0.0258385383,-0.7556022145,-0.9338004251,-0.938101987,-0.3989179463,59.6805030179,-0.0493067004,-0.5612970884,-0.0103949975,-0.3220446396,-0.0270213595,0.2913888881,-4.1320952205,0.4236807288,-0.0485025143,1.4413002188,0.1108483958,-0.3413638951,-0.1369176082,0.1158283529,-1.1536328949,-0.6170076384,0.0765472927,-0.1147144387,-46.3505426549,-0.4849918886,-2.5132488112,-0.9682615571,0.4460297048,-0.1395446522,-0.6503909332,0.4612788027,-0.8332977021,-215.7561739212,-659.5521631612,-0.1838956726,-1.4871211732,-0.7424162644,-0.6057882173,-0.7716419461,-0.5638851235,-0.8113049284,-0.1478809594,-0.1130736839,-2.2637731583,-0.3064981316,-0.0983693289,-0.6114133943,0.8466195788,-0.2394223314,-3.7281129321,0.0284645619,-0.9451336072,-0.8831061555,-1.1245331925,-0.3808778037,-725.9664396942,-0.7392920963,-0.4126595069,0.1249180505,-0.8583073957,0.0464713791,0.1013192381,-17.7171277867,0.3346441724,0.0454351,1.0553916994,-0.4422300675,-0.7711560226,-0.6700444418,0.3308278403,-0.7167153492,-0.4424312686,-0.064570969,-0.2309308777,-113.2319894398,-0.3141610122,-0.8563737984,-0.2773411502,-0.1368979977,-0.2327532828,-0.6051242863,0.3551813601,-0.6465456404,-1.2924693114,-1834.7233537404,-0.1140262242,-0.1047792291,-0.6109703081,-0.1647741585,-0.764269252,-0.3461885963,-0.7293410472,-0.3915385229,-0.4434622729,-1.8123749209,-0.1677466584,0.0293517978,-1.015291269,0.6207195732,-0.1486130425,-2.3858800902,-0.0425131634,-0.9285960946,-0.6824554684,-1.0918960393,-0.3017324514,7.6550296118,-0.3683547149,-0.5831092619,0.0961896199,-0.6408957941,0.0552426627,0.1457607073,0.0602238517,0.0606521077,0.2700457792,1.1998375863,-0.8915970726,-0.8003252164,-0.5095791288,0.1688288611,-0.6411738049,-0.3282783654,-0.4936564316,-0.4414281992,-101.2099278419,-0.3267217047,-1.622715983,-0.3709895129,-0.0585897775,-0.1827271466,-0.6850979972,0.2036812817,-0.4729227418,-190.9563106975,-31.2091030249,0.2392659051,-0.042023234,-0.6318936409,-0.7328331037,-0.9924100877,-0.1975140283,-0.5668078972,-0.5588064896,0.3287605367,-1.476871598,-0.5533606588,-0.0080181981,-0.4907907987,0.3043800492,-0.3772469054,-5.9199952392,-0.0146301488,-1.0213797897,-0.263169438,-1.1032208253,-0.2098324279,10.1016956804,-0.3340423072,-0.1326768846,0.0599730628,-0.4206069239,-0.0221189533,0.2135660073,0.5289198583,-0.0326085138,-0.0747899302,1.4497354852,-0.6161200788,-0.4130173937,-0.1243194252,1.0794634428,-0.7000162994,-0.4648349201,-0.1814537774,-0.3245590662,-86.3423088429,-0.1380247186,-3.0359892078,-0.5963734655,-0.1525638112,-0.0716376803,-0.5545691607,0.2499636584,-0.7217576475,-0.8415474566,-76.12540934,0.4850378181,-1.1498457533,-0.1620975336,-0.7018016258,-1.1379079072,-0.0191508905,-0.5614577632,-0.4521924255,-0.0362521546,-1.9814463695,-0.3226116863,-0.0571528965,-0.3229356595,0.4857339266,-1.2026132383,-5.1071509271,-0.0877480819,-1.2954567974,-0.4389933746,-0.9493870514,0.0145631852,-42.799763165,-0.7150981711,-0.3290353285,0.1012672214,-0.4540824709,-0.0785409621,0.2652553768,-0.9409252495,0.1577768252,0.1071477871,2.4108203585,-0.9192782968,-0.1269614825,-0.6104778319,0.206955204,-0.4768286473,-0.4821400797,0.0295462538,-0.4505739876,-62.4215309444,-0.1537441427,-2.0416185258,-0.526300401,-0.3498415018,-0.2306834695,-0.7549305138,-0.3615804627,-0.7588156125,-1.6136038019,-70.7641985147,-0.1792026422,-0.4722979612,-0.0468571455,-0.6251999919,-1.0219182578,-0.0559596253,-0.6407069652,-0.4592221761,-0.0942822722,-1.2613525777,-0.4685937146,0.1143690702,-0.6786785919,0.6150963229,-0.6651565323,-6.3130794056,-0.2572648024,-1.0997627707,-0.4039137601,-0.8648996051,0.1790516106,-111.334149798,-0.0662388158,-0.212592009,0.1154974671,-0.8866155643,-0.0566815957,0.1435405973,-1.4894741735,0.1546339105,0.2631237325,2.6798739439,-0.9192032765,-0.5256216607,-0.836557155,0.7396409779,-0.7013761817,-0.5295355647,-0.0486170398,-0.7555628765,-94.4332446502,-0.0437296223,-2.9880133774,-0.3624988479,-0.4787874524,-0.2023329845,-0.613841799,-0.0719763446,-0.4831287174,-8.024085776,-30.6734667787,0.2055931879,-0.4506446928,-0.2686869624,-0.2980099867,-0.607772409,-0.166843852,-0.378905656,-0.5847781613,-0.4086578484,-1.1194640604,-0.4481288712,0.0170355287,-0.4050798247,0.427993645,-0.1293083187,-4.7205213996,-0.0960862693,-1.0069652942,-0.2731583845,-0.8625955838,0.1039217659,-283.0170042666,-0.0109937352,-0.3662456543,0.0517168714,-0.5587570693,0.0596424331,-0.0750004064,-0.9555979057,0.1769673189,0.289605864,1.52129624,-1.045848876,-0.2946697143,-0.3257939481,0.5371301302,-0.768269497,-0.4458699282,0.0167076828,-0.3981537427,-73.4134562511,-0.5365974912,-3.1827801058,-0.6808344765,-0.0450033768,-0.1379371214,-0.5417916005,-0.0320287161,-0.6298149282,-230.6989448574,-26.2597932273,0.1504589586,-1.3775010837,-0.2104805012,-0.6303373879,-0.411104125,-0.2999602053,-0.9090743459,-0.589333075,-0.4644755714,-1.1124841881,-0.1247210412,-0.051899761,-0.2603948695,0.5220725984,-0.5029253765,-5.7869937229,-0.2101980038,-1.4017636632,-0.429930545,-1.045792574,-0.0791482717,-989.7281080486,-0.3621587796,-0.3568849617,-0.003600661,-0.8055878129,0.0527835947,0.044508714,-1.2838070256,0.1449788056,0.2968727242,1.4305715781,-0.6481179166,-0.6670916251,-0.7921873966,0.5404687684,-0.4444635299,-0.4879488938,0.0017782625,-0.6467171475,-50.5434521136,-0.5239877119,-2.8018555551,-0.0835128263,0.3260380144,-0.240564654,-0.3349302555,-0.4112605287,-0.3406619069,-10.222927361,-7.8995769798,-0.1644880665,-0.7062228217,-0.5654407862,-0.4910688261,-0.107826039,-0.4764398736,-0.3972101233,-0.6570677616,-0.5749265361,-0.9065320585,-0.217314562,-0.0718862031,-0.4348585453,0.4959400412,-0.8843093472,-6.870699721,-0.1650041977,-0.8237323393,-0.5461358889,-0.8695712814,0.1471753122,-108.0219133314,-0.2604572034,-0.5495036252,-0.0704043977,-0.3754293737,0.1007322186,0.0984297957,-2.7420847441,-0.0786599898,0.3567075137,1.173555018,-0.1292698956,-0.4868551709,-0.7411642667,0.6180209839,-0.4739311773,-0.5238682588,0.167739972,-0.2087265818,-53.8692018984,-0.5749596579,-3.6503495743,-0.44769673,0.3587832545,-0.1493375167,-0.3177764196,0.0903076896,-0.3664134912,-0.5433842816,-85.9425534574,-0.0260993954,-1.3223603337,-0.7187790241,-0.1375573798,-0.0167268646,-0.1073080816,-0.4996609264,-0.2735488563,-0.5026715087,-1.2915215491,-0.092530022,-0.1650690207,-0.7300067279,0.1673607658,-0.2640095631,-5.9922888575,-0.3915259425,-1.1602528569,-0.5943397143,-0.8178363999,-0.014896724,-908.1635078191,-0.7225916178,-0.3139104948,0.0908599868,-0.6223260972,0.0198679264,0.3144023267,-1.4173143435,0.1376344969,0.1805565382,1.2510350928,-0.2037888146,-0.6478982473,-0.3599653895,1.0191269856,-0.520667068,-0.5542397185,-0.0738991647,-0.1359782874,-39.4926924255,-0.5096994696,-3.324165039,-0.1408072264,0.6390297401,-0.1571507461,-0.5620098534,-0.2492411378,-0.7005279752,-0.3789435773,-27.7970422383,-0.0520592104,-1.1167693206,-0.690133791,-0.3879071684,0.1106034113,-0.0661568414,-0.5832475591,-0.2337142982,-0.3455756567,-1.4019910292,-0.3190569897,-0.4073531138,-0.4717163266,0.2145855917,-1.9058541157,-6.370122069,-0.1333940535,-1.309449113,-0.6930607762,-0.8950409597,0.0211226477,-34.8245438234,-0.1958946743,-0.4617626126,0.0186192661,0.0361415986,0.0098774435,0.1760014958,-2.1248506165,0.180469054,0.2832577925,1.3479946395,-0.7006845961,-0.7407971851,-0.5690205212,1.1508693742,-0.7156072686,-0.4887212809,0.0948459921,-0.222663624,-35.0494930199,-0.6895401239,-3.8354587236,-0.1735662973,0.4057646041,-0.246575957,-0.524331561,-0.397486906,-0.2757296759,-0.7303288742,-14.708841601,-0.3231806183,-0.885372642,-0.3115534067,-0.5570290567,0.1718544812,-0.1321275232,-0.2192769338,-0.2846105697,-0.2787227751,-1.4108330536,-0.4789526318,-0.4143520013,-0.7435241556,0.3989442618,-0.6189237565,-6.3588260559,0.0558077876,-1.2120871167,-0.472084371,-0.7826322744,0.0124101455,-2.1845772082,-0.3535577483,-0.2928607309,0.0528622539,-0.741755567,-0.0086404773,0.1541573463,-0.0242756511,0.0919645781,0.2025135878,1.6372483417,-0.5317266787,-0.4713715361,-0.6951778084,1.1320928073,-0.6476579515,-0.5236438588,0.0082067829,-0.6412270048,-31.3310058751,-0.128779451,-3.6517153525,-0.654475252,0.2678843044,-0.1607317775,-0.4332853053,-0.4046872924,-0.301987411,-10.2976510775,-2.7766484911,-0.1690719966,-0.709208174,-0.3112255647,-0.2852012417,-0.129147696,-0.2327326751,-0.4055835025,-0.5319205498,-0.5525243372,-0.8551933142,-0.5040787403,-0.2917917973,-0.3367534096,0.4758210225,-0.6596399427,-5.6152585097,-0.2438437346,-1.1049050572,-0.5927142047,-0.9724448381,0.069605631,-5.7175774981,-0.3275877305,-0.2826455137,0.0672645972,-0.6102585003,-0.1874151396,0.0654478277,1.1081569194,0.0495648539,0.3847729475,0.8720480577,-0.4671908901,-0.4992847737,-0.5900511901,0.4380417553,-0.7000500287,-0.4182617193,0.1006328379,-0.5214478134,-18.7842112989,-0.4812695888,-3.2877222576,-0.3552433467,0.06569704,-0.1332522144,-0.6687978103,-0.3272180916,-0.4101603497,-65.9265838621,-2.7903809047,-0.1446316473,-0.9445534164,-0.2868910875,-0.255455163,-0.0915985046,0.1093449918,-0.3111328426,-0.4634581082,-1.1880336628,-0.2653731077,-0.6240765266,-0.3242011542,-1.0152561957,0.1232028125,-0.1384027583,-4.6508315317,-0.6675742836,-1.0233604062,-0.4758033394,-0.9134642026,0.0316256664,-107.8496690101,-0.7171298256,0.0134452947,0.1280585703,-0.0521226879,-0.1390077279,0.0463343871,1.0442728082,-0.1051091659,0.2939219623,1.236978538,-0.2973035606,-0.3258607044,-0.9139293423,1.3245653857,-0.6502292152,-0.512364673,0.2531700726,-0.3321102325,-18.525153522,-0.6165751591,-3.5966731235,-0.5110527607,-0.0331032539,-0.103051532,-0.6068747956,-0.2497426333,-0.290535434,-42.0397759994,-20.0419145251,-0.3243483313,-0.2523808497,-0.1653812021,-0.4564313225,-0.1173171981,-0.2766833694,-0.4190263367,0.0081227497,-0.7305569353,-1.2955830889,-0.4813016695,-0.2835492333,-0.7442551267,0.2362305552,-9.6260107035,-5.3084319348,-0.3718060924,-0.9784880509,-0.5052665554,-0.8788420346,0.0525083635,-316.0078469708,-0.5252565862,-0.3445358038,0.107593125,-0.3264353288,-0.0355955777,0.08024152,2.4621182912,-0.0429663794,0.4866662379,1.2607455411,-0.4824975359,-0.0999712695,-0.5457515233,0.8761375609,-0.7927819829,-0.3565370782,0.0553920875,-0.7118582635,-18.1738407622,-0.2842149921,-3.5785723534,-0.2042544542,0.150226859,-0.0902384834,-0.6430192475,-0.2010802703,0.0357128124,-20.2666367402,-1239.4566358493,-0.3135913105,-1.0599654487,-0.6310521053,-0.4757792362,0.005484604,-0.0675301968,-0.4769077008,-0.0758950219,-0.7875458602,-1.3592340122,-0.2125324301,-0.3194089288,-1.2447252356,0.1619918089,-0.3012265741,-5.265076303,0.0607042218,-0.9409133787,-0.6305957961,-0.8615791387,0.0835933407,-193.2629501329,-0.4803783188,-0.1539473206,0.1118383675,-0.4476235817,-0.0192835093,0.0631387094,0.7240803107,-0.0459373093,-0.0019705026,1.2514839982,-0.2693089745,-0.1706268419,-0.7238499748,0.4893185104,-0.4372328091,-0.3813253039,-0.4302939808,-0.1360580443,-20.0431207725,-0.0990590959,-2.3998545371,-0.7564618408,-0.1006572066,-0.003116642,-0.5933340239,-0.2545804056,-0.447263686,-52.5933917449,-1197.9232504919,-0.0063492856,-0.581253936,-0.3942708854,-0.6842063122,0.1531208012,0.0629794973,-0.4940441798,-0.1272670831,-0.8272248996,-2.1828502772,-0.2998160267,-0.1833092143,-0.8387806869,0.5290441854,-0.4924415921,-5.0837740847,-0.1099624463,-1.1754476212,-0.7309699841,-0.8903183663,0.129979145,-209.8434221855,-0.6884000311,-0.4167654519,0.0351178948,-0.4077633808,0.1783518137,-0.1266935806,0.3255656556,0.0519878001,0.3052452419,1.3778420168,-0.4549043095,-0.1468018726,-0.5910841347,0.4659936879,-0.7772586029,-0.3503867604,-0.1986742642,-0.1253060426,-39.9012028521,-0.6298277732,-1.9919277596,-0.460523764,0.2874681818,-0.1475713878,-0.3729806024,-0.733827414,-0.0524369791,-2.0639515535,-495.6738610145,-0.2362776191,-0.899656983,-0.465812221,-0.5520480507,-0.2585335314,-0.2874232132,-0.5973918971,-0.0213280492,-0.7695650098,-1.5447240326,-0.4567742486,-0.1756497863,-1.1621669749,0.5201127758,-0.6229721635,-6.2889207254,-0.216456719,-0.9520482356,-0.5515449081,-0.9610193067,0.0347341059,-324.2286804418,-0.6670904488,-0.3792168886,0.0098641294,-0.4896106754,0.107825946,-0.0528113591,0.408094339,-0.0674704997,0.4617080099,0.7667226563,-0.524058464,-0.3846781661,-0.6376583213,0.750659805,-0.4960445359,-0.2882996642,-0.2439027544,-0.3792074782,-27.2970659923,-0.1404860364,-2.4955193801,-0.629359386,0.1369839558,-0.0737409784,-0.5426777208,-0.3949066526,-0.0818551224,-2.8114317002,-37.9484116801,-0.0092618586,-0.5425072238,-0.0379333012,-0.6242895031,-0.2016546078,0.3049012799,-0.3071525119,-0.0541330853,-0.4057336941,-0.7697566346,-0.5827153319,-0.5015478545,-0.8315109098,0.4141367272,-0.2721598692,-7.8522480677,-0.5440192168,-1.1309552933,-0.6084872514,-0.9277945871,-0.1091580831,-1339.9831227249,-0.6070945472,-0.3095848968,0.1255739968,-0.1312674223,0.0752634674,0.0186334774,0.8102640253,-0.2922790043,0.0969396812,0.2503382144,-1.1262548111,-0.0763831281,-0.5512309317,1.6087254147,-0.6735485496,-0.3092444781,-0.388035329,-0.2557458892,-51.2514492984,-0.1446751504,-2.9521694712,-0.8778766519,-0.0311231286,-0.1341833238,-0.7690934073,-0.5914509483,-0.1016765557,-0.7036040053,-43.0282652087,-0.1598400178,-0.7951211753,-0.7476728821,-0.1814476455,0.3984346236,0.0537153602,-0.3470603734,-0.2911103227,-0.5377232331,-0.5158792504,-0.3101685427,-0.9166998776,-1.3750475836,0.2180316086,-0.6721912316,-5.9177116319,-0.3546150236,-1.1550664329,-0.5856979791,-0.8853753612,0.0020660721,-724.1338359783,-0.7749346952,-0.3274025381,0.2245121867,-0.4480837941,0.0695217612,-0.0851914352,0.2908086748,-0.2236283129,0.6526161468,1.6714224869,-1.0362834139,-0.7743009965,-0.4301374567,0.676841038,-0.2290404793,-0.3620242883,-0.2824043666,-0.3735625856,-18.8133044428,-0.6286349737,-3.4000765544,-0.5549706193,0.08311273,-0.2263181925,-0.4025802169,-0.5773894805,0.3776482479,-128.9393683629,-16.65597915,0.0967049492,-0.5893268594,-0.41886077,-0.64829451,-0.1026235648,-0.1337586613,-0.2896412988,-0.2817631956,-0.3860956474,-0.6301082225,-0.3279558663,-0.270452164,-0.951147,-0.0251564872,-8.6689956933,-5.055995066,-0.1103329078,-1.1823070603,-0.497890258,-1.0053915415,0.0288259894,-386.436871823,-0.774921207,-0.2424758677,0.1619108834,-0.6442002667,0.0927949407,-0.0756175395,2.4237427934,-0.2936524711,0.3781152302,1.2060854187,-1.2092430266,-0.236443371,-0.543377066,-0.1345465684,-0.3024644104,-0.5008263767,-0.104482772,-0.374162031,-23.3106523757,-0.2360202341,-3.144224887,-0.1836982466,-0.0759151174,-0.056366142,-0.4856909971,-0.6047952003,0.3937208797,-0.5605131096,-24.1327599552,-0.285185882,-0.9624094161,-0.2942024424,-0.9006443978,-0.0920019986,-0.1374719156,-0.3962891647,-0.1040188099,-0.2092114127,-0.6945570813,-0.0434526341,-0.2699636933,-1.2959781989,-0.3130012453,-0.3478891901,-4.5402820383,-0.3490638559,-1.0344430794,-0.5720032912,-1.0562291815,-0.0611151406,-740.145706678,-0.4993580961,-0.5162376585,0.12608051,-0.5981781814,-0.0036065563,0.025314516,1.0585575155,-0.4267771032,0.4088063257,1.4803976588,-0.8528545262,-0.4596490774,-0.5117722691,0.3974978287,-0.5555597306,-0.5782683721,-0.0822388629,-0.5176281927,-14.8064342956,-0.3274518254,-2.7740296714,-0.2533226399,-0.0113089411,-0.0894926753,-0.5280099197,-0.5161293292,0.5949440576,-14.1055371859,2.8882769991,-0.3153427516,-0.6143766556,-0.4791132104,-0.4669590014,0.0324694903,-0.1717190114,-0.2627551112,-0.1398058357,-0.485383767,-0.3101083045,-0.140913074,-0.029914722,-1.084036908,-0.3779521873,-0.4760645076,-3.5256138696,-0.4477731652,-0.9434352454,-0.6848972268,-0.9237058921,-0.0093024411,-1049.9163558887,-0.7271205362,-0.2207583196,0.1142906868,-0.3531600225,0.0834852956,0.0045762133,2.0766934885,-0.3890519821,0.3720710581,1.8032776987,-0.5793025951,-0.4166360607,-0.6159821755,0.0369347241,-0.4319527594,-0.5544997324,0.0038314399,-0.2324115466,-17.1717853116,-0.3772719435,-3.398031003,-0.2248962628,0.0285038405,0.0186452108,-0.1842766232,-0.4369000117,0.5048244698,-8.1397871857,-418.3896921124,-0.2822949949,-1.4552771865,-0.2700114617,-0.4758366835,0.3104842148,-0.047072529,-0.376100057,-0.191831764,-0.0899777213,-0.8462309341,-0.2004486806,-0.2241335331,-0.9271832706,-0.245481634,-0.0756351307,-4.4912855126,-0.4213651103,-1.0804016662,-0.6183855724,-0.9322034754,-0.2922688243,-214.6750450636,-0.5803734935,-0.7337398592,0.0964716833,-0.1727064166,0.0865927228,0.0750909473,2.4918886431,-0.4085995478,0.3451337043,1.9604563351,-0.8570915335,-0.051191315,-0.5270038722,0.2645015268,-0.6286697103,-0.434061865,-0.2598430464,-0.2013019162,-44.9079556939,-0.3023614772,-3.0880011418,-0.1255708405,0.3420584685,0.0525168752,-0.305687185,-0.5369950315,0.7352474623,-1.7382216225,-53.0328381234,-0.3824548694,-1.5977293379,-0.6387249606,-0.5013540466,-0.0071158602,-0.5013023426,-0.5968832281,0.0284816168,0.3302808514,-0.5654987891,-0.1360009092,-0.054604036,-1.1566432294,-0.0726733153,-0.5170140899,-6.2082474881,-0.2100085277,-1.266774814,-0.6908318762,-0.9534633293,-0.2189892953,-1291.7428628959,-0.4983572434,-0.6965016857,-0.0283998394,0.0358817996
