encog,BasicNetwork,java,3.1.0,1,1400093539452
[BASIC]
[BASIC:PARAMS]
[BASIC:NETWORK]
beginTraining=0
connectionLimit=0
contextTargetOffset=0,0,0
contextTargetSize=0,0,0
endTraining=2
hasContext=f
inputCount=2124
layerCounts=585,51,2124
layerFeedCounts=584,50,2124
layerContextCount=0,0,0
layerIndex=0,585,636
output=##0
##double#2760
   0,0,0,0,0,0,0,0,0,0,0,0,0,0,0,0,0,0,0,0,0,0,0,0,0,0,0,0,0,0,0,0,0,0,0,0,0,0,0,0,0,0,0,0,0,0,0,0,0,0,0,0,0,0,0,0,0,0,0,0,0,0,0,0,0,0,0,0,0,0,0,0,0,0,0,0,0,0,0,0,0,0,0,0,0,0,0,0,0,0,0,0,0,0,0,0,0,0,0,0,0,0,0,0,0,0,0,0,0,0,0,0,0,0,0,0,0,0,0,0,0,0,0,0,0,0,0,0,0,0,0,0,0,0,0,0,0,0,0,0,0,0,0,0,0,0,0,0,0,0,0,0,0,0,0,0,0,0,0,0,0,0,0,0,0,0,0,0,0,0,0,0,0,0,0,0,0,0,0,0,0,0,0,0,0,0,0,0,0,0,0,0,0,0,0,0,0,0,0,0,0,0,0,0,0,0,0,0,0,0,0,0,0,0,0,0,0,0,0,0,0,0,0,0,0,0,0,0,0,0,0,0,0,0,0,0,0,0,0,0,0,0,0,0,0,0,0,0,0,0,0,0,0,0,0,0,0,0,0,0,0,0,0,0,0,0,0,0,0,0,0,0,0,0,0,0,0,0,0,0,0,0,0,0,0,0,0,0,0,0,0,0,0,0,0,0,0,0,0,0,0,0,0,0,0,0,0,0,0,0,0,0,0,0,0,0,0,0,0,0,0,0,0,0,0,0,0,0,0,0,0,0,0,0,0,0,0,0,0,0,0,0,0,0,0,0,0,0,0,0,0,0,0,0,0,0,0,0,0,0,0,0,0,0,0,0,0,0,0,0,0,0,0,0,0,0,0,0,0,0,0,0,0,0,0,0,0,0,0,0,0,0,0,0,0,0,0,0,0,0,0,0,0,0,0,0,0,0,0,0,0,0,0,0,0,0,0,0,0,0,0,0,0,0,0,0,0,0,0,0,0,0,0,0,0,0,0,0,0,0,0,0,0,0,0,0,0,0,0,0,0,0,0,0,0,0,0,0,0,0,0,0,0,0,0,0,0,0,0,0,0,0,0,0,0,0,0,0,0,0,0,0,0,0,0,0,0,0,0,0,0,0,0,0,0,0,0,0,0,0,0,0,0,0,0,0,0,0,0,0,0,0,0,0,0,0,0,0,0,0,0,0,0,0,0,0,0,0,0,0,0,0,0,0,0,0,0,0,0,0,0,0,0,0,0,0,0,0,0,0,0,0,0,0,0,0,0,0,0,0,0,0,0,0,0,0,0,0,0,0,0,0,0,0,0,0,0,0,0,0,0,0,0,0,1,0,0,0,0,0,0,0,0,0,0,0,0,0,0,0,0,0,0,0,0,0,0,0,0,0,0,0,0,0,0,0,0,0,0,0,0,0,0,0,0,0,0,0,0,0,0,0,0,0,0,1,0,0,0,0,0,0,0,0,0,0,0,0,0,0,0,0,0,0,0,0,0,0,0,0,0,0,0,0,0,0,0,0,0,0,0,0,0,0,0,0,0,0,0,0,0,0,0,0,0,0,0,0,0,0,0,0,0,0,0,0,0,0,0,0,0,0,0,0,0,0,0,0,0,0,0,0,0,0,0,0,0,0,0,0,0,0,0,0,0,0,0,0,0,0,0,0,0,0,0,0,0,0,0,0,0,0,0,0,0,0,0,0,0,0,0,0,0,0,0,0,0,0,0,0,0,0,0,0,0,0,0,0,0,0,0,0,0,0,0,0,0,0,0,0,0,0,0,0,0,0,0,0,0,0,0,0,0,0,0,0,0,0,0,0,0,0,0,0,0,0,0,0,0,0,0,0,0,0,0,0,0,0,0,0,0,0,0,0,0,0,0,0,0,0,0,0,0,0,0,0,0,0,0,0,0,0,0,0,0,0,0,0,0,0,0,0,0,0,0,0,0,0,0,0,0,0,0,0,0,0,0,0,0,0,0,0,0,0,0,0,0,0,0,0,0,0,0,0,0,0,0,0,0,0,0,0,0,0,0,0,0,0,0,0,0,0,0,0,0,0,0,0,0,0,0,0,0,0,0,0,0,0,0,0,0,0,0,0,0,0,0,0,0,0,0,0,0,0,0,0,0,0,0,0,0,0,0,0,0,0,0,0,0,0,0,0,0,0,0,0,0,0,0,0,0,0,0,0,0,0,0,0,0,0,0,0,0,0,0,0,0,0,0,0,0,0,0,0,0,0,0,0,0,0,0,0,0,0,0,0,0,0,0,0,0,0,0,0,0,0,0,0,0,0,0,0,0,0,0,0,0,0,0,0,0,0,0,0,0,0,0,0,0,0,0,0,0,0,0,0,0,0,0,0,0,0,0,0,0,0,0,0,0,0,0,0,0,0,0,0,0,0,0,0,0,0,0,0,0,0,0,0,0,0,0,0,0,0,0,0,0,0,0,0,0,0,0,0,0,0,0,0,0,0,0,0,0,0,0,0,0,0,0,0,0,0,0,0,0,0,0,0,0,0,0,0,0,0,0,0,0,0,0,0,0,0,0,0,0,0,0,0,0,0,0,0,0,0,0,0,0,0,0,0,0,0,0,0,0,0,0,0,0,0,0,0,0,0,0,0,0,0,0,0,0,0,0,0,0,0,0,0,0,0,0,0,0,0,0,0,0,0,0,0,0,0,0,0,0,0,0,0,0,0,0,0,0,0,0,0,0,0,0,0,0,0,0,0,0,0,0,0,0,0,0,0,0,0,0,0,0,0,0,0,0,0,0,0,0,0,0,0,0,0,0,0,0,0,0,0,0,0,0,0,0,0,0,0,0,0,0,0,0,0,0,0,0,0,0,0,0,0,0,0,0,0,0,0,0,0,0,0,0,0,0,0,0,0,0,0,0,0,0,0,0,0,0,0,0,0,0,0,0,0,0,0,0,0,0,0,0,0,0,0,0,0,0,0,0,0,0,0,0,0,0,0,0,0,0,0,0,0,0,0,0,0,0,0,0,0,0,0,0,0,0,0,0,0,0,0,0,0,0,0,0,0,0,0,0,0,0,0,0,0,0,0,0,0,0,0,0,0,0,0,0,0,0,0,0,0,0,0,0,0,0,0,0,0,0,0,0,0,0,0,0,0,0,0,0,0,0,0,0,0,0,0,0,0,0,0,0,0,0,0,0,0,0,0,0,0,0,0,0,0,0,0,0,0,0,0,0,0,0,0,0,0,0,0,0,0,0,0,0,0,0,0,0,0,0,0,0,0,0,0,0,0,0,0,0,0,0,0,0,0,0,0,0,0,0,0,0,0,0,0,0,0,0,0,0,0,0,0,0,0,0,0,0,0,0,0,0,0,0,0,0,0,0,0,0,0,0,0,0,0,0,0,0,0,0,0,0,0,0,0,0,0,0,0,0,0,0,0,0,0,0,0,0,0,0,0,0,0,0,0,0,0,0,0,0,0,0,0,0,0,0,0,0,0,0,0,0,0,0,0,0,0,0,0,0,0,0,0,0,0,0,0,0,0,0,0,0,0,0,0,0,0,0,0,0,0,0,0,0,0,0,0,0,0,0,0,0,0,0,0,0,0,0,0,0,0,0,0,0,0,0,0,0,0,0,0,0,0,0,0,0,0,0,0,0,0,0,0,0,0,0,0,0,0,0,0,0,0,0,0,0,0,0,0,0,0,0,0,0,0,0,0,0,0,0,0,0,0,0,0,0,0,0,0,0,0,0,0,0,0,0,0,0,0,0,0,0,0,0,0,0,0,0,0,0,0,0,0,0,0,0,0,0,0,0,0,0,0,0,0,0,0,0,0,0,0,0,0,0,0,0,0,0,0,0,0,0,0,0,0,0,0,0,0,0,0,0,0,0,0,0,0,0,0,0,0,0,0,0,0,0,0,0,0,0,0,0,0,0,0,0,0,0,0,0,0,0,0,0,0,0,0,0,0,0,0,0,0,0,0,0,0,0,0,0,0,0,0,0,0,0,0,0,0,0,0,0,0,0,0,0,0,0,0,0,0,0,0,0,0,0,0,0,0,0,0,0,0,0,0,0,0,0,0,0,0,0,0,0,0,0,0,0,0,0,0,0,0,0,0,0,0,0,0,0,0,0,0,0,0,0,0,0,0,0,0,0,0,0,0,0,0,0,0,0,0,0,0,0,0,0,0,0,0,0,0,0,0,0,0,0,0,0,0,0,0,0,0,0,0,0,0,0,0,0,0,0,0,0,0,0,0,0,0,0,0,0,0,0,0,0,0,0,0,0,0,0,0,0,0,0,0,0,0,0,0,0,0,0,0,0,0,0,0,0,0,0,0,0,0,0,0,0,0,0,0,0,0,0,0,0,0,0,0,0,0,0,0,0,0,0,0,0,0,0,0,0,0,0,0,0,0,0,0,0,0,0,0,0,0,0,0,0,0,0,0,0,0,0,0,0,0,0,0,0,0,0,0,0,0,0,0,0,0,0,0,0,0,0,0,0,0,0,0,0,0,0,0,0,0,0,0,0,0,0,0,0,0,0,0,0,0,0,0,0,0,0,0,0,0,0,0,0,0,0,0,0,0,0,0,0,0,0,0,0,0,0,0,0,0,0,0,0,0,0,0,0,0,0,0,0,0,0,0,0,0,0,0
   0,0,0,0,0,0,0,0,0,0,0,0,0,0,0,0,0,0,0,0,0,0,0,0,0,0,0,0,0,0,0,0,0,0,0,0,0,0,0,0,0,0,0,0,0,0,0,0,0,0,0,0,0,0,0,0,0,0,0,0,0,0,0,0,0,0,0,0,0,0,0,0,0,0,0,0,0,0,0,0,0,0,0,0,0,0,0,0,0,0,0,0,0,0,0,0,0,0,0,0,0,0,0,0,0,0,0,0,0,0,0,0,0,0,0,0,0,0,0,0,0,0,0,0,0,0,0,0,0,0,0,0,0,0,0,0,0,0,0,0,0,0,0,0,0,0,0,0,0,0,0,0,0,0,0,0,0,0,0,0,0,0,0,0,0,0,0,0,0,0,0,0,0,0,0,0,0,0,0,0,0,0,0,0,0,0,0,0,0,0,0,0,0,0,0,0,0,0,0,0,0,0,0,0,0,0,0,0,0,0,0,0,0,0,0,0,0,0,0,0,0,0,0,0,0,0,0,0,0,0,0,0,0,0,0,0,0,0,0,0,0,0,0,0,0,0,0,0,0,0,0,0,0,0,0,0,0,0,0,0,0,0,0,0,0,0,0,0,0,0,0,0,0,0,0,0,0,0,0,0,0,0,0,0,0,0,0,0,0,0,0,0,0,0,0,0,0,0,0,0,0,0,0,0,0,0,0,0,0,0,0,0,0,0,0,0,0,0,0,0,0,0,0,0,0,0,0,0,0,0,0,0,0,0,0,0,0,0,0,0,0,0,0,0,0,0,0,0,0,0,0,0,0,0,0,0,0,0,0,0,0,0,0,0,0,0,0,0,0,0,0,0,0,0,0,0,0,0,0,0,0,0,0,0,0,0,0,0,0,0,0,0,0,0,0,0,0,0,0,0,0,0,0,0,0,0,0,0,0,0,0,0,0,0,0,0,0,0,0,0,0,0,0,0,0,0,0,0,0,0,0,0,0,0,0,0,0,0,0,0,0,0,0,0,0,0,0,0,0,0,0,0,0,0,0,0,0,0,0,0,0,0,0,0,0,0,0,0,0,0,0,0,0,0,0,0,0,0,0,0,0,0,0,0,0,0,0,0,0,0,0,0,0,0,0,0,0,0,0,0,0,0,0,0,0,0,0,0,0,0,0,0,0,0,0,0,0,0,0,0,0,0,0,0,0,0,0,0,0,0,0,0,0,0,0,0,0,0,0,0,0,0,0,0,0,0,0,0,0,0,0,0,0,0,0,0,0,0,0,0,0,0,0,0,0,0,0,0,0,0,0,0,0,0,0,0,0,0,0,0,0,0,0,0,0,0,0,0,0,0,0,0,0,0,0,0,0,0,0,0,0,0,0,0,0,0,0,0,0,0,0,0,0,0,0,0,0,0,0,0,0,0,0,0,0,0,0,0,0,0,0,0,0,0,0,0,0,0,0,0,0,0,0,0,0,0,0,0,0,0,0,0,0,0,0,0,0,0,0,0,0,0,0,0,0,0,0,0,0,0,0,0,0,0,0,0,0,0,0,0,0,0,0,0,0,0,0,0,0,0,0,0,0,0,0,0,0,0,0,0,0,0,0,0,0,0,0,0,0,0,0,0
##end
outputCount=584
weightIndex=0,29784,135984
weights=##1
##double#135984
   -0.3097566704,-0.5522218651,-0.6335005136,-0.2101136383,-0.0557564547,-0.1514333017,-0.2449653817,-0.0962870539,-0.736446688,-0.3718827266,-0.1131327896,-0.0965575425,-0.7296311141,-0.4743636716,-0.2510053995,-0.3027795359,-0.8093848627,-0.6699518911,-0.7415247953,-0.2520493831,-0.5514384777,-0.4896064155,-0.794598178,-0.6812207853,-0.7188284538,-0.1502597171,-0.7107530143,-0.794303716,-0.344861605,-0.3091961452,-0.4145983585,-0.6005220089,-0.6170293422,-0.2363954295,-0.3319253925,-0.4746111733,-0.5378724439,-0.3105316954,-0.304873699,-0.2899095632,-0.6267744612,-0.6505022983,-0.6736526719,-0.1137366999,-0.568899117,-0.042609958,-0.3193144841,-0.6894349698,-0.7997952125,-0.7141852781,-0.3727696631,-0.3260340005,-0.328468604,-0.6255632522,-0.272728242,-0.4522782906,-0.7734685851,-0.3922468594,-0.6337542267,-0.0634670275,-0.0753643473,-0.8257758006,-0.5416404655,-0.7136171398,-0.2656723663,-0.1448202274,-0.3826585047,-0.7222352141,-0.0451402622,-0.6433274509,-0.7773841239,-0.1806591134,-0.5537711613,-0.7778481649,-0.0615231578,-0.478214302,-0.1788303272,-0.5767089391,-0.0535668807,-0.334962132,-0.5240669501,-0.3727511768,-0.1643742343,-0.6887387299,-0.2335223782,-0.6696309749,-0.2827130745,-0.1049035722,-0.5274164387,-0.6004467457,-0.4418300522,-0.6782997166,-0.7189388087,-0.8280422695,-0.5095830325,-0.5782281753,-0.2807488672,-0.4016599987,-0.6140778363,-0.7579142182,-0.515990501,-0.091894788,-0.5511504134,-0.2594099206,-0.6760827829,-0.0268622657,-0.1225009269,-0.4615713814,-0.3055468625,-0.4772300543,-0.4871936945,-0.1185175022,-0.1424770976,-0.0553404841,-0.7209793672,-0.7189574689,-0.100002554,-0.5551884622,-0.0549625411,-0.1015350455,-0.1087319494,-0.4013106643,-0.5894123767,-0.4287249473,-0.0414679651,-0.6047799878,-0.5049815279,-0.4639686274,-0.2580799033,-0.4991527575,-0.6699597965,-0.6180111794,-0.2213878192,-0.224385111,-0.5565147525,-0.6038132015,-0.0459317468,-0.5074756419,-0.2893378268,-0.284098386,-0.4751682606,-0.3384096318,-0.3799576866,0.0314223969,-0.5203666545,-0.0485793499,-0.8087814666,-0.5008675591,-0.5483855034,-0.4843846407,-0.6609817216,-0.6371978957,-1.0595939138,-0.5887502833,-0.4445727986,-0.742509159,0.0411309383,-0.112546206,-0.1057625615,-0.4487180093,-0.0933326724,-0.7471687841,-0.3633963942,-0.203051727,-0.7341115589,-0.6552678369,-0.7034201825,-0.4917600103,-0.2762819,-0.6561133946,-0.2440799506,-0.3789384918,-0.4607443672,-0.3408232791,-0.5521770992,-0.7148322872,-0.0358688528,-0.365539751,-0.7232232559,-0.6601823837,-0.4223367838,-0.067335131,-0.0395800724,-0.1322692957,-0.5814964132,-0.390822641,-0.1987493183,-0.6837239588,-0.6385270722,-0.3112956345,-0.4712608231,-0.5997154511,-0.8067810578,-0.3547215307,-0.7198576432,-0.3018921221,-0.5452706055,-0.0828198846,-0.1706253881,-0.5933643293,-0.2522693589,-0.412322918,-0.0434213269,-1.190811892,-0.7441397573,-0.0815752555,-0.4198801283,-0.6835210359,-0.1001797803,-0.7203152841,-0.0190712777,-0.5317171353,0.016219636,-0.4056999791,-0.6645926746,-0.053537303,-0.4647188077,-0.5943419356,-0.7517326717,-0.219958814,-0.6583486109,-0.0215233607,-0.1611428865,-0.1496050385,-0.7224816495,-0.0721880255,-0.6625153614,-0.1582821281,-0.5851346893,-0.0421762194,-0.2972095415,-0.5070973965,-0.3158276059,-0.2491586649,-0.3026165452,-0.5945256686,-0.0121078784,0.0155421205,-0.4158577094,-0.6832203609,-0.7213024809,-0.2310708643,-0.1327406801,-0.1881942166,-0.7399206321,-0.1755910605,-0.408029709,-0.3687573134,-0.374369766,-0.0691232131,-0.7232213137,-0.3099732724,-0.0441383963,-0.0791322688,-1.5396627634,-0.1356672535,-0.2005094918,-0.3456326717,-0.2248295023,-0.0501067617,-0.3942717257,-0.7063629294,-0.7152436331,-0.6326112487,-0.7472352143,-0.0999927873,-0.1169188139,-0.0675740172,-0.4703130924,-0.6563724465,-0.5175903743,-0.2830980016,-0.4504895208,-0.4378286511,-0.4826463991,-0.4187162085,-0.368068867,-0.5742678675,-0.111631845,-0.5249788092,-0.3789052506,-0.1940863736,-0.5795949564,-0.6329971212,-0.2277384389,-0.1107803002,-0.2201708356,-0.7560456573,-0.4673716769,-0.5194312598,-0.7767149241,-0.2859755262,-0.2676002088,-0.5661827134,-0.6364115133,-0.6755150097,-0.504207267,-0.2338659475,-0.7847026195,-0.6245237222,-0.1762022674,-0.7683344783,-0.3349026111,-0.2323733994,-0.673200428,-0.6338256955,-0.0955048664,-0.3217512832,-0.1745888204,-0.2610600304,-0.4926254586,-0.6312306514,-0.3511158494,-0.4750344049,-0.7109291047,-0.0025034087,-0.2497696809,-0.1432325023,-0.4062424197,-0.0766885808,-0.8217870329,-0.3620858641,-0.5583554094,-0.2540036129,-0.7752574685,-0.1378338329,-0.2014852737,-0.1595838406,-0.3391749826,-0.0470004461,-0.1893559584,-0.7535530712,-0.3370028974,-0.6170382509,-0.1141176079,-0.2239293385,-0.6585794819,-0.517865409,-0.4252556357,-0.328026304,-0.4661105622,-0.5464520783,-0.3488714374,-0.0163800278,-0.6052995018,-0.3720483459,-0.5413519459,-0.6786801226,-0.4105168593,-0.5603625606,-0.3766578925,-0.6791274913,-0.1070995538,-0.2551519213,-0.2614037236,-0.2595288738,-1.4628830588,-0.586776305,-0.7012784345,-0.4199649829,-0.2448441893,-0.4714644176,-0.2967964045,-0.6055408776,-0.1188227598,-0.4818107314,-0.2544852958,-0.524245707,-0.6975762667,-0.1523513608,-0.1810917573,-0.1311414484,-0.6811477399,-0.7961676572,-0.1094896611,-0.5473948019,-0.5170062152,-0.3703603144,-0.2546649517,-0.8294046117,-0.2162745117,-0.1277149607,-0.216202178,-0.1558660501,-0.7790208039,-0.6616373227,-0.5246568393,-0.1001245322,-0.7456225208,-0.323440781,-0.2784646068,-0.1262979529,-0.5415583356,-0.5688779933,-0.0908146,-0.7532870039,-0.3044307592,-0.3841681811,-0.82418655,-0.6160954633,-0.3679995087,-0.0439947484,-0.0377920492,-0.0780338575,-0.0370388867,-0.5151937665,-0.2909626217,-0.3971448643,-0.4427638216,-0.2117953391,-0.7760081406,-0.3670799645,-0.4944301218,-0.1053842866,-0.4482430745,-0.2073134913,-0.7798403371,-0.1137572471,-0.4869894576,-0.3181053846,-0.2754567982,-0.3299214628,-0.4740211006,-0.0476366146,-0.4897964876,-0.1957525805,-0.335238104,-0.47994215,-0.4783051529,-0.3429833532,-0.3557473756,-0.7445023893,-0.8231144987,-0.8091627724,-0.4124025527,-0.0254540021,-0.2585259139,-0.5073311972,-0.6918553815,-0.1967262455,-0.6067620387,-0.558531791,-0.6313585469,-0.3359203372,-0.4607256938,-0.3430551301,-0.0834546531,-0.7845727804,-0.3209171143,-0.2412767378,-0.6787154263,-0.4362350142,-0.2552978954,-0.2615771265,-0.6482706887,-0.0522485712,-0.6498746749,-0.4990267985,-0.2769435237,-0.1958918922,-0.3731839724,-0.0500659225,-0.1858014994,-0.0834882991,-0.2249844934,-0.1513783403,-0.162423048,-0.2943062907,-0.035182309,-0.3894835011,-0.2108153421,-0.2348946669,-0.259126423,-0.630349372,-0.2637224571,-0.5371909991,-0.1535005411,-0.7689717102,-0.0355219192,-0.5716855426,-0.5153104905,-0.2375544223,-0.5001037796,-0.2646466873,-0.5035059131,-0.4773530366,-0.1246681334,-0.5319137629,-0.2722202459,-0.70765093,-0.5844489958,-0.6537977563,-0.6930971041,-0.4075498137,-0.6154316317,-0.2698016416,-0.2583577215,-0.6563321478,-0.1779946948,-0.5393834115,-0.5624320364,-0.8256250055,-0.5403094038,-0.7659326373,-0.5325624995,-0.3841887966,-0.7030371006,-0.2350775659,-0.2838319327,-0.2781257634,-0.7427487573,-0.3904107345,-0.2214177321,-0.1386820106,-0.4195736467,-0.6058516708,-0.1219039216,-0.7131844984,-0.2826159823,-0.6419131938,-0.0546274619,-0.1831967777,-0.7357978975,-0.3155221369,-0.478793516,-0.7830059018,-0.0521667779,-0.7083910675,-0.4895912452,-0.6612818249,-0.2105607834,-0.5426427083,-0.4260930358,-0.6833860496,-0.0907229696,-0.1097888622,-0.6609616472,-0.031214843,-0.5948850191,-0.2244334512,-0.2671209083,-0.0615627676,-0.5633647147,-0.1931660255,-0.6093561549,-0.3692474705,-0.1453768368,-0.4725812412,-0.272299115,-0.4311298611,-0.5901324703,-0.5547047241,-0.7251941817,-0.4194966469,-0.1631412611,-0.6487267295,-0.6352579241,-0.130572316,-0.2845078174,-0.4319412814,-0.7523343023,-0.1805381824,-0.5955284694,-0.5120929749,-0.5196412872,-0.7447002802,-0.4374150415,-0.7473411708,-0.0057939697,-0.591016516,-0.4377729876,-0.6946475456,-0.1304154714,-0.2314737386,-0.6062163257,-0.3617905948,-0.1350748063,-0.7937089052,-0.0522315741,-0.6155244603,-0.7292644728,-0.2312222336,-0.2502799409,-0.482636097,-0.5529789187,-0.2165874891,-0.1290833243,-0.3567526105,-0.0260810618,-0.3839010499,-0.6035271028,-0.5679031125,-0.0679369553,-0.8003650683,-0.1257858353,-0.219717625,-0.7794406223,-0.1216964304,-0.5639768685,-0.3778349266,-0.475390512,-0.0384852743,-0.5804263957,-0.6327574548,-0.6281273391,-0.1212151861,-0.0583039733,-0.5700122887,-0.0808312546,-0.2784611348,-0.2119436134,-0.9205398985,-0.6577260576,-0.4753355597,-0.6186789559,-0.7741588043,-0.2566613202,-0.3449839783,-0.3039554664,-0.070935085,-0.5856114018,-0.0952484037,-0.8235720279,-0.2347168796,-0.4563564207,-0.7226970929,-0.5868039868,-0.0898883315,-0.6706624023,-0.1207333926,-0.1232721531,-0.4507814186,-0.3286201933,-0.0950552873,-0.7228455709,-0.7077151516,-0.3663211002,-0.775112469,-0.129586343,-0.1067660181,-0.3102266547,-0.1163051767,-0.4320443833,-0.7398590778,-0.8154789595,-0.0639633273,-0.1810735107,-0.5792699687,-0.3550088084,-0.1783363963,-0.1247901114,-0.3083549532,-0.72000393,-0.7669826733,-0.7198747665,-0.6718721816,-0.640260979,-0.2716621956,-0.1092521266,-0.3647544804,-0.5693386437,-0.2971015944,-0.4155202569,-0.6154658935,-0.6335437325,-0.5831439212,-0.1383772278,-0.6149677302,-0.486859794,-0.4110520534,-0.746628066,-0.5119813317,-0.5230791699,-0.3429450801,0.0530713563,0.0198448964,-0.3510945239,-0.6789514466,-0.2446700127,-0.5919622238,-0.1378234247,-0.3210996504,-0.2471674104,-0.2969679256,-0.3353958243,-0.4266112073,-0.3138602767,-0.0330262483,-0.5311324051,-0.0306678015,-0.6822683801,-0.5261405378,-0.6923341014,-0.5686511964,-0.1800462345,-0.6678735343,-0.0195867002,-0.1479993993,-0.566112632,-0.4257331724,-0.3815091489,-0.5764011191,-0.4199207498,-0.2214791652,-0.395035321,-0.3404667145,-0.5331834017,-0.5263316182,-0.5501138699,-0.0583488021,-0.5830215473,-0.3152004159,-0.3305742437,-0.9437314146,-0.8166527889,-0.4916947509,-0.1911045184,-0.1989504674,-0.7094202204,-0.3661744006,-0.7451459057,-0.1216781153,-0.6967815212,-0.4782675953,-0.3258566558,-0.7315422131,-0.7120206357,-0.2104322316,-0.5509825786,-0.5301837045,-0.3232026808,-0.2035273264,-0.5085041708,-0.0574030885,-0.7772568805,-0.1822780923,-0.3073255657,-0.6262014258,-0.3262553375,-0.6094846178,0.0279969891,-0.2395353526,-0.1108350227,-0.309457281,-0.6791929462,-0.2671921542,-0.5114974497,-0.2689620949,-0.3189365932,-0.2619696189,-0.1929403716,-0.4789939943,-0.4326348161,-0.4883250568,-0.2449689987,-0.7716469204,-0.5488958551,-0.0647212327,-0.4113231095,-0.5458302114,-0.2470086003,-0.0007134978,-0.3063289319,-0.1046468642,-0.8478378247,-0.3847733492,-0.593659907,-0.4659649071,-0.0218299255,-0.3109144326,-0.0759287103,-0.3735173278,-0.6246898063,-0.1923521187,0.0186536974,0.0269681569,-0.4209773866,-0.6429224467,-0.091921677,-0.0145453179,-0.6272969912,-0.6626887761,-0.3653859154,-0.2158116362,-0.095236065,-0.7106112745,-0.1786198143,-0.4622448667,-0.2667356968,-0.2372839024,0.0220605418,-0.0587168508,-0.0289725088,-0.6298952607,-0.35274596,-0.1462832623,-0.4537592833,-0.1786736991,-0.3885881651,-0.2613394669,-0.6924971627,-0.2349395526,-0.1541336811,-0.3275901217,-0.6910824272,-0.520605583,-0.065284118,-0.5973031445,-0.567541464,-0.5516824164,-0.583814836,-0.5871506114,-0.0572287865,-0.188750142,-0.4224481803,-1.0663168335,-0.7636992423,-0.0854299393,-0.6677675304,-0.3406615626,-0.086331227,-0.282037999,-0.2259790457,-0.0615145981,-0.6919386634,-0.7837181078,-0.7298550416,-0.5560382533,-0.310973797,-0.4420806491,-0.5642159478,-0.3082930291,-0.6278057587,-0.3150107,-0.184391376,-0.3701334601,-0.7271752501,-0.7840518467,-0.2885194485,-0.5436177914,-0.2011067065,-0.125135915,-0.3353752265,-0.0255293243,-0.7979370405,-0.0527715671,-0.2301818013,-0.6156976292,-0.2960527371,-0.2687250021,-0.7307467024,-0.7723175531,-0.516707465,-0.6332985132,-0.4704271938,-0.4678985522,-0.4839485533,-0.0782731673,-0.4009756354,-0.646853938,-0.1603409914,-0.5866400029,-0.1288827669,-0.1162487693,-0.3626560033,-0.2132759044,-0.0975981543,-0.46643249,-0.5993281917,-0.0744334728,-0.6612999272,-0.4169292591,-0.1100296747,-0.4588776485,-0.2166786121,0.0406556426,-0.6129309877,-0.4394772977,-0.4120541401,-0.2500648832,-0.5970413906,-0.1668335857,-0.3395755228,-0.5818912096,-0.5865742334,-0.4082692042,-0.5115468275,-0.0466652258,-0.2686965424,-0.719352893,-0.2736962536,-0.5903866337,-0.2669390351,-0.0230471845,-0.2275988178,-0.331255248,-0.6209581541,-0.2200852974,-0.5438885166,-0.4304002468,-0.312247752,-0.599396284,-0.6785607513,-0.754070536,-0.6640895345,0.0037686905,-0.2250691506,-0.1838396582,-0.0156794161,-0.0964035818,-0.6062767719,-0.498442042,-0.3187036141,-0.3522878642,-0.0844361047,-0.7224082442,-0.2498687177,-1.1355054741,-0.1247357657,-0.4507764916,-0.5663169592,-0.3159407581,-0.1025429223,-0.5781732642,-0.0350771324,-0.2952986645,-0.082615193,-0.0974260767,-0.5777823102,-0.0534794863,-0.4856621882,-0.3906504152,-0.2517329334,-0.2396315232,-0.3607743474,-0.4887047924,-0.5896256719,-0.4349170929,-0.576068991,-0.2593182925,-0.7871103546,-0.7063854266,-0.0888000094,-0.0359542413,-0.5526819654,-0.2772400466,-0.4741780472,-0.3556272882,-0.7671206471,-0.1295377172,-0.8264894614,-0.7498488743,-0.2291332588,-0.0572134827,-0.1688595991,-0.3496713777,-0.0733066123,-0.4590771654,-0.6974630374,-0.7293450661,-0.0634006617,-0.8288645628,-0.4331919118,-0.4054861264,-0.1555003738,-0.5633965647,-0.4217880959,-0.2274352405,-0.3803391094,-0.7771650917,-0.7046771913,-0.4059399062,-0.0530956268,-0.5942431868,-0.5716922447,-0.0420554683,-0.6322589963,-0.7354932654,-0.1594597318,-0.1621442491,-0.3525740952,-0.4672804267,-0.1553298622,-0.2040502881,-0.1488199028,-0.6457662264,-0.5594253431,-0.7782074681,-0.3167852255,-0.3163863004,-0.3104119726,-0.0417668305,-0.3890427381,-0.7200123816,-0.4988574627,-0.7041173805,-0.6699700834,-0.1801107129,-0.7559599766,-0.3794316642,-0.3198758241,-0.397488753,-0.7388756671,-0.2860649182,-0.205417149,-0.0988321878,-0.3405675518,-0.0613402759,-0.6348583706,-0.6848422286,-0.7942155651,-0.2276121632,-0.8212800853,-0.3941064862,-0.6575731672,-0.612374832,-0.2760488218,-0.1609795283,-0.053574019,-0.164975272,-0.7239722543,-0.539473953,-0.3998581641,-0.5391292834,-0.4171848234,-0.2876967072,-0.5094403226,-0.0576658675,-0.4359629163,-0.1718990633,-0.560256155,-0.4215229296,-0.2665830064,-0.3611035991,-0.717691927,-0.2105104289,-0.1141737005,-0.1570143832,-0.3867859953,-0.1843376833,-0.6596722401,-0.4364008078,-0.2387183067,-0.297445614,-0.3440164148,-0.0362311155,-0.3842164581,-0.0951691003,-0.1722195073,-0.1981713273,-0.4938012629,-0.681040362,-0.677665686,-0.7393405005,-0.8002248915,-0.6448156886,-0.589484707,-0.5578871386,-0.4503466577,-0.3765340859,-0.1530233529,-0.1607801386,-0.2928725598,-0.5619791251,-0.5047067251,-0.454995269,-0.1624916207,-0.4748049868,-0.6195212936,-0.359875788,-0.5416600788,-0.3345226536,-0.6171159431,-0.0796679262,0.0378604988,-0.0730761165,-0.713554597,-0.5893002184,-0.498125121,-0.2255654995,-0.3064051058,-0.6378531461,-0.2167006656,-0.7505539611,-0.4864846968,-0.349394386,-0.2054226126,-0.0744322011,-0.5559830874,-0.4342511965,-0.0022204501,-0.7106609285,-0.7000916652,-0.2894251943,-0.2033238049,-0.5554220218,-0.2130103694,-0.004666533,-0.6986445078,-0.3133613932,-0.478237058,0.0076771717,-0.2655793494,-0.4463814501,-0.4509632062,-0.6537610569,-0.1569127511,-0.5599511339,-0.1632163519,0.0111810332,-0.2609538912,-0.1889593874,-0.1611336117,-0.3041879493,-0.0977014448,-0.0810199333,-0.4098106559,-0.4974113684,-0.37569921,-0.602069546,-0.4979908899,-1.3826455076,-0.2705927563,-0.7337107549,-0.3518483403,-0.1881635972,-0.0394038174,-0.607024408,-0.1022769832,-0.5763051603,-0.4773845092,-0.1136209859,-0.7103240277,-0.6694360615,-0.1437824433,-0.722346655,-0.3130731462,-0.3891449083,-0.4279567271,-0.1283443816,-0.1547915355,0.0093334924,-0.5623935594,-0.0922885393,-0.5586051317,-0.7076395448,-0.5010280656,-0.3337586154,-0.4034423458,-0.1144017065,-0.5535272061,-0.3564789533,-0.5027394743,-0.4865013291,-0.132058053,-0.6258465457,-0.5536360365,-0.4618277258,-0.1023214907,-0.1416803767,-0.5050359317,-0.2215941081,-0.2293761475,-0.3672044682,-0.3172546328,-0.166749948,-0.7484642432,-0.362870552,-0.2664522109,-0.1129911649,-0.0308114415,-0.3440920816,-0.6877891913,0.0366045845,-0.3440453275,-0.4395205818,-0.7407436254,-0.1447016535,0.0298918322,-0.3934463493,-0.0087174039,-0.6380485878,-0.3549929467,-0.1586737279,-0.7098852207,-0.2541613521,-0.5678468484,-0.0033078224,-0.6573398242,-0.1787478766,-0.0092907287,-0.6405482403,-0.1354517702,-0.611295086,-0.2427774923,-0.4043263621,-0.0508607022,-0.735799405,-0.4503633665,-0.6318377505,-0.1881113575,-0.4386754273,-0.3625206631,-0.5335268749,-0.1787161571,-0.1075290776,-0.714960704,-0.3986498542,-0.5629899939,-0.1671025711,-0.4566958498,-0.6536578489,-0.6466401509,-0.4382970362,-0.5865796984,-0.1082908519,-0.2838064308,-0.0508011291,-0.5848113568,-0.3397029283,-0.0179988859,-0.0387167812,-0.1165680959,-0.8561435961,-0.0704893641,-0.6813894325,-0.6187904738,-0.324106749,-0.2383983397,-0.4738481834,-0.6788200765,-0.7476292761,-0.2009438834,-0.72356338,-0.3131808243,-0.3470735034,-0.381922796,-0.6489190551,0.0342400895,-0.6894003182,-0.3051812401,-0.5629556423,-0.6568837677,-0.4703065413,-0.2079610557,-0.4484768327,-0.6635460112,-0.0255095129,-0.5098878044,-0.0421246843,-0.4186690293,-0.2037132286,-0.4824150335,-0.0087782169,-0.4027258202,-0.2366876078,-0.1360610815,-0.4215279817,-0.062879594,-0.1190096092,-0.2387399258,-0.3000398178,-0.1123698884,-0.4024594417,-0.1859289188,-0.0466928446,-0.5457136142,-0.4976928602,-0.2390661812,-0.1702533361,-0.4645626477,-0.6844649673,-0.0418256745,-0.2530985839,-1.0352144133,0.0380144651,-0.0106923518,-0.7056566869,-0.5194496872,-0.1846436443,-0.2891527803,-0.558507379,-0.2582700666,0.0291099498,-0.7017890419,-0.5304936921,-0.0845692871,-0.3462198609,-0.2420271854,-0.621198795,-0.0210433578,-0.1764904916,-0.4073667168,-0.4546832752,-0.3511739687,-0.1361772117,-0.2396747318,-0.5108067546,-0.7359081819,0.0144094604,-0.5889217344,-0.6725478855,-0.1635695291,-0.2141878773,-0.5827586031,-0.6428095556,-0.2350170453,-0.1688381087,-0.4856500807,-0.7260829881,-0.3725590485,-0.3861270904,-0.6245653754,-0.1143058517,-0.3571210414,-0.4419914041,-0.4354105477,-0.5019636097,-0.3101221621,-0.4223783677,-0.5483509554,0.0297930289,-0.6442972726,-0.1641222404,-0.3062595153,-1.3206438304,-0.3699143845,-0.4656517919,-0.2906822522,-0.5665845563,-0.7259419785,-0.6512842453,-0.5028382561,-0.0800570143,-0.7948086697,-0.0484360783,-0.454588575,-0.2697660136,-0.5743696883,-0.3896013956,-0.707435177,-0.5160632028,-0.3679158023,-0.607974364,-0.3723279301,-0.1882548773,-0.7463784091,-0.121155745,-0.1005742913,-0.5652436103,-0.038482927,-0.6765303182,-0.5636518815,-0.7168330644,-0.7398855971,-0.8289713973,-0.2816917683,-0.7939878367,-0.1952126023,-0.5254173499,-0.1003703058,-0.4483362225,-0.6166110757,-0.5013473052,-0.2959452336,-0.4611982817,-0.2165171053,-0.2817691305,-0.2327570376,-0.5508508329,-0.2510884355,-0.47413778,-0.515098136,-0.2959639901,-0.5962283196,0.0221105486,-0.0625167341,-0.6156514907,-0.793714663,-0.7293740332,-0.2723215807,-0.6394899707,-0.4775309783,-0.6437791386,-0.6111764898,-0.6592065149,-0.6999659056,-0.4938950403,-0.3964122911,-0.1848947184,-0.0844798328,-0.6293580934,-0.7702551882,-0.492193048,-0.3848159519,-0.6402707453,-0.6271967207,-0.5862013549,-0.3685017871,-0.361626565,-0.2243967525,-0.4044457465,-0.7478616741,-0.7202798121,0.040856027,-0.0412177559,-0.7570246106,-0.1687256307,-0.2995120067,-0.6574184616,-0.4218371771,-0.4565606449,-0.7701948126,-0.4845944747,-0.2434068551,-0.3120013742,-0.434475994,-0.5959017362,-0.4851340942,-0.0803688662,-0.0320969882,-0.3976341022,-0.4317755228,-0.2258193429,-0.1513125002,-0.1673134401,-0.3323883288,-0.2181626718,-0.2503286164,-0.6115567405,-0.6359343406,-0.1065485393,-0.7408738645,-0.2455956267,-0.1362462573,-0.3129702037,-0.543112577,-0.5360243362,-0.458058504,-0.4510071582,-0.7797627146,-0.2543728192,-0.0563050413,-0.392283929,-0.1396105084,-0.5681508022,-0.1728956531,-0.520153382,-0.3404229432,-0.0906319856,-0.3614015154,-0.7093320502,-0.6750473955,-0.6046845998,-0.7221908511,-0.5342858656,-0.1962240644,-0.3274024676,-0.6216785733,-0.4385607983,-0.5297348058,-0.3252277781,-0.3539559335,-0.7517766183,-0.2381967341,-0.536259247,-0.576736881,-0.3118002185,-0.3086510161,-0.7025043032,-0.6706671066,-0.4715394631,-0.3428420766,-0.5137660534,-0.1192395268,-0.5252732533,-0.6149282685,-0.2857097882,-0.8004740265,-0.3587215046,-0.2723989382,-0.7450829452,-0.6633707474,-0.2750551158,-0.0660855352,-0.5145956666,-0.2566367871,-0.470647865,-0.1842858435,-0.3197637652,-0.1664190402,-0.4716960455,-0.0421713267,-0.2843589768,-0.2997408581,-0.6824250519,-0.0101372238,-0.6938831278,-0.726255565,-0.5017199117,-0.5491559926,-0.4923434698,-0.388673496,-0.1205601173,-0.2491397424,-0.4614031654,-0.2933462409,-0.5107852637,-0.2425843297,-0.5494219651,-0.2874563904,-0.0177995468,-0.6518404814,-0.2606829656,-0.5836099502,-0.2112574675,-0.3260170951,-0.6751465006,-0.4961788439,-0.6229450925,-0.2971837883,-0.3803252538,-0.5288429455,-0.5316515085,0.0283450775,-0.357719284,-0.3119001792,-0.5707669997,-0.3865513684,-1.301751489,0.0061042871,0.0099473116,-0.074626107,-0.4723279426,-0.5641464383,-0.1372762195,-0.5679799715,-0.1126216791,-0.4348680367,-0.3560694997,-0.4406644837,-0.6811054902,-0.0635978867,-0.4909655203,-0.8099830239,-0.3895070879,-0.5208518705,-0.6451634703,-0.1986660518,-0.6474231894,-0.6307297142,-0.439652604,-0.6796502693,-0.0428768697,-0.0361605392,-0.1285219521,-0.2588597617,-0.0627206189,-0.5153447346,-0.6198423074,-0.4079469375,-0.6025527165,0.005375701,-0.0291927171,-0.2802621318,-0.4220743762,-0.7223359652,-0.4260224122,-0.148198832,-0.0374170625,-0.3226973991,-0.1500633192,-0.342478892,-0.0503708097,-0.7257800517,-0.4293534601,-0.6291479359,-0.5745430538,-0.2165560054,-0.0242251732,-1.4270123756,-0.2865405748,-0.55613122,-0.5194250542,-0.4190941631,-0.3331816081,-0.1376602538,-0.1572026126,-0.1903695542,-0.421103677,-0.5610437316,-0.2780093402,-0.5775731158,-0.1128263169,-0.2499636921,-0.0977191068,-0.0770801695,-0.345081284,-0.0069775713,-0.1033711739,-0.7505751813,-0.402843237,-0.4800562173,-0.2250460158,-0.672704888,-0.0797624889,-0.2819942466,-0.6678732559,-0.2551051111,-0.0396275956,-0.1013025137,-0.1025291311,-0.6819059944,-0.1810839234,-0.1150576576,-0.6469895544,-0.1074741351,-0.387081844,-0.5004337025,-0.4759634373,-0.6813544953,-0.6010304869,-0.3254961774,-0.1286483998,-0.2461197163,-0.5380853199,-0.781047457,-0.6661900453,-0.3649029583,-0.225958727,-0.2126276218,-1.5127665814,-0.5802526357,-0.468525712,-0.0159177041,-0.1067602867,-0.7098450361,-0.4811819787,-0.5484187169,-0.5208552574,-0.3236926183,-0.1206771133,-0.3865034499,-0.0628599152,-0.3210759109,-0.3455693519,-0.339264567,-0.4958631847,-0.3943512591,-0.549293471,-0.1799710422,-0.7288114056,-0.3134113739,-0.3656575593,-0.4585477641,-0.1116517762,-0.4770082341,-0.2631917346,0.0228693165,-0.3192751833,-0.2121671283,-0.0994096042,-0.5214940099,-0.5721682138,-0.2944506029,-0.6246489452,-0.4241830051,-0.6714795148,-0.5600556299,-0.5765628364,-0.6057279262,0.0378309869,-0.0657108037,-0.3246822681,-0.4701827951,-0.0866389371,-0.3820652435,-0.6855510782,-0.2575828305,-0.3336886238,-0.2357595197,-0.0287667677,-1.3164402357,-0.3732198872,-0.1552256562,-0.4885488949,-0.2952397835,-0.0202202282,-0.6609329776,-0.6717886917,-0.6792653238,-0.3082052257,-0.4506356683,-0.4159484045,-0.4996582622,-0.3620555096,-0.7394884818,-0.4099877488,-0.4382875467,-0.6191857926,-0.589966313,-0.4201665468,-0.5442449043,0.0112443802,-0.4857543246,-0.6884485714,-0.4681164188,-0.2293424456,-0.2364640294,-0.0549424978,-0.1856235501,-0.1858839541,0.0225209164,-0.4052490845,-0.2836072759,-0.0590143922,-0.0997204938,-0.3408205416,-0.2241351126,-0.636400845,-0.4254520864,-0.4900001589,-0.5273465538,-0.2427283954,-0.6081347942,-0.3190324866,-0.3965991749,-0.2271018821,-0.5771225061,-0.6259268027,-0.5872109398,-0.2750354446,-0.0557252632,-1.3079009562,-0.3654856717,-0.2861274695,-0.5370831486,-0.1188559146,-0.6835137031,-0.2784723847,-0.6814573577,-0.7325948201,-0.1085970117,-0.3342036326,-0.440459624,-0.5714551617,-0.4505555166,-0.510966381,-0.479173764,-0.4896576898,0.0097327745,-0.3522183793,-0.7070874262,-0.6443873442,-0.1476700611,-0.3044294566,-0.5340025655,-0.2094865898,-0.571670006,-0.5311268321,-0.2342585384,-0.0209501992,-0.0682022361,-0.7564028313,-0.4731352585,-0.0614103328,-0.146474953,-0.3365753568,0.0224997675,-0.0842514423,-0.0888944612,-0.3194563943,-0.6921127351,-0.001255042,-0.2735687136,-0.2502669505,-0.5395027476,-0.4719658415,-0.1201238617,-0.0062319322,-0.7210688642,-0.0832380901,-0.0326221849,-0.3848147426,-1.078825135,-0.299925043,-0.0716539818,-0.1422964274,-0.3683580403,-0.6927091217,-0.1378988802,-0.4446535662,-0.5637223093,-0.6497735048,-0.2645867801,-0.6214642099,-0.2596161114,-0.7024500631,-0.7166335359,-0.5482054443,-0.6878669364,-0.3531942234,-0.6303220989,-0.7204249666,-0.2909797746,-0.5029723154,-0.6020616073,-0.3090457553,-0.4396989798,-0.7487811506,-0.0302819772,-0.394085203,-0.7475941255,-0.5249729737,-0.2497393918,-0.0498146133,-0.5438963137,-0.8028894218,-0.5786124685,-0.0257650939,-0.2352996482,-0.5976348907,-0.3762766319,-0.4637579237,-0.7068938221,-0.0973602278,-0.7062438894,-0.2094472064,-0.4576612608,-0.2450427552,-0.631674864,-0.3565797715,-0.1375802578,-0.7831591814,-0.0263831074,-0.1619387037,-0.2129725774,-0.4625142197,-0.3290073286,-0.5794528074,-0.487224524,-0.3281333928,-0.5945421937,-0.4806764728,0.03343687,-0.5275204475,-0.5090201317,-0.3987474297,-0.6548138756,-0.7207895397,-0.4155032699,-0.7140538942,-0.1657188625,-0.0799436596,-0.3175414796,-0.2842316195,-0.5175058833,-0.4635680991,-0.6682272362,-0.2731907306,-0.2381272576,-0.2340633925,-0.4877607646,0.0377578467,-0.6550595266,0.025491595,-0.1968394526,-0.3548585059,-0.3197591763,-0.0854943552,-0.6420162081,-0.5804070684,-0.6851476087,-0.2736068196,-0.0410700937,-0.6176909017,-0.21539054,-0.0950228966,-0.4305969884,-0.5487498592,-0.0809353779,-0.6162933504,-0.1509084839,-0.7138046508,-0.6858724356,-0.2834493089,-0.9044793432,-0.0870445928,-0.8115646601,-0.6998290797,-0.0482818145,0.0289635328,-0.2196704822,-0.3540664108,-0.5125683784,-0.028489889,-0.7023438011,-0.7787057632,-0.5174823162,-0.2839674305,-0.4470421283,-0.7113334148,-0.2391438694,-0.4379119054,-0.0628366207,-0.6931557045,-0.1529579755,-0.5455952394,-0.0793230967,-0.4317463555,0.0253814576,-0.5373785835,-0.7208109036,0.0090851602,0.0054749583,-0.4481202476,-0.6571037859,-0.2846628061,-0.2942235775,-0.6080814995,-0.3736267086,-0.3403943948,-0.6669764081,-0.1726659464,-0.2988688662,-0.2104614599,-0.5654880312,-0.4929077686,-0.3644818743,-0.134303856,-0.4047558854,-0.2942192755,-0.1938797747,-0.6784899632,-0.4746812009,-0.5437476134,-0.5659195598,-0.4596604921,-0.4401965808,-0.3067359333,-0.4774152981,-0.381952031,-0.107923161,-0.703802715,0.0176508439,-0.5867677933,-0.0242779972,-0.6811447783,0.0401662554,-0.617015993,-0.6250931276,-0.6489772059,-0.5083478086,-0.6746783439,-0.4575614115,-0.0006485583,-0.5749138881,-0.3622516831,-0.2459722385,-0.33543959,-0.5863652944,-0.6786879134,-0.6237604053,-0.6694375608,-0.542569951,-0.5723754721,-0.0713791578,0.0158754729,-0.4213224396,-0.4481575335,-0.7321696575,-0.4819092893,-0.5868228639,-0.5325161344,-0.375186461,-0.6301043811,-0.4073688529,-0.6122754794,-0.7438382932,-0.5099708341,-0.476367421,-0.0114027481,-0.0457535688,-0.0355078499,-0.3687725888,-0.3470839056,-0.08858126,-0.6887525221,-0.5858697627,0.0356014243,-0.5268070043,-0.4973494616,0.0333284334,-0.0070603731,-0.3695918307,-0.4850467621,-0.6704463395,-0.1637957927,-0.5222697225,-0.3337744475,-0.0252639351,-0.7021761136,-0.544902896,-0.0074563615,-0.7242938391,-0.0615186601,-0.4176066219,-0.4821207392,-0.6221691866,-0.581809711,-0.402142214,-0.4271936722,-0.5852167817,-0.2327501909,-0.1045954698,-0.5992883272,-0.2529910064,-0.3254008725,-0.3460300761,-0.3046447598,-0.5910276301,-0.6832613524,-0.7416024795,-0.0131816069,-0.1916004157,-0.3524290959,-0.2676276213,-0.3873854333,-0.3722251245,-0.2608152453,-0.1098485065,-0.1479996497,-0.4764978109,-0.3356814856,-0.5732747586,-0.4223496716,-0.2582328597,-0.1297310731,-0.4463827932,-0.7906367717,-0.0422426912,-0.6022063299,-0.0627287479,-0.3767202146,-0.173863932,-0.744609215,-0.5243125895,-0.4246203501
   -0.2525974689,-0.3647580742,-0.5488499172,-0.1864290833,-0.7611697972,-0.3960746813,-0.0535847495,-0.5373240348,-0.7872363147,-0.6725096431,-0.5445745768,-0.2524488541,-0.2717183,-0.3070087903,-0.2040470434,-0.1344956048,-0.3693951469,-0.4780377482,0.0027553172,-0.0074786931,-0.1414714194,-0.2909264243,-0.7814055354,-0.5837202135,-0.4596203985,-0.6925695216,-0.2893145341,-0.1947401742,-0.2605635445,-0.4139251349,-0.6298356072,-0.596147258,-0.6289264484,-0.2462465073,-0.4068254015,-0.6484329622,-0.2521736424,-0.7360299303,-0.5992001631,-0.3880426862,-0.7389070396,-0.0429413722,-0.2189641115,-0.3833884126,-0.2787025124,-0.2380087857,0.0142550218,-0.6749338153,-0.0463328069,-0.3516375491,-0.0817407032,-0.4749645995,-0.1816115108,-0.1329601635,-0.1030623572,-0.3203867522,-0.6691670023,-0.4008700509,-0.4574162368,-0.3689712635,-0.6125463148,-0.3051503626,-0.3333225006,-0.748006289,-0.1037829882,-0.6114790649,-0.3725311341,-0.2105068163,-0.2218019727,-0.5018464942,-0.5528424573,-0.4595523526,-0.3680732641,-0.1350126404,-0.1565587404,-0.0754114519,-0.1448432326,-0.1570856434,-0.5285906224,-0.7354958243,-0.0717709479,-0.4437196681,-0.1031345638,-0.6856429761,-0.0255246459,-0.2654920011,-0.5986318103,-0.1181291618,-0.6147228049,-0.1249170787,0.0013655605,-0.2216437619,-0.283269585,-1.2815632408,-0.1114876132,-0.2019789503,-0.0553437401,-0.620737874,-0.114083706,-0.5050365933,-0.5331653716,-0.1402714428,-0.2757422474,-0.1508673363,-0.7647886001,-0.3386341813,-0.4201921988,-0.4849850844,-0.6152627598,-0.2415939982,-0.1278699933,-0.6465506737,-0.6720462,-0.006030444,-0.6587284551,-0.5965567641,-0.6074581219,-0.4524908874,-0.0554434552,-0.4540812219,-0.5255356164,-0.2490265056,-0.104255477,-0.6240127152,-0.2034918488,-0.1720272864,-0.3584299111,-0.4333179073,-0.2298297364,-0.6723505504,-0.5077393416,-0.0920282552,-0.7003041482,-0.7718424466,-0.1196629665,-0.248338612,-0.5285342124,-0.6864516944,-0.2507750254,-0.2193450899,-0.0374280313,-0.1799684378,-0.6361491075,-0.6566920994,-0.3466549777,-0.6652527311,-0.743746737,-0.1877002678,-0.2721054857,-0.2718144662,-0.0969266171,-0.7475758516,-0.7470981174,-0.1397032518,-0.4601263993,-0.405968446,-0.4473113717,-0.0614729583,-0.1214663465,-0.3166576489,-0.4938728642,-0.6024033039,-0.0227201213,-0.474130058,-0.6041257248,-0.2348595182,-0.5636447782,-0.2630286718,-0.3675765179,-0.3209045915,-0.3322115596,-0.7186893699,-0.4693255171,-0.3286234349,-0.2623884306,-0.0933711528,-0.5784420375,-0.3138869168,-0.0589831974,-0.5855756746,-0.6899636089,-0.4812557247,-0.347431875,-0.1190913199,-0.1052443131,-0.2922135944,-0.4410269847,-0.2649873872,-0.1242523106,-0.5009769936,-0.6667801919,-0.3563508523,-0.4635207629,-0.632208034,-0.14178772,-1.16977669,-0.7104222388,-0.2365241721,-0.2330506235,-0.2426693674,-0.2141213132,-0.3870339738,-0.1200015783,-0.5543625467,-0.6498642169,-0.3444209447,-0.5861918576,-0.278365212,-0.6063666011,-0.2356817515,-0.2653221427,-0.1953940734,-0.4310496549,-0.1476184713,-0.2069146134,-0.0299496282,-0.5933889701,-0.1785999511,-0.6131291278,0.0084200038,-0.1105629977,-0.3244607412,-0.6779477995,-0.2948876076,-0.2458337853,-0.2113036242,-0.0919793665,-0.3138893247,-0.4880203793,-0.6518415011,-0.0576195787,-0.0815667626,-0.3552820785,-0.4476964077,-0.3512244472,-0.5332798312,-0.5626018084,-0.2830776774,-0.2128268522,-0.1981365513,-0.6934335057,-0.3692699496,-0.3981290816,-0.2854408329,-0.4674629697,-0.4506593613,-1.5234044099,-0.1933242223,-0.7364717975,-0.5611309466,-0.1161684483,-0.2945150896,-0.0116897251,-0.5834688121,-0.5729490415,-0.5157184236,0.0368979054,-0.4938974857,-0.1819992482,-0.5787688689,-0.2704819203,-0.0214701455,-0.6099124911,-0.5518033529,-0.2907654182,-0.5956164572,-0.1105273267,-0.543237961,-0.4770799827,-0.008045999,-0.198095058,-0.5242503545,-0.1012584653,-0.3093235107,-0.4588405381,-0.6340093529,-0.0353375023,-0.2182094901,-0.0472440724,-0.6936290692,-0.4856277302,-0.3805075356,-0.5542939177,-0.5735876352,-0.052932125,-0.6665080884,-0.4835514293,-0.1887290929,-0.1537310917,-0.4555191929,-0.4016865366,-0.3664813628,-0.5334687363,-0.6408849703,-0.6421190893,-0.130728509,-0.4862879039,-0.888277135,-0.7187863339,-0.6897742139,-0.4519662756,-0.3032740647,-0.7307991997,-0.3886826183,-0.2079214223,-0.5041083258,-0.1345601872,-0.6529572755,-0.561540003,-0.1183519675,-0.5985397128,-0.5729536579,-0.6351009011,-0.3986899556,-0.3900739602,-0.2538213302,-0.6292296861,-0.2193466154,-0.1135333245,-0.5673669549,-0.725732791,-0.3640698852,0.040585517,-0.3464811244,-0.070602742,-0.030810317,-0.4115328124,-0.4727521211,-0.0236690636,-0.2678158727,-0.0401656136,-0.6899100061,-0.5930020138,-0.6548113734,-0.6495886382,-0.4308588702,-0.1081529623,-0.5880676383,-0.5479109924,-0.4221275822,-0.6934552852,-0.4015973937,-0.3316939723,-0.5988599537,-0.2530431759,-0.6866785307,-0.1254418313,-0.3357561218,-0.3568440016,-0.658760513,-0.4326019854,-0.528840434,-0.3500952776,-0.0521304605,-0.4398009143,-0.5441977791,-0.426826804,-0.2873485408,-0.4666237762,-0.34182605,-0.2423307187,-0.4789858072,-0.6830659251,-0.5992474559,-0.097781661,-0.6001597239,-0.710675474,-0.655982872,-0.651526745,-0.1305009446,-0.1329439614,-0.5106007342,-0.4622753891,-0.6103240424,-0.2769584978,5.9430908018,-0.3210581975,-0.4187483982,-0.1642808357,-0.0962144184,-0.0887107181,-0.2323132651,-0.642096141,-0.1181006476,-0.5214366523,-0.3491518917,-0.1118615478,-0.2821831357,-0.40879716,0.0397683113,-0.6480178704,-0.6959478906,-0.498819231,-0.1494472635,-0.7291963344,-0.6912136722,-0.2965798129,-0.303022268,-0.441940159,-1.4517698308,-0.5109616846,-0.6782490736,-0.0337394277,-0.2282365424,-0.6961448242,-0.1257608829,-0.6367193099,-0.2085487951,-0.1311234175,0.0590546722,-0.1882989495,-0.038870377,-0.6814722354,-0.6230910728,-0.2883864515,-0.4836093276,-0.5030070047,-0.1103236566,-0.5991562326,-0.0665945455,-0.1692901179,-0.5981425605,-0.1158321844,-0.5854849049,-0.5767623319,-0.2090065303,-0.7199319738,-0.1134166195,-0.1191431643,-0.7099920194,-0.1569435641,-0.4570667175,-0.4599936061,-0.2826641436,-0.197466582,-0.2298056171,-0.425029165,-0.528736939,0.0330646358,-0.6714660753,-0.3691050718,-0.048404541,-0.3905265488,-0.4731453159,-0.2472120018,-0.0703113186,-0.4920322981,-0.5799297627,-0.1822382639,-0.421923186,-1.4854216796,-0.3137510927,-0.0809703025,-0.5928089637,-0.5046999284,-0.2279786752,-0.6490371826,-0.0968133418,-0.3267697714,-0.3351568921,-0.1966101033,-0.4157435131,-0.4725501228,-0.6663310481,-0.7119332605,-0.0033370882,-0.58752402,-0.2374069876,-0.535386129,-0.3587783958,-0.6083798432,-0.2575061342,-0.7045759988,-0.4270259544,-0.5413501936,0.005752118,-0.5587158019,-0.3181785229,-0.2952246589,-0.1180986748,-0.2841052083,-0.5471633987,-0.6090978008,-0.5755876715,-0.5573432454,-0.6413039032,-0.3433898998,-0.5940980283,-0.4556162218,-0.152672152,-0.291332151,-0.3354376349,-0.6230698647,-0.51202193,-0.2568405273,-0.1891212262,-0.2262887743,-0.6468649273,-0.0594783695,0.0361747108,-0.2893679683,-1.4921453886,-0.6434745367,-0.3326760589,-0.359334743,-0.3038586351,-0.2486310025,-0.2932651285,-0.1020565124,-0.4841846424,-0.6957503629,-0.453444722,-0.1392637515,-0.0779863758,-0.6740333695,-0.1271554418,-0.4734487087,-0.3072339007,-0.0124557758,-0.4533464782,-0.2835155161,-0.3555835276,-0.1719228863,-0.3822455693,-0.5089598437,-0.0237039822,-0.3546684954,0.0181728669,-0.5212761686,-0.685472727,-0.1919216348,-0.2477735926,-0.406512083,-0.3466047573,-0.2453897769,-0.4066882365,-0.5193175333,-0.3504344629,-0.411907903,-0.0889136691,-0.6865777206,-0.6665017186,-0.3118127119,0.0345203101,-0.402765751,0.0166699185,-0.2693071242,-0.0190449331,-0.3263886235,-0.6343751526,-0.361524693,-0.2673257326,-0.602503233,-0.7103330118,-0.6738533693,-0.7327634399,-0.7354023469,-0.2849613468,-0.1161627639,0.0341840376,-0.6290744313,-0.4837582662,-0.6427424337,-0.172515005,-0.5904592173,-0.2811852943,-0.3639062727,-0.5215320859,-0.6618249607,-0.5084386449,-0.1140916849,-0.2960715694,0.0392113644,-0.3526240696,-0.0109046604,-0.2723959484,-0.5658552171,-0.4974677631,-0.5159573513,-0.1135707555,-0.5968000205,-0.4199492604,-0.4204139316,-0.537747338,-0.0213694598,-0.5420614796,-0.3443148248,-0.3540885304,-0.2366108056,-0.2723222072,-0.3289967321,-0.3718912439,-0.7081367276,-0.0657147476,-0.399124797,-0.5882516727,-0.1833613509,-0.2992755249,-0.2205031403,-0.1150353654,-0.684264823,-0.0464847481,-0.1997523442,-0.6740655431,-0.0978317882,-0.5472916817,-0.6501136026,-0.2962119486,-0.707991211,-0.1805039525,-0.2373706935,0.0068677447,-0.5163028571,-0.0209219782,-0.2798737343,-0.5314922063,-0.1290601098,-0.7485415907,-0.5732204755,0.0034592168,-0.6323557993,-0.3251172742,0.0165185202,-0.4766996553,-0.4887196188,-0.4611630409,-0.4606001438,-0.6722288988,-0.6636825584,-0.0542820433,-0.0747823254,-0.7195101291,-0.7119327352,-0.4418593685,-0.2795324576,-0.7308722404,-0.5115771683,-0.3244431691,-0.7492189139,-0.5019404894,-0.5992168577,-0.4554930248,-0.5134087802,-0.1723723106,-0.5242322712,-0.300516321,-0.7027615239,-0.0969678964,-0.6839662866,-0.324310732,-0.2492187296,-0.407185681,-0.4348872591,-0.3321821775,-0.2063994374,-0.4060191381,-0.014601896,-0.2412318389,-0.6646287252,-0.1194269246,-0.2981811099,-0.694100789,-0.1290140448,-0.5008183137,-0.3561627164,-0.3054846983,-0.4789052409,-0.6082440101,-0.6884192034,-0.4735226433,-0.3527840341,-0.5673933327,-0.4588185101,-0.4323858855,-0.3600168821,-0.408805487,-0.0197944495,-0.6077455272,-0.1291855146,-0.5430468152,-0.4169882231,-0.6273898575,-0.4820316221,-0.3714848399,-0.215501026,-0.7935292083,-0.3226779826,-0.1296196996,-0.2129311369,-0.3351576298,-0.7204479682,-0.3046862317,-0.4028442693,-0.345672046,-0.189444578,-0.5741183297,-0.6464252332,-0.1683211045,-0.5058638159,-0.0408208986,-0.4838048013,-0.2803907393,-0.4249300666,-0.0834753119,-0.5229779827,-0.6089315315,-0.1586502046,-0.4220111246,-0.3329152629,-0.2895439053,-0.2778963414,-0.1270435532,-0.7432299359,-0.7498672151,-0.4389222375,-0.6728697368,-0.1721872422,-0.3169624496,-0.6545141901,-0.1585291667,-0.635801992,-0.3904487081,-0.1467033428,-0.2415038195,-0.0876832736,-0.2983728293,-0.0955519043,-0.5402600591,-0.419907016,-0.2342472895,-0.7488731311,-0.7484523834,-0.7220932225,-0.1738138131,-0.4413399986,-0.4017515594,-0.5310651726,-0.2384600432,-0.7070409637,-0.2388438264,-0.1647549924,-0.4924535162,-0.1732184912,-0.6120746037,-0.5716154224,-0.3966216667,-0.6893018672,-0.3907879963,-0.4017203938,-0.5505034164,-0.3200204843,-0.4083910327,-0.6718233417,-0.0116976741,-0.0669231787,-0.7814683474,-0.0647884616,-0.3750095971,-0.5461156781,-0.6726021023,-0.2881914483,-0.2745743844,-0.2968569244,-0.2594661796,-0.4329906796,-0.504410043,-0.1274118283,-0.4402652537,-0.3494840356,-0.2603944201,-0.7919367393,-0.6542752104,-0.0542501557,-0.5065510521,-0.7979457067,-0.6490199904,-0.1502522891,-0.6978380952,-0.4780262915,-0.4922841827,-0.3072722594,-0.1208599772,-0.5424150388,-0.1072034855,-0.070575643,-0.0743444319,-0.3719033585,-0.2050635951,-0.7752258843,-0.6238698794,-0.5701235696,-0.2362858716,-0.3587037072,-0.5965021575,-0.2812516795,-0.1220643781,-0.4716531483,-0.3985461249,-0.6282502353,-0.400630599,-0.1195269783,-0.2199672031,-0.1134673583,-0.409385616,-0.591787318,-0.545191796,-0.3129350546,-0.0790108898,-0.2003104486,-0.1326705374,-0.6236155285,-0.0867943398,-0.0264960144,-0.3177085067,0.0346236765,-0.2353582768,-0.2490125715,-0.3622665149,-0.6768221286,0.0416515881,-0.2758788891,-0.0929478452,-0.4489473682,-0.5747156062,-0.1606695664,-0.573929669,-0.2625252059,-0.5587656589,-0.4269785243,-0.1139643727,-0.6741736265,-0.1722549544,-0.2870271343,-0.572993831,-0.6204386704,-0.4730097913,-0.6294328213,-0.0754009228,-0.4047733206,-0.1841349177,-0.5443481924,-0.7271794656,-0.3451626467,-0.2768900683,-0.528153281,-0.0864344819,-0.4531819369,-0.2679433388,-0.0869805223,-0.2110722631,-0.1281129367,-0.5515234262,-0.1243740979,-0.2235695134,-0.3566770713,-0.2195829826,-0.6012653534,0.0031188136,-1.1483891553,-0.2393297512,-0.1899796013,-0.6940645929,-0.2186568424,-0.0070274403,0.0422683764,-0.687271324,-0.1046781831,-0.3795241442,-0.2364403548,-0.6126143077,-0.6814465976,-0.3560547775,-0.3620920076,-0.2033681244,-0.4873460548,-0.3478929985,-0.1168883041,-0.0789462037,-0.6986030742,-0.6106432578,-0.4091997724,-0.7148476752,-0.6807241787,-0.0089045147,0.0180498526,-0.2311987731,-0.4993742748,-0.5671482414,-0.6678916853,-0.4820505574,-0.1065065075,-0.3564364615,-0.306981932,0.0050821595,-0.2914672417,-0.3351411711,-0.3960150112,-0.5343595161,0.0287599979,-0.6684096131,-0.6919650387,-0.081109805,-0.4538328326,-0.1989020702,-0.4478383014,0.0317488743,0.0113358021,-0.3780718006,-0.1004235303,-1.2880286047,-0.410965167,-0.6128654736,-0.336579652,-0.2116809629,-0.1084067055,-0.4022454872,-0.3651362508,-0.3293950787,-0.1147959139,-0.4419555978,-0.4291797611,-0.0163230477,-0.1049178007,-0.5536227315,-0.1836658904,-0.5625411044,-0.4271069142,-0.4701011703,-0.3130207027,-0.4754390685,-0.5470703922,-0.5548746046,-0.5944369435,-0.6291459352,-0.5361455401,-0.2687636442,0.0163427831,-0.5559873497,-0.4555634259,-0.5725983767,-0.1589182597,-0.2025773266,-0.5917327775,0.0323352002,-0.6709487676,-0.6007759684,0.0330679563,-0.1011084426,-0.6872540773,-0.0585550523,-0.4708994519,-0.0516716501,-0.2455178283,-0.1165029157,-0.4036846699,-0.0914334733,0.0333332858,-0.0580613295,-0.0644192011,-0.0503822072,-0.6061489046,-0.6033865722,-0.4054875634,-0.3562034689,-0.3838241813,-0.7167315826,-0.125550263,0.0313875633,-0.6113938164,-0.1300636173,-0.3598555001,0.0252201532,-0.0932115815,-0.5307716525,-0.0615894011,-0.1561239534,-0.4707528533,-0.3483117322,-0.3586529999,-0.2731213273,0.0261328509,-0.1132711263,-0.2018876628,-0.6819133922,-0.592717333,-0.3270952547,-0.484577248,-0.2128016217,-0.5800507871,-0.1427548215,-0.2624351438,-0.284499179,-0.2026405278,-0.6833702644,-0.3266985353,-0.0633921065,-0.4627271641,-0.5998545648,-0.5532876262,-0.3366218831,-0.6300675157,-0.7377844501,-0.2785161072,-0.4097465478,-0.679101556,-0.6181224879,-0.3599717112,0.0186011913,-0.2453056384,-0.6436379149,-0.5302288911,-0.4140379007,-0.2309617227,-0.4615552329,-0.5017928886,-0.202527639,-0.2506503285,-0.3609856384,-0.6343830473,-0.1194677462,-0.3683513912,-0.5817548998,-0.6271959283,-0.2027005508,-0.2519288741,-0.6658271253,-0.7838976769,-0.6751568021,-0.5115576912,-0.45995828,-0.1254306767,-0.2748367572,-0.1901754398,-0.0540350084,-0.6302097796,-0.6738333718,-0.1987841117,-0.5354978301,-0.0357022228,-0.5036065536,-0.3600159829,-0.3323300554,-0.2470852477,-0.2063161995,-0.2830150929,0.0129282821,-0.4165545766,-0.3869428888,-0.4975231681,-0.4997259646,-0.3719418015,-0.4346111849,-0.3234105449,-0.4268072747,-0.5739149027,-0.7461928317,-0.3950369701,-0.2907794987,-0.5669180334,-0.6721574657,-0.3536323636,-0.7199662025,-0.1804494147,-0.5082216738,-0.2675566033,-0.3967215917,-0.597968017,-0.0809469389,-0.1095283609,-0.5218761284,0.00732231,-0.2029883524,-0.4961981396,-0.6744360857,-0.6322402195,-0.3555732844,-0.0295796055,-0.6715949749,-0.5770455349,-0.1912549784,-0.1982183558,-0.1853866745,-0.4812615575,-0.5453368089,-0.3346039977,-0.5588168017,-0.6305660848,-0.3940650115,-0.5691063935,-0.5540515142,-0.39532694,-0.2118787827,-0.2968409159,-0.5493842559,-0.4537122542,-0.3205277175,-0.3289935612,-0.1606937744,-0.0708360802,-0.3320691024,-0.2022706448,-0.3567126644,-0.6727113193,-0.4025532552,-0.5493541474,-0.3583570626,-0.0949446032,-0.660912858,-0.2350989984,-0.4957734234,-0.3005389263,-0.0252926748,-0.2206057776,-0.9129365709,-0.0606543848,-0.2509401789,-0.1205806035,-0.5022503443,-0.6711562451,-0.1065184254,-0.3977463631,-0.2632994012,-0.632461407,-0.3904760654,-0.4552118274,-0.2558095209,-0.7034204774,-0.1013953207,-0.3849381633,0.0593358371,-0.1175439469,-0.5325837878,-0.3287744944,-0.6263207192,-0.5428789511,-0.6581118615,-0.144938638,-0.3030730919,-0.7301793132,-0.0855542598,-0.2595242612,-0.3436578481,-0.5723723347,-0.5923742654,-0.1065258006,-0.3977004079,-0.1604220121,-0.2827623578,-0.5380497663,-0.5825709862,-0.0759786889,-0.6956289199,-0.1461805829,-0.6795740694,-0.7225618731,-0.6794688894,-0.4613016301,-0.0779451972,-0.5226194107,-0.2673465035,-0.202078071,-0.7235512305,-0.4329741372,-0.3643177427,-0.9284393042,-0.2305504107,-0.0348380307,-0.7250160029,-0.4240956648,-0.5519416232,-0.4739749106,-0.2795881209,-0.3611196877,-0.530286142,-0.3942517369,-0.2188278518,-0.2664275998,-0.2125221987,-0.0908936798,-0.4723673033,-0.1404251053,-0.6063285793,-0.3855080076,-0.7171563144,-0.121243509,-0.7072841748,-0.6781280647,-0.136244395,-0.4092816975,-0.6015466519,0.0572498583,-0.2309003369,-0.2323173436,-0.194395011,-0.6486531574,-0.3318797107,-0.1055045549,-0.4415358075,-0.5271611762,-0.3088465277,-0.6526603798,-0.2973856937,-0.4984376397,-0.1747046317,-0.5299502204,-0.1524493367,-0.0289449931,-0.2159213107,-0.4043641687,-0.2621316913,-0.6261536014,-0.0300624151,-0.1742408665,-0.2112262594,-0.068367374,-0.9334705761,-0.3415855349,-0.0582490306,-0.4464016954,0.0301581155,0.0054320926,-0.4303023723,-0.4699904573,-0.7241260493,-0.0188643959,-0.7407273802,-0.2399386826,-0.3737373722,-0.3196028811,-0.2960095188,-0.6531327458,-0.6176471272,0.0275844967,-0.3672448172,-0.5130218338,-0.1477261097,-0.332950932,-0.2967037528,-0.1145131989,-0.5849188719,-0.1489752138,-0.537266449,-0.2289984569,-0.0226418223,-0.6744564867,-0.2024968098,-0.3442863845,-0.5939617301,-0.5507243001,-0.0606526915,-0.6284085397,-0.5101634131,-0.2788100926,-0.1142157485,-0.7489813646,-0.1164493013,-0.2084015948,-0.6343736076,-0.3758216335,-0.660075412,-0.0759994532,-0.4368989025,-0.3732933532,-0.5176730842,-0.0052869575,-0.6958207064,-0.5503825997,-0.4521203676,-0.7504444319,-0.7490144141,-0.5189567997,-0.4278351999,-0.4031177302,-0.3826550482,-0.3041117062,-0.1324726784,-0.2757173223,-0.2079714418,-0.4110654325,-0.5999404919,-0.482560056,-0.2626656255,-0.1164678862,-0.2054910548,-0.1537959463,-0.3669629381,-0.3568508581,-0.3945872876,-0.7669271172,-0.1750462516,-0.2234760603,-0.6673796176,-0.346172988,-0.4201616196,-0.2856319996,-0.1393487283,-0.0830490393,-0.0569101774,-0.0318729862,-0.6460261821,-0.2039677957,-0.2243216662,-0.5909791464,-0.232932402,-0.2501284565,-0.3339561069,-0.1627354751,-0.5327992317,-0.5706049454,-0.2205153417,-0.4285240925,-0.3964053437,-0.2160841767,-0.0596749471,-0.0480828763,-0.6771296468,-0.0209613307,-0.5778170175,-0.4398113118,-0.3274315569,-0.013712248,0.0273383265,-0.6027071853,-0.7281514361,-0.1022595536,-0.3368861458,-0.2369267167,-0.3411142856,-0.5301267643,-0.6572940131,-0.1729437966,-0.2860023169,-0.0793460047,0.0188948342,-0.0499302293,-0.2966303031,-0.4255165936,-0.020582319,-0.4309689426,-0.6823600427,-0.1529186712,-0.3837620678,-0.3709798794,-0.0391981577,-0.7055724843,-0.0234598009,-0.6025301557,-0.6839601138,-0.2677148802,-0.2889746665,-0.2346789759,-0.0541213824,-0.6716970367,-0.2431888552,-0.2716383101,-0.6186135985,-0.1560531665,-0.5740693395,-0.1676655872,-0.0918300581,-0.5990640644,-0.2269166487,-0.586756877,-0.6566351482,0.0375676928,-0.6685294254,0.0141328118,-0.7263886165,-0.7892853589,-0.0933745241,-0.3867838998,-0.5449188257,-0.2542798455,-0.165169807,-0.6288934877,0.0321775045,-0.4504982307,-0.3041255231,-0.7168945898,-0.4727091017,-0.0739990151,-0.426519582,-0.3441056412,-0.7519213398,-0.4573986575,-0.7134357036,-0.5685349771,-0.3944029467,-0.2348773724,-0.478345979,-0.5547049152,-0.0940625308,-0.195362733,-0.6690029655,-0.3193984667,-0.3339183006,-0.6259851645,-0.3599759116,-0.4670264658,-0.458253962,-0.7372256936,-0.5181773864,-0.0181624341,-0.5304603631,-0.4233978265,-0.1675945523,-0.4663095278,-0.1506639144,-0.1052430184,-0.582446643,-0.2367372723,-0.1087954194,-0.5953907079,-0.4036031892,-0.2334991671,-0.2664232234,-0.4039250776,-0.7567010589,-0.2509429693,-0.1344828494,-0.56672044,-0.2635064773,-0.2072165259,-0.5313492976,-0.1844171807,-0.6970415113,-0.6559828142,-0.0015975373,-0.2517115949,-0.4756610236,-0.1286539444,-0.6313699043,-0.7442258505,-0.601076475,-0.6421827913,-0.1747022953,-0.4919970694,-0.1571672184,-0.2802624556,-0.0397966483,-0.1040751068,-0.1636546627,-0.2469023116,-0.3217377737,-0.1428418144,-0.2636255999,-0.4869974748,-0.4387281014,-0.702978213,-0.1564994703,-0.179457851,-0.0675317076,-0.5882688384,-0.4217223863,-0.7268328227,-0.2489156459,-0.4974082958,-0.4398191374,-0.6595817015,-0.3158993203,-0.3057987005,-0.1265049563,-0.644673401,-0.181912171,0.0322815582,-0.2411133093,-0.7136475076,-0.7150591677,-0.576544726,-0.5229953176,-0.6835478316,-0.0157084342,-0.6382390383,-0.4531347348,-0.5190788764,-0.6538205134,0.0335450264,-0.1198983176,-0.2020896423,-0.5293097413,-0.1689691179,-0.4726825996,-0.6736473317,0.0135770375,-0.6615019473,-0.2023260192,-0.4595119407,-0.2561317414,-0.3344114132,-0.3006074862,-0.3435650632,-0.435265162,0.0409394609,-0.3073878054,-0.5390785333,-0.5208637171,-0.2477491244,-0.0594982907,0.0065741672,-0.1824746765,-0.4098324451,-0.0352081065,-0.524114034,-0.1512890893,-0.2896598201,-0.6705483858,-0.7252537996,-0.4092440661,-0.2761001228,-0.3321656703,-0.0844443446,-0.644984158,-0.3220386243,-0.5197880086,-0.369055009,-0.5835204364,-0.5207178462,-0.2967641117,-0.2848918709,-0.0203353377,-0.0629854496,-1.3794308895,-0.0444260734,-0.3851705339,-0.7136768656,-0.1306560538,0.0009748171,-0.6618237931,-0.5982987553,-0.2024429177,-0.1135468729,-0.6463707964,-0.5471083461,-0.7388020942,-0.3172168392,-0.062601488,-0.1355187213,-0.2114237298,-0.324064708,-0.5286277434,-0.6227732981,-0.7008458921,-0.1450748598,-0.4385969294,-0.0845880714,-0.1843933061,-0.2926634207,-0.5677149825,-0.4819323664,0.0037226975,-0.312154674,-0.4918971122,-0.2383383542,-0.2818644645,-0.4671545744,-0.6930415957,-0.667930467,-0.2761690048,-0.1454054623,-0.3116318941,-0.4409754388,-0.1901148829,-0.4437162092,-0.5701790285,-0.7713242881,-0.2586349518,-0.767826464,-0.634308162,-0.1489472607,-0.2366440007,-0.6823011907,-0.6483770237,-0.2509392855,0.016964045,-0.1305769131,-0.6558418428,-0.4809162065,0.0304481185,-0.400247353,-0.5059049927,-0.3093873415,-0.6386636456,-0.1692969808,0.0157347354,-0.299677432,0.0376087989,-0.2877862469,-0.4285783706,-0.2010836346,-0.6853632456,-0.6991080437,-0.6784427253,-0.4490046191,-0.3869690719,-0.3143218631,-0.0314272893,-0.7041254716,-0.5999623082,-0.5404849885,-0.341782455,0.0255400997,-0.4466949612,-0.2580710085,-0.2564213269,-0.0370077667,0.0071566481,-0.3644021929,-0.6662358185,-0.4389201978,-0.2434848955,-0.7326321153,-0.5684367226,-0.0493236955,-0.158673516,-0.7308724803,0.0171568306,-0.2855284106,-0.7266017278,-0.1303380793,-0.4652590192,0.0254222424,-0.2237361493,-0.2957208038,-0.8430296427,-0.4155831707,-0.2435795601,-0.6491294487,-0.7017950674,-0.6012765561,-0.5661386509,-0.3499191657,-0.2992366275,-0.6533052273,-0.0391528823,-0.639866573,-0.2249997646,-0.0250628029,-0.6712131318,-0.7120559727,-0.3686116743,0.0348096514,-0.3258878322,-0.4040463123,-0.5096923828,-0.1110806511,-0.0738805726,-0.4973954686,-0.1515886085,-0.3811484723,-0.172475259,-0.6446840324,-0.2405204256,-0.4562425104,0.0031436461,-0.3812105907,-0.1969875967,-0.0539022578,-0.3566042476,-0.5785627007,-0.1844830716,-0.1732477062,-0.6273586125,-0.3899715517,-0.6255792243,-0.4497569424,-0.1046446527,-0.3150638846,-0.2787699119,-0.5857436063,-0.7130928549,-0.5720355925,-0.4172588413,0.0120729087,-0.6558148425,-0.3528811459,-0.2936096907,-0.1350263124,-0.3937508405,-0.5691910353,-0.4828781963,-0.3141948274,-0.3844022207,-0.1396861415,-0.6683083172,-0.4286913308,-0.0344016617,-0.2724969702,-0.6586593483,-0.3089641923,-0.5667158105,-0.130536393,-0.4331073467,-0.0124078875,-0.3501088253,-0.3666508137,-0.1678859731,-0.437498749,-0.7384528379,-0.0842201615,-0.2177527209,-0.0314713191,-0.1442103334,-0.5732295534,-0.6371421124,-0.0959362272,-0.5878896039,-0.3813273614,-0.3746240669,-0.1566776379,-0.6810811743,-0.3603489173,-0.2094635082,-0.6220131127,-0.1209408611,-0.1906490953,-0.4919837455,-0.069589582,-0.2530700256,-0.32664071,-0.4925383605,-0.202080702,-0.1528787937,-0.0441871387,-0.1279699066,-0.2405499387,-0.8717148216,-0.6784551572,-0.1748189232,-0.1017660596,-0.3875019143,-0.0908314299,-0.1463920559,-0.1316429484,-0.5992844102,-0.176392518,-0.625668097,-0.1032219435,-0.0749221593,-0.6899748066,-0.3840173504,0.0401014248,-0.1195525454,-0.3187082117,-0.0855616705,-0.5885486901,-0.4746031079,-0.4038807801,-0.3895356417,-0.6527125382,-0.4744384386,-0.2477585993,-0.6378478158,-0.6594740936,-0.200422031,-0.6385524713,-0.2245936239,-0.5092082526,-0.2422883782,-0.2663186537,-0.000588662,-0.7426268685,-0.5643256724,-0.5308879021,-0.5038370764,-0.1485426595,-0.2402977539,-0.6426014932,-0.1556747469,-0.6196944638,-0.4662821325,-0.4658955283,-0.6521225734,-0.6166458785,-0.5629392475,-0.4715235807,-0.3348412728,-0.2541584016,-0.7788109664,-0.6046341832,-0.567983096,-0.074684565,-0.2440447051,-0.3658743879,-0.3484247641,-0.3714213394,-0.2148400041,-0.4824724761,-0.8005218872,-0.6449079412,-0.1100577693,-0.6256471141,-0.5881275197,-0.7772359836,-0.0258493656,0.0272725876,-0.354064358,-0.2157755325,-0.1347344443,-0.6469600526,-0.2531465567,-0.2426672975,-0.188323174,-0.1217481202,-0.4096384276,-0.3110129553,-0.6881830242,-0.4114041497,-0.0197854344,-0.4498299627,-0.4430400409,-0.6213505181,-0.2513256985,-0.1583994019,-0.0907420941,-0.3316677112,-0.526810512,-0.4208296173,-0.180969891,-0.4314728875,-0.4938080612,-0.397961632,-0.6148606601,-0.1271102118,-0.353344404,-0.0916119351,-0.7288528523,-0.4882865279,-0.0080506972,-0.5204545032,-0.0725203259,-0.4177885877,-0.4034240426,-0.4787323266,-0.3571522276,-0.5020840184,-0.529168203,0.0140231136,0.0288298443,-0.3587641115,-0.7068797573,-0.6918674025,-0.2116491748,-0.3293771584,-0.0656128094,-0.7210021516,-0.4715322724,0.0241573249,-0.1837694206,-0.0278726796,0.5531412606,-0.2879677052,0.0164393927,-0.1802980186,-0.6328911163,2.5549117165,-0.0343653241,-0.1335580567,-0.5499955653,-0.6953416138,-0.6582401397,-0.396251774,-0.3719656021,-0.2209210017,-0.0246287163,-0.2400912268,-0.6764259266,-0.348911537,-0.6118651339,-0.092209142,-0.1254389435,-0.4823119289,-0.4873557529,-0.6060236084,-0.7040830526,-0.3380494084,-0.1777783563,-0.6461015333,0.2333566195,-1.5212065514,-0.7190745568,-0.4005202656,-0.4902492195,-0.1649046293,-0.052128144,-0.1318574123,-0.2687173191,-0.7368105567,-0.0734254281,-0.5763857547,-0.1879749035,-0.6494473317,-0.5863710301,-0.2007515119,-0.1095399721,-0.038085876,-0.3623907379,-0.2811631219,-0.3232160328,-0.5271028755,-0.4588598107,-0.7347388478,-0.4077042083,-0.4369588117,-0.0544982457,-0.6268889578,-0.3147764626,-0.5098662976,-0.3610595166,0.0314902716,-0.1124718648,-0.3622170436,-0.7571071301,0.0063140197,-0.3595947334,-0.526600353,-0.4870660978,-0.0582247177,-0.1612194928,-0.738148465,-0.407326103,-0.1629766388,-0.6204983982,-0.6424152531,-0.0641096952,-0.7183421676,-0.411971831,-0.7463690047,-0.3153840231,-0.3900818317,-0.2457504935,-0.2095824503,-0.5871381083,-0.077654682,-0.6392059524,-0.3182707204,-0.7267249238,-0.0265008594,-0.6193975439,-0.7035267768,-0.4514602708,-0.2170207296,-0.6606479913,-0.5635139574,-0.6174214114,0.0329644187,-0.6160889874,-0.0621118403,-0.6720306707,-0.3405510801,-0.6517800669,-0.4783006172,-0.1323525218,-0.6770676334,-0.6549216371,-0.2405815413,-0.5537592028,-0.0667200028,-0.0328698751,-0.4378903943,-0.4475501547,-0.4665992654,-0.4679482171,-0.1293545125,-0.4832432994,-0.3177548167,-0.1549160945,-0.5712469038,-0.4666657703,0.0210762373,-0.3162726732,-0.3980424688,-0.1003743802,-0.3995120777,-0.0358407299,-0.6372915253,-0.6843850321,-0.1247353876,-0.4722697224,-0.3184504561,-0.3319876088,-0.5878662826,-0.3121753925,-0.0534988386,-0.4311845592,-0.0773310426,-0.2826577726,0.0241936799,-0.1942059757,-0.6752386881,-0.1529072152,-0.6700374967,-0.3217184505,-0.3868202369,-0.6232495563,-0.6428207637,-0.0853014906,-0.5891651559,-0.6199569238,-0.4058383513,-0.0209219039,-0.4952104671,-0.747137322,-0.1993566326,-0.1874765075,-0.5699027667,-0.2611189008,-0.5302970987,0.0025862047,-0.402585187,-0.1349046004,-0.396364482,-0.5311840211,-0.5218760112,-0.4860354299,0.0154187075,-0.1796589129,-0.0077670759,-0.4321384883,-0.562012333,-0.0017124529,-0.7381406541,-0.3446784241,0.0368501185,-0.5147403628,-0.7054799887,-0.1361326705,-0.6306405257,-0.7291680112,-0.1055101806,-0.7347935717,-0.6470802827,-0.9122866539,0.0291969857,-0.1753068954,-0.3081860745,-0.5855743453,-0.6449674043,-0.1117348794,0.0197386744,-0.1152522925,-0.5223005132,-0.4800975159,-0.6004539522,-0.3519863301,-0.6136852588,-0.4849362339,-0.4486584567,-0.2636974062
   -0.014804701,-0.3574227005,-0.4323715892,-0.5503823257,-0.1975990865,-0.6557893836,-0.4485398424,-0.4144485645,-0.4232666061,-0.1473739319,-0.5976824634,-0.0787959907,-0.3445900376,-0.3366939004,-0.262761423,-0.7080485342,-0.4566897684,-0.6745166563,-0.1754158951,-0.6878338052,-0.3835865958,-0.2792591693,-0.2814387256,-0.110958806,-0.3736964682,-0.4483345062,-0.0541455334,0.0327005684,-0.1048710017,-0.3297236368,-0.3703218757,-0.4320749051,-0.0868450231,-0.5514837313,-1.424534301,-0.2017629034,-0.6113715728,-0.4223785066,-0.1782580409,-0.6981305565,-0.5377626329,0.05600666,-0.5566489143,-0.5528951837,-0.5056857747,-0.0902335532,-0.1258941039,0.0472810575,-0.3392105332,-0.2877517002,-0.3774789896,-0.3120521717,-0.1083619747,-0.2981415839,-0.3733263882,-0.6849851274,-0.6423492821,-0.2365359482,-0.4405983132,-0.6389955673,-0.4823191117,0.0483365188,-0.1218892424,0.0518865015,-0.737241369,-0.2836957072,0.0006546454,-0.6925877954,-0.2922382191,-0.6401191136,-0.3069814872,-0.6222919415,-0.0203515519,-0.1005182544,-0.3451483966,-0.6265356873,-0.2281039102,0.0450875252,-0.2690957723,-0.3455729014,-0.3033227014,-0.3136411636,-0.3811799333,-0.1373255592,-0.5068290077,-1.4331992239,-0.1277917242,-0.6309713568,-0.6281840981,-0.6153215544,-0.3075744544,-0.2808943166,-0.6642248504,-0.1977035979,-0.3753005974,-0.415249516,-0.3365251335,-0.0600458797,-0.0751224706,-0.0796129986,-0.1608959616,-0.0270541276,-0.0094650109,-0.1255042454,-0.2850180321,-0.0969232313,-0.1270369253,-0.487136085,-0.1878366638,-0.495392719,-0.7256895543,-0.0117891651,-0.1393139209,-0.3797372138,-0.0661544748,-0.6308156793,-0.4433662627,-0.5402018948,-0.5360830567,-0.2445085218,0.0219141225,-0.2282784855,-0.6254326443,-0.2642122865,-0.6264762495,-0.7265984148,-0.2907771424,-0.4165820121,-0.5056575412,-0.4629251427,-0.5848556783,-0.5346468963,0.021318125,-0.1480843966,-0.0555929159,-0.7180839138,-0.5802931466,-0.2672311418,-0.3702562603,-0.0944878984,-0.1945676767,-0.266327378,-0.5717800017,-0.4597677122,-0.2454924991,-0.3633502921,-0.0724962501,-0.1383283335,-0.1896407605,-0.6984197745,-0.1862151683,-0.7081256702,0.0271670841,-0.0677104798,-0.2848943932,-0.5000189589,-0.4049426832,-0.6479539542,-0.6907248511,-0.4380855481,-0.4214432419,-0.2163162536,-0.5524975912,-0.0137538948,0.0265948967,-0.3775197031,-0.6470227319,-0.0314110329,0.0620580295,-0.7197570918,-0.5404966522,-0.573289492,-0.633861756,-0.1295041168,-0.3596246729,-0.3342457632,0.0387692161,-0.0572070118,-0.0471707879,-0.2834095561,0.0586987736,-0.5246580424,-0.2005226052,-0.060908396,-0.3985002366,-0.4859933298,-0.7083299996,-1.4978580451,-0.4458130096,-0.1864631043,-0.6208845379,-0.3615659622,-0.5725533856,-0.3253583679,-0.1689433858,-0.5203669074,0.0307436079,-0.3209362983,-0.7334484553,-0.3829874294,-0.2571362574,-0.4370456036,-0.15459099,-0.2196147992,-0.7155364927,0.0172766137,-0.5620793768,-0.5807784186,-0.087435705,-0.6050180511,-0.045269815,-0.2215402724,-0.1167894305,-0.7473655368,0.0647552457,0.0381781886,-0.128842391,-0.3057651165,-0.6551824165,-0.1682813393,-0.5594069002,-0.5040368776,-0.4660382978,-0.5150976718,-0.3334418442,-0.6199480016,-0.5550013933,0.0250764319,-0.2889604385,-0.3827222712,-0.6810585442,-0.2844796731,-0.3581843967,-0.3718552807,-0.0083801389,-0.0691880912,-0.1352581297,-0.3162244263,-1.0888098483,-0.1355372175,-0.5952898643,-0.4406269543,-0.5155196779,-0.6684216329,-0.135274301,-0.4706207678,-0.0889510331,-0.4275532153,0.0180624236,-0.6385357003,-0.4576274901,-0.5176658138,-0.0409204403,-0.5466108495,-0.7157252088,-0.5559968303,-0.5471457206,-0.6721457692,-0.6541703316,-0.2951323756,-0.5808430096,-0.182967538,-0.5421699085,-0.412167494,-0.5440612814,-0.0492850536,-0.1003284093,-0.6867978932,-0.4665209042,-0.3413009604,-0.0167294196,-0.6971478609,-0.0169433042,-0.3643955304,-0.5717567556,-0.5026692662,0.0290442439,-0.1629059419,-0.1686976687,-0.1253720634,-0.7170462911,-0.4484724008,-0.6501733416,-0.1243967541,-0.431150289,-0.2853224623,-0.6427778703,-0.2898121364,-0.1474397448,-0.5045950801,-0.6804396229,-0.144291991,-0.5739717289,0.0598374596,-0.0989707082,-0.0056032354,-0.4146809025,-0.2554847151,-0.0347766786,-0.4526085386,-0.4926808401,-0.28814826,-0.6136350031,-0.4054833634,-0.2807257183,-0.2000448344,-0.3342571161,-0.0180865047,-0.4437993629,-0.5770203833,-0.6899753059,-0.5482124486,-0.62561798,-0.7064490712,-0.6955168509,-0.1598279685,0.045735971,-0.3325107993,-0.0330201826,-0.7371297406,-0.5074026067,-0.7125834637,-0.0749584896,-0.029479122,-0.6807092552,-0.6869240266,-0.5501785457,-0.6996902454,-0.5533392508,-0.5862554425,-0.1904091752,-0.610653749,-0.0362365347,-0.5908157715,-0.3851129575,-0.3161484721,-0.5389120431,0.0121550381,-0.06073829,-0.0124932082,-0.7515828301,-0.5030213346,-0.5910821338,-0.2765913744,-0.2474571673,-0.0395902155,-0.0023001631,-0.1278233604,-0.5358231955,-0.4293061827,-0.571022525,-0.6481522268,-0.2158681652,-0.2427255477,-0.4788331345,-0.6431358534,-0.7449544141,-0.114445411,-0.2138801958,-0.5268804732,-0.5414137537,-0.3848590154,-0.6256361888,-0.4586909352,-0.1762539174,-0.3535816316,-0.370350432,-0.1288129885,-0.5974430189,-0.0954163988,-0.2731045409,-0.3352568807,-0.5143106534,-0.4331217429,-0.5272555981,-0.6398478881,-0.3595175355,-0.1273102212,0.0149786521,-0.1775921665,-0.5433841557,-0.3520489973,-0.4578041162,-0.7245045272,-0.4479710647,-0.1290030614,-0.1995217269,-0.7500559278,-0.2298783502,-0.6455101087,-0.4776438468,-0.3564961181,-0.2255570543,-0.2986463986,0.0065713989,-0.2885173354,-0.0409232026,-0.0535787715,-0.2816754864,-0.3139657672,-0.3898202637,-0.6187154262,-0.6403771699,-0.6367559279,-0.686896467,0.0059751379,-0.2790628002,-0.0616360254,0.0616092452,-0.2715068884,-0.4814805959,-0.4801757444,-0.5183911591,-0.6193749609,-0.648063504,-0.5692019103,-0.2293536734,-0.0355174862,-0.0542239939,-0.560807043,-0.7023946726,-0.1891416786,-0.5060513463,-0.1998762426,0.011949502,-0.3319885574,-0.3003589986,-0.2939011643,-0.4225556273,-0.3542669707,-0.6795321334,-0.4513661915,-0.5245580096,-0.3943402048,-0.2646691297,-0.0502410694,-0.2982494855,-0.4373993304,-0.3892910203,-0.1654738949,-0.260934531,-0.6684607059,-1.2935717705,-0.7363417948,-0.0849631017,-0.3276416281,-0.5135769618,-0.1047030688,0.0228175132,-0.1388838013,-0.5314419989,-0.0857264582,-0.0287344438,-0.2238643511,-0.4298596072,-0.5856443646,-0.4752256439,-0.5964266823,-0.1725975695,-0.5027135744,-0.5969348656,-0.3965775878,0.0342561633,-0.548375873,-0.0857811814,-0.7055721133,-0.0648370788,-0.3045845785,-0.0305516202,-0.605646161,-0.4115426202,-0.7457332067,-0.6427556585,-0.7239166838,-0.2842614759,-0.7619355703,-0.3547429881,0.0004716414,-0.3763148083,-0.6223020983,-0.0575076474,-0.3344142931,0.0068726116,-0.079996736,-0.6470352723,-0.0799645941,-0.1415603541,-0.1896516531,-0.2167417607,-0.015771232,0.0042109352,-0.4983926159,-0.6678913066,-0.766411274,-0.2072376035,-0.520152217,-0.7419461349,-0.4191845523,0.0025207106,-0.1113444109,-0.3797918602,-0.3233864651,-0.1890859464,-0.7442654048,-0.6218289969,-0.415607302,-0.6691054383,-0.5786427846,-0.6376626204,-0.0338118783,-0.0299906513,-0.0596044099,-0.111425239,-0.5333614712,-0.282857236,-0.6873425714,-0.321242179,-0.6127976204,-0.6941257861,-0.3465377834,-0.6365964794,-0.0277368893,-0.5952076606,-0.7011348786,-0.6325874226,-0.108188793,-0.6998416092,-0.5051297031,-0.4192979065,-0.5492220684,-0.2822391685,-0.550352465,-0.1641616317,-0.0490133023,-0.1884209276,-0.1161253649,-0.2185978805,-0.1079933301,-0.1192503186,-0.1277493543,-0.4683669377,-0.156070875,-0.2290368004,-0.1113083691,-0.977003449,-0.0692452637,-0.5912771544,-0.2704189044,-0.0208859317,-0.7233624757,-0.4014023651,-0.577753242,0.0030174763,-0.0070365497,-0.7027431127,-0.3340411133,-0.6189596817,-0.6837500449,-0.0433387228,-0.6792378268,-0.0960367918,-0.3161002517,-0.0119931459,-0.649441064,-0.2900231017,-0.2085059594,-0.7295509278,-0.4308048432,0.0388610135,-0.4370561447,-0.0422010576,-0.1441604151,-0.6392971454,-0.4026643294,-0.5277644773,-0.43208624,0.0617055772,-0.1500008445,-0.2763435479,-0.2106773074,-0.6604578457,-0.4436979126,-0.3906690818,-0.7152692326,-0.3093558488,-0.6087433769,-0.0101515533,0.0024734743,-0.3704864126,-0.6962285366,-0.571029539,-0.2787982493,-0.1490130199,-0.598514898,-0.6292327035,-0.8871473192,-0.4793754182,-0.4401088657,-0.4025391424,-0.6258889011,-0.0844035683,-0.1591960555,-0.4477558143,-0.1194795254,-0.1177752301,-0.2937877355,-0.5300266522,-0.6794845562,-0.5835245993,-0.7180627952,-0.191861004,-0.4261616462,-0.096471007,-0.1018460149,-0.5247602197,-0.4386972475,-0.1836075595,-0.3842805667,-0.2242933321,-0.0596922784,-0.5769148608,-0.4269558963,-0.2933204587,-0.3288806792,-0.5970919397,-0.3393188153,-0.114323203,-0.5980071982,-0.1047332629,-0.2085217178,-0.3075096333,-0.4910901218,0.0128550775,-0.5967552586,0.0008945515,-0.2493285072,-0.579859,-0.1930773711,-0.6214433052,-0.0823641256,-0.7091205547,-0.1463055875,-0.288432069,-0.5150826153,-0.710983259,-0.1798027371,-1.0478214076,-0.435028604,-0.6047895182,-0.3441175303,-0.3961715953,-0.4162082623,-0.4076499683,-0.0060285448,-0.3197290767,-0.6173876923,0.0398770337,-0.3438969138,-0.637860226,-0.6994717518,-0.0459171781,-0.015420829,-0.5833545358,0.0439641792,-0.2920319866,-0.5333538794,-0.1957498859,-0.600986436,-0.532105821,-0.0831123301,-0.1655803668,-0.5887495454,-0.6440820426,-0.3373566893,0.0000473525,-0.4126574371,-0.5036659865,-0.6981208136,-0.3573947378,-0.7139315916,-0.460189442,-0.2248055525,-0.3242029853,-0.1829887292,-0.2152360964,-0.5223461699,-0.2927463256,-0.4459041314,-0.0774209678,-0.3342175388,-0.3435739279,-0.1427342314,-0.2461652085,-0.0258784527,-0.3842809492,-0.6961730606,-0.5121609916,-0.7676618151,-0.5783199145,-0.4873935505,-0.4325605721,-0.5274645683,-0.5356077898,-0.3832434753,0.02224066,-0.6247306219,-0.0175811138,-0.5105279171,-0.2511915528,-0.5599771733,-0.225521706,-0.436337941,-0.396869923,-0.2597092817,-0.0298371071,-0.041599303,-0.2007679061,-0.0184233879,-0.6323190657,0.0231223527,-0.6622237881,-0.5010403152,-0.3186073961,-0.3775006574,-0.0303841825,-0.0862216365,-0.1847399408,-0.133391441,-0.4285466394,-0.1951863475,-0.5047641912,-0.1079513179,-0.1642254088,-0.2638029261,-0.2672589727,-0.7005770004,-0.0003752411,-0.6362390693,-0.731153079,-0.1187544974,-0.3073562957,-0.6986765315,-0.8246746332,-0.7130216718,-0.2903374227,-0.6806573369,-0.2977775607,-0.0538033748,-0.6214772397,-0.5904122431,-0.5579736682,-0.5649856369,-0.2202598426,-0.5821299614,-0.6981952673,-0.1003505499,-0.1193488722,-0.316294039,-0.5997026688,-0.2911977432,-0.5395128869,-0.36839361,-0.164923137,-0.4488510682,-0.6020102423,-0.6706805629,-0.0633297136,-0.4918296649,-0.6219342197,-0.3091362433,-0.3785848479,-0.4680348889,-0.4273388768,-0.5561030919,-0.1393884737,1.6732957583,-0.0900590169,-0.5845886631,-0.3314811418,-0.1069116167,-0.0127786003,-0.1680597011,-0.5097251553,-0.2287167069,-0.1300639343,-0.3799655385,-0.4598600256,-0.6403252836,-0.3718380191,-0.022365652,-0.4746574345,-0.7226818961,-0.145264905,-0.3653926053,-0.4958712869,-0.6576204607,-0.1125122031,0.0372563106,-0.3165209327,-1.2306397836,-0.3509364384,-0.0994204688,-0.4282893887,-0.3935625313,-0.639480938,-0.0986032431,-0.709949314,-0.5016777625,0.0334771529,-0.7089312597,-0.2613986714,-0.4015659208,-0.5460006504,-0.5006295147,-0.1977106487,-0.6524449721,-0.1591275969,-0.6667618295,-0.723301509,-0.5900479995,-0.3796560011,-0.1675237,-0.735055071,-0.6423685638,-0.4047323746,-0.0024284188,-0.6119998015,-0.5756323933,-0.2675470436,-0.3013633596,-0.5483023693,-0.0184244527,-0.3793378115,-0.387140465,-0.7236959295,-0.5520691784,-0.5343994248,-0.5367298173,-0.3713887037,-0.055380654,-0.2384576629,-0.6039718331,-0.7083076827,-0.7166347725,-0.1913920231,-0.3876852938,-0.1239302314,-0.5605991411,-0.5373152198,-0.1344554354,-1.1726567602,-0.0989723069,-0.0126323799,-0.3675732085,-0.3983335581,-0.1011258125,-0.3353386065,-0.3700855613,-0.4238729463,-0.1814482741,-0.3761420733,-0.7069800381,-0.5392136875,-0.2837913986,-0.3541858474,-0.6344147119,-0.651446175,-0.1495909849,-0.0239422753,-0.578290092,-0.3061677143,-0.4835426098,-0.7350320532,-0.2263372833,-0.1597408793,-0.5167958159,-0.1277649187,-0.0381916771,-0.2079933458,-0.3441770638,-0.4485952441,-0.0581168396,-0.5299648591,-0.3810565027,-0.4254278726,-0.7904689857,-0.1421381583,-0.6089832541,-0.1824218737,-0.2937591078,-0.3967324128,-0.7868207814,-0.4294185334,-0.7376381318,-0.4163694022,-0.7594255976,-0.5013375468,-0.3963460549,-0.7544609334,-0.2024848127,-0.268344585,-0.4057753257,-0.7379615329,-0.3055070801,-0.4527570792,-0.7224432166,-0.3934436128,-0.740141058,-0.1410142128,-0.1382498419,-0.1874531557,-0.721186442,-0.1294777389,-0.4287893554,-0.7253687799,0.0051186913,-0.3858911803,-0.6109733464,-0.3604151448,0.0368307256,-0.051517719,-0.5004010091,-0.6235590235,-0.1763966354,-0.1621333839,-0.0682433938,-0.3053294423,-0.2949990688,0.0308952035,-0.1635075729,-0.7419316605,-0.3417706366,-0.5533386518,-0.0296985394,-0.0686430596,-0.2843973308,-0.5771932822,-0.1182615729,-0.6253463038,-0.1991011509,-0.3254035677,-0.3194363279,-0.6615046024,-0.5371092791,-0.3302713125,-0.0685998716,-0.4263256007,-0.6501429375,-0.7721390701,-0.2807373115,-0.5252535857,-0.3009318557,-0.6819888891,-0.5187910791,-0.1982311841,-0.2503444249,-0.6464244224,-0.5433336335,-0.1865341426,-0.0964892343,0.0205833765,-0.6212154611,-0.6283325741,-0.3990065464,-0.1831591465,-0.4249203167,-0.5272012355,-0.0645045385,-0.1969383698,-0.2250507583,-0.4938541046,-0.5149519565,-0.4774442585,-0.238959256,-0.5300581707,-0.3989290318,-0.3595176227,-0.6239023232,-0.6826120159,-0.5844848804,-0.2980727805,-0.2220375805,-0.176180625,-0.1329828899,-0.4330068859,-0.2958566731,-0.522246271,-0.2158942274,-0.7189944563,-0.1493478706,-0.1183670874,-0.7380266221,-0.2332547423,-0.6325856951,-0.4637819001,-0.1409587604,-0.2801234205,-0.3698582579,-0.4119347973,-0.5564664436,-0.3518235745,-0.3888793947,-0.4444581727,-1.1754867392,-0.1708514296,-0.3020959781,-0.7126972372,-0.3107266376,-0.6437271719,-0.0860537682,-0.530742579,-0.5617642609,-0.030475032,-0.4026919269,-0.1659645569,-0.5559967243,-0.4489967426,-0.4317133256,-0.3050165241,-0.1191044059,-0.2945107311,-0.0638448431,-0.2175191507,-0.1736047767,-0.2485664999,-0.4770856598,-0.5271706632,-0.5949634056,-0.1729773928,-0.666079026,-0.0766109161,-0.1363769843,-0.8004635063,-0.4533980427,-0.5269440687,-0.4668430741,-0.6177021934,-0.0975842658,-0.4419008135,-0.3791406209,-0.0586163547,-0.3024523561,-0.5044337734,-0.6075878957,-0.6435257116,-0.7514722648,-0.5046195727,-0.5867839948,-0.4268171934,-0.7358475579,-0.4930603904,-0.0085503152,-0.5099794179,-0.391460634,-0.4000245708,-0.128193175,-0.3352024467,-0.6011892786,-0.1194242555,-0.7158267979,-0.7264238915,-0.1726644034,-0.3715342952,-0.0512078764,-0.4993454557,-0.4057796816,-0.2583716094,-0.4826939834,-0.3540162736,-0.7720631339,-0.7236496421,-0.1191932931,-0.3381701621,-0.1292769714,-0.4715995829,-0.2323023777,-0.2738383873,-0.0582515542,-0.3354583166,-0.7303019801,-0.5529649438,-0.5152659376,-0.5003977627,-0.1343430778,-0.3199542919,-0.2996031551,-0.222329398,-0.4534446577,-0.1113033117,-0.6222237533,-0.7161500746,-0.5807129268,-0.4483584731,-0.2215613123,-0.538516341,-0.4246800268,-0.648342694,-0.7810123392,-0.655448966,-0.2962222527,-0.6295738437,-0.7596731344,-0.2733247005,-0.7264201366,-0.7433632755,-0.2831326196,-0.4141695729,-0.444375811,-0.5849975755,-0.3705400403,-0.7099368046,-0.6935719389,-0.1748561302,-0.4636001651,-0.6705178665,-0.2919213279,-0.1500529576,-0.0018974948,-0.3863823832,-0.3010555164,-0.7297643998,-0.6168386671,-0.4943779111,-0.7206779011,-0.4453232559,-0.1685378636,-0.0132799084,-0.5638927603,-0.7077661441,-0.5952612862,-0.6485723415,-0.2305296048,-0.3033907861,-0.5692884541,-0.6022387768,-0.2263608861,-0.2972602387,0.0009744301,-0.2697725571,-0.1196510185,-0.6526352574,-0.206635284,-0.4073717308,-0.484388336,0.0212933798,-0.284288997,-0.5534097261,-0.4005558388,-0.1158237319,-0.5266746753,-0.5130190543,-0.2213196076,-0.4825717409,-0.5186122374,-0.4187576516,-0.6575710163,-0.6605030113,-0.0482447303,-0.3487084354,-0.2028110172,-0.7108824519,-0.6131210971,-0.2860726151,-0.0532479643,-0.2380672513,-0.264524107,-0.5329954269,-0.5876385953,-0.4381618293,-0.6342505252,-0.3464543918,-0.0440095607,-0.1085471617,-0.691968055,0.0403486579,-0.2025646048,-0.4457809415,-0.3491079519,-0.0354313407,-0.3729714033,-0.1285665893,-0.0772545991,-0.5149387909,-0.1261937747,-0.5679166125,-0.4754703499,-0.0841184376,-0.382309253,-0.7434533116,-0.32870054,-0.3404436631,-0.6571113089,-0.4323058475,0.0017430771,-0.1806379972,-0.5143568174,-0.5051154915,-0.0946329249,-0.3703047656,-0.7602467317,-0.4474075878,-0.1232250121,-0.2080460611,-0.3339072213,-0.7451945455,-0.6660269359,-0.4545023598,-1.4334458281,-0.6043558174,-0.6244826476,-0.4132036639,-0.6761983295,-0.4346777148,-0.2079402366,-0.0370434776,-0.4055799276,-0.2596402701,-0.2084798129,-0.365027742,-0.1100394195,-0.4137682341,-0.4702041331,-0.2001621175,-0.1737681615,-0.1769228193,-0.6216744987,-0.7178776082,-0.597651729,-0.2400831839,-0.0292068703,-0.061253323,-0.6779441036,-0.3522701697,-0.491831816,-0.2533326618,-0.5389721224,-0.7048138955,-0.4433994457,-0.0423915996,-0.6265354695,-0.1488206523,-0.6020158962,-0.6959267725,-0.0990728742,-0.0542762879,-0.1383094037,-0.3441766789,-0.5115544784,-0.1807988172,-0.6505140189,-0.0650687001,-0.3416677311,-0.1656264629,-0.3514624005,-0.5214166949,-0.6165156545,0.0248438451,-0.7064387937,-1.3685598581,-0.0379006951,-0.6725943084,-0.5247045938,-0.1776167216,-0.1822967175,-0.283867452,-0.57896191,-0.2671887641,-0.4464014819,-0.318315591,-0.2749965079,-0.1157430603,-0.3766078309,-0.7844995938,-0.8135538399,-0.3805393525,-0.2826381592,-0.5070552613,-0.5738168972,-0.7449792237,-0.234299362,-0.0618606881,-0.4758471085,-0.5899176435,-0.7593681013,-0.5399842924,-0.6764266437,-0.3467960894,-0.5924793911,-0.4962077358,-0.7494963872,-0.4526926007,-0.1794505016,-0.649023311,-0.1880124919,-0.7340145685,-0.1729652303,-0.0882666421,-0.1040227011,-0.1811508961,-0.2432870575,-0.3514228123,-0.3369799346,-0.5480111343,-0.3091892286,-0.7132360612,-0.109448807,-0.7794343998,-0.4668602849,-0.5884359272,-0.1284279354,-0.4520284201,-0.1015031264,-0.5490883463,-0.0759160944,-0.0880576839,-0.4817294829,-0.2737546389,-0.4769731701,-0.1419624132,-0.6313975268,-0.7145191783,-0.2917685433,-0.4199775582,-0.1242134445,-0.5006626596,-0.47187516,-0.5231034223,-0.0353258336,-0.3178646488,0.0158061015,-0.2777722803,-0.4829847757,-0.7062625567,-0.5955842526,-0.2113562754,-0.3588348069,-0.5622452495,-0.1394678567,-0.5146104125,-0.498079708,-0.0902914238,-0.3204489514,-0.5734129476,-0.4381618569,-0.4345666157,-0.1000357221,-0.6352412625,-0.5573354666,0.0277467951,-0.6698234008,-0.1913358286,-0.5957908251,-0.2167986677,-0.494354996,-0.3384693175,-0.0428658238,-0.669942969,-0.1151042129,-0.6409342038,-0.4579616062,-0.9393657852,-0.7383166449,-0.0537692184,-0.6926993098,-0.1199351963,-0.0684361516,-0.5357398893,-0.5495877268,-0.2083849408,-0.6239878405,-0.744728556,-0.1506725659,-0.6644128527,-0.0509584675,-0.1528495338,-0.318604064,-0.1490414143,-0.6122824285,-0.3550504227,-0.1309912173,-0.1806474617,-0.4578925578,-0.3947921323,-0.1735098661,-0.2577890102,-0.8022465275,-0.4650709296,-0.7706951656,-0.222120654,-0.3661778899,-0.2823937598,-0.3138746265,-0.0583940721,-0.044775346,-0.736172438,-0.1594826388,-0.7774522384,-0.0614335024,-0.4757420299,-0.7408356465,-0.1238761952,-0.1807022075,-0.1699186599,-0.7906677525,-0.4468987291,-0.1968921377,-0.294113197,-0.2841167048,-0.2446069978,-0.3697703288,-0.6767601139,-1.2644373317,-0.310320343,-0.161004546,-0.1857525473,-0.7505584948,-0.3716942851,-0.4323538849,-0.3584205714,-0.6594274962,-0.6055717732,-0.5750550898,-0.756495189,-0.7905456916,-0.0677750436,-0.3265694372,-0.0773523581,-0.1843189673,-0.0498465048,-0.3018412194,-0.1237665132,-0.4253591113,-0.0474655035,-0.3839530511,-0.3972663222,-0.1737132737,-0.4560748211,-0.4107260335,-0.1524964605,-0.4047224653,-0.1695617521,-0.3376731166,-0.5251959884,-0.3091469797,-0.2220273226,-0.3119120619,-0.300694354,-0.2427436098,-0.2430731556,-0.5442310504,-0.5899058929,-0.7197365824,-0.5919619828,-0.4930165264,-0.7433861354,-0.171889792,-0.2069266525,-0.6497408231,-0.6159151274,-0.5425544997,-0.685376672,-0.6487836772,-0.6231075947,-0.0996733929,-0.1780393872,-0.2648401741,-0.6136816921,-0.2558677042,-0.7412143503,-0.0050906128,-0.2361703033,-0.5386679576,-0.3877729247,-0.6546799962,-0.1660492688,-0.3254037004,0.0186957054,-0.6763535927,-0.3844205676,-0.4614438854,0.0328922761,-0.0651163962,-0.4068629391,-0.0337539307,-0.6854427124,-0.7819225796,-0.2638990713,-0.4080555155,-0.1392100841,-0.7196930242,-0.3158499806,-0.7531224199,-0.0649397891,-0.2170223412,-0.4796928476,-0.2250232535,-0.6464764737,-0.2797745115,-0.2133595171,-0.5481436005,-0.665357777,-0.7470662325,-0.7260650895,-0.3819717795,-0.1086761657,-0.6148821959,-0.2056549599,-0.3662823801,-0.5379806663,-0.3578989622,-0.3580351873,-0.0063219803,-0.0395746834,-0.9364504694,-0.6431799646,-0.4960425393,-0.057518869,-0.6454704925,-0.4020341319,-0.4605516738,-0.7467332009,-0.3634959182,-0.6252041955,-0.7261506057,-0.13973315,-0.4754437529,-0.6169373335,-0.5392360474,-0.7214910932,-0.5620230029,-0.6104438938,-0.4538868595,-0.7102370095,-0.3472788947,-0.0313855454,-0.0470723081,-0.6789786654,-0.6009987272,-0.5813476028,-0.5544243757,-0.0368459845,-0.4718751577,-0.065980207,-0.1261342813,-0.3956617525,-0.0374147311,-0.2690524792,-0.2820684262,-0.6276451339,-0.6975924377,-0.3863726605,-0.4502726451,-0.4440578026,-0.0345465601,-0.1932647403,-0.5426053527,-0.4021215105,-0.1146800261,-0.6199363021,-0.4751236207,-0.201126073,-0.3424115109,-0.5763479935,-0.5870985258,-1.0369315811,-0.066790952,-0.3859308452,-0.5099299362,-0.2124068965,-0.4318957688,-0.2389910672,-0.3763576476,-0.3725787741,-0.0827134648,-0.1090391447,-0.7825000569,-0.2771853203,-0.187645162,-0.6691286754,-0.4908492629,-0.6463070891,-0.7471005154,-0.1057034242,-0.7217709216,-0.8105139032,-0.1264130301,-0.2916718918,-0.6863792774,-0.8182235538,-0.7331428673,-0.5698661487,-0.3830181086,-0.2303043939,-0.7706049721,-0.3333137937,-0.1289308058,-0.6499429168,-0.8233041306,-0.6222335456,-0.6890819732,-0.0828684218,-0.458758776,-0.5412820061,-0.6607422075,-0.3248461752,-0.4557078409,-0.195757413,-0.4740059168,-0.1517193037,-0.0790381685,-0.3457058443,-0.4058635256,-0.8122214892,-0.5125420559,-0.0517098233,-0.1307078162,-0.2622400665,-0.484365072,-0.631022662,-0.3575449042,-0.6103039566,-0.3462096158,-0.4411813508,-0.4724945542,-0.5499959177,-0.4917716679,-0.456322459,-0.7353991241,-0.1975268411,-0.6150298876,-0.1503213091,-0.7540185228,-0.6659792774,-0.5054990546,-0.3255291361,-0.2204167913,-0.069331512,0.0029672773,-0.0444641131,-0.3531242057,-0.3780648199,-0.7115697176,-0.328496698,-0.2529362552,-0.7166910882,-0.7076178151,-0.3350031674,-0.2172231105,-0.1091247821,-0.0134134198,-0.5542065128,-0.602079996,-0.0601340666,-0.7044193736,-0.5499452964,-0.44678492,-0.4840666638,-0.2491379672,-0.0667785302,-0.1247134391,-0.7661036545,-0.6805047019,-0.2733379382,-0.4457331353,-0.6977423055,-0.3595692816,-1.279390819,-0.4841152387,-0.1085737293,-0.3638640847,-0.2709168167,-0.5062055034,-0.4694944684,-0.6678967844,-0.5381338104,-0.8162782466,-0.6365424116,-0.8073862675,-0.2302557557,-0.7238026493,-0.2121291994,-0.6737846628,-0.7251491537,-0.4827415991,-0.2781161357,-0.6313055039,-0.7630329133,-0.3847446203,-0.1657739488,-0.7346205216,-0.5775751027,-0.1645972672,-0.3889404141,-0.3097137121,-0.117849139,-0.153161425,-0.3595674385,-0.5943652302,-0.4867828118,-0.4481026267,-0.5764054236,-0.4795337714,-0.404489965,-0.1860134381,-0.1108472978,-0.0664983321,-0.5253240202,-0.4189772206,-0.4876320254,-0.188096697,-0.7702215903,-0.6242468037,-0.5153453219,-0.6345595773,-0.3263221602,-0.2520431084,-0.2932301692,-0.3169443952,-0.7890924801,-0.5774876013,-0.5721383397,-0.1669091116,-0.205836337,-0.072018007,-0.6436602455,-0.5722752469,-0.24832423,-0.4739211999,-0.0985166779,-0.3259954624,-0.2289671897,-0.0745048575,-0.243290903,-0.7629616309,-0.1695791157,-0.4920406487,-0.075819771,-0.6540754892,-0.115169463,-0.1686254053,-0.6204550166,-0.5800672501,-0.3209093868,-0.3139033679,-0.2479501904,-0.8250519443,-0.4980180497,-0.3060073848,-0.7407965096,-0.470475898,-0.1734803524,-0.4701089245,-0.0818550486,-0.5489847611,-0.4970670931,-0.0767327024,-0.0446812152,-0.7243625496,-0.5170823987,-0.5772836345,-0.4581792884,-0.7290046564,-0.6430533372,-0.7247269286,-0.093537228,-0.7693241138,-0.3643445628,-0.7015964922,-0.5750398595,-0.5253892283,-0.1212101683,-0.6096682888,-0.1794575616,-0.341141541,-0.272060459,-0.7219772726,-0.081300457,-0.6849509158,-0.1568223445,-0.3871838337,-0.233156758,-0.275129644,-0.716666011,-0.5555024182,-0.5307694161,-0.2074065894,-0.4904559812,-0.5857738368,-0.5498360454,-0.4306477627,-0.1007870912,-0.6955986681,-0.5613590767,-0.4917943052,-0.5763682204,-0.2691415448,-0.3428615055,-0.0788629308,-0.7119342236,-0.7899326727,-0.4271991479,-0.6605032038,-0.2089436433,-0.7101072616,-0.1820286118,-0.6353604449,-0.5771790253,-0.4629829493,-0.8150875077,-0.2243590744,-0.5093061759,-0.515009186,-0.76871446,-0.1492238792,-0.3983309239,-0.0938594291,-0.7315797549,-0.7211117331,-0.7261971101,-0.1982498646,-0.7030629114,-0.503595136,-0.4890349946,-0.5892079734,-0.3901046456,-0.2114305354,-0.6416908233,-0.8187068789,-0.4080531904,-0.025758593,-0.075622037,-0.5917369805,-0.0772218138,-0.4453112222,-0.4479942428,-0.7727732726,-0.4885105864,-0.5546354199,-0.5131698267,-0.1891283248,-0.247982901,-0.1868809651,-0.5911890296,-0.5191472869,-0.6617131126,-0.4020903656,-0.2750864071,-0.1695877741,-0.6015384258,-0.4567251929,-0.5749232054,-0.3171063443,-0.6823115809,-0.0866089222,-0.4708913306,-0.3457119935,-0.5085860568,-0.1208523332,-0.6687769978,-0.7073304862,-0.4454433559,-0.7827508428,-0.421149357,-0.7653112079,-0.1975971605,-0.541235078,-0.2801806552,-0.6993016728,-0.3720394729,-0.1808171445,-0.5160883041,-0.6495388651,-0.5080432892,-0.0989768246,-0.5588077561,-0.5611326805,-0.1830592437,-0.5928177725,-0.2848200409,-0.3659542652,-0.2423313284,-0.4229422266,-0.4050627051,-0.6273132915,-0.7582444468,-0.4499334175,-0.19789645,-0.5370412013,-0.1778318828,-0.1799953654,-0.5222779559,-0.3835223421,-0.656961656,-0.3366944584,-0.2438814456,-0.1740966295,-0.575064888,-0.3751247217,-0.4692394378,-0.4141390845,-0.069453913,-0.7098010828,-0.78509689,-0.5215846439,-0.2546477204,-0.5103795261,-0.8062667299,-0.2813193004,-0.0901274044,-0.6439377159,-0.3889036103,-0.3632899081,-0.4113970291,-0.7365235004,-0.2527416165,-0.2506147404,-0.3492690559,-0.7844988028,-0.4254518087,-0.3836503073,-0.5195088436,-0.5839821742,-0.698555499,-0.5038774871,-0.1935327189,-0.569119059,-0.5189196913,-0.5547608253,-0.8193500476,-0.3560723567,-0.0811217845,-0.7931524693,-0.5208841991,-0.1755461274,-0.751300735,-0.5593382957,-0.1689379306,-0.2427583863,-0.0887027144,-0.0804895741,-0.3125231319,-0.7573418753,-0.0804484165,-0.3394261678,-0.4091437926,-0.2473139974,-0.5599881599,-0.5169698779,-0.0286653501,-0.3056628467,-0.1130183032,-0.0471665167,-0.6505645478,-0.2837279674,-0.7526940104,-0.8002570609,-0.186926744,-0.5640848852,-0.1160288329,-0.0358449795,-0.5363165877,-0.6838964887,-0.4214878142,-0.3914035337,-0.1444298937,-0.4692439686,-0.7563179216,-0.7720184523,-0.2943984788,-0.2147712248,-0.6027474851,-0.3794665578,-0.6044341439,-0.6880034629,-0.4638462099,-0.727935503,-0.5380394873,-0.7055733114,-0.6244479696,-0.4022563084,-0.3298701905,-0.6872325265,-0.715461367,-0.5163033174,-0.5390104454,-0.4168772509,-0.3824274967,-0.3088479804,-0.399333884,-0.5531657254,-0.5275255239,-0.1787915087,-0.09745204,-0.2253325833,-0.8233408086,-0.2453577227,-0.6286188297,-0.7324276078,-0.2389366806,-0.2297869504,-0.3590930242,-0.3827316777,-0.1464802661,-0.0891565674,-0.0713071533,-0.5865056142,-0.2450335053,-0.3647456674,-0.3873827936,-0.3941209686,-0.5006899201,-0.613349394,-0.7046743753,-0.4934317234,-0.087016877,-0.0840025757,-0.7272737865,-0.0489259107,-0.2348949667,-0.5808785712,-0.4152503073,-0.4210699409,-0.208787992,-0.6676053274,-0.3370722602,-0.1569969991,-0.5183562488,-0.624205781,-0.442675355,-0.4061807287,0.0285575204,-0.6668890137,-0.615837282,-0.3012518698,-0.6994833285,-0.4288701893,-0.566348344,-0.7397286728,-0.1123813197,-0.6888877815,-0.0213361051,-0.1953230248,-0.5641893241,-0.2104942533,-0.3959539129,-0.4356523494,-0.3904741333,-0.0887050129
