encog,BasicNetwork,java,3.1.0,1,1400093706072
[BASIC]
[BASIC:PARAMS]
[BASIC:NETWORK]
beginTraining=0
connectionLimit=0
contextTargetOffset=0,0,0
contextTargetSize=0,0,0
endTraining=2
hasContext=f
inputCount=2124
layerCounts=585,51,2124
layerFeedCounts=584,50,2124
layerContextCount=0,0,0
layerIndex=0,585,636
output=##0
##double#2760
   0,0,0,0,0,0,0,0,0,0,0,0,0,0,0,0,0,0,0,0,0,0,0,0,0,0,0,0,0,0,0,0,0,0,0,0,0,0,0,0,0,0,0,0,0,0,0,0,0,0,0,0,0,0,0,0,0,0,0,0,0,0,0,0,0,0,0,0,0,0,0,0,0,0,0,0,0,0,0,0,0,0,0,0,0,0,0,0,0,0,0,0,0,0,0,0,0,0,0,0,0,0,0,0,0,0,0,0,0,0,0,0,0,0,0,0,0,0,0,0,0,0,0,0,0,0,0,0,0,0,0,0,0,0,0,0,0,0,0,0,0,0,0,0,0,0,0,0,0,0,0,0,0,0,0,0,0,0,0,0,0,0,0,0,0,0,0,0,0,0,0,0,0,0,0,0,0,0,0,0,0,0,0,0,0,0,0,0,0,0,0,0,0,0,0,0,0,0,0,0,0,0,0,0,0,0,0,0,0,0,0,0,0,0,0,0,0,0,0,0,0,0,0,0,0,0,0,0,0,0,0,0,0,0,0,0,0,0,0,0,0,0,0,0,0,0,0,0,0,0,0,0,0,0,0,0,0,0,0,0,0,0,0,0,0,0,0,0,0,0,0,0,0,0,0,0,0,0,0,0,0,0,0,0,0,0,0,0,0,0,0,0,0,0,0,0,0,0,0,0,0,0,0,0,0,0,0,0,0,0,0,0,0,0,0,0,0,0,0,0,0,0,0,0,0,0,0,0,0,0,0,0,0,0,0,0,0,0,0,0,0,0,0,0,0,0,0,0,0,0,0,0,0,0,0,0,0,0,0,0,0,0,0,0,0,0,0,0,0,0,0,0,0,0,0,0,0,0,0,0,0,0,0,0,0,0,0,0,0,0,0,0,0,0,0,0,0,0,0,0,0,0,0,0,0,0,0,0,0,0,0,0,0,0,0,0,0,0,0,0,0,0,0,0,0,0,0,0,0,0,0,0,0,0,0,0,0,0,0,0,0,0,0,0,0,0,0,0,0,0,0,0,0,0,0,0,0,0,0,0,0,0,0,0,0,0,0,0,0,0,0,0,0,0,0,0,0,0,0,0,0,0,0,0,0,0,0,0,0,0,0,0,0,0,0,0,0,0,0,0,0,0,0,0,0,0,0,0,0,0,0,0,0,0,0,0,0,0,0,0,0,0,0,0,0,0,0,0,0,0,0,0,0,0,0,0,0,0,0,0,0,0,0,0,0,0,0,0,0,0,0,0,0,0,0,0,0,0,0,0,0,0,0,0,0,0,0,0,0,0,0,0,0,0,0,0,0,0,0,0,0,0,0,0,1,0,0,0,0,0,0,0,0,0,0,0,0,0,0,0,0,0,0,0,0,0,0,0,0,0,0,0,0,0,0,0,0,0,0,0,0,0,0,0,0,0,0,0,0,0,0,0,0,0,0,1,0,0,0,0,0,0,0,0,0,0,0,0,0,0,0,0,0,0,0,0,0,0,0,0,0,0,0,0,0,0,0,0,0,0,0,0,0,0,0,0,0,0,0,0,0,0,0,0,0,0,0,0,0,0,0,0,0,0,0,0,0,0,0,0,0,0,0,0,0,0,0,0,0,0,0,0,0,0,0,0,0,0,0,0,0,0,0,0,0,0,0,0,0,0,0,0,0,0,0,0,0,0,0,0,0,0,0,0,0,0,0,0,0,0,0,0,0,0,0,0,0,0,0,0,0,0,0,0,0,0,0,0,0,0,0,0,0,0,0,0,0,0,0,0,0,0,0,0,0,0,0,0,0,0,0,0,0,0,0,0,0,0,0,0,0,0,0,0,0,0,0,0,0,0,0,0,0,0,0,0,0,0,0,0,0,0,0,0,0,0,0,0,0,0,0,0,0,0,0,0,0,0,0,0,0,0,0,0,0,0,0,0,0,0,0,0,0,0,0,0,0,0,0,0,0,0,0,0,0,0,0,0,0,0,0,0,0,0,0,0,0,0,0,0,0,0,0,0,0,0,0,0,0,0,0,0,0,0,0,0,0,0,0,0,0,0,0,0,0,0,0,0,0,0,0,0,0,0,0,0,0,0,0,0,0,0,0,0,0,0,0,0,0,0,0,0,0,0,0,0,0,0,0,0,0,0,0,0,0,0,0,0,0,0,0,0,0,0,0,0,0,0,0,0,0,0,0,0,0,0,0,0,0,0,0,0,0,0,0,0,0,0,0,0,0,0,0,0,0,0,0,0,0,0,0,0,0,0,0,0,0,0,0,0,0,0,0,0,0,0,0,0,0,0,0,0,0,0,0,0,0,0,0,0,0,0,0,0,0,0,0,0,0,0,0,0,0,0,0,0,0,0,0,0,0,0,0,0,0,0,0,0,0,0,0,0,0,0,0,0,0,0,0,0,0,0,0,0,0,0,0,0,0,0,0,0,0,0,0,0,0,0,0,0,0,0,0,0,0,0,0,0,0,0,0,0,0,0,0,0,0,0,0,0,0,0,0,0,0,0,0,0,0,0,0,0,0,0,0,0,0,0,0,0,0,0,0,0,0,0,0,0,0,0,0,0,0,0,0,0,0,0,0,0,0,0,0,0,0,0,0,0,0,0,0,0,0,0,0,0,0,0,0,0,0,0,0,0,0,0,0,0,0,0,0,0,0,0,0,0,0,0,0,0,0,0,0,0,0,0,0,0,0,0,0,0,0,0,0,0,0,0,0,0,0,0,0,0,0,0,0,0,0,0,0,0,0,0,0,0,0,0,0,0,0,0,0,0,0,0,0,0,0,0,0,0,0,0,0,0,0,0,0,0,0,0,0,0,0,0,0,0,0,0,0,0,0,0,0,0,0,0,0,0,0,0,0,0,0,0,0,0,0,0,0,0,0,0,0,0,0,0,0,0,0,0,0,0,0,0,0,0,0,0,0,0,0,0,0,0,0,0,0,0,0,0,0,0,0,0,0,0,0,0,0,0,0,0,0,0,0,0,0,0,0,0,0,0,0,0,0,0,0,0,0,0,0,0,0,0,0,0,0,0,0,0,0,0,0,0,0,0,0,0,0,0,0,0,0,0,0,0,0,0,0,0,0,0,0,0,0,0,0,0,0,0,0,0,0,0,0,0,0,0,0,0,0,0,0,0,0,0,0,0,0,0,0,0,0,0,0,0,0,0,0,0,0,0,0,0,0,0,0,0,0,0,0,0,0,0,0,0,0,0,0,0,0,0,0,0,0,0,0,0,0,0,0,0,0,0,0,0,0,0,0,0,0,0,0,0,0,0,0,0,0,0,0,0,0,0,0,0,0,0,0,0,0,0,0,0,0,0,0,0,0,0,0,0,0,0,0,0,0,0,0,0,0,0,0,0,0,0,0,0,0,0,0,0,0,0,0,0,0,0,0,0,0,0,0,0,0,0,0,0,0,0,0,0,0,0,0,0,0,0,0,0,0,0,0,0,0,0,0,0,0,0,0,0,0,0,0,0,0,0,0,0,0,0,0,0,0,0,0,0,0,0,0,0,0,0,0,0,0,0,0,0,0,0,0,0,0,0,0,0,0,0,0,0,0,0,0,0,0,0,0,0,0,0,0,0,0,0,0,0,0,0,0,0,0,0,0,0,0,0,0,0,0,0,0,0,0,0,0,0,0,0,0,0,0,0,0,0,0,0,0,0,0,0,0,0,0,0,0,0,0,0,0,0,0,0,0,0,0,0,0,0,0,0,0,0,0,0,0,0,0,0,0,0,0,0,0,0,0,0,0,0,0,0,0,0,0,0,0,0,0,0,0,0,0,0,0,0,0,0,0,0,0,0,0,0,0,0,0,0,0,0,0,0,0,0,0,0,0,0,0,0,0,0,0,0,0,0,0,0,0,0,0,0,0,0,0,0,0,0,0,0,0,0,0,0,0,0,0,0,0,0,0,0,0,0,0,0,0,0,0,0,0,0,0,0,0,0,0,0,0,0,0,0,0,0,0,0,0,0,0,0,0,0,0,0,0,0,0,0,0,0,0,0,0,0,0,0,0,0,0,0,0,0,0,0,0,0,0,0,0,0,0,0,0,0,0,0,0,0,0,0,0,0,0,0,0,0,0,0,0,0,0,0,0,0,0,0,0,0,0,0,0,0,0,0,0,0,0,0,0,0,0,0,0,0,0,0,0,0,0,0,0,0,0,0,0,0,0,0,0,0,0,0,0,0,0,0,0,0,0,0,0,0,0,0,0,0,0,0,0,0,0,0,0,0,0,0,0,0,0,0,0,0,0,0,0,0,0,0,0,0,0,0,0,0,0,0,0,0,0,0,0,0,0,0,0,0,0,0,0,0,0,0,0,0,0,0,0,0,0,0,0,0,0,0,0,0,0,0,0,0,0,0,0,0,0,0,0,0,0,0,0,0,0,0,0,0,0,0,0,0,0,0,0,0,0,0,0,0,0,0,0,0,0,0,0,0,0,0,0,0,0,0,0,0,0,0,0,0,0,0,0,0,0,0,0,0,0,0,0,0,0,0,0,0,0,0,0,0,0,0,0,0,0,0,0,0,0,0,0,0,0,0,0,0,0,0,0,0,0,0,0,0,0,0,0,0,0,0,0,0,0,0,0,0,0,0,0,0,0,0,0,0,0,0,0,0
   0,0,0,0,0,0,0,0,0,0,0,0,0,0,0,0,0,0,0,0,0,0,0,0,0,0,0,0,0,0,0,0,0,0,0,0,0,0,0,0,0,0,0,0,0,0,0,0,0,0,0,0,0,0,0,0,0,0,0,0,0,0,0,0,0,0,0,0,0,0,0,0,0,0,0,0,0,0,0,0,0,0,0,0,0,0,0,0,0,0,0,0,0,0,0,0,0,0,0,0,0,0,0,0,0,0,0,0,0,0,0,0,0,0,0,0,0,0,0,0,0,0,0,0,0,0,0,0,0,0,0,0,0,0,0,0,0,0,0,0,0,0,0,0,0,0,0,0,0,0,0,0,0,0,0,0,0,0,0,0,0,0,0,0,0,0,0,0,0,0,0,0,0,0,0,0,0,0,0,0,0,0,0,0,0,0,0,0,0,0,0,0,0,0,0,0,0,0,0,0,0,0,0,0,0,0,0,0,0,0,0,0,0,0,0,0,0,0,0,0,0,0,0,0,0,0,0,0,0,0,0,0,0,0,0,0,0,0,0,0,0,0,0,0,0,0,0,0,0,0,0,0,0,0,0,0,0,0,0,0,0,0,0,0,0,0,0,0,0,0,0,0,0,0,0,0,0,0,0,0,0,0,0,0,0,0,0,0,0,0,0,0,0,0,0,0,0,0,0,0,0,0,0,0,0,0,0,0,0,0,0,0,0,0,0,0,0,0,0,0,0,0,0,0,0,0,0,0,0,0,0,0,0,0,0,0,0,0,0,0,0,0,0,0,0,0,0,0,0,0,0,0,0,0,0,0,0,0,0,0,0,0,0,0,0,0,0,0,0,0,0,0,0,0,0,0,0,0,0,0,0,0,0,0,0,0,0,0,0,0,0,0,0,0,0,0,0,0,0,0,0,0,0,0,0,0,0,0,0,0,0,0,0,0,0,0,0,0,0,0,0,0,0,0,0,0,0,0,0,0,0,0,0,0,0,0,0,0,0,0,0,0,0,0,0,0,0,0,0,0,0,0,0,0,0,0,0,0,0,0,0,0,0,0,0,0,0,0,0,0,0,0,0,0,0,0,0,0,0,0,0,0,0,0,0,0,0,0,0,0,0,0,0,0,0,0,0,0,0,0,0,0,0,0,0,0,0,0,0,0,0,0,0,0,0,0,0,0,0,0,0,0,0,0,0,0,0,0,0,0,0,0,0,0,0,0,0,0,0,0,0,0,0,0,0,0,0,0,0,0,0,0,0,0,0,0,0,0,0,0,0,0,0,0,0,0,0,0,0,0,0,0,0,0,0,0,0,0,0,0,0,0,0,0,0,0,0,0,0,0,0,0,0,0,0,0,0,0,0,0,0,0,0,0,0,0,0,0,0,0,0,0,0,0,0,0,0,0,0,0,0,0,0,0,0,0,0,0,0,0,0,0,0,0,0,0,0,0,0,0,0,0,0,0,0,0,0,0,0,0,0,0,0,0,0,0,0,0,0,0,0,0,0,0,0,0,0,0,0,0,0,0,0,0,0,0,0,0,0,0,0,0,0,0,0,0,0,0,0,0,0,0,0,0,0,0,0,0,0,0,0,0,0,0,0,0,0,0,0,0,0,0
##end
outputCount=584
weightIndex=0,29784,135984
weights=##1
##double#135984
   -215.4907423083,-2.5915980297,-6.6833889009,-1.0188317477,-8.2355473086,-0.8001822846,18.7794499192,21.8806710926,-62.0191178024,-0.4978313816,0.4665706545,-0.1605577675,-0.8161599975,-0.267579423,0.3056497389,3.7471070726,-2.5359048652,-0.1461240272,-2.5150626025,-0.4933120732,1073.0805875034,-1.6058307239,0.2763518023,-862.0037456125,2.2511422312,29.7083071969,-321.1704821106,-994.4800440337,-9.8261215105,-162.1567285883,-0.4604040794,6.7818449222,-1.1379416689,-2.9418640169,15.9648515373,1483.0030472827,22.1841948993,-4.808981811,-9.3440292677,103.6202189716,117.7427277473,807.3016526508,-1.6183527068,-0.8760390761,7448.3698139519,-1.2652783584,-35.339701028,5.4056565537,-25.6300705837,4.3921633262,-1.2279347275,-133.02263799,-2.3483092246,-4.0471376555,-10.3364523352,-0.3593012427,-23.7067034567,313.0278288807,524.0967792112,-45.6122809545,-4.5110530369,-0.2271015104,-0.3782075747,-0.3969558059,2.0981839547,3.8325238559,-1.0723899877,-2.4419140133,0.2941036583,-13.3225765407,-2902.838822692,1390.9978837077,2.4328760257,0.2847432501,-2428.0221567042,-7.182216367,151.7084447432,-981.6796046507,-7.5271736205,-1.5267962175,-839.0737706908,-0.140780161,-107.852388321,-39.9501934875,-50.8370892691,425.865612367,1765.4094674667,20.0678125157,411.1793831034,-58.2644101214,539.1715711768,467.0037118121,1261.1441839243,1.55092577,-1.070923954,9759.7028358628,-410.4670455301,113.926114614,5.8994749357,-14.6666362145,1016.6740286254,-1.2862644352,-6.791316504,-1.9790602272,-2.6690259596,-0.4599099002,-0.5128550585,-0.5577388322,2.3408416603,13.1094165729,-134.5616453846,-0.0003327918,0.6621417962,1.1498779979,0.019230989,1.1884878254,-1.3862029821,1.0605490273,-3.2303159706,-0.2098233321,-2.0757308814,-18.3202896508,1072.0190799292,2.3712388848,0.7003679665,-312.5312592773,1.3865999354,17.662549017,-767.670296826,-1023.5478513687,-0.345667753,-97.7766105795,0.8139531206,-469.2701834108,-1.8458188482,-4.3755729571,8.2560766725,1572.607276605,6.352072683,-0.1547961775,-3.1398355397,11.6640379262,123.2334064286,387.9271803179,2.0454939364,-1.3020671643,9598.1986582196,-12.0787233672,7.1509394194,150.2135231019,-12.7271105681,-76.8218441861,-0.6861926693,-16.9752545636,-1.9469634219,0.2231140403,-0.3055271993,-266.8125961277,-8.0290800913,114.6722827828,577.6835137528,-1111.2247976349,0.6024114634,-0.3178188844,2.0231155579,-0.8483691189,1.6285790081,1.0402716633,-1.2040489008,-1.6784957222,-0.2494333028,-7.3787804817,-52.0345875704,1426.4740039449,2.5960101533,0.4154796782,-360.1767528863,0.9064791713,114.7133374037,-784.9670601406,-0.0607354686,-1.9850202524,-16.0586081642,1.410067046,52.3817145404,-2.3376807176,-7.1913346897,282.5149952056,1723.8129312863,6.0159116715,592.7475287458,-459.5741005588,-316.9648390134,143.1769831041,1191.9668675847,6.1665827786,-1.4371088837,9435.8843887597,1.4835265377,330.0875910994,1.1023609417,-21.0825916917,92.989847642,-1.5749328818,-80.0576487199,-17.44443258,-5.3104014588,-0.7252636566,-236.6533880325,-0.9487383886,154.4243977255,536.9539554843,-1160.3170941971,0.5150231443,-0.5432194827,-119.342211499,-0.474783011,1.4851913029,1.2511863541,0.2400335865,-3.028689333,0.4587986516,-13.1650580001,-1250.2984250946,1648.3241222015,1.5933585869,-0.3656453433,-1333.7004245462,-108.3247296505,105.8696843077,-964.9936684879,-1028.0553572686,-8.767383631,-304.04642425,0.0489798648,4.1776070029,-9.018550758,-45.0150002481,461.7353253938,1878.6154347368,7.0582531806,785.405146963,-204.3525750267,-504.9665964504,196.1327570965,1282.1231097323,21.7397401848,-1.7843969389,9529.9240890688,-29.7247977964,503.5453335809,36.1465182567,-186.5242315116,782.973125807,-0.4415577033,-3.5111744342,-0.4165011354,-11.3966883997,0.000273605,-1.2351716201,-0.7292632406,1.0654652498,14.0951525154,-356.1777251584,0.6385665524,-0.176271978,1.2013619261,-0.2649391342,2.0516791928,-0.5437760719,-0.7623991668,-2.438357323,1.3864468207,-25.4581514808,-29.9529991476,618.7473256712,0.9873011379,-0.5069075658,-1527.7937404538,0.6100277481,12.4078056394,-862.7832258987,-265.2196596368,-2.923026814,-553.8076249807,-0.2044243407,-7.2566138184,-1.7396450733,-8.2388613343,4.9738053939,1464.9704371858,4.601783415,-4.2463991382,-2.2889330393,-262.9084544862,45.6093695438,270.2600126775,22.9898950174,-0.7647186266,9221.9781494393,0.6622274661,4.5892616755,3.6329215428,-2.9769385747,-75.6610308038,-0.8175459143,-250.5961835166,-37.3046290306,-3.1710708469,-1.1044272575,-1.3988207532,-1.1265686045,12.4555286687,62.7629072223,-1157.3749221328,1.018632998,-0.4231344646,-5.2181559918,0.0796249174,1.7636981891,1.1377705203,-0.2894189807,-2.508648349,-0.8445058656,-1.9197063406,-2110.4881587731,125.0852456468,1.6684389825,-0.6205781119,-84.6726301817,-0.1946226104,4.6085766298,-571.6119430923,-10.7796692405,-9.4423610405,-947.3574502484,0.0755687934,14.0495885577,-23.2319341215,-4.6787710041,49.9613976008,1750.470686922,5.8783760455,70.6676018959,-2.1340346733,90.7489775087,68.3182430324,399.6193533615,15.6428959808,-1.365533721,4202.4050308722,0.2395109275,34.6337620652,3.3694301719,-1046.6379490564,41.5415057808,-0.4990045281,-383.3115294056,-0.9338834462,-4.2066545498,-0.2001753672,-3.173980161,0.0818008321,0.7404716495,23.0187116549,-133.7442844778,0.4184063648,-0.4643645155,1.4965639241,-0.3798401177,1.3527534753,1.2408755051,-0.0028445345,-3.0713093134,1.1509500079,-28.892979076,-2.7174363805,1119.2953930786,1.3907572467,-0.150497002,-1135.4057543809,-1.4504605656,7.2898418505,-637.5867482526,-739.3974362568,-0.9759792124,-1268.9775791645,0.033738148,-13.2629463047,-1.9104363682,-22.4666137949,17.5990312103,1597.9511683231,-0.0278404063,22.2941240236,-3.4236531744,-8.5366275679,18.9153008968,180.8723901664,25.1314792333,-0.4049207447,5849.0835724142,0.7357396517,21.3450101925,221.1581786797,-7.4489686821,-42.0708739915,-0.9314589678,-6.3770411802,-0.6743873072,-3.4899035376,0.6185269369,-1.064645776,0.6462077087,-1.427078248,3.0525774548,-14.6019197847,1.5020508254,-0.2313857401,1.5503394313,-1.066323663,0.5244773645,-1.1910179302,-0.0673388043,-2.989754775,0.3417680843,-3.8631959172,-29.4088722959,966.4737072835,0.9547289438,-0.433950291,26.2971043474,0.3403120164,9.3069439707,-367.0209255449,-3.0025196825,-2.0455549958,-583.6559405513,0.5296204734,-606.8478197033,-1.9090704064,-4.826822649,-21.5150877662,1225.9810534238,2.1790497664,-14.2414497718,-1.7656850792,-1.0556347474,57.3029576821,109.2980451578,9.9194196145,-0.8448498694,5266.5829618725,0.4921117229,2.2486464644,52.2095268317,-609.3580207906,-256.7434307072,-0.8739427076,-7.9630326705,0.2086293488,-1.8675332874,0.1663484797,-36.6951704272,-2.995580466,128.5354983422,231.9841887397,-470.1683163479,-6.5480944436,-0.8433105006,-71.4090752986,-1.2799175899,0.2847179647,2.206925463,0.2076857102,-7.6545549492,-6.5553223393,-2.7595427959,-196.4267009226,1520.8843199452,2.0428002257,-9.4701257412,626.4156651518,-57.5269007654,12.6251164129,-215.3889852931,-7.4697535873,-167.2843487721,36.4048933871,0.4281195543,-1300.7531124697,-166.7266628875,-5.863218355,156.7252632864,1319.6001678285,3.2288141714,1736.7827911282,-23.4159644927,-670.49621823,286.0719473842,245.4922099146,11.3625301778,-1.1001703547,8024.9405013605,0.992090614,66.9117470199,-43.3990738385,-8.3121326716,1016.3491889636,-3.0890922669,23.24177136,-9.2691133068,-6.8862321791,-5.7510177446,-2.3378596555,-123.1460896553,53.3164289406,356.6392246159,-120.8651502644,-10.72042911,-1.0009709131,-36.2123806756,0.3612054831,1.4095643701,3.5767742033,5.0236410536,-4.2214725877,2.0441971535,-2.6164054117,-2702.1724450697,1245.7538853666,2.0415289872,-8.9048544373,346.561932694,-33.595855556,114.2992498843,-658.4406673705,-7.3084236012,-17.9988493525,-248.7398630073,-0.1023259491,66.0279289923,-6.8496696089,-232.143057995,355.6645755204,1718.9848699108,0.8188342607,341.0723568386,-5.2195375012,307.4946331677,417.5262992483,671.0682204112,14.6889282498,-0.5256477023,7071.0501871739,0.5709619441,223.3294034876,-13.3389742418,-32.1894532592,856.0073788651,-2.9617218315,13.1784044653,-11.7297744669,-7.9342953331,0.7390012133,-846.1903737097,-271.9010932545,889.4022045499,1162.0783599845,9.8451436951,1.7522232528,-0.5638977153,-17.0675925667,-2.9063768051,-0.1704707612,1.4783144658,2.8463659584,-3.9678821182,-0.9864886336,-1.9292505873,-5.8023736592,934.5359889598,1.1338788072,-11.7743671078,2707.1173807734,-846.4573261311,296.2350000502,-321.1785955538,-718.2821991401,-9.8102010528,-373.5675490903,0.7379744703,-0.2647211633,-36.0335734644,-1036.0936823711,925.4290126192,1974.8777359093,-1.4204270859,3346.5271957209,-60.3218721994,484.3394454179,658.0463594897,2110.0594471253,-31.0883176605,-2.1708971452,7316.1498150589,-3.30178541,443.0184146198,-1.9048047725,-21.4102148632,626.3788345982,-0.7462126695,-381.2518602227,0.2731894253,-5.1286717841,-0.3982226477,-51.9691974609,-0.5919834313,4.6604977553,70.4562043029,-913.5534447106,0.1172120003,-0.6360727138,0.1272417086,1.3998331315,1.3145051967,2.570976616,-0.015696234,-0.9860454159,1.7950843584,-2.8016837545,-20.5997286729,736.8568615009,1.4849418901,-1.443156885,501.4329632332,-0.2448794,14.1722526091,-406.1548015891,-28.4375846226,1.3238145477,-1299.4224629646,-0.3282515241,-440.6866693646,-27.3399429825,-4.6818517748,55.1499105714,1620.6368100235,46.8548813285,49.5692296122,-2.5102432047,93.0596172383,74.203034478,1520.6925945073,8.5588085922,-1.6188303567,10440.2714075534,0.6238215144,23.6437613261,9.9546221187,-22.2871788289,769.2442924016,-1.2678543323,-178.8056073017,-0.3113015958,-3.668978864,0.3693821255,-0.1662935624,0.1288583081,-2.2529973089,-3.9938233818,-979.1142924307,-0.2303985144,-0.1573374539,1.0917817423,0.6983191672,0.3470859968,-1.0962928038,-0.4332705733,-2.8375497241,3.7739781739,-1.3444671248,-11.3460784162,-1615.3311181883,1.2963836301,-0.9138373338,1.6878049235,-0.5472735401,6.8767317088,-917.4804350201,-1064.6161630233,0.5426742043,-68.6777458695,-0.4089469557,3.5058445209,-1.5254510153,-3.2430843301,-26.735142649,-1565.3268027261,-0.6121085046,-14.5392088607,-2.5468374873,-187.3596787346,-1.5972608425,113.1474803098,3.7738330103,-1.2116186779,5769.5710737149,-0.0503449521,-0.5497304691,15.2160699961,-8.1819142415,-313.183831922,-0.9659217744,-146.991717872,-0.3859699706,-5.9516125232,-0.1514099817,-0.7938336011,-0.7287311864,0.2527947593,-3.0414408943,-1433.256773218,0.6887589283,-0.6211801516,1.0545205857,0.0032987085,1.8435781468,1.9178356509,-0.4927629779,-2.5328061372,2.4695583896,-1.1871599331,-47.8106472016,-678.8983271733,1.7428161307,-0.2387558785,-121.3203467604,0.1870603769,7.7543324779,-783.1938501157,-746.8613756248,0.610282366,-63.3036832754,0.0524440257,-0.2381622777,-0.9436032955,-3.0150253746,1.3989255766,-41.2171999581,0.0968629231,-14.7838161189,-3.6208961516,400.7732864246,-1.5230958593,77.9719015677,1.8288449704,-0.3968885975,2512.0798950555,0.3136429843,-224.7509321119,44.0404602653,-202.0668432634,-139.5357548144,-1.0048173598,-36.3474184306,-0.9308528056,-14.3272572306,-0.7377036775,-0.6122603815,-0.1432024057,8.1838612308,29.017799556,-1298.8038089074,0.0855230484,-0.7034792503,-4.2665330392,-0.5822514389,-0.4460206078,1.0479121088,0.3100986705,-1.7201744329,2.6748565743,-0.794000855,-27.5932080695,673.269844858,2.1838809563,-0.3017649852,76.4891920225,0.912103416,17.4907500695,-66.4206676492,-730.2014219545,-2.4222456476,-368.9539459708,-0.5406115943,-882.786350678,-2.3442789222,-3.6824942879,8.592627719,388.6903533251,-1.0125377178,54.76346511,-33.9894516591,8.9576313375,16.4756795058,107.6732325005,8.5571830621,-0.4667981959,4100.4947379521,-0.3421205338,11.8996405325,1.51436163,-982.8910306186,-137.1876575824,-1.5566150556,-485.7462806429,-1.3446645074,-11.0735954249,-4.9124928932,-13.9500553753,-1.8117528702,3.3101642672,50.4013581503,-1510.9399580994,0.1736947942,-0.4624643905,1.3725275209,-0.6603781253,1.2879952432,1.6702167247,0.7066686236,-0.8187673365,0.1825061375,-739.5314235658,-19.5427347197,961.0322770888,1.4486991277,-0.2657815348,-1053.5226804459,-19.9521032123,7.0930301053,-767.0108136141,-11.4208136751,0.5922285728,-136.2711056565,-0.0688001615,-858.292129471,-3.7657903583,-14.657747759,31.7771035642,275.3951607753,0.0385521053,151.956620572,-7.5462204343,47.9546451278,25.7476545255,11.3417695005,9.2420360249,-0.6759648818,9232.7014903253,0.3031783484,27.1770741887,3.0520526191,-666.7809126384,225.0885217988,-1.7187879071,-85.3548759973,-1.4683480713,-2.1760593228,-0.0914301257,-17.2146426824,-0.2368284969,-1.0481198705,79.8086112802,-0.5563883111,1.5439083492,-0.4270977499,-0.9219437735,-0.3140147233,2.3963274239,1.3141134982,1.4181150392,-1.8784973919,0.8840297408,-0.9738086935,-0.5904464411,917.2686962336,2.4315230301,-0.1731855428,-74.3906435925,0.60460461,5.973456353,22.8980361307,-5.0503045125,0.6338588222,-444.376017018,-0.369898287,-416.6524625384,-25.168862886,-24.0397551687,49.9412372946,54.2896509035,-0.9322190919,849.1968358712,-25.7343456694,68.6710654116,25.6141957514,30.4325035352,-1.4824977125,-0.8453326401,11775.4891797256,-0.4144445712,29.2413505759,6.82927465,-1049.2123653589,-147.2768370572,-0.560180906,0.9457750319,-0.6281342991,-2.3059467846,-0.5003932717,-7.3718775584,-3.9490762107,8.1070713805,10.6598093034,4.6720309039,1.2535528628,0.5966224349,2.3269271608,-0.3208106577,1.6112618488,1.0280889186,1.9015678608,-3.8499700843,-17.913594813,-9.4480395949,-3474.1867255693,1365.9814472352,2.0476603605,-0.1030298982,320.8062516855,-0.9835851394,27.4208312763,-748.5182637151,-857.8995058392,-0.8706520949,-33.3388726279,0.1640453924,-616.5477182967,-2.3702513895,-9.7149673785,15.6910526158,1792.7014004436,-0.9879324058,30.7639557066,-3.9851652965,-73.8682035151,30.6343185874,759.9436734563,-21.3326727751,-0.8555011351,6956.8108048639,-2.9875176387,21.5992304982,8.2378319258,-86.5593915055,72.9026946767,-0.4801468477,-14.0235020456,-0.5662937589,-17.6260459184,0.4596154954,-5.3050716228,-29.1139266117,64.5081388062,90.0957307825,1.2729312497,-2.1300401945,-0.5066949149,0.2919956675,-2.6995617339,1.6570462651,-0.6956042228,33.6720803979,-2.6734264961,1.8147061613,-3.1443103252,-2651.8609784224,51.013725687,3.3651568547,-0.2218291428,412.5033385844,-2.0229898291,66.401396167,-876.2748249935,-29.5612460359,0.5235438438,-45.242842734,0.0757981648,-882.6986411979,-20.5193206166,-35.0468559605,76.9307257375,1665.1841504564,67.2097456631,56.717762495,-0.4372462863,124.7922216393,80.3063007244,1262.3591667016,-10.429726334,-1.1064253786,8241.8266726288,0.0661190839,19.1589588954,5.2751255854,3.6340507518,46.5260426331,-0.1435079401,-50.1379455237,-1.8484091375,-6.1794021564,-0.5757120816,-0.2320665735,-0.3129852666,-0.3426046234,-0.9886210994,-22.9492921387,0.0149354245,-0.5472414752,2.1716690295,-1.8666346525,1.5094296564,-0.6073466412,-0.9176927846,-1.0125784472,1.8842486633,-0.7229592793,-15.7930256625,-725.2575717702,3.2460665541,-0.26013497,-1053.0885455408,-0.8162020886,7.1207304711,-791.791405631,-285.3786708536,3.6721635809,-14.6257593777,-1.1606626513,-2.4208702765,-1.2811358292,-2.6486490893,-307.3513386753,-1359.3738195568,-1.404609446,-39.5779619017,-2.6043499652,355.6072633518,-6.7899442286,13.5366202658,1.1202470614,-0.2308908696,4712.3066472624,1.0655308142,-250.4019583303,249.6589245255,-232.3889331569,-197.4468783615,-1.5649696069,-131.7789957689,-1.7526096979,-4.1268212046,0.6996355538,-0.1614554755,-0.1537432217,-2.8079381272,-0.6174476637,-112.4859291606,1.020045184,-0.2558293957,1.7922242921,-1.738366041,1.9146293199,-12.5607761123,-1.5838716036,-2.6441003577,4.7582592242,-3.2441472802,-5.5984072077,-1627.5448357452,2.696235906,-0.2680737439,-32.1975439516,-2.7160349203,5.577038722,-515.8731114577,-1051.5313329616,2.392135101,-110.8260965304,-0.2066930775,-311.8478804928,-2.3107386375,-2.5084881153,-308.6943736378,-1568.8110764098,-1.4405687451,-19.8213478119,-0.653746721,-8.0132370925,-13.4596050219,-15.5315448677,0.7227756709,-1.120290139,7772.3049214713,-0.1806426147,0.0060222964,32.7394733833,-596.8635567099,-168.2104857944,-1.2049488552,-69.713834684,-0.7390925569,-2.1621930043,-0.9022223488,-0.3905784446,-132.9936220745,119.199447007,131.8774828785,-532.4772812103,0.3985575197,-0.1298231186,3.0796688358,-2.9138429009,1.1217323261,-2.1962197805,72.180792489,-3.3890948752,5.890918604,-1.5388320499,-3226.8444938145,-1002.2305688968,2.8737239997,-0.3265497098,2664.1051038091,-5.2444162614,95.3091207654,-280.6169433568,-876.2790805973,0.8090599816,-99.7967880329,-0.0983252445,-286.9683699018,-3.4173839495,-4.245913868,-314.9425765779,1438.2108006939,117.0166458123,120.251353148,-0.604630109,265.8040365543,134.6651388375,1534.170444968,10.0147714925,-2.6199173268,7341.6535986606,0.0725353277,-20.0046248768,249.5985797149,-61.6948453086,884.6933805107,-0.2003404417,22.5725848143,-108.5256233471,12.6730808972,-1280.7252792738,-1487.518309455,-421.3468346007,2529.4680880653,1478.8971427473,38.2999696995,0.2749953237,-108.0047568178,1.4643998103,-4.1135819823,32.5707565818,28.3465373759,-0.8877017301,-40.268192903,-2.3975388159,-3.7013532874,-1023.929255991,4576.9143554386,-2.7892908144,-0.7419592672,11594.95095616,0.2191155104,2296.9532952108,-85.4862853564,-7.7866681054,3.7775611746,-290.1707167988,0.2890912918,14.3705253327,-15.5644921434,-1150.4530992342,1917.3657913098,7698.8566730226,456.5608478609,7086.9226314029,0.1141320795,3271.743288615,3072.1483710695,3214.9805808749,8.4091227849,-229.8367471246,11892.6174524375,-1.9312858086,1810.5482659901,0.3459919459,8.6982121992,3901.9648164625,-37.2976800316,322.2638016483,-298.3833221742,16.9299591326,-201.439590765,-34.6699482057,-300.8594917184,1018.6223287422,730.9493300667,49.837481927,0.9176932904,-70.3976511085,-98.3481346896,-29.0126727955,5.4045309552,11.3140824366,-23.2130702932,-86.1145505623,-62.7806378197,-3.9463759185,-1788.3271779757,1676.9302700662,-294.7624808899,-85.9652345151,7622.2141145114,-103.3483326232,796.6307885126,-0.5846510413,-43.1650845342,-10.5609436145,-163.1815286378,-23.5593668276,0.6304251759,-310.0146974031,-54.6134238187,-407.0370751865,2653.5024760851,28.9593270054,8897.9917022648,-77.3143346056,653.1333976216,1409.5950828748,2146.4885797114,13.3497487465,-20.0076882768,9726.2475217601,-298.6328557065,-118.1839674953,1.1222905963,79.6347877081,1288.6520082975,-86.9017485601,-242.260736179,-0.9733727553,2.5634344704,-0.4281469864,-1.0421920935,-1.6945115911,3.8663294532,-46.1888654494,0.5583874524,0.8191808844,-0.5497188547,2.5028569902,-0.4254347652,5.0481072398,2.3166661069,2.9672820817,-0.9650785611,3.3234758167,-1.6714466644,-2891.2139953418,1709.5028732874,3.5968366351,0.3791736207,52.8517205691,-0.7574899358,13.8493743298,-68.7557518193,-283.8529072975,0.0771483241,-3.3154323725,-0.5497971865,-0.5208606097,-2.3689087481,-4.5838698231,-26.4254719176,1480.1698747734,3.5663422683,-30.2652804985,-5.4116776469,21.0488457992,8.6907297492,129.6198530781,3.9416901307,-1.7467347947,10985.864780431,-0.2956095259,-7.3106767076,13.6059373432,-72.3350187687,-195.278386441,-0.6172883146,-63.1302067516,-1.2714785574,-7.1270579149,0.1970917974,-0.4337423598,-0.1192798949,-2.090713783,-250.5186698045,21.5776068508,-0.590115961,-0.5842292688,2.907184578,-1.2292201257,3.7876295088,-0.1490553641,0.5785875506,-2.4531136169,1.663912486,0.8597257982,-1583.9990444403,-826.1499680451,2.4282356055,-0.0588023607,-35.5207837728,-0.1133249534,6.5456273109,-804.6181768629,-12.5116985791,-0.3951408733,-28.8559411963,-0.0667245848,-609.7484059419,-1.3908680897,-3.1646419031,-2.37055406,-324.7507186356,-0.5632213789,-5.387542442,-3.2557630119,-4.7165293181,-2.4951265551,66.0382668181,6.4633183421,-0.4950180725,6725.7664083833,0.7297230713,-1.5304683927,71.7248557883,-200.9371749659,-318.5042439295,-0.5565319983,-394.587282859,-1.547441813,-11.1621587085,-0.3956218409,-0.5799656683,0.1574076148,-1.7327404822,10.161551237,-62.4708568985,-0.8623639161,-0.3228057632,1.114192337,-1.6115146134,1.1086042171,0.2538222516,-0.3439437745,-2.5064581234,2.1044844471,-1.9493731965,-40.3948679402,-688.1938719097,3.148109342,-0.5058604643,-1454.673683097,0.1107138648,6.9768644162,-903.741136857,-87.1119402253,0.1826569359,31.8971448036,-0.3059865492,-267.5532068141,-1.3482090799,-2.7588008012,-10.3827673453,-1078.8217557784,-0.3821430205,-18.7188228037,-3.514086888,-6.7711676048,-262.6420762161,-28.0764657897,4.0591894663,-0.2547447236,482.6630547836,1.2581751598,-1.0012198571,32.1515252698,-7.7119556352,-325.2425357118,-0.3494779436,-14.084404369,-1.3359705934,-3.4546554072,-0.531683576,-0.6108629393,-0.5090999166,-2.1439149085,-1.884459847,1.0140869469,-0.6022733666,0.0363965648,2.16313531,-1.2364353088,4.0687664365,0.8256913833,-1.125243178,-1.8004191151,3.0665758867,-2.019314028,-5.6605169986,-215.3514686327,3.614610026,0.4505784855,-368.3753501502,-0.9934962585,7.0186331317,17.8723134749,-13.0509235846,1.5886172503,-7.6790477347,-0.5472759507,8.5448104104,-1.9259079402,-2.5941381244,-4.5279187935,-1290.0859345611,-1.0253922666,-18.7911046912,-3.6896132093,-10.1631586878,-85.9537850955,-37.9182286173,0.2740457624,0.2517602541,4522.5417471942,0.3463533439,-1.5111303285,193.9441228638,-13.4815559249,-280.1250561833,-1.5809029421,-363.4512929034,-0.8568828415,-0.0682796084,-1.1324921901,-0.7336959451,0.2043529544,6.9695927482,10.4925470777,-28.2620748133,-3.3550147771,-0.1862189758,0.2908725709,-1.5526388229,2.48260806,-1.464742482,21.3406302249,-2.800109135,2.1209888773,-12.9309200681,-2351.8122576724,-1048.6490788246,4.0652243357,0.1620620107,494.3194081344,-0.9931018288,41.7148670899,-535.1519735996,-287.5847644885,3.568716681,-19.6116318177,-1.1374764957,16.650586662,-14.6082316631,-2.2466426566,15.035417623,516.1636874658,23.7384288582,31.9770065328,-70.6431935003,25.6905821547,-54.4249615058,476.3687040748,0.4939135514,-0.5198221156,8381.4712811167,-0.5435713148,11.5633770568,26.3796005309,-8.8335057088,361.5082285503,-0.6196010153,-23.7299160755,-1.4920074935,-6.713980277,0.5249507183,-0.7912749497,-28.8556760003,92.8224276588,99.1208029709,7.2986975938,-0.1131573485,-0.5512793269,1.6294258164,0.1582623042,2.696237119,-1.6232210114,57.9505351094,-3.1872230194,4.9712847627,-2.4319145068,-2053.160205312,-354.9397672803,4.3049953991,-0.0391286381,518.7345844459,-1.6575246391,92.6263114077,-566.339583629,-858.7572299771,0.5110031412,-206.9725682627,-1.3645751925,-904.5439449425,-3.7471194838,-84.8785549148,98.0345740191,1423.8852123798,101.6020904247,57.8986371291,-28.4269676212,129.6725674478,-214.7686460148,1563.6024105865,34.0268036653,-0.8531998952,8236.060428535,-0.0663030265,-0.7851832783,67.0377318427,-49.2195546704,861.9555407337,-0.7784404786,-0.2612703718,-1.2879110999,-5.5384110368,0.0045584596,-0.4385021197,-0.294984349,4.9007327386,21.1600489532,104.6266605716,-3.0966675557,0.2695845468,1.0001099522,-1.967857031,3.1663967185,0.5008666021,0.9976878216,-2.6284296783,4.4977797568,-1.273286123,-3212.9905650069,832.404977919,3.3108019325,-0.0424315624,393.8792607606,-2.4153484695,24.0737219872,-759.5446618651,-0.4816280705,2.1077210693,-7.1372626523,0.6039092744,-620.8960634843,-16.1696333009,-8.6046147293,-21.0531228749,1617.0080442825,10.2223135862,6.7039956203,-4.0425823187,7.8928830431,19.0930446501,713.720041427,3.5470356967,-0.0585336954,13335.6431537469,-0.1330796545,13.2390194735,45.0240019299,-56.5553683891,-169.2143730863,-1.3721569088,0.3241450667,-1.3670387596,-5.9497392455,0.4998842429,-0.8911409436,-1.1430266613,-2.06342139,-0.6841408113,602.4314373332,0.0228827699,-0.6649256672,1.2042189909,-0.0316198791,2.649524056,1.7445932207,-0.6729626811,-1.8350504911,2.1718215611,-1.1900851744,-29.4130622578,-606.2826721125,3.4947969594,0.0752149727,6.5640159905,0.447897934,6.0119511826,-476.9566085021,-37.2486755582,1.177945121,-47.694085467,-0.3164654022,-0.2513187498,-1.2048208872,-2.8142747411,3.3242536858,-991.3372367769,-0.6195712943,-13.8699093914,-2.4296126168,-8.4548692354,-9.353897315,50.6611261369,8.9175045441,-0.7325066087,11753.4009591943,-0.557163567,-0.7379954552,50.0351985016,-22.1289433317,-396.7427170223,-1.4672661081,-97.7020425503,-1.30939056,-3.9289103256,-0.3503723061,-0.625764383,-1.5237893464,-1.3007690562,0.6672806908,62.0676877834,0.6412497014,-0.3414723984,0.660057724,-0.3858717326,3.0941600965,-8.3915092173,0.615020052,-1.1565130027,0.5224513219,-2.5687534226,-3125.6544649605,-238.183947533,3.5634540384,0.1226957108,7.7018204283,1.1844678038,4.6622373513,-724.4069120912,-19.2610653754,1.8311598076,-54.5101292391,-0.739423434,0.2781617711,-1.136107225,-3.0355891867,2.7139160581,-422.9970861996,-0.6373310907,3.8475158102,-2.6706017462,-9.6429190355,-1.3389347659,8.2374966893,11.2180809849,-0.6902506524,9439.1030421731,0.7921967789,-0.4867084794,65.4695366772,-183.8732813597,-354.2605921966,-1.2376892759,-2.9763957379,-1.6117896554,-13.0970971572,-0.419998119,-0.372649889,-1.5390899438,-1.2208314595,3.6033866059,289.0210576942,0.0076552449,-0.4893972038,1.0012030517,-1.6151536308,2.8841940957,-0.5224033692,2.1268549522,-1.1461979294,0.16065536,-0.6853470344,-653.8830855016,331.0078160873,3.7699276004,0.3076252056,-347.0695159143,1.3481089669,10.5545473707,-187.4176958332,-28.5756284169,0.2268757727,-2.9102376259,-0.7400566241,-0.6051162828,-1.6086836795,-3.0098712604,-0.4129610802,998.9369170712,2.6569862928,-2.4290540102,-5.9047958784,-7.1958010853,7.3946608415,82.3706824108,20.8581033182,-0.2548617755,7978.580113074,0.0864923621,1.5683074477,4.6702398359,-7.3657055702,-106.2098742367,-0.828485241,-10.8994496155,-2.3141989171,-2.057790905,-0.2956533205,0.2053217961,-1.0804312799,-1.9576593443,10.2882278338,720.4752804405,-0.8150419801,-0.2035655714,2.1247727394,-1.3879309846,2.6495910886,0.0038382717,-0.4404765892,-1.8219268792,0.3368074638,-1.27404166,-1512.3471088923,-188.345597447,3.3900043836,0.6987407568,-1287.5049517905,-0.0504778963,5.8748828554,-465.1021683106,-863.3249350471,2.0863957618,-17.674758635,-2.2820199376,-1.621237054,-1.2905989913,-1.8843173832,-3.4124149102,-994.6269733846,-0.0644841896,-24.0667631858,-1.9369006767,-6.4480244545,1.7732618856,-0.4748951285,0.155920552,-0.1599689928,3806.4966172649,0.4299599006,-0.599059591,6.2228095083,-55.6066661298,-128.6091069193,-1.4277402685,-45.3620625674,-1.6545466087,-4.5180097494,-0.4524051664,-1.4609837052,-1.3344741234,-2.9842737151,12.0572919304,305.2198469926,-1.6557038917,-0.2440711818,1.9457927837,-1.8499510897,2.9109188683,0.0479588779,-1.7321984462,-2.5787946901,0.6433140361,-0.3399456138,0.9451381011,-613.7081368462,3.7059493709,0.6072632028,-1350.8251546896,-1.0990618093,5.7171076634,-1064.642002263,-100.4847436974,4.8568900528,-123.6770012616,-3.0676024866,-0.1195605291,-1.4402764794,-1.4149821462,-3.0635634434,-322.0213040149,0.2755345978,2.4084744051,-1.5973355377,-9.0017535318,2.4447408044,0.6678866828,4.9318684907,-0.269515304,6163.1521645658,1.1888394822,0.031745203,26.0969178702,-9.2900553115,-137.9764032936,-0.2786315096,-278.4530065344,-2.1017013517,-4.8910697345,-0.6857414722,0.1026364506,-1.3783004579,6.4481268563,-78.9515577994,298.0281935964,-1.5678350337,-0.4278279164,0.0955683793,-1.8018520115,2.200540555,0.3311254274,5.9242175011,-1.8236266462,0.9885458013,-38.3811321384,-2976.2350611783,1139.8480467562,3.1501523417,0.2099692517,-284.7498018989,-5.9140371776,15.5124932694,-206.4120814065,-114.7199950262,2.3684494776,-7.2628094678,-2.8672159645,1.2117856822,-2.1497344295,-1.7909337783,-5.5652917516,1169.7237074048,8.5427038286,-938.9962185111,-2.0291262003,120.0401360347,223.8509643623,189.974445305,2.218538623,-0.1004267836,2024.4407682767,0.6674816729,-51.8688561373,248.7391380344,-93.2484187511,104.4679300107,-0.3618070993,160.5649248436,-3.1676410858,-1.4228760264,-0.5036018329,-0.1261509757,-1.2289466403,-2.5487179373,-3.9851681298,1006.525486553,0.7749010105,-0.3655501524,2.8312915059,-2.0373571929,2.395621829,1.7981676547,-0.5235909322,-0.733736706,0.5562917209,-0.521755801,-49.310235499,-344.518529428,2.7557208609,1.113484474,-194.9813081,-0.1165232071,6.2565669837,-874.3085332457,-1077.6888663208,2.9080117071,-5.4031186005,-2.2725452845,-0.4382855311,-1.7754760746,-1.9289982806,-84.5352525684,-1503.7885305497,-0.2898738243,-596.9148504062,-1.0802419673,-4.410391834,-599.8206137676,-9.0367336242,0.3534325342,-0.4182590731,-3.2590761523,0.2016878611,0.3627563797,10.1595402975,-694.5286629423,-171.5339128391,-1.7962006682,-372.787437205,-1.7333930823,-2.0873172971,-0.7502140619,0.2281186944,-1.9201877838,-1.6341929579,-101.0005072693,326.7471111489,-2.3929124864,-0.4753186329,0.1562848868,-1.5941367882,2.0823737937,-9.6472872306,2.8835541253,-1.2127024228,0.0912286412,-0.8189024679,-0.5211396281,9.3841481861,2.8624743194,0.5139966961,-392.3908417814,1.2820789868,7.9030784742,-855.0844974258,-757.1901937076,1.1921836335,-23.9724975012,-1.6753207095,42.9734047167,-1.3563367376,-2.5820046817,-264.4129567405,199.4313818564,1.6784326945,-2520.5406992815,-1.7582418956,-6.4373176896,4.926141652,127.7926060979,3.1123515336,-0.1220355199,8019.6507078992,0.0141483548,0.9719431908,209.4461604554,-85.3370601088,-241.624077328,-0.1819212884,583.7289961242,-1.8100538958,-0.2000423851,-0.2161278324,-0.0625784077,-1.3264731437,-1.3066317765,3.0823429492
   77.7664864647,-0.5011994356,-0.2907034809,-1.6305629895,-1.5632802877,2.1559548272,-11.2001558685,3.1502472493,-1.7814578657,0.074774415,-1.6523599736,-480.2885595999,754.2270866142,2.6559604873,1.1059565346,74.9800542904,0.5284516927,9.0735497829,-492.8789688552,-898.9886871431,1.8086445165,-22.355890867,-0.7029191207,-8.1658314728,-1.49888037,-3.2182265979,-431.3578151474,701.6207653304,2.6370099977,-10.8449544471,-1.4667895376,-4.5224933401,7.4057453896,151.1366034645,16.7752126333,-0.5610188796,10693.2210614961,0.0043935163,2.5988965724,89.6713550145,-88.3219933278,-195.6791923229,-0.4679844282,-61.7804901326,-1.4722809108,-1.4034179461,0.0501187465,-0.345913748,-1.8532672773,1.7686286671,1.7149227645,88.4604948587,-0.0776153398,-0.7983626714,0.0436294509,-1.4626845825,1.9495034923,0.4021175692,2.5857968362,-1.5439784442,0.021118993,-1.0362673311,-0.208275465,1193.3703229844,2.0886811355,0.4816168601,190.0344301474,1.0604849447,9.8649664362,-566.3577465077,-796.9358629341,0.7952547888,-65.2420670851,-1.6194801013,-597.4722469297,-1.7173382203,-2.6496050925,-5.1758518767,943.8342853886,3.4264781083,-35.5755199655,-2.1861884296,117.351239585,23.3421468526,101.3286800521,4.2084316891,-0.0264610579,3346.8360197046,0.1555871661,-91.8263723232,-12.3051094656,-220.4559092133,2.4841229844,-0.3184105737,-768.4850254505,-1.3178640098,0.3187744513,-0.386156661,0.4312631915,-1.5444969553,-2.4099901393,-2.3390738904,144.2713648825,-0.6218921555,-1.0845073609,1.6947635864,-1.8282755386,2.3380444086,3.0487115992,1.8747272214,-0.4641723701,-0.5744074254,-0.9736279263,-0.5101376655,-451.0257813395,1.9347813842,1.1267138941,-817.1103997428,1.8474769257,6.6501690181,-964.6273277309,-1096.4869182278,1.5341932234,-32.4533572938,-2.0723124593,-4.0610251055,-1.5636831233,-2.3223635612,-0.3359392017,-698.7039862702,0.5534354278,-3372.8807835748,-1.997328739,-3.8806258893,-492.5146715276,-13.3141577054,4.0797841475,0.1817618256,125.5870911695,-0.3753281715,-0.2273684436,-42.3124297189,-128.4216251487,-159.9846592973,-0.8175117684,-19.177579091,-1.2019352549,3.1260491949,-0.6820035554,0.3883620262,-0.9615370137,-0.4605903647,6.9325707332,-25.9433488431,0.3922955995,-0.8380155394,0.9828631633,-1.4946216479,1.8334743356,-2.0131061106,2.883442004,-0.6667186005,-0.3762068198,-0.4756139946,-20.3765202549,11.0863074544,1.8799362404,0.765181242,-70.5513343853,0.1801991219,7.1420759441,-569.2426740757,-1038.0186919691,2.1726503088,-33.521474887,-1.9500469131,-0.6654881202,-0.9937005314,-2.0830847422,-0.3023516269,879.9551836905,1.150074197,-5513.1064329282,-2.2506496262,55.0875497952,2.9963735772,52.1767181931,11.6638445187,-0.2955592827,2488.646527771,0.2459489224,-20.8765602073,39.1951476277,-678.0361975993,-148.681190083,-0.953093985,-297.2458899799,-0.6914903823,-0.4974994429,-0.5100796605,0.4992847031,-0.2416818478,-1.6868927523,-23.542153983,52.4016014049,2.1065786092,-0.6531706976,0.8180412269,-1.2859562752,1.343149138,3.0538324457,-0.2318735027,-1.3891043139,-0.4380545589,-1.2278630465,-3271.0939044502,-1336.0723867047,1.3475430436,0.4016401476,27.577751914,1.2267008779,4.4535270769,-716.3154942956,-300.9251085974,0.4128190496,0.6552604203,-0.8212569759,-48.8462467293,-0.5927102703,-2.2484962612,-1.7070511462,57.4827208298,-0.4842209795,-797.8825483241,-2.1712824234,213.021046897,-736.8801609883,-24.8319875473,6.5185704657,-0.2068104344,-1074.4864263511,-0.8193238255,-87.9229095932,11.4300625367,-686.8226340775,-145.0888953901,-0.7498535733,-470.9765475385,-0.5423972256,-2.0648950483,-0.4333603664,0.4436148995,-0.4637576271,-1.8192780339,6.2983288477,-12.2927196169,0.9652905561,-0.701814546,0.2626312297,-0.864737235,1.0840530499,41.7954737183,0.6057030572,-1.0148165644,-0.6998434686,-0.3648564543,-162.165553512,-329.3498859156,1.6244834852,0.6744785543,-10.7023697306,0.9151239199,5.1768441379,-464.8889876888,-824.2458474514,0.0035409625,5.4587760091,-0.7362209794,-0.3707502908,-0.5609730253,-2.1457504421,-133.2339814361,551.6512739656,0.0731210027,-784.6785094262,-1.3649590457,127.6783525871,-514.742849402,-9.8002597781,6.3206585026,-0.3019549033,-7173.1875711324,-0.3629470958,-49.090453179,228.0317786686,-82.2195879631,-135.2365232493,-1.5570077988,-469.9793404555,-0.7739093971,-1.6319876312,-0.5964276833,0.4197163803,-0.615651523,-2.6199162727,-38.885138268,-18.8834811004,1.2543438026,-0.323952567,-0.176849296,-0.8711475782,1.3405495088,41.0175668711,-0.0129719027,-0.4472528272,-0.4133124663,-0.6827349062,-3172.1260411662,-382.3291289266,1.4045703005,0.1343359267,5.8333816434,2.3610819731,4.5813477511,-337.1986053852,-1041.9591801545,-0.0293440293,-8.7171637897,-0.8958267933,-316.0946528738,-0.5809221211,-1.9441465473,-240.296965537,601.2502330993,-0.2022083843,-665.7538890688,-2.5274864193,-26.8069900009,-5.8757815879,3.3079614048,7.322889704,-0.3789137234,-6914.0325812365,-0.5895955119,-0.3368470118,9.1721208474,-210.2145220142,-298.6082998345,-1.2448011353,-565.3480565855,-0.9515490221,-4.6100764663,-0.6870531345,0.5742913346,-0.4437104166,-1.7407883717,-109.1979900622,58.8449214947,1.0551550656,-0.2176284575,-0.1317034151,-1.0085732172,1.7325532969,19.1707258972,0.7231736816,-0.5494385478,-0.7182979481,-2.5537475099,-3562.0087082296,-331.0642530867,1.2439821341,0.0519070627,-489.6777147543,1.9227643578,4.2261197697,-462.334897739,-1043.2380883312,0.3462248623,-0.4645512939,-0.863828562,-46.4622326096,-0.72038718,-2.0581310666,20.5439310058,-92.3192511304,-0.3490796217,-19.9168695837,-1.2845969556,-4.6936627582,-151.1650523254,-25.8462527045,8.408140176,-0.2176032854,-1850.3650957714,-0.6989437377,-0.6670188899,641.6505966664,-15.1540187456,-377.0517627975,-0.7569098801,-183.0160096446,-0.7825784374,-0.2973587898,-0.4775491254,0.6425431333,-0.6189382515,-1.0874912627,-3.3196614253,8.9096875665,0.6483132865,-0.5913361278,0.3383849843,-1.3369017827,1.6063414527,13.370566916,0.2272613655,-0.4191978037,-0.1023144125,-123.9224669929,-103.7920012776,-294.32612366,1.0902108672,0.2509030893,-21.7090564414,1.6563646552,5.1559819215,-560.6871020959,-756.6956006706,0.7310902963,-15.0089281617,-0.9957605637,-667.3045818182,-0.9397493188,-2.0192210438,-41.7040744898,-480.5938131406,0.2739569461,-6.3277439341,-1.7542234173,186.3506626281,-66.5914190209,-31.150280189,3.7764370445,-0.2923461095,-3877.4706994502,-0.6530932653,-75.5820453468,100.1225361239,-3.5603421126,-179.9771280033,-1.1331439482,-939.0617763162,-0.4508996565,-4.8403825936,-0.5441823965,0.424109361,0.0781804229,-0.4325601917,15.8814910458,-665.1096317446,0.0408546048,-0.4219503366,1.1597633026,-1.2576355967,1.0673119128,4.0741072745,1.0360592377,-0.5367742566,-0.4538777899,-0.5426304075,-3270.5847257422,-3.4732077232,0.9114261873,0.2066516435,-304.2768685162,1.6972394646,5.3782623559,-832.5131497436,-866.0206024844,-0.3188683507,6.8940783901,-1.5515928987,12.0303667804,-0.8313199719,-2.3007575033,-1.1592945898,-179.6882952707,0.190865647,-4.4615310931,-2.1365113619,102.1257468998,-148.4091744232,-35.6420640826,5.2663345285,-0.6260685409,-4444.7140679991,-1.0052360506,-38.9892379611,224.2569219106,-9.0873319671,-140.1045199771,-0.9496019819,-82.2148910058,-0.5506830165,-0.8404991143,-0.28269823,0.3519483279,-0.5154014089,-0.740062495,1.5667928895,-1627.981479591,0.3959420708,-0.5849316294,0.621958555,-0.3758600813,2.3322013143,10.1908159381,1.5845064201,0.0304757561,0.1648966406,-0.4713203577,-3262.5812798669,-129.6594918058,0.9962158845,-0.1656473994,31.664780115,1.5101591219,7.2162584706,-1089.462244965,-299.6667277465,-0.4911130177,-0.5196499642,-0.820801516,-0.5761567917,-0.826003247,-2.1569276037,-53.6078322013,538.0438742242,-0.3829967847,17.9715324854,-3.0882849755,146.1072548512,-1.5824056883,18.9404566931,1.295890688,-0.207199818,283.8668567103,-1.4941237634,-80.1942842158,5.7400913181,-21.0419413257,-198.8577049816,-0.8459270563,-53.8025190399,-0.7299162078,-0.7787319317,-0.3732388406,0.2379897641,-1.9265456197,1.9589737924,0.6897274328,-1447.3546908782,-0.6616636166,-0.5088769386,0.431101591,-0.5907907878,2.6102093036,2.8266992768,3.8134037999,-0.586619758,-0.2270302972,-34.8626396471,4.4747842753,495.1460852829,1.2381969915,0.0260676283,7.0596188281,1.8949397333,9.342599347,-960.5115514289,-227.52591023,0.6214923721,-6.4989415551,-0.6315795248,-0.0926843669,-0.6283463797,-3.0909210675,2.3234588382,1508.7901931131,4.2371114384,-3.3573744428,-3.6802868135,92.374186184,78.664260963,106.4864674863,1.9050891765,-0.0295946638,1656.8204195231,-1.5164037422,-46.4777500882,13.2411377232,-259.1062321294,-60.2924761101,-0.4774698834,-1136.0054367202,-0.902557313,0.7328031975,-0.3174775631,0.3227464408,-0.5699143403,-0.5167961511,-41.3532533862,-72.8552091027,-0.2729080056,-0.3750394384,1.0613149575,-0.5681704045,1.8363142003,3.4713046589,0.853296356,-0.9451260406,0.2068844236,-1.549378429,-2690.8501047337,271.5114725953,1.4133439934,0.3453446188,-513.9441839642,0.5964648238,5.2740657665,-849.5292295881,-308.6303724958,-2.2165379872,-5.5884315362,-1.3455369229,11.1047690792,-0.7539889712,-1.9165229879,-6.1107782908,789.444700288,0.9055664346,-1.1773039069,-2.2291306197,97.3458480428,-661.4845687337,-7.4643125083,11.6251272537,-0.4113668431,22.3401414477,-0.8313299546,-41.6944169005,29.3018314742,-5.1220504263,-157.2316501866,-0.5562413862,-503.8904268135,-0.9608064236,-0.1323407366,-0.3760306122,0.4670384285,-0.252823873,-0.8190463612,0.9562922491,-102.7491164545,-0.3759068815,-0.456065335,1.1177689671,-1.0446272405,2.3303042359,5.3733767913,0.9074921049,-0.2798921212,-0.3351942373,-0.4729620219,-87.8956980923,93.504351387,1.1848130274,-0.0254020678,-93.3359591764,0.7344316785,4.2271585908,-912.2961399885,-449.120736065,-1.1508022866,-0.1360362526,-1.3542874817,-0.8161144947,-0.8963362627,-1.7404899097,-3.3480175812,630.459471274,1.0357740933,0.8865934771,-1.9721617777,-2.3304185585,-21.701545513,-7.7978922552,2.9774916645,-0.4343634494,-202.3515088381,-0.9001577593,0.0496010888,223.4187527687,-14.4631618279,-205.1801469514,-0.8140415513,-722.1065141525,-1.0147297713,-0.1669089513,-0.5360265612,0.407406182,-0.5055995463,-0.1670689737,0.8749943354,-44.0125292854,0.1763301249,-0.3499060619,0.1714764321,-1.2259656255,0.2954045864,3.1898149667,1.6873944408,-0.4224829914,-1.1391328077,-12.2599535875,1.299608255,-295.0878429179,0.8031434243,0.1083906365,72.419136556,1.1809814569,3.5970685691,-534.0040001306,-754.3004101064,-1.768228027,-2.7065711256,-0.7713742832,-0.8544809699,-0.3925081979,-1.5040383414,0.1899713807,1096.5142457538,1.6884280881,1.5892601994,-1.5431326442,361.0743030129,3.7704641624,40.4332038627,6.1845865468,-0.2487965604,-877.2906968967,-0.5623745517,-218.431318126,71.9292156582,0.0065239192,-80.988711905,-1.106984122,-460.2857183787,-1.0665032988,0.0592741595,-0.6523342748,0.5055695399,-1.3056524662,-0.0052679181,-17.7586750876,-18.0565308616,-0.0022106396,-0.4841383056,0.2357993818,-0.3267759435,1.0096391277,3.4852703842,3.0746414972,-0.3434126168,-0.7999333014,-0.6527151457,-2691.5717410147,535.2139244141,0.7347254574,0.3227665307,103.5335335658,-2.3431315615,10.5777283331,-890.380275187,-759.2899196655,-1.4873856202,-104.8372158945,-0.9303738711,1.8767328355,-0.7472825162,-2.08464018,-5.401209472,1800.3172851409,3.6740622453,3.6550279424,-4.0398901159,-1.5238738615,53.4284833442,197.5892382877,6.7874695798,0.2161674654,617.7409865413,-0.6892303604,3.7413556221,225.2993443283,-1.4823807018,-223.826953875,-0.6412311072,-689.1362266275,-1.2978164719,-0.2630529844,-0.1795492153,0.4842285868,-1.0087067151,-1.2026747864,0.6752336581,-696.7603524519,1.659201246,-0.4894181856,0.1284586971,-1.1905024992,2.7584991297,11.1431185179,0.4430122744,-0.6114307559,-0.2233311696,0.7646508422,-2979.578837396,281.4748529752,0.5035190611,0.142304327,16.0702201937,2.2583375464,4.631177061,-1203.0528387408,-112.9494069047,-1.641119011,4.4298753431,-1.045317542,-0.6875942708,-0.670609025,-1.6287996271,2.1063752119,719.4918835658,0.8004210436,3.2137270947,-3.4085668329,-0.2409384986,14.08015686,-54.6120431822,3.8559158886,-0.2698550908,-1231.9876981004,-0.5764234544,1.1272728863,222.0291562869,0.7030276064,-283.7608824321,-0.6784264698,-343.0526531446,-1.0912308094,-1.3530614886,-0.1910128035,0.3145384635,-0.7004371381,-1.188420553,-0.1858768983,-130.7698842367,1.1917299395,-0.635049603,0.4277915322,-0.8604790976,2.4983015284,4.5435797321,1.1706154792,0.0160689238,-0.9208471904,-0.6025698362,-2694.2986017073,-60.8888646555,0.6485736124,0.1141320895,11.893006838,2.7191290228,5.8004012034,-1028.605871843,-448.8099455224,-1.9020516393,-5.6446215245,-1.2138467357,-0.1841597253,-0.7860091759,-1.441459217,5.6018683502,613.2700620746,0.356014763,-7.7746218946,-2.0776988949,524.7861702816,-354.1809631468,-14.6111738609,3.6347345715,-0.3093115029,-922.8321827192,-0.8813669137,-319.2302723185,-7.9684687791,-4.7542852799,-131.7974522242,-1.1414935332,-616.4588022697,-0.902626533,-4.136825723,-0.313948388,0.3730749966,-0.5707652614,-1.1279517531,-1.8192318546,-934.6574235465,-0.0500080072,-0.5770050057,0.8282680099,-1.4889823286,0.7730713659,39.3271597129,1.645320099,-0.3909568107,-0.3220181399,-1.3906617583,-56.9755950774,177.9453188985,0.886068524,0.1352404196,-438.0027974417,1.6466105241,5.3367713943,-682.6514027944,-750.6408938618,-1.5751019804,-2.4983826566,-1.4730711082,-353.7249322104,-0.5937650042,-1.4348473954,-43.1421301962,1146.9941426784,0.2005702338,-256.1740850363,-1.3090667237,327.0966312981,-3.1753119443,-79.5076702359,1.6048278036,-0.142436819,-2417.8053353227,-0.5381279926,-252.8728051903,634.3770224946,-76.3250317435,-167.6484372332,-1.0786234761,-304.6162804169,-1.3690976233,-4.438303279,-0.3637373559,0.1511967426,-1.4079449878,1.5381553798,-11.7447487517,-1198.8488729842,-0.2587717197,-0.2038049952,0.3353480436,-1.7213863737,1.0234095355,1.6208631673,3.4557657108,-0.0128516702,-0.1117773278,-0.0739950545,-2973.3558029747,1189.0522389742,0.6608881822,0.1623394117,-21.4627370194,1.1941628831,8.6228418855,-715.5361632597,-289.8488176153,-1.3446424048,-93.4133477735,-1.3743469961,-3.1014693171,-0.3852730249,-0.9447714295,45.5708613341,869.1228294009,3.5584766482,-5476.1340314527,-3.1802720916,41.155469463,-4.336302971,96.3289311191,1.8767149344,-0.015373752,3070.8833394679,-0.5553742965,-18.3665024083,48.7504651217,-17.9905480471,-100.5399806838,-1.4762438576,-23.8531038298,-1.2306019335,-0.5819096375,-0.3784754822,0.0383235693,-0.8885232768,0.7240810533,-8.2372166624,-1044.5333249896,-0.1948160509,0.044962159,0.5881246387,-0.0750142795,2.0659633102,2.3243728275,3.6580990604,-0.454520053,-0.1221756414,-0.3052613038,-210.553963763,485.3377848222,0.7016688163,0.1728837568,15.6664309047,1.2827710475,7.7417544936,-818.5222221003,-163.3176913347,-2.2965112936,-3.4326353,-1.4217343396,-36.9000247922,-0.2834504434,-0.7912674149,0.6320119775,983.3424449311,2.812812639,-46.736448798,-3.9274709373,73.8945894421,258.5978784958,39.5863764745,4.7961446281,-0.6541483151,1093.497297369,-0.5205330399,-23.6568661967,-4.0852138137,-576.3229293846,17.4368979311,-1.515246923,-495.2573465279,-1.2328849514,-6.1254688798,-0.6363023513,-0.2652253481,-0.7451932643,-0.1095292774,0.0491931192,-99.3524158629,0.2686761202,0.2796804112,0.5214352518,-0.8594912552,2.2340641787,10.4809271694,1.5844697575,-0.5160706697,-0.5309399091,1.0492610301,-374.6455014826,39.2537617745,0.9110362603,-0.250262023,16.4910736615,0.9775387676,6.6504429215,-600.7105627741,-285.3672021052,-2.2558799397,-11.8660603602,-1.8277944506,15.7507858911,-0.6294827232,-0.8418221297,0.5539389796,880.3922367483,0.9280801982,-435.4471915964,-1.317527815,361.9125090701,9.9380124285,57.7171861776,1.0810695445,-0.5608922949,-2243.6818026396,-0.6373697967,-224.8003757865,-17.7831178673,-898.1856463877,-134.4764667344,-0.3679727366,-489.0456009928,-1.1037269385,-1.1418518134,-0.7730042191,0.1600757213,-0.4933250681,-1.7664671265,-2.5630626891,-879.47619889,1.2035856667,-0.3449772209,0.3475479989,-1.4695746443,1.5579462828,10.0916165352,0.4928805739,-0.3812434146,-0.2852891039,-13.3712224677,-3031.0967405753,-67.8613331839,0.6096618738,-0.2455219055,6.4482286058,1.1466069568,4.0425142969,-1012.7418157593,-768.0497651393,-3.0754267325,-1.4653827371,-0.7255746737,-757.2122364831,-0.2107594791,-0.7318130242,-23.7331488568,678.3537463506,-0.0499691901,-630.5382495663,-0.3445447413,512.9648992231,-6.9771722505,-9.3525144846,1.6992448275,-0.1610423163,-5732.7255554382,-0.5919375264,-409.0375703223,93.8687404182,-672.5853031226,-275.235109259,-0.8954894898,-289.9796438109,-1.0362144855,-1.4928651872,-0.6089828111,-0.1108842784,-0.2731224447,-1.0800462099,-4.2907892325,-1410.6615466447,-0.1031061133,-0.2196705404,0.2517463503,-0.6883710077,1.4762959964,23.7396962502,0.698731766,-0.5590529911,-0.2782495264,-3.6298711285,-2781.3918168633,57.2030603605,0.2494118743,-0.5956896636,17.342792992,1.1300035402,5.1807087947,-928.4366161614,-108.327936521,-2.6888187768,-48.4280264872,-1.301463912,-20.5120430634,-0.1398642035,-0.869943751,-2.7522618671,237.3672015461,0.9334880208,-550.9237974578,-0.9643050672,1.4622528187,-0.633212444,25.7260482057,4.7643202126,-0.3459835458,-114.5744492762,-0.6840988347,-0.1907326843,632.2551074674,-245.7903581928,-203.4274278984,-0.1709921386,-286.772810946,-1.0071251059,-0.3201355321,-0.7379920157,-0.1209660014,-0.9031623325,-0.1564441115,1.1235694541,-918.1608767522,-0.0901648474,-0.4717660661,0.2809913256,-0.7964559172,1.6622405967,1.6877424048,1.0642185718,-0.7554050381,-0.5794536434,-13.1175407734,-454.3598801138,-576.0212741111,0.6243542009,-0.2857038019,173.9603177202,-0.4009745232,5.8307061658,-443.9068916446,-108.7426629422,-2.1396984418,-22.1801816777,-0.9935498394,-17.6217333384,0.1512769376,-0.9770818299,1.0092062016,1157.1374791431,2.4097172007,-258.2961558586,-0.1901896066,377.9789759154,9.3441034803,47.7966969525,5.9636869446,-0.4424286658,88.7357742295,-0.3484992647,-219.6407731244,193.8348983181,-83.743357917,-55.3786551543,-0.3740869291,344.4509160032,-0.8521646033,0.1772845715,-0.7808990508,-0.1931621699,-0.7463933951,-0.0093084371,17.29045419,-1328.1588764446,-0.457431212,-0.3375729636,0.6265102993,-0.335032924,1.7523441648,1.8957574161,1.7507251525,-0.1960304798,-0.4640431296,-91.6471429416,-637.8108388999,-363.939699034,0.5340142235,-0.2698552689,78.8111422684,0.0409754471,6.1684861216,-656.3745540539,-374.3646089178,-1.8345200661,-14.6354983081,-1.379088643,-1.7160334405,-0.1217992538,-0.9453758371,0.2739522729,1080.7071476229,2.5589829285,-78.9916152641,-1.8244780778,76.1856212912,129.5906544408,41.6030795825,1.9058583385,-0.4204845363,79.6210737072,-0.2554159633,-42.3720955706,223.1656503817,-1.3698111903,-91.2897229337,-0.6921294277,-389.1367832599,-1.0857769198,-2.4790434081,-1.004734853,-0.1917046231,-0.9559836719,-0.6889193699,2.1112883639,-1292.730034487,-0.4142775081,-0.3646306352,0.5739675512,-0.9382944036,1.0513778533,1.7976209401,2.9711900966,-0.558741664,-0.3697413246,-0.5085994949,-9.0181964527,-224.0789737378,0.7108598955,-0.2680113178,90.6682418364,0.3363282536,7.1380264439,-1011.8269424972,-287.7578269725,-0.6980885442,-47.0338841894,-1.0854301101,0.2248131877,0.0607296454,-0.9597677015,1.299575191,1072.5618800691,0.4473399026,-624.3716872125,-2.0259506027,-1.015159923,-22.9560470383,-10.66466783,6.779069946,-0.1893832841,1172.8672402398,-0.4498133455,0.7670061078,70.0302424031,-27.6109747849,-146.5585759786,-0.5161549179,-125.4120535013,-1.0749010184,-0.747640887,-1.0960896411,-0.3363888116,-1.2548269381,-0.1100836022,0.9339905531,-1464.1499384264,-0.6523922286,-0.3448454327,0.3372100937,1.0162936571,1.0090355005,2.0275118052,1.5911658885,-0.7204162089,-0.4844775289,-0.1861507765,-1968.8515660344,-1000.4809050139,0.543805585,-0.1820171525,789.0449726151,0.8347787234,7.9231620133,-290.0231265403,-288.9549372494,-2.9832769274,-173.7669996072,-0.4783542747,-0.2800975548,0.1073603697,-1.0841610201,1.9804835444,1423.6788578024,2.5225651344,-606.0423670422,-2.3571388428,309.3865845504,28.4641264761,67.9837866253,0.7000014261,-0.4146630637,511.3119247105,-0.3714265177,-133.3229233347,226.0691840575,-75.553373057,-33.2689845892,-0.3387115858,-328.1887921554,-0.9705133024,-1.5253991016,-0.71495177,-0.3237395179,-0.8971360741,0.0377443692,2.8026931213,-1466.6066542525,-0.0286886756,-0.1825269602,0.4351084191,-0.3078661514,1.5295917241,3.0734702476,3.6239008511,-0.3279060265,-0.6753505886,-0.4389725354,-0.7537794237,-1178.1061102909,0.3743743497,-0.0285079528,634.3961509319,-0.0075961491,6.838902122,-815.1363933237,-171.2174578832,-1.0025890149,-10.6674309059,-0.680853264,-0.4781401769,0.1714240087,-1.1036487157,1.5815820385,1310.9740507704,2.5241802718,-1534.2884150134,-1.1367483535,489.5458982905,-5.653298005,55.3700209062,0.9726929978,-0.479686759,238.2951500534,-0.3515217544,-285.4563519749,83.5801478024,-26.4907663848,-69.9907766567,-1.3002400227,-273.5871176148,-0.8226568337,-2.1843573491,-0.623835748,-0.6615134344,-2.4623130995,2.8258189251,0.9440929113,-139.2234843023,-1.7622705351,-0.6221828616,0.5532988042,-1.0264392329,1.6801381441,1.3554931178,2.5205056402,-0.1638528069,-0.3678541166,-0.3643724017,-2892.1272044414,-772.3064557944,0.547369564,-0.1636540221,2052.3075187582,-0.3919880239,8.661104197,-844.9940176066,-106.4252264437,-1.8153251632,-18.0197137587,-1.2477487853,20.9537802635,0.1612794,-1.1260352943,4.3370202492,1452.7660503184,5.3868614713,-4321.5719589414,-1.165551464,226.1270769947,12.6897660704,142.7533930422,6.1310523068,-0.5101634161,2115.3648121343,-0.2641661762,-103.9372246227,207.3484728519,-118.2696783044,20.150368919,-0.8758647862,-328.268476554,-0.7162509667,-2.5373646494,-0.8653554081,-0.5441064619,-0.8853299929,0.8158174325,1.8961426574,-1479.848653576,-1.9550006937,-0.5053472122,0.313009309,-0.8561415544,1.9253057803,1.5383167499,2.3110906163,-0.9226606614,-0.2696496682,-56.0431952663,-3229.5269003409,-2464.5626921559,0.6278927458,-0.2993115762,1793.1555567484,-0.212293629,6.7057294714,-531.3966970351,-745.7840216881,1.0584545511,-25.3136767731,-0.8503059201,-15.301918226,0.3060224307,-0.8545018735,1.5395191968,1469.4588654258,3.3102540837,-1026.5430441376,-1.4484052047,266.6399235269,-6.9956435994,58.8589035697,1.8065598182,-0.3667158874,281.3063290793,-0.2752243312,-110.2536184541,186.8887732472,-3.6344106156,-49.3812226993,-0.469017974,-24.0689480599,-0.7047028092,-0.46000053,-0.8348553316,-0.5829466416,-1.4376313204,-0.5913254881,-0.2925827551,-1188.8632661504,-1.5295126323,-0.2025230309,0.4630392709,1.3082079961,1.92682641,2.7724625812,3.0044569352,-0.7662506864,-0.6008759669,-0.7289664734,-772.3653571255,-1001.1715678656,0.4987656447,-0.1005647448,2273.3783672228,0.4216801857,6.1196659471,-599.3748479912,-287.5203626917,-0.6291773888,-15.7390445953,-0.9436343763,-0.1747424154,0.4102644843,-1.0564260973,1.4551544724,1382.3194401227,0.4843356725,-1991.7852438541,-1.4213098012,510.2578278171,1.7017103546,45.6706428738,1.1754008633,-0.6724755706,116.4035042686,-0.2206177439,-298.7221979684,208.115444067,-7.2294456482,-89.4216384175,-0.7883422498,-81.3925329143,-0.6114140634,1.1488491246,-0.5941133233,-0.6087344232,-0.8101836088,0.0547517698,0.0790032681,-1470.853515091,-0.6805963596,-0.2512355657,0.3828812209,-0.5163634707,2.5777922906,56.2231261355,2.1891635704,-1.0139982945,-0.6414650078,-92.8878644343,-1615.6982082878,-637.7911243633,0.0913464489,-0.5808408642,1612.0825351388,-0.0200871376,5.8516601279,-412.8307286198,-260.7216915734,-3.7309217481,0.2856539754,-0.8096231011,-557.7146169106,0.4954182442,-0.8607367043,2.1736752286,1363.4925750341,3.0750413784,-197.0356888984,-0.685286695,20.2218836302,14.284760742,84.6852542058,0.451318666,-0.5359511435,61.0350588067,-0.5494634604,-1.6946294622,113.8308355149,0.7590473864,-40.2727009687,-0.3870661439,-248.2256523257,-0.9891850938,-1.8035227658,-1.1573682815,-0.6470655563,-0.8900937402,1.0781961853,2.8571149654,-1402.0768464067,-1.2731637777,0.0300595083,0.468240669,-0.6242877528,2.3626083531,36.4103941156,1.8585342111,-0.198765675,-0.6257373327,-43.846612159,-3.1677694263,-1785.4035000963,-0.168690936,-0.6167895472,2145.7226490066,0.2753551187,6.4741528168,-857.2822698823,-258.7147548837,-3.4861195508,5.212350262,-0.4062284149,-474.0109326917,0.4787617088,-0.7793110127,2.8903225786,1485.1401087306,4.1741445198,-184.1829752044,-0.8980662454,431.1494959096,304.8013366489,107.4042119846,1.0523504521,-0.5769054332,80.6487257376,-0.5649767127,-366.8372051481,26.2791548477,1.1301369144,-49.9871702188,-1.1164458278,-537.5355678721,-0.724886005,-4.1422745899,-1.0840727848,-0.5674348784,-0.8144696469,0.9894093166,3.1317795348,-1320.4038997607,-0.4600969569,-0.5030289523,0.4996173165,-0.8413041341,2.4885153372,109.5381015968,0.7513459382,-0.6207039393,-0.7268649975,-0.2954137144,-1020.7815391596,-663.1503244557,-0.2010492654,-0.6163992004,2110.9553436846,-0.6743818249,5.7848692306,-500.2871778111,-17.4558770398,-3.2102341326,-0.6063194735,-0.5537967581,-624.411148379,0.3288905205,-0.688756235,3.0487009869,1570.640974473,4.1395656466,-2.0474118851,-0.4812731702,86.373971166,-3.2581616082,97.1653469516,0.6569152527,-0.5204510809,-97.5490940437,-0.4116872172,-28.059166001,25.3739657811,-206.2308948995,30.8079895434,-0.2603896484,-800.6014689689,-0.6992928205,-2.40162562,-0.5375808891,-0.6893346598,-1.2261929098,1.0894045658,2.1973815525,-1452.8567955323,-1.5927652007,-0.3417394114,0.1417894732,-1.0354634498,2.3250978037,91.6436801773,2.4753248101,-0.734879223,-0.2039266368,-4.4088726676,-1.1322735998,-663.5903397304,0.3157436433,-0.1403622882,1462.6652285173,-0.6145157229,6.7323324358,-500.507841216,-397.2338875163,-2.4246965959,-13.1637324843,-0.9624852573,19.5108629793,0.4391797542,-0.6702717814,2.4246766815,1288.9458828954,4.0572334196,-830.1153995256,-0.2266957741,1190.0286364152,22.4661618428,88.6062680341,0.6118882959,-0.4532878269,-1655.1670576923,-0.4672609838,-946.9845208196,223.1475555539,-23.9756916252,-8.8802536292,-1.0723636086,-449.9960428803,-0.6965043268,0.191640232,-0.8957056039,-0.7830532591,-1.4488507035,1.3523353725,2.7255163616,-1519.2785919418,-0.9069574804,-0.0777665119,0.2610882717,-0.61728842,2.1478299803,61.0518418754,1.2124885502,-0.528755404,-0.0011092935,-2.2879739823,-2942.5639831789,-1630.9368565055,0.0413980388,-0.5316595227,1664.9369778465,0.0235751126,7.5629895878,-717.9140746453,-256.250931485,-4.1942076115,-37.1247363035,-0.6759296263,-528.7206316016,0.2468853109,-0.7390598432,2.9818390147,1634.509198228,4.3210838186,-549.7863647595,-1.1058589185,636.4094475227,138.3047719851,116.7157189046,0.5392877839,-0.3651818639,-933.0060441773,-0.7522260481,-521.4163371514,64.086077316,-24.9808437065,-21.4473523675,-0.7556645881,-705.0804533076,-0.7368150067,-0.0880249991,-0.6962219971,-0.6624874059,-0.5775566892,-0.4479918884,2.3667810992,-1482.9123477467,-0.9139415916,-0.0775948949,0.2774814253,-0.9875266205,1.317079029,208.0056660071,1.1929783422,-0.4137106982,-0.4551055251,-42.3194568176,-25.6991388007,-1009.1093488022,-0.0252930112,-0.2080800041,1529.5524119294,-0.0324182521,6.2892052136,-594.9135662925,-93.5601845097,-3.1772631833,-50.5550503792,-0.4868215148,4.9461807835,0.2790101749,-0.5967179377,2.149954503,1624.9272777229,3.4386804973,-1524.3970031363,-0.7544144899,3.7489720286,4.1790503338,92.4090942702,0.638223832,-0.3453821098,-1697.0654274183,-0.5416873605,0.766877087,223.0247503935,-233.2049109692,-56.6507608099,-1.5339039152,-87.7985397792,-0.7816398703,-3.5898383798,-0.8154815539,-0.6218508835,-2.1548261778,1.8184297281,3.5372343913,-1481.7981778398,-0.6907149941,-0.1921831656,0.2365658122,-0.9521533981,1.8558382187,10.5341648776,6.3983305672,-0.5941450972,-0.0840517425,-0.2969137734,-9.1391563289,-1621.3616432232,0.1235141858,-0.8565687031,2557.6277993031,-0.3000683782,7.3108899303,-442.0958298682,-29.8513730197,-3.9539387127,-6.7056107969,-0.7957436473,-197.1157946422,0.2098355129,-0.6189014842,3.6190755757,1312.588571512,4.7952829135,-1391.7809075726,-0.3139989095,679.0166330961,13.6498036474,135.9928355327,-0.1131433536,-0.3688658696,249.7379354638,-0.7805497152,-464.2473238759,1.9521606376,-70.8545712128,-32.8421930592,-0.3121002594,-500.6277762278,-0.7167728605,-2.0728667656,-0.7920182273,-0.6052781281,-1.077769528,1.060125497,2.3161355645,-1738.3666676178,-0.8862232583,-0.1795980704,0.166307819,-0.9462850256,1.6667215074,71.4113156536,0.844137505,-0.2204948872,-0.1664392246,-0.7372976819,-814.2636814284,-637.3209071253,0.1648823084,-0.7925824335,1592.2871840168,0.0794611739,5.6355248505,-734.1333800754,-212.8504403973,-4.0480378175,-68.5230316815,-1.2120811763,-265.9590815344,0.2750138743,-0.5604662188,2.3764101196,1309.2041907796,3.7892410592,-1301.2376444604,-0.4779526991,86.0784224772,4.1504318398,108.176090468,1.2364679181,-0.4745828825,178.8696696291,-0.6975409561,-24.7139344768,14.7271847623,-70.3494812541,-15.0234371535,-0.8394068397,-33.771919542,-0.5886701016,-4.8813429379,-0.5877650362,-0.7185154289,-0.7022432951,0.4680413578,5.8866872435,-1734.8988528793,-0.6563290181,-0.0750847163,0.1291337651,-0.779084819,1.5805158955,61.400805545,0.8954003383
   -0.2769710265,-0.2478254854,-0.2118140397,-53.791336268,-381.2684517762,0.009405395,-0.4882515656,514.9227117369,-0.2599227878,4.8936555563,-498.9884315979,-6.8060260728,-1.2820477378,-1038.1999377446,-0.8712932289,-18.4244635448,0.2795833976,-0.6354529535,1.8102039146,1014.7447054801,1.1122293046,-185.10984816,0.0072988484,96.1158723018,4.9560392352,66.566916285,0.7808852311,-0.1868770721,-1960.2404119369,-0.808489876,-44.0097008139,231.3095105514,-232.9655774483,-33.0122296511,-1.5126886818,-826.1558972046,-0.5789015853,-0.7463975052,-0.8815215862,-0.8153326587,-0.7000256062,0.040147082,2.2549628572,-1770.5641665552,-0.4896190029,-0.4320606143,0.1300703876,0.0909258014,1.6467149582,174.896400953,0.7779724114,-0.5291760587,-0.2531711548,-0.586176805,-0.9357198523,-363.9139797709,0.2123436166,-0.68129202,1645.9263490248,0.0571625565,5.1413797594,-598.0634504726,-7.4642898581,-2.3361618896,-62.4925051366,-0.6563629531,-0.8520825678,0.2551100013,-0.8005818586,1.8626941091,932.0069030846,1.7450657127,-902.4349858423,-0.471357098,290.9962347168,-2.6428650418,67.8997538139,0.4325968539,-0.353205532,-1324.7002206465,-0.8191340286,-132.7312626643,198.9649217516,-673.725846759,-36.7451064342,-0.5371796501,-394.7288366375,-0.3867215257,-4.6189810507,-0.992551798,-0.8561869841,-1.0757618257,0.4040306143,3.6805575708,-1789.3547201899,-1.343164073,-0.3403638253,0.1638453754,-0.7441602866,1.4224343023,175.4455856911,1.002956987,-0.4400402086,-0.1706890351,-1.5268477937,-587.4236355018,-2278.5471726751,-0.2857139323,-0.6955568765,1160.5315994788,0.5578701617,4.6765709896,-672.7005496823,-285.4005459759,-5.3031574749,-574.7608134506,-0.5522885997,30.8800721156,0.3700069683,-0.6921261631,1.7097520137,1008.5397464604,2.3794939505,-872.7989566694,0.6065696422,49.5615419369,24.954328807,88.6424050105,0.6698117339,-0.2681481401,-2102.4766268783,-0.832470083,-10.4493406759,81.0115394843,-596.1569532522,23.0974517834,-0.8178106931,-100.5921837799,-0.3008904793,-1.7937937151,-0.7732362963,-0.8238607014,-1.1334943642,0.9678105954,2.7984193894,-1797.791322433,-0.7912027174,0.1862887144,-0.0332128887,-0.3488510921,1.779959064,175.2487859994,1.456347224,-1.0030734382,0.0223761233,-180.2471916208,-579.9607644003,-10.4803610728,-0.3695473126,-0.9524231744,303.8704706103,0.0453583361,5.8403283232,-846.9778767668,-29.5269060156,-4.4094098931,-204.4458507346,-1.2668929218,-255.9500640259,0.2390746949,-0.6514094288,2.6017556678,774.1235094112,3.0517740641,-405.5356944263,0.1744153009,324.9558876993,129.7241728816,98.1163788049,0.2223029676,-0.3160325552,-2183.8672517337,-0.8841925669,-284.1410505575,9.2913614444,-595.5957844353,9.1230006185,-0.2826891221,-410.023618032,-0.2320178551,-2.8129660297,-0.6251238559,-0.7410550519,-0.8539720824,1.3973760386,3.0952976161,-1847.6272117265,-0.8780391197,-0.1897844335,0.0047737868,-0.6432214742,1.6559770436,175.3261487112,3.4022502972,-0.2377068582,0.045147866,-98.2230127093,-1214.3628585163,-960.3841243081,-0.1613541767,-0.6857063956,173.8279245861,-0.7057512234,5.7900659501,-499.6200047935,-601.6449156859,-3.8045945102,-202.3694818287,-1.1700439139,-64.4869716089,0.0695273363,-0.5543814464,2.7875321453,1109.9089128186,1.512423874,-704.28187664,0.3434661678,1376.182859086,16.3790512362,88.7610159785,0.5482565554,-0.301352421,-2098.5349117079,-0.8589704884,-498.4247431875,68.5774456975,-554.3845062958,58.7266588279,-1.3134971008,-301.3607455046,-0.4412584965,-3.7795303805,-0.6233781736,-0.8548025177,-0.7526193904,1.2148663188,3.2687648056,-1750.6172329683,-0.9419870236,0.1729107991,-0.0512519589,-0.5557400972,1.4882544249,87.0260311998,3.8818510232,-0.6592409142,0.0787798128,-54.4716927129,-899.6515281048,-2269.8821005941,-0.2709738427,-0.8482177485,1027.69120035,-0.2609702318,5.3294801529,-571.800713104,-209.4595044537,-4.1861426448,-419.5669732122,-1.1012073341,14.6441580674,0.1893829488,-0.5303842789,2.8303697155,1063.3876701874,3.7303356376,-936.2065242891,0.2493283979,855.8558568425,16.7899504718,87.8245955933,0.7517674899,-0.3264522928,-624.0168231023,-1.0988351159,-783.5169076216,239.8598552681,-673.9346930802,55.7161131475,-1.0141213273,-668.080787367,-0.5857990466,-4.1274505986,-0.7570298507,-0.7923137804,-1.1222809395,1.0306484356,2.9629083954,-1843.3164092839,-0.5550167424,-0.184635381,-0.185330813,-0.6099817903,1.4551076237,153.009471606,2.0547220544,-0.9107561482,0.1964641657,-0.562439687,-1.9915111348,-3114.9473856838,-0.1738752697,-0.5532560131,920.5850510401,0.1706357483,4.1411528737,-297.4288036234,-4.449131173,-5.1031412371,-46.3350659619,-0.8761961515,-324.0139166885,0.2160717746,-0.3933010143,2.694966794,1346.8134503285,1.434015383,-733.7112228947,-0.0550952227,14.6560951387,4.8883563728,96.2366930412,0.819278008,-0.1148563002,-2199.1490633219,-0.6218550406,0.6022077339,1.691740116,-675.8942281281,33.2792447493,-0.8735896386,-221.9820695199,-0.6806916922,-3.0496044519,-1.0093352696,-0.85973379,-0.9733657959,1.4900200696,3.3752760386,-1838.2089539889,-0.5900067225,-0.0930957869,-0.08298919,-0.1739375545,1.6052244762,248.9942463287,0.8963307194,-0.7491959888,0.172546099,-0.6866969567,-58.2035707907,-3019.2387589567,-0.4473027913,-0.8188420569,1160.970672148,0.4076119412,5.5667383101,-416.4904809192,-3.5350296472,-6.1934355059,-20.5414587859,-0.6197837112,28.1150623512,0.2756768744,-0.5772323913,3.1690972057,1337.3036035995,2.624922611,-183.8143492793,-0.6815669165,233.2129273485,3.4503559208,123.5874643546,1.1575112627,-0.316005605,-978.6808745156,-0.623326966,-88.4659075113,93.7344270944,-675.7886358078,18.2532206493,-0.6144096706,-1089.5016680898,-0.4480408871,-1.6913429099,-0.972585199,-0.7664825518,-0.494409596,-0.2965063906,2.549616479,-1475.5280316824,-0.3739207344,-0.1225366996,-0.2623634929,-0.3475823868,1.0798224153,22.2373065161,1.0975776921,-0.1982228148,-0.0089605473,-8.8171952956,-2500.8542031956,-889.7434729594,-0.4187175798,-0.5197676826,120.2337735524,0.3064368121,0.9840022113,-499.1634338714,-0.0460499781,-5.2277559742,-0.3945279928,-0.4266433524,7.7193628473,0.0102603908,-0.6989216469,1.8342800048,1128.5028631671,0.9594033859,-959.5681253647,0.5048728834,7.128948571,-0.8706667161,94.7772592237,0.6414689732,0.00993533,-2927.4900352116,-0.5793586943,0.0912300372,17.9470673248,-674.2898936577,-51.9124873578,-1.4111881168,-978.1392404476,-0.3723062764,-4.4195590306,-0.9070739314,-0.7204971664,-0.4888432761,0.9691299018,2.424638063,-1756.9238215174,-0.4180030298,-0.0788138619,-0.2525127597,-0.2028967136,1.3958030615,173.0113451689,0.4965707611,-0.3349515979,0.2127176623,-3.3306649234,-1.2366120417,-311.0097084903,-0.5722568408,-1.0366251568,147.7214878188,0.2441650111,4.5654951584,-416.2128175349,-596.1122826412,-5.8906112596,-4.7267599578,-0.9260669436,-8.1841372916,-0.1969577231,-0.6695751103,2.3862570798,983.0366273697,2.1827451524,-56.5721276516,-0.2888567476,517.1209739094,21.3999668565,102.2362431176,1.0589403599,-0.348586769,-1505.092149351,-0.414273696,-401.3604455565,17.065919392,-595.1887361302,18.8013587611,-0.6254965662,-948.3786032701,-0.323516602,1.1206020538,-1.0381251182,-0.7271445484,-0.5986065709,-0.3869994108,1.2495128333,-1640.7183346512,-0.2897915314,-0.6020322424,-0.0601714688,-0.382601705,1.2925313582,72.8594521455,0.3467912712,-0.4131274521,0.4014314935,-86.6654005154,-378.3867239158,-240.2710450481,-0.2958264233,-0.744855924,21.6978210702,0.1807874883,3.2503718374,-347.4263509006,-182.8085910014,-5.7930298533,-0.5245823011,-0.6670831174,2.177151032,-0.0023641011,-0.6951460408,1.1372531466,603.4661487871,1.6769031809,-810.7836528479,0.7307103637,1213.0653990802,185.8868773375,76.002940008,0.5179698563,-0.244291952,-940.8353636798,-0.3299906251,-1159.5452703266,68.7913212726,-675.7288393885,-21.3864421075,-0.6985739184,-742.5011660011,-0.6308246954,-4.9927916281,-0.817645307,-0.6373783884,-0.6190706159,0.7565031514,2.5244189456,-1192.5124761159,-1.0578073026,-0.1508330253,0.0292522395,-0.1585486124,1.0609018875,60.5297329854,0.5840150154,-1.0381637898,0.3791483885,-28.4338188094,-1.7071893902,-35.3397600927,-0.4301678125,-0.6871086937,60.0813257534,0.0507510165,4.3692002964,-343.6660854969,-231.4441229384,-4.3220916671,-8.3394130411,-0.9189123091,-3.6853229204,-0.1380175113,-0.5870457371,2.1357975277,1024.8869609131,3.1078489569,-0.3280566661,-0.104704595,1151.4954484263,2.1687185236,73.2703818359,0.079460003,-0.3226346331,-680.0176682082,-0.680432379,-830.4068160671,69.2154698333,-819.1067775556,79.8376611662,-0.5644502926,-186.2264737533,-0.5423923446,-2.2809751616,-1.2232148895,-0.7379110389,-1.2159899354,1.2134222622,1.1201751079,-1519.3536823411,-1.0150075852,-0.2094676937,0.2081534303,-0.0977859826,1.4818784346,145.6698627712,1.4773218771,-0.5198844171,0.682485134,-0.5241513845,-22.1830477872,-304.991228133,-0.3175159751,-0.9114900899,505.2825117678,-0.0296429819,3.539685303,-32.7991328145,-81.1171555476,-4.9734299005,-10.8360843295,-0.849139891,-9.3085288171,-0.0295419645,-0.6790769184,2.3307536733,888.3850184049,3.5377338053,1.6534621665,-0.4133210346,648.6033694119,10.3003837332,97.670800242,0.3891321884,-0.4053230838,-684.2270084311,-0.480403288,-612.7417159866,116.6660951604,-0.5178176126,54.7572322801,-0.7387261798,-63.8374946373,-0.5679275628,-0.8739039855,-0.6691696417,-0.6992603658,-2.5978125118,2.9195280094,4.314518292,-1209.9836833784,-1.4215011263,-0.0279136658,0.0259848221,0.1574234716,1.1486446368,46.4835414321,0.8630967687,-0.5035431883,0.679238656,-0.7244037471,-0.5718074444,-1278.5856544367,-0.5396278393,-0.4462947605,793.7002061714,0.1973910066,4.7325224028,-254.6710372532,-4.6218259271,-7.8898351976,3.0068890902,-0.9513614983,2.835571221,-0.2269225501,-0.4492899281,4.3415890084,1101.9711733624,4.9739916789,3.0255287818,-0.0857489761,952.5542292361,6.6759068589,172.7552166384,0.5228867278,-0.3999452193,-471.23228297,-0.6424272834,-689.4744392915,167.0158517286,-71.3249521889,98.8210157775,-2.076258332,-163.5683035935,-0.716865214,-0.8610685218,-0.9060749625,-0.7374421249,-0.5799673275,0.209317806,2.0994278413,-1619.9145916714,-0.8539363894,-0.2010400305,0.1520145781,-0.1407841191,1.6159693732,39.0609226184,1.4279813491,-0.4724974488,0.2980783942,-1.7201796231,-337.6860948351,-230.2803267822,-0.3337873305,-0.8344982574,35.4572512749,0.1440635853,2.5598353061,-173.9412275951,-9.7784137212,-4.3392013414,-15.0447545766,-1.0194704731,-7.1776089302,-0.4577160135,-0.6657121723,1.668271386,536.1553966235,2.389616814,0.7475032561,0.0473221609,23.2858772612,2.3989430568,78.002803813,0.9195099287,-0.2108893969,-475.9288386582,-0.2388983482,-6.6631922869,322.1003863823,-674.9006192438,-28.8410956744,-0.5455651787,-36.8145746898,-0.6703737793,-5.0350706888,-0.8561706081,-0.6975847749,-0.6623862918,0.0072323031,-1.1939116198,-1531.0933418048,-1.3119659902,-0.0334445115,0.0721595102,-0.26136571,1.3550485776,30.1367355879,1.3446183933,-0.8142607002,0.9168691125,-32.6894480946,-71.0865559741,-311.6422337708,-0.2643247991,-0.6513211033,-847.3968253365,0.2697259838,1.3247327525,-1.0077572272,-8.8927623023,-3.6250500551,-136.5160200722,-1.2323686078,-66.5807195627,-0.2006730258,-0.6720277592,1.0175911978,546.4190514091,1.1150426849,-0.8931622245,0.7669247127,1034.7212281986,-15.4292389297,24.9842171457,0.4660885198,-0.3632688207,91.7617853007,-0.4924949296,-987.1503255859,6.4375737492,-347.4201449035,3.3935631881,-0.788787335,-22.3602640058,-0.5645833967,-2.2274761748,-0.8775047633,-0.8053788597,-0.5907233174,1.1811694851,2.299662548,-1793.7256236993,-1.5165431175,-0.0573132593,-0.0888384432,-0.0414512563,1.5735155445,10.8631072456,0.7607255696,-0.6100166226,0.9934332257,-84.3480669158,-534.523801345,-56.0858661552,-0.6515099008,-0.5440711071,-566.7404718277,0.5414170526,3.842517511,-1.5278541256,-26.2429451934,-5.6814747721,-158.5562060516,-0.724706764,6.1096353403,0.2168691394,-0.606416524,1.9403098159,1157.5825985087,2.9680131288,-11.3271123133,-0.7494324507,1062.2455160248,-1.5461924613,87.5148195891,1.0369608339,-0.4487058922,-413.629633936,-0.3554856874,-880.1993727339,0.3531657657,-17.6764873714,61.2004133712,-1.5392000207,-926.6384180356,-0.5259865495,-2.3047810111,-0.8908915706,-0.8441098771,-0.7052865408,1.0925118712,2.547097195,-1614.2024306594,-1.0756384707,0.0364315117,0.031436892,-0.1054213777,1.5223179053,106.0612900555,1.5960803677,-0.7756940408,0.5136928623,-580.7926180535,-153.7846288851,-174.8665338006,-0.6973653837,-0.8307413765,25.7054471465,0.1644228694,3.2031052452,-64.9424374268,-24.4802763654,-4.6713143292,-125.925725129,-1.0102488794,-72.5625183501,-0.356139035,-0.5847308485,2.1421759534,1067.0960985789,2.7774377062,1.4754004478,-0.1836939212,645.580402615,16.4091464063,46.7992941516,0.421665135,-0.202357662,-507.5677621119,-0.3310910509,-497.3753119049,23.4017041978,-680.3048829534,120.1003835728,-0.6744789149,-909.4501866726,-0.3391475939,-1.5551176064,-0.8046720628,-0.7538746376,-0.3804493661,1.0715407032,2.1729683364,-1573.6816498979,-1.2800803258,-0.3570657867,-0.235838471,0.0928291149,1.2082739727,25.4114857617,1.9538462963,-1.3084841067,0.7984354156,-70.7361707174,-344.5710657922,-160.0934723305,-1.3270210028,-0.6595333574,31.4597414851,0.4032836765,4.4401725348,-17.9570419167,-119.2327247969,-5.7247933416,-5.1400976674,-0.5407336123,-113.9848048005,-0.3585245588,-0.4945930944,2.0979030848,1035.0376739117,2.900940919,-518.8779111581,-0.2082612128,706.8159951317,2.135719502,69.3277515524,0.7301808104,-0.3233827942,-462.8068243192,-0.2573877055,-664.8751740159,1.4382474685,-679.047257029,124.4272607705,-0.3321281706,-302.2045861136,-0.3704824944,0.752281804,-0.9712909082,-0.585489524,-0.3465949517,0.1543289322,1.2295925032,-1433.4167447007,-0.6941850072,-0.2398209122,-0.3357433456,-0.0241828209,1.5369509801,27.0207077909,0.219348027,-0.8861578322,1.1170839383,-4.3210329317,19.1675155877,-2.5907446209,-0.8065979641,-0.5284480592,24.854438996,0.4444354741,1.6080294349,-415.5787440638,-9.1606404983,-6.3182354014,-12.4904087217,-0.6072638034,0.176328944,-0.2249097204,-0.4692915082,1.3496204321,648.6334502995,1.6517201039,0.7150224397,-0.1351539157,26.2122737318,-1.6052653809,60.5348761131,0.7475423227,0.004941507,-832.3697165336,-0.3199037502,-3.017855789,560.9217562992,-674.355118946,18.3310145668,-1.1538058689,-951.2612406136,-0.4767059411,0.2422995207,-0.79179236,-0.5402180588,-0.467457616,0.7041717152,2.0595581938,-1434.3787065479,-0.7392365399,-0.1384609483,-0.0676330945,0.0560686675,1.3044536812,31.8360757342,1.4233519135,-0.7806473007,0.7249870346,-7.9728212302,190.1369820547,-322.2340447015,-0.8265135676,-0.6151203394,22.5617544671,0.443275577,2.8846465009,-414.4378516412,-806.4211411689,-5.1758693739,12.5684617701,-0.8176208105,8.9640390856,-0.2536448856,-0.3628054283,1.8658165259,671.7716976497,1.3935804522,1.1633097903,-0.5227041483,235.0060009884,6.3167291795,60.2474565634,0.6834222826,-0.1074464608,-483.605456312,-0.5740399313,-107.1293371565,21.8612017376,-236.6682704924,67.5259330727,-1.4251811386,-20.0321745512,-0.5057561197,-5.194054495,-1.0536312294,-0.7460481004,-0.3773665741,1.6627552609,2.0714030993,-363.8695768921,-2.3061003866,-0.1234469628,-0.2856065058,0.0339795117,1.8273064774,110.7318299701,0.2635398045,-0.9198219528,0.583058004,-16.121292851,-90.1065799525,-112.869120469,-0.3155328114,-0.8856363879,-84.1209104594,0.2787454281,4.5105132821,-367.8944327738,-26.16705316,-8.6275269407,23.7234757146,-1.043249179,-6.5013651356,-0.3931569861,-0.2947401252,2.0997536522,857.0357001063,3.2534163565,-19.5881847476,-0.4449255485,57.0202623885,14.9852556182,108.0042704346,0.5852918801,-0.2073053671,-991.3153112242,-0.2716652462,-18.4935202722,5.967555325,-597.2654582886,118.1531348716,-0.8060640103,-241.5080673465,-0.4318435871,0.1695579492,-0.7603108056,-0.6337555587,-0.3818772925,0.4988731014,1.7011100276,-968.6129483324,-1.1698259803,-0.389082025,-0.2078889811,-0.0934829615,1.3823161693,13.2530262672,0.4229726138,-0.8381260089,0.5785795439,-63.7371799619,-217.4457565335,-175.6334364186,-0.7632532425,-0.4174128675,38.4934587114,0.5450907806,3.461054862,-51.0818990945,-209.4606545018,-4.5800887436,14.4379843919,-0.8156105801,45.4299839288,-0.4221137975,-0.3340220274,1.5214674862,1284.5441333152,2.3498556881,-4.9214003636,-0.3646753468,139.3799023828,4.9234309589,52.9243146546,0.8208677399,-0.0925552589,-1284.4176770256,-0.2843100512,-93.8620736591,44.7743210963,-359.6044032586,64.8629897191,-1.3062353836,-1583.1946616633,-0.4931276683,-2.3910804612,-1.0022282045,-0.5761418522,-0.1261250777,-0.1383760238,0.8835685658,-1375.2262691973,-1.1959284535,-0.3159623084,0.1225258765,-0.2844978945,1.4904916563,31.5444998399,0.8035305272,-0.7485060223,0.4421237183,-4.1389028631,-536.8366018952,-192.9629166716,-0.4466241031,-0.6116165386,25.5776711023,0.6796287998,3.3403554966,-1.2883686896,-59.5865660644,-3.77744114,7.0024141593,-0.8534321204,-250.8233925119,-0.3420740248,0.0280171654,0.658448463,791.3529166311,1.5009403132,-415.0714078005,-0.6339200234,226.9787891618,16.932796291,33.7634758612,1.5899385242,-0.0183792263,-738.0415743891,-0.3595233965,-96.5227254428,2.2317406957,-149.3992923635,-28.9779918323,-1.307254853,-775.4685212189,-0.6083408644,-1.7540244985,-2.4256713659,-1.8231319707,-2.3390502374,4.5673494917,7.2552165469,-1380.8272927261,-1.0168793172,-0.1681829497,-0.1194936363,-0.0373985151,1.4402093281,1.2716772558,2.1423349988,-0.7440653948,0.5786568927,-33.7527959865,-1622.360654546,1629.8957014941,-0.9544815856,-0.5551255624,-24.4472651857,0.6489032192,11.9103591598,-3.7777791475,1.8955711442,-13.3940811187,34.037537615,-0.3091807519,-30.1526162363,-0.4610389824,-0.3402254042,6.9734420567,1272.4441499267,6.5671268433,-688.3886707205,-0.4126040272,14.7493897405,43.8915994759,317.4070449663,0.3417664437,-0.1888885441,-1085.6357022735,-0.4335008155,4.6477674437,161.0207507995,-234.9290368446,50.4339047101,-1.7696797495,-39.1517108212,-0.5589482169,0.3967940415,-1.3170201085,-1.244791674,-0.6161687608,1.9089362352,2.9446297705,-794.7842584783,-0.7197416453,-0.4972983946,-0.1838112388,-0.2252416733,1.8798971793,13.5894258333,0.7321438076,-0.6138234232,0.833600649,-127.8298184419,-71.3638758452,469.9409650405,-0.7499684863,-1.0159097997,-213.245217824,0.8248500465,6.142508707,0.7245402475,-21.7096355557,-9.1911629437,58.1397491299,-0.9738645319,14.6713957224,-0.4749437867,-0.3264077159,3.4850120376,1397.2486377409,3.3516169836,-1528.2762751289,-0.0307365037,22.9559769635,47.2409404632,158.4627694593,0.6222015184,0.1082909661,-356.2674524909,-0.495563612,0.1044492878,3.0088820727,-234.954845039,116.6479510562,-1.3891115546,-1282.8367106538,-0.4038612005,-10.4432496674,-0.8468715101,-0.8998555638,-0.1977768718,-0.1235884077,2.8902506964,-913.6183654368,-1.077584358,0.0686386339,-0.2494837591,-0.7593755106,0.7083948928,4.1356599836,0.6624858836,-0.9580831236,0.174427488,-0.6740824158,-1151.443442886,-62.9777963781,-1.4735819648,-1.1154997605,-522.1188427359,0.2358821092,7.6654594224,-3.3848376182,-244.7489798366,-9.4264884245,13.8560819955,-0.5365918311,-3.203807891,-0.5793297704,-1.1976554986,2.7441117871,1497.9610132064,1.0232496436,-1373.9980607487,-0.3825631778,5.4317320478,13.5460333472,154.7094701177,0.6609964556,-1.0649070388,531.4682580249,-0.5947188208,2.0587014471,2.6498083876,-26.0486855251,0.1371434996,-1.3756598537,-1194.3614513642,-0.457625038,0.0219775702,-0.9544964399,-0.6473063761,-0.2495174164,0.6819670907,1.981075529,-1047.8294215049,-1.2258179715,-0.1638284442,-0.1449144086,-0.006594383,0.9030433944,0.027088845,2.0396307511,-0.9660599418,0.3110887344,-0.1508266113,-233.8528901441,17.1352109418,-0.9625070138,-0.5747202811,-466.8205348223,1.0455549529,4.0110414521,-0.5367496024,-182.0327578302,-7.537649496,292.4401092971,-0.4817986499,34.8117499951,-0.3434058025,-0.3932212271,1.715996856,1031.9154735179,2.1481735853,-684.9526433619,-0.4219942883,8.9053244896,5.2453426968,98.6567099613,0.8008778757,-0.1478820802,53.4630501322,-0.3378155963,0.2997666958,-0.9467720418,-17.4109598574,-20.2432440777,-1.4126598652,-1851.372010267,-0.6552309336,-0.8382996469,-0.9847292531,-0.6234597641,-0.4443365326,0.5136309928,2.0460859328,-860.2422688613,-0.7733549312,-0.2270500564,-0.1367677519,-0.1408499643,1.2408201581,10.9454986522,0.3049933631,-0.4330297144,0.5774447531,-70.8718684481,-97.8279574416,-140.2813982135,-0.5800774545,-0.6831416589,-219.3595099631,0.7541634278,4.5472332536,-0.236756153,0.0774241802,-5.1124992176,4.8884404828,-0.6211005505,24.8591642851,-0.5493486271,-0.3925870406,1.6716949495,1257.7247661037,2.1332882391,-1082.3834615534,-0.7559445015,128.0921278835,1.531135225,65.3961319573,0.3251523712,0.0348806908,-684.0816643847,-0.391892429,-47.1746209651,0.2942460452,-598.3635741596,35.7220961091,-1.3634995753,-1104.3165854381,-0.5172763806,-2.1221224753,-1.0337199311,-0.6385039657,-0.2340229245,0.2163843524,1.6942099105,-816.6560248835,-0.8803036091,-0.128368661,-0.085590711,0.1522046359,1.4507182334,7.3872695248,1.2225150622,-0.8259122783,0.5537295793,-3.7770166529,-2113.6160345587,80.5945548398,-0.9867930631,-0.7607362828,7.7856936195,0.5575276033,2.3929436344,-0.3124668132,-61.4726436463,-5.4247651347,1.4657613557,-0.7433010087,-16.7526694567,-0.4779857069,-0.2371790742,1.5231527795,1074.3216995063,0.0017471693,2.5551499617,-0.4350271629,13.0627372752,2.5921408947,43.0534176933,0.2304995262,-0.0415360609,-1390.7676654712,-0.224869191,-0.6099736314,54.0643475679,-207.8171038744,-12.4676068478,-1.1990927228,-4.505318705,-0.3603325985,-4.540001749,-0.930735644,-0.606290456,-0.3456119218,0.1165783649,1.5077546316,-858.7140791417,-0.8184817543,-0.3804412248,0.1586763334,-0.0549999812,1.164271566,26.2163229137,0.1850726519,-1.4412949079,0.5731305977,-70.5732281852,-1259.3444249363,-32.9748972418,-0.799379274,-0.6802907199,62.150186065,0.7048541822,3.2879056862,-1.0675344945,-63.2581229784,-5.3257587577,2.4206516025,-0.7969847657,0.3183946148,-0.5118620491,-0.3435159828,1.3896172823,1025.6468101393,0.5911447555,-584.6782929105,-0.4010488565,9.4677137399,1.3900311808,57.601954506,0.4933459846,0.028111901,-1287.1199361941,-0.3220086788,-0.3993833263,54.8801815407,-596.8346317151,-12.4581163245,-0.7171015457,-47.9817594919,-0.2969745623,-0.7581051846,-0.7389412675,-0.6624744478,0.0298030816,-0.6641085696,0.6469745702,-805.0074870215,-0.6912302741,-0.4469966621,-0.2153444539,0.1104531955,1.4860562137,0.7583146517,0.2446592503,-0.7467352771,0.7565122669,-12.5622138966,-8.8148008431,-312.3843711128,-0.7075146122,-0.3966774943,51.8720004141,0.770703837,2.1949327318,-24.8381726584,-3.1948342941,-5.0180285635,28.5449803054,-0.7053327234,-11.2819608892,-0.3723831153,-0.1437559285,0.6005706604,918.7336774036,0.7973021401,-515.9997339776,-0.6241402255,3.9086040092,0.2504716996,37.2852284026,0.1976774297,0.0588602581,160.7326732288,-0.2312621953,-0.5938692856,7.7836826494,-208.3979000831,-80.2997139641,-1.8551069133,-3.6014102683,-0.421643441,-1.9579205595,-0.7580053005,-0.6558891877,-0.1175298637,-0.0984698042,1.1541888144,-812.0631725894,-0.8029000267,-0.2202245552,0.0087416345,0.2109256384,0.9395034886,10.8910597675,0.2967095087,-1.5444098068,0.4503102228,-0.6626321963,-32.874628112,-241.76079444,-1.0813657939,-0.477014788,11.5182231255,0.7408453406,3.5478923546,-25.7770074311,-15.0749441283,-4.8979686773,35.9919473751,-0.4822916494,-30.5969127417,-0.3884578935,-0.2675184437,1.1622075494,302.5479118985,1.2628497138,-1205.7746355227,-0.3579392801,47.1433293605,0.8608561189,44.8075110062,0.3128371882,0.0683878011,-1503.8438926177,-0.5525724289,-14.7917238923,5.8859861537,-209.0853021375,14.9964449104,-1.0090631949,-194.0447691415,-0.218093537,-4.8588883172,-0.8708778168,-0.3814981664,-0.3503112731,0.3668370669,1.4706923516,-1317.1537921332,-0.8656630601,-0.2069689516,0.1183790457,-0.2496425386,0.8785967028,31.6928964731,0.726637209,-0.6713751424,0.5669781603,-9.6606698054,-273.5112027492,100.9074451402,-1.3380186003,-0.7071402775,10.0025075368,1.1478036181,3.7937906102,-6.8060948423,-584.0649913147,-5.8810243254,288.565029952,-0.5414836788,-2.303571448,-0.6349046547,-0.3721439444,1.5169466881,1008.5893271869,1.7732575631,-1506.2344972713,-0.6409973974,3.9744748287,1.4088286954,68.7058781616,0.3663130075,0.2358327356,-1294.9455136297,-0.4808615465,0.033908739,54.9469356818,-25.6373193209,-24.5310461432,-1.6601209656,-1323.5136215709,-0.515299467,-1.356673137,-1.0402433298,-0.5704204111,-0.3495130467,0.2427541594,1.3295989724,-346.8340337618,-1.0082197468,-0.0291753077,0.1215113069,-0.0073274472,0.8739615054,11.14038125,0.6914566769,-0.7875231995,0.4881989156,-24.6295192048,-189.8927581509,-15.1294770461,-0.8224312927,-0.7509937242,35.0607331793,0.9629325421,4.2211745747,-2.717173704,-162.9302792664,-5.6462902156,12.7875215051,-0.6347904122,-49.229837973,-0.6473888568,-0.2923495142,1.4384445244,1009.9908482318,1.8479899133,-971.920380855,-0.5134491711,415.0359120209,1.7236892444,54.9200893328,0.1998748723,0.1423356241,-2234.3247869685,-0.5364555234,-307.2309232947,-7.8340181916,-25.5557537568,73.567853698,-1.6011090345,-1854.7353390599,-0.4228229864,-2.6583485919,-0.916578709,-0.7873348367,-0.0946094214,3.4405559467,4.0467276999,-120.7615530385,-0.7377839883,-0.1430752638,-0.1618911528,-0.201982637,0.7719961645,15.6216610904,5.9091422714,-0.9583585388,0.4145313471,-5.9943021124,-5.8653870734,853.7233014932,-1.199602673,-1.5772023328,13.5743293218,0.2554138757,7.331933683,0.3412934815,-18.946387582,-9.3314259818,0.8740779101,-0.7889093383,21.2190535757,-0.7985244025,-0.9525328441,4.0691173115,1232.6246705262,2.5321066793,-476.7770260646,-0.3377138559,117.9071050937,7.3832619825,139.1306736689,-1.1058796299,0.2510575154,-2633.5794630642,-0.749381451,-62.184766329,2.7142114511,-264.6621654854,221.6940435423,-1.2442084309,-1260.4360874403,-0.4763972239,-1.31443749,-1.0615579773,-0.5592909126,-0.2304101933,3.7213469961,3.0454428241,-700.2203731818,-1.3891413209,-0.1060278142,-0.1063371661,0.1226732504,0.7193437,3.7574539959,0.8001058967,-1.0668588978,0.2588419147,-27.5215804542,-16.9537617486,1735.0636744978,-1.0832434922,-0.6982349478,33.4354183803,1.06923542,6.5194250209,-10.6743751312,-19.8970352111,-19.3787735876,45.4039153411,-0.4714825527,-13.8510041071,-0.8241263295,-0.4849551395,3.12165489,1343.2957478659,3.8147079808,-843.0528375595,-0.5497347526,36.6678195034,35.3512621407,198.1722896876,0.8059127288,0.0771457611,-5502.4008679859,-0.6962567119,-0.4232465855,-1.3689279183,-22.8265961324,177.645025031,-1.7016550806,-407.2621285925,-0.064302781,-0.5778010388,-0.9821597912,-1.0449739018,-0.096886085,1.650670617,2.8930805936,-276.2032350631,-1.134556234,0.0250985009,-0.1208840892,-0.0505787352,0.3948635001,26.5237975533,0.3358755998,-1.1413588626,0.250914046,-0.0231782622,-3.8784954222,385.193968133,-1.1244329396,-0.4078205611,-651.5483956852,0.9092929117,3.8412140613,-25.6898427023,-57.4270291415,-6.30461175,346.4271203863,-0.6061584074,-22.1325848192,-0.731818541,-0.3942339874,2.4004040655,1374.8176203509,2.8607362531,0.4758891418,-0.7267020232,28.4288057082,5.7791272524,83.5364968161,0.5688653686,0.0034337241,-1912.0921290642,-0.6548619514,-4.0845870862,-1.3554726912,-9.3709411691,120.1053007342,-1.7921036447,-0.2153869636,-0.2857011482,-0.7949505994,-1.0443675895,-0.4759570088,-0.1904589896,0.0863912172,1.2825435176,-17.8540327263,-1.2083899474,0.2629505804,-0.0913312223,0.1761280693,0.5196999238,3.9092806958,0.2571765072,-0.8635600464,0.5177105495,-10.3547307746,1.8821188582,100.502208785,-0.8647033905,-0.5131973676,6.5915195788,0.773723843,2.7893501668,-5.7743994705,-541.9359114432,-4.5512181057,390.3279593358,-0.4172392982,-28.2318118205,-0.7702492699,-0.3073789258,0.8929552368,488.9725509236,1.4875934189,12.1543947131,-0.5725684184,53.7609583839,1.5506534861,35.7780037279,0.7146052533,-0.0288437241,-748.331780227,-0.2068250892,-17.3601217351,5.7676362363,-174.1428746123,1.9019367172,-2.1311360213,-1359.4689158941,-0.5737253187,0.0475596724,-1.0004740703,-0.2933760934,-0.1126594897,-0.9733747036,0.2927970046,-40.4592255484,-0.7347153139,0.4456980062,-0.2198636613,0.312833517,0.6625967511,26.3903856339,-0.1081535412,-0.9681598441,0.667560266,-204.666224769,1.1684120704,-381.8998168798,-0.9840518779,-0.5477288584,6.8381702793,0.6912204365,0.5770888236,-26.3968224322,-421.4528228668,-4.46529582,12.9541161741,-0.5552166619,-32.9395109134,-0.7910130414,-0.2531174734,-0.2040136701,-730.7680778757,0.2208976888,24.4198741374,-0.4824836103,2.955960778,-16.1877576577,-18.983563013,0.7441797239,-0.0900448146,-1325.2243099461,0.3540375458,-0.9593589947,29.0416164385,-64.7176685577,-116.2647588934,-1.7708049553,-324.3214573409,-0.1319023425,-0.0021373977,-1.1018522687,-0.7183812817,-0.2543748893,-0.279639937,0.4415771345,-45.0190465276,-0.8513933752,0.2290176657,-0.1880347129,0.0805578113,0.6628345558,20.5490397463,0.2494481126,-0.5936076309,0.6640437047,-2.8651586538,3.6769532006,-252.2740627917,-1.0966209064,-0.5040996196,-997.5843462481
