encog,BasicNetwork,java,3.1.0,1,1400091948625
[BASIC]
[BASIC:PARAMS]
[BASIC:NETWORK]
beginTraining=0
connectionLimit=0
contextTargetOffset=0,0,0
contextTargetSize=0,0,0
endTraining=2
hasContext=f
inputCount=2124
layerCounts=585,51,2124
layerFeedCounts=584,50,2124
layerContextCount=0,0,0
layerIndex=0,585,636
output=##0
##double#2760
   0,0,0,0,0,0,0,0,0,0,0,0,0,0,0,0,0,0,0,0,0,0,0,0,0,0,0,0,0,0,0,0,0,0,0,0,0,0,0,0,0,0,0,0,0,0,0,0,0,0,0,0,0,0,0,0,0,0,0,0,0,0,0,0,0,0,0,0,0,0,0,0,0,0,0,0,0,0,0,0,0,0,0,0,0,0,0,0,0,0,0,0,0,0,0,0,0,0,0,0,0,0,0,0,0,0,0,0,0,0,0,0,0,0,0,0,0,0,0,0,0,0,0,0,0,0,0,0,0,0,0,0,0,0,0,0,0,0,0,0,0,0,0,0,0,0,0,0,0,0,0,0,0,0,0,0,0,0,0,0,0,0,0,0,0,0,0,0,0,0,0,0,0,0,0,0,0,0,0,0,0,0,0,0,0,0,0,0,0,0,0,0,0,0,0,0,0,0,0,0,0,0,0,0,0,0,0,0,0,0,0,0,0,0,0,0,0,0,0,0,0,0,0,0,0,0,0,0,0,0,0,0,0,0,0,0,0,0,0,0,0,0,0,0,0,0,0,0,0,0,0,0,0,0,0,0,0,0,0,0,0,0,0,0,0,0,0,0,0,0,0,0,0,0,0,0,0,0,0,0,0,0,0,0,0,0,0,0,0,0,0,0,0,0,0,0,0,0,0,0,0,0,0,0,0,0,0,0,0,0,0,0,0,0,0,0,0,0,0,0,0,0,0,0,0,0,0,0,0,0,0,0,0,0,0,0,0,0,0,0,0,0,0,0,0,0,0,0,0,0,0,0,0,0,0,0,0,0,0,0,0,0,0,0,0,0,0,0,0,0,0,0,0,0,0,0,0,0,0,0,0,0,0,0,0,0,0,0,0,0,0,0,0,0,0,0,0,0,0,0,0,0,0,0,0,0,0,0,0,0,0,0,0,0,0,0,0,0,0,0,0,0,0,0,0,0,0,0,0,0,0,0,0,0,0,0,0,0,0,0,0,0,0,0,0,0,0,0,0,0,0,0,0,0,0,0,0,0,0,0,0,0,0,0,0,0,0,0,0,0,0,0,0,0,0,0,0,0,0,0,0,0,0,0,0,0,0,0,0,0,0,0,0,0,0,0,0,0,0,0,0,0,0,0,0,0,0,0,0,0,0,0,0,0,0,0,0,0,0,0,0,0,0,0,0,0,0,0,0,0,0,0,0,0,0,0,0,0,0,0,0,0,0,0,0,0,0,0,0,0,0,0,0,0,0,0,0,0,0,0,0,0,0,0,0,0,0,0,0,0,0,0,0,0,0,0,0,0,0,0,0,0,0,0,1,0,0,0,0,0,0,0,0,0,0,0,0,0,0,0,0,0,0,0,0,0,0,0,0,0,0,0,0,0,0,0,0,0,0,0,0,0,0,0,0,0,0,0,0,0,0,0,0,0,0,1,0,0,0,0,0,0,0,0,0,0,0,0,0,0,0,0,0,0,0,0,0,0,0,0,0,0,0,0,0,0,0,0,0,0,0,0,0,0,0,0,0,0,0,0,0,0,0,0,0,0,0,0,0,0,0,0,0,0,0,0,0,0,0,0,0,0,0,0,0,0,0,0,0,0,0,0,0,0,0,0,0,0,0,0,0,0,0,0,0,0,0,0,0,0,0,0,0,0,0,0,0,0,0,0,0,0,0,0,0,0,0,0,0,0,0,0,0,0,0,0,0,0,0,0,0,0,0,0,0,0,0,0,0,0,0,0,0,0,0,0,0,0,0,0,0,0,0,0,0,0,0,0,0,0,0,0,0,0,0,0,0,0,0,0,0,0,0,0,0,0,0,0,0,0,0,0,0,0,0,0,0,0,0,0,0,0,0,0,0,0,0,0,0,0,0,0,0,0,0,0,0,0,0,0,0,0,0,0,0,0,0,0,0,0,0,0,0,0,0,0,0,0,0,0,0,0,0,0,0,0,0,0,0,0,0,0,0,0,0,0,0,0,0,0,0,0,0,0,0,0,0,0,0,0,0,0,0,0,0,0,0,0,0,0,0,0,0,0,0,0,0,0,0,0,0,0,0,0,0,0,0,0,0,0,0,0,0,0,0,0,0,0,0,0,0,0,0,0,0,0,0,0,0,0,0,0,0,0,0,0,0,0,0,0,0,0,0,0,0,0,0,0,0,0,0,0,0,0,0,0,0,0,0,0,0,0,0,0,0,0,0,0,0,0,0,0,0,0,0,0,0,0,0,0,0,0,0,0,0,0,0,0,0,0,0,0,0,0,0,0,0,0,0,0,0,0,0,0,0,0,0,0,0,0,0,0,0,0,0,0,0,0,0,0,0,0,0,0,0,0,0,0,0,0,0,0,0,0,0,0,0,0,0,0,0,0,0,0,0,0,0,0,0,0,0,0,0,0,0,0,0,0,0,0,0,0,0,0,0,0,0,0,0,0,0,0,0,0,0,0,0,0,0,0,0,0,0,0,0,0,0,0,0,0,0,0,0,0,0,0,0,0,0,0,0,0,0,0,0,0,0,0,0,0,0,0,0,0,0,0,0,0,0,0,0,0,0,0,0,0,0,0,0,0,0,0,0,0,0,0,0,0,0,0,0,0,0,0,0,0,0,0,0,0,0,0,0,0,0,0,0,0,0,0,0,0,0,0,0,0,0,0,0,0,0,0,0,0,0,0,0,0,0,0,0,0,0,0,0,0,0,0,0,0,0,0,0,0,0,0,0,0,0,0,0,0,0,0,0,0,0,0,0,0,0,0,0,0,0,0,0,0,0,0,0,0,0,0,0,0,0,0,0,0,0,0,0,0,0,0,0,0,0,0,0,0,0,0,0,0,0,0,0,0,0,0,0,0,0,0,0,0,0,0,0,0,0,0,0,0,0,0,0,0,0,0,0,0,0,0,0,0,0,0,0,0,0,0,0,0,0,0,0,0,0,0,0,0,0,0,0,0,0,0,0,0,0,0,0,0,0,0,0,0,0,0,0,0,0,0,0,0,0,0,0,0,0,0,0,0,0,0,0,0,0,0,0,0,0,0,0,0,0,0,0,0,0,0,0,0,0,0,0,0,0,0,0,0,0,0,0,0,0,0,0,0,0,0,0,0,0,0,0,0,0,0,0,0,0,0,0,0,0,0,0,0,0,0,0,0,0,0,0,0,0,0,0,0,0,0,0,0,0,0,0,0,0,0,0,0,0,0,0,0,0,0,0,0,0,0,0,0,0,0,0,0,0,0,0,0,0,0,0,0,0,0,0,0,0,0,0,0,0,0,0,0,0,0,0,0,0,0,0,0,0,0,0,0,0,0,0,0,0,0,0,0,0,0,0,0,0,0,0,0,0,0,0,0,0,0,0,0,0,0,0,0,0,0,0,0,0,0,0,0,0,0,0,0,0,0,0,0,0,0,0,0,0,0,0,0,0,0,0,0,0,0,0,0,0,0,0,0,0,0,0,0,0,0,0,0,0,0,0,0,0,0,0,0,0,0,0,0,0,0,0,0,0,0,0,0,0,0,0,0,0,0,0,0,0,0,0,0,0,0,0,0,0,0,0,0,0,0,0,0,0,0,0,0,0,0,0,0,0,0,0,0,0,0,0,0,0,0,0,0,0,0,0,0,0,0,0,0,0,0,0,0,0,0,0,0,0,0,0,0,0,0,0,0,0,0,0,0,0,0,0,0,0,0,0,0,0,0,0,0,0,0,0,0,0,0,0,0,0,0,0,0,0,0,0,0,0,0,0,0,0,0,0,0,0,0,0,0,0,0,0,0,0,0,0,0,0,0,0,0,0,0,0,0,0,0,0,0,0,0,0,0,0,0,0,0,0,0,0,0,0,0,0,0,0,0,0,0,0,0,0,0,0,0,0,0,0,0,0,0,0,0,0,0,0,0,0,0,0,0,0,0,0,0,0,0,0,0,0,0,0,0,0,0,0,0,0,0,0,0,0,0,0,0,0,0,0,0,0,0,0,0,0,0,0,0,0,0,0,0,0,0,0,0,0,0,0,0,0,0,0,0,0,0,0,0,0,0,0,0,0,0,0,0,0,0,0,0,0,0,0,0,0,0,0,0,0,0,0,0,0,0,0,0,0,0,0,0,0,0,0,0,0,0,0,0,0,0,0,0,0,0,0,0,0,0,0,0,0,0,0,0,0,0,0,0,0,0,0,0,0,0,0,0,0,0,0,0,0,0,0,0,0,0,0,0,0,0,0,0,0,0,0,0,0,0,0,0,0,0,0,0,0,0,0,0,0,0,0,0,0,0,0,0,0,0,0,0,0,0,0,0,0,0,0,0,0,0,0,0,0,0,0,0,0,0,0,0,0,0,0,0,0,0,0,0,0,0,0,0,0,0,0,0,0,0,0,0,0,0,0,0,0,0,0,0,0,0,0,0,0,0,0,0,0,0,0,0,0,0,0,0,0,0,0,0,0,0,0,0,0,0,0,0,0,0,0,0,0,0,0,0,0,0,0,0,0,0,0,0,0,0,0,0,0,0,0,0,0,0,0,0,0,0,0,0,0,0,0,0,0,0,0,0,0,0,0,0,0,0,0,0,0,0,0,0,0,0,0,0,0,0,0,0,0,0,0,0,0,0,0,0,0,0,0,0,0,0
   0,0,0,0,0,0,0,0,0,0,0,0,0,0,0,0,0,0,0,0,0,0,0,0,0,0,0,0,0,0,0,0,0,0,0,0,0,0,0,0,0,0,0,0,0,0,0,0,0,0,0,0,0,0,0,0,0,0,0,0,0,0,0,0,0,0,0,0,0,0,0,0,0,0,0,0,0,0,0,0,0,0,0,0,0,0,0,0,0,0,0,0,0,0,0,0,0,0,0,0,0,0,0,0,0,0,0,0,0,0,0,0,0,0,0,0,0,0,0,0,0,0,0,0,0,0,0,0,0,0,0,0,0,0,0,0,0,0,0,0,0,0,0,0,0,0,0,0,0,0,0,0,0,0,0,0,0,0,0,0,0,0,0,0,0,0,0,0,0,0,0,0,0,0,0,0,0,0,0,0,0,0,0,0,0,0,0,0,0,0,0,0,0,0,0,0,0,0,0,0,0,0,0,0,0,0,0,0,0,0,0,0,0,0,0,0,0,0,0,0,0,0,0,0,0,0,0,0,0,0,0,0,0,0,0,0,0,0,0,0,0,0,0,0,0,0,0,0,0,0,0,0,0,0,0,0,0,0,0,0,0,0,0,0,0,0,0,0,0,0,0,0,0,0,0,0,0,0,0,0,0,0,0,0,0,0,0,0,0,0,0,0,0,0,0,0,0,0,0,0,0,0,0,0,0,0,0,0,0,0,0,0,0,0,0,0,0,0,0,0,0,0,0,0,0,0,0,0,0,0,0,0,0,0,0,0,0,0,0,0,0,0,0,0,0,0,0,0,0,0,0,0,0,0,0,0,0,0,0,0,0,0,0,0,0,0,0,0,0,0,0,0,0,0,0,0,0,0,0,0,0,0,0,0,0,0,0,0,0,0,0,0,0,0,0,0,0,0,0,0,0,0,0,0,0,0,0,0,0,0,0,0,0,0,0,0,0,0,0,0,0,0,0,0,0,0,0,0,0,0,0,0,0,0,0,0,0,0,0,0,0,0,0,0,0,0,0,0,0,0,0,0,0,0,0,0,0,0,0,0,0,0,0,0,0,0,0,0,0,0,0,0,0,0,0,0,0,0,0,0,0,0,0,0,0,0,0,0,0,0,0,0,0,0,0,0,0,0,0,0,0,0,0,0,0,0,0,0,0,0,0,0,0,0,0,0,0,0,0,0,0,0,0,0,0,0,0,0,0,0,0,0,0,0,0,0,0,0,0,0,0,0,0,0,0,0,0,0,0,0,0,0,0,0,0,0,0,0,0,0,0,0,0,0,0,0,0,0,0,0,0,0,0,0,0,0,0,0,0,0,0,0,0,0,0,0,0,0,0,0,0,0,0,0,0,0,0,0,0,0,0,0,0,0,0,0,0,0,0,0,0,0,0,0,0,0,0,0,0,0,0,0,0,0,0,0,0,0,0,0,0,0,0,0,0,0,0,0,0,0,0,0,0,0,0,0,0,0,0,0,0,0,0,0,0,0,0,0,0,0,0,0,0,0,0,0,0,0,0,0,0,0,0,0,0,0,0,0,0,0,0,0,0,0,0,0,0,0,0,0,0,0,0,0,0,0,0,0,0,0,0,0,0,0,0,0,0,0,0,0,0,0
##end
outputCount=584
weightIndex=0,29784,135984
weights=##1
##double#135984
   -0.0836000662,-0.287423972,-0.3930539134,-0.3146247004,0.0833258438,-1.4108800928,-0.2649926958,-0.3158577514,-0.469516231,-0.3955720025,-0.1260559396,1.1926824665,-0.0193744437,-0.0291387362,-0.8192645784,-0.1192104767,-0.2577478478,0.0480849907,0.1831287092,-0.063195398,-0.2507989541,-0.1076036887,-0.1318853563,0.3467391742,-0.2624767228,0.2760429836,-0.2592139314,-0.4801145058,-0.697125051,-0.1106669678,-0.4730434965,-0.349453633,0.9495693593,-1.2496168628,0.5516616962,-0.1026373861,-0.0992321505,-0.0674957105,-0.2525784392,-0.0587831479,-0.4911524404,-0.0142707039,0.666924915,0.0329986908,0.5015717533,-1.5984899318,-1.1591011273,-0.6969207785,-0.8330560097,0.5614213376,-1.8771808392,0.3212813353,-0.6151266289,-0.2675729236,-0.2786143357,-0.0640605301,-1.0211789531,0.34621147,-0.088662259,-0.3802071341,-0.0390184739,0.1645393787,0.5488298739,0.2454153778,-0.0329113863,-0.6954676936,-0.1876907726,-0.2184766574,0.0520743367,-0.1248998796,0.1552176182,-0.626117213,-0.0206788714,-0.0244326957,-0.4896022537,-0.2965832469,0.2138324969,-0.1791769565,-0.2535063082,-0.2014464037,-0.0815914333,-0.0403352051,-0.5533773992,0.359177765,-1.7791585351,0.5253346878,-0.0974345923,-0.3962915131,0.3036322177,-0.1858402358,-0.1592449766,-0.1586552137,0.1308018303,0.340867564,-0.1197550545,0.9435143859,-1.9181469733,-1.3567655783,-0.5359496951,-0.8502563916,0.427237154,-1.9252450205,0.2645332753,-0.4109093271,-0.7639858219,0.8347467786,0.0101363531,-1.3229326868,-0.2761399558,-0.5119680308,-0.1274363833,-0.0034394077,0.1306336659,0.0157504267,-0.3341790498,-0.2763433565,-0.2718078731,-0.4304138065,-0.429035921,-0.0535811016,-0.2274795958,-0.1259283023,-0.9508551405,-0.5611481235,-0.2181240238,-0.2134618988,-0.3768999639,-0.2631116143,-0.2144381707,0.010015044,-0.1298453836,-0.3057182388,-0.3273673885,0.2776942625,-0.0404096815,-1.1755272985,0.024041792,0.161608737,-0.7458537703,-0.1135227715,-0.2171867425,-0.6348300189,-0.109391687,-0.1218511992,0.1539553657,0.0755281616,1.1226835344,-2.1306226765,-0.6652984012,-0.4592244852,-0.2748518214,0.9865475814,-0.6097143231,0.0829375493,-0.5079721089,-0.3332218259,0.2365625067,-0.0611032106,-1.0958120215,0.4693014026,-0.1860282832,-0.2505355067,-0.2800393791,-0.0857626837,0.4322179392,-0.3093674175,-0.2918110148,0.3796345101,-0.6537978689,-0.1359629215,-0.1450985781,0.1655383995,0.1455676433,-0.179532924,-0.4631496981,-0.4835777734,-0.3720713206,-0.4777254244,-0.2759410646,0.046430906,-0.2009249086,-0.5682295047,-0.5334617617,-0.7320508996,-0.190383707,-0.2912770578,-1.4002652488,1.0733596479,-0.3719453811,-0.4660802438,0.0266658903,0.0402352456,-0.0279565856,-0.0347001394,-0.3709593878,0.6337186073,-0.0960536317,1.2164525431,-1.5790939385,-0.5122427916,-0.2885487817,-0.4330181203,0.2145070403,-1.6218598509,-0.3972289575,-0.5587148084,-0.5617941911,0.1578861608,0.31555866,-2.1191259809,-0.556578967,-0.168773656,-0.3541299228,-0.0282044995,0.2559528648,0.5200027594,0.0301843512,-0.0161703923,-0.0406585276,-0.3634323094,-0.7334830302,-0.2816512118,-0.0372293617,-0.0886464074,-0.8508982492,-0.5483496368,-0.1792645254,0.2135960612,-0.9152168952,-0.2290806359,-0.1766853523,-0.709854451,-0.4133167925,-0.1426829299,-0.5696196764,-0.1649985274,0.6917160845,-0.6354079094,0.1634920127,0.5057529811,-0.8850892531,-0.2896301868,0.5244801007,-0.3984979821,-0.1826548928,0.0162048928,0.9728782422,0.0936072323,0.446147938,-0.7069194702,-0.7104297766,-0.5678717957,-0.6939558812,0.49431746,-1.0704896905,0.3752889552,-0.3423688364,-1.1185675993,-0.4201041529,-0.0746797121,-1.3686475137,-0.3196373456,-0.4982174511,-0.5380071931,-0.1821377764,-0.08281072,1.0714194259,0.3038336015,-0.1280966138,-0.7769776937,-0.2271329048,-1.0972906677,-0.1622220011,-0.3219994259,0.559067375,-0.8302634628,-0.7284751903,-0.3935265754,-0.069902056,-0.7193603403,-0.3519238989,-0.1570347313,-0.7380643611,-0.3640936966,-0.6350073679,-0.4886770355,-0.2794280205,1.7220453883,-1.2966288194,1.2989975314,-0.4805668045,-1.0318474653,-0.1083498618,1.4753396987,-0.6688951078,-0.3002522623,-0.5358240107,1.4388530686,0.2243205835,0.6064084678,-0.7229040716,-0.3874257192,-0.2462422029,-0.4386329398,-0.6934260079,-1.0020045063,0.1955478481,-0.6155036634,-1.3455411359,0.8965375894,0.7828313049,-1.7598043387,0.2385988773,-0.8220219142,-0.2119754455,0.2431656844,0.0355906555,-0.178485109,0.1690133043,-0.2436733768,0.1418502015,-0.4975139209,-0.7101853721,-0.1411416828,-0.0106334211,-0.0816106902,-1.6722376838,-0.1982594382,-0.3996264718,0.3640223188,-0.341385563,-0.0643950804,-0.3987258745,-0.6624480236,-0.8849298579,-0.6719095759,-0.5631481556,0.1119553961,-0.2630031767,-0.8533407283,-0.1595924556,0.498556113,-0.1589098241,-0.1033019686,0.2225729592,-0.5734236485,-0.4745435291,0.3051817828,0.3905668482,0.610167647,0.0400027935,-1.0869853574,-0.1759974909,-0.4483531408,-0.4811660678,0.2239399689,-0.8406286883,-0.0557926865,-0.382477349,-0.8486795094,-0.2256475749,0.2052537378,-1.5962370178,-0.0917235808,-0.5260512293,-0.0856701963,-0.1640542743,0.2404198256,0.8689477539,0.1839976691,-0.1586755965,-0.2843699772,-0.6469156571,-0.781335338,-0.2555405135,0.4574367795,-0.0204130778,-0.6495731782,-0.4263098533,-0.6666218318,0.4137876332,-0.5935894266,-0.1329941639,-0.5131351469,0.0035693612,-0.6373673862,-0.2350569579,-0.5720989741,0.0354377917,0.1364055898,-1.137012842,0.7680676953,-0.2688909162,-0.2956785462,-0.4005021982,0.3371390525,-0.322533641,-0.0193494462,0.1328021265,0.1097493864,0.2847287795,0.4256978566,-0.8778069629,-0.4077908553,-0.1886404367,-0.874363567,0.0918647698,-1.1489656697,0.0852656077,-0.5972738115,-0.4245925458,0.1473421502,-0.0651888001,-2.0886952713,0.2535703201,-0.1883330571,-0.4794806858,0.0397285124,0.0627256561,0.2826840027,-0.2888418352,0.2243651256,-0.0775575624,-0.2608404436,-0.3479887664,-0.0393602172,-0.0881646828,0.2330952368,-0.4965662836,-0.6044425414,-0.0561411714,-0.2969586602,-0.6105980135,-0.2932498805,-0.1796565545,-0.4171313483,-0.2014999001,-0.1359386166,-0.6684356715,-0.4866491064,0.4740428769,-1.0047158221,0.2128395087,-0.1574394734,-0.7814241913,-0.4636851027,0.2170992526,-0.3268545988,0.2039639604,-0.1246480799,0.2711133325,-0.3324557819,0.6223072059,-1.0032744127,-0.747423263,-0.2007459529,-0.8083040897,0.6667626354,-0.4346175815,-0.3263869266,-0.1586405068,-1.6785412557,-0.2177495958,-0.1510552319,-1.1413706082,0.1570789573,-0.8825911747,-0.4969348288,0.1002665943,-0.1367775639,3.1296936929,0.6768422957,-0.2251395121,-0.315183244,-0.3808025455,-0.8799663935,-0.143727552,0.3579739544,1.4069376707,-1.67424267,-0.1231463739,-0.0950961483,0.0088704524,-1.0460064547,0.5591879857,-0.586491977,-0.360891148,-0.3384554026,-0.183747885,-0.6136534014,-0.2517103681,1.3543732333,-4.226970109,0.1274071883,-0.1836622673,-0.6630350137,-0.3585713424,1.4097384776,-0.4252766056,0.3707265404,0.1255702941,0.5325712137,0.2751675874,0.9037948653,-1.0159197094,-0.58095121,-0.6068127417,-0.272016872,-0.4501440555,-0.8848558109,-0.3914309388,-0.2418840371,-0.4602725027,0.3800173369,0.3859342763,-1.6184471774,0.239557236,-0.3778664897,-0.6664357859,0.1917072806,0.1778895146,-0.1512301959,-0.3877214524,-0.5385366062,-0.4716426601,-0.2729114473,-0.6688372586,-0.2707171456,0.4645587612,-0.3201036736,-0.3633047314,-0.7091451938,-0.0129905175,0.1365880978,-0.1620446506,-0.1209368757,-0.1498618129,-0.7208187137,-0.145719218,-0.53923087,-0.6684721314,0.0832914941,0.0935988148,-1.1736357156,0.716025233,-0.1035213366,-0.7682477264,-0.2188278084,0.2829095931,0.0182020891,-0.4265408154,-0.0275074328,0.7596686004,0.2172888894,0.5317891934,-0.7901719937,-0.1773415177,-0.1056162728,-0.7421453144,0.1328064639,-1.2353624682,0.7890413644,-0.7463377435,-0.7068254884,-0.3447085111,-0.18832449,-0.4035463742,0.9988909506,-0.0820030827,-0.3674757356,-0.6059838946,-0.4972859896,2.6413739422,0.0406955178,0.073149922,-0.2428302602,-0.7294048369,-0.8098251966,-1.4290548061,0.1006012897,0.4197109013,-0.459110166,-0.5895579227,-0.3538250622,0.0362359232,-0.9566469694,-0.0156119975,-0.5657220798,-0.594077469,-0.3370138261,-0.2134869936,0.0255672998,-0.4488216188,2.1068201777,-4.025355693,3.3100480774,-0.6580388146,-0.9058217808,-0.5334597827,-0.2775571473,-0.3105641687,-1.3224374384,-0.1198783163,2.020070516,0.0987879941,1.734553702,-1.0195341624,-0.6610692672,-0.3154684442,-0.3905911806,-1.6127412266,-1.234544278,0.0848197229,-0.7846039719,-0.6369949065,0.3442385002,0.3202631693,-1.3605147307,-0.3182074849,-0.5995548899,-0.4533580971,0.1693095901,-0.1964242479,0.6705199469,0.3800444746,-0.1758439726,-0.0150832759,-0.4153254629,-0.9303876581,-0.6168902748,0.3299473213,0.1555255038,-0.8941690505,-0.5989424656,-0.3142401847,-0.5083326833,-0.3864796351,-0.4738530248,-0.5487110087,-0.4637944616,-0.2743697679,-0.4301757812,-0.6045473647,0.4047631643,0.8977868671,-1.4891111654,0.8285850824,0.11648414,-0.3404736291,-0.1825988646,0.3361470935,-0.662248911,-0.7063244647,-0.1307063344,0.7183656843,0.0096948709,0.9091380581,-1.1011197211,-0.1183854321,-0.5693650059,-0.6030034671,0.0771400618,-0.4778271666,-0.3056201363,-0.146613578,-0.4250492841,-0.2289930406,0.1756411003,-1.6698538828,-0.2702411515,-0.5476411494,-0.1724095714,-0.2788517877,-0.0877467956,0.690497886,0.1147946975,-0.1224926157,0.3407435009,-0.0337678166,-0.7005296871,-0.3936279802,-0.4003278557,-0.0303447547,-0.4548622086,-0.2415115573,-0.0935299338,-0.2677026635,-0.2566876389,-0.4761241862,-0.0086956282,-0.0394709636,-0.6209953626,-0.0422446287,0.0744971539,-0.1735211523,0.408006447,-0.4830726533,0.2328028415,-0.5348015478,-0.4959798811,-0.175371887,0.2280316282,-0.7895015355,0.1364331508,-0.2970440121,0.3736141812,-0.3096853433,0.8059978906,-1.3616682938,-0.6839457211,-0.2792684718,-0.6133842274,0.5246948485,-0.8411124602,-0.2270596196,-0.6788707541,-0.5057123396,0.0011809805,-0.2365263781,-2.2623253546,0.2856948245,-0.8083544519,-0.3962842384,-0.2521665747,-0.0841676062,2.4657846109,0.2434067893,-0.2512088131,-0.6280743322,-0.6493613932,-0.7905045705,0.1279143471,0.1390340094,0.3075024572,-0.2795761543,-0.2392277183,-0.0746066675,-0.1887037426,-0.3013374937,0.290256212,-0.4305998464,-0.4267701484,-0.8702247622,0.0392116293,-0.3948927935,-0.216212384,2.2786562802,-0.9197288518,0.3207080666,-0.2998321865,-0.7505206513,-0.1755072214,0.0537688736,-0.7625212545,0.3588219115,-0.4893431946,1.2758701018,-0.572168283,0.1841758182,-0.6181184889,-0.5478754636,-0.5313176869,-0.8222896058,-0.3079642579,-0.4331960114,-0.1941478249,-0.5310605459,-0.8072748638,0.4543145453,0.772151554,-1.7975410897,-0.369318137,-0.2235921362,-0.464896859,0.0619590958,-0.0649889387,0.7774228989,0.1268711798,0.155411387,-0.4476767155,-0.5587662111,-0.433301758,-0.0804517037,0.2713463477,0.0787174743,-0.2108334897,-0.8985064744,-0.5392669532,0.3600765164,-0.3520148081,-0.1873177087,0.1417587311,-0.1424961777,-0.5822798099,-0.0636154412,-0.2776039484,-0.193595517,-0.0450614198,-0.4708235198,-0.4928312191,-0.0274511446,-0.8522264744,0.3323378214,-0.3302890667,-0.2427955297,-0.4775361878,-0.1932713938,0.0732042742,0.4278955977,0.5329033052,-1.2989341716,-0.5558153486,-0.2276202916,-0.6109890081,0.4737666486,-0.8229919518,0.5678816284,-0.9006285808,-0.5902857499,-0.3547833977,-0.2701305776,-0.1406579767,0.3596851861,-0.498437625,-0.637390569,-0.5356088632,-0.3954136617,0.8580698921,0.0360094678,0.0312328541,-0.0907505129,-0.6167526141,-0.5178535646,-0.1347554818,-0.3764468516,-0.0830535195,-1.1411932144,-0.3112882399,-0.6945610031,-0.372999389,-0.8336680585,-0.6272007192,-0.2675280549,-0.1543606968,-0.4772114787,-0.5175469843,-0.1545051828,-0.6804677834,2.4579933963,-1.4862697766,2.2238716838,-0.4783456726,-0.7375368667,-0.5343562598,0.0373623563,-0.186108005,-0.6917970574,-0.7439326349,4.2388169303,-0.3939464144,1.3507329215,-1.2743302462,-0.2516553272,-0.2351871872,-0.7557182498,-0.0355281157,-1.3474114191,-0.14464832,-0.7985222525,-0.7498585309,-0.3016952022,-0.0615663557,-0.2985512452,-0.3814001038,-0.2959785706,-0.0099985872,-0.2141423678,-0.3610566346,0.4055914584,0.3037929481,0.0407141898,-0.2726096535,-0.1020689609,-0.7263757974,-0.325191244,0.3119853236,-0.2371758321,-0.9179754949,-0.6586216887,-0.4168927602,-0.1720755319,-0.6301852096,-0.3029000275,-0.4601983765,-0.6774732067,-0.7149420534,0.0673378312,-0.3521081548,-0.0607936202,0.531070351,-2.9797029263,0.5095039451,-0.3313440845,-0.4526613282,-0.0905915636,0.322998483,-0.6418339135,-0.2905885996,-0.435912694,2.4940341976,-0.1910361303,3.8053269276,-0.8877415121,-0.2649719244,-0.4012907283,-0.2549690928,-0.6048972106,-1.1786991501,-0.3727363263,-0.7240880556,-0.3962505594,-0.1219379547,-0.2990480593,-0.3205092136,-0.1515802067,-0.3715013315,-0.478062658,-0.0085695174,-0.5725369223,0.2257527374,1.1484805794,-0.0998133215,-0.0322374725,-0.5423126819,-0.577398609,1.0883411612,0.3973476362,0.3065651584,-0.8394841059,-0.3790458178,-0.4434609966,0.0277156214,-0.5893126732,0.097018687,-0.3594352775,-0.0545817971,-0.6724209279,-0.010932346,-0.3328724744,-0.1451660231,0.2863931986,-1.5823863121,1.8045005263,-0.2630485454,-0.8801789036,-0.4529374712,-0.1563696783,-0.7109628727,-1.2416182055,-0.1720748041,2.1978003667,-0.103005748,0.3124201253,-1.4097813187,-0.5061827001,-0.5306525511,-0.4891680861,1.1249810579,-1.1500086807,0.040184076,-0.708712363,-0.572998139,-0.2262538748,-0.3032111709,-0.7185161911,-0.4164872311,-0.4029040584,-0.1965254287,-0.243553352,-0.704533039,2.5805470469,-0.0142591746,-0.0800897249,-0.2930441061,-1.1419018859,-0.3290490257,0.3125981728,0.0361842986,0.2037315772,-0.2549737739,-0.0796054162,-0.723895316,-0.4765858997,-0.5009110757,-0.119644394,-0.4789264695,-1.0496089308,-0.5064146746,-0.7782971478,-0.8487352826,-0.6537055017,2.7981902309,-1.1891640547,2.1798819123,-0.5087327877,-0.1388048052,-0.3889706144,0.3156957841,-0.2622852036,-0.6138733943,-0.6352682049,2.2427924149,-0.0846159784,0.8844839541,-0.8459682414,-0.8860354783,-0.4989898288,-0.3025924082,-0.1817259742,-1.5197473376,0.0246001981,-0.6163527468,-0.6832286549,-0.1119863648,-0.7222657441,-0.4687550954,-0.6590469482,-0.1697761377,-0.7067411635,-0.4616497035,-0.3727193304,-0.4734863841,0.5263960768,-0.1533177036,-0.0417454457,-0.4890716704,-0.5989943398,0.0526454175,-0.0549492659,-0.4447916974,-0.325242758,-0.0824779178,-0.1537936687,-0.4631502738,-0.2169212476,0.0251989194,-0.6288094991,-0.434442695,-0.6609760549,0.0417359855,-0.4994196024,-0.4730134261,0.7752740962,-1.0803528694,3.3633921465,0.022868454,-0.7994776948,-0.2559149618,0.3272820498,-0.8519550974,-0.3302674377,-0.4365407732,3.2196425496,-0.4181134925,1.2678982962,-0.7407460067,-0.1557468066,-0.5732274427,-0.15640817,0.1454552909,-1.6501977732,-0.3435131188,-0.4283393582,-0.6966337516,-0.5357170013,0.2009001279,-1.4883042695,-0.218600081,-0.1053331206,-0.4878557996,-0.4989964666,0.3032260093,0.708375725,0.4921657345,0.052823143,-0.1338760519,-0.0589672909,-0.7284295728,-0.1250053172,0.3969993117,-0.2526984848,-0.0673907207,-0.4309349693,-0.0661647776,-0.0734304135,-0.5712190132,-0.2368522303,-0.247412986,-0.3821310229,-0.7076686361,-0.3964901671,-0.6512293848,-0.2878520087,0.9766680121,-0.3108820982,0.5822441874,-0.6391444417,-0.1269308349,-0.3279789354,-0.4192650103,-0.5670660733,-0.6615633908,-0.0500014146,0.5874441657,-0.1349362087,1.0995082157,-0.9249300594,-0.4236673787,-0.0128132538,-0.1797733933,1.5859796898,-1.4557105553,-0.3545068282,-0.2724162406,-0.9771092534,-0.1180697702,0.323763458,-1.2820633911,-0.3557053304,-0.6794132795,-0.4591777056,0.4763936512,0.2483405386,0.7472050697,0.2950198921,-0.0054560149,-0.5630902927,-0.6045787252,-0.4116964871,-0.4790885991,-0.2581148639,-0.1505827431,-0.5561721503,-0.392637745,-0.1004285141,-0.1680046129,-0.2985928586,0.1837988907,-0.0663946488,-0.1401142703,-0.6377843997,0.1741475871,-0.377612106,0.3581891588,0.4210301137,-3.1121572841,0.8714105047,0.0352957409,-0.5570274719,-0.0196880222,0.3587462769,-0.5257330183,-0.1186786036,-0.1108896923,0.6762609923,0.1067607126,0.6994236667,-1.2947640849,-0.4541858653,-0.5205225614,-0.2562065818,0.2648216389,-0.4570648082,-0.1627714702,-0.7078952581,-0.6635470477,-0.3350749618,-0.0579046424,-0.4202399155,-0.3062411567,-0.7201797978,-0.5697235181,-0.3473518162,-0.5812737919,3.5115540241,-0.0305023365,-2.0401267664,-0.4761852556,-0.3923149821,-0.5195335562,-0.2212141559,-0.1853830931,0.4389437648,-0.8338444441,-0.0742461421,-0.4052067636,-0.8103308781,-0.9227569779,-0.4585226381,-0.7247813758,-0.6851736472,-0.680422164,-0.5746096248,-0.7441034999,-0.2975640796,3.6328401436,-1.533318192,3.2679284171,-0.5267692278,-0.5272331933,-0.3674478746,-0.0196295035,-0.5735207861,-2.3214472978,-0.1279257569,4.9015040392,-0.4933649684,0.8691737172,-0.5290632504,-0.3064499711,-0.0924021318,-0.8521039141,-0.5044600148,-1.258733779,0.360076046,-0.9092559962,-0.7477003403,-0.04908206,0.4599489406,-1.6791064586,-0.2127658306,-0.193239671,-0.0427359631,0.0454220545,0.4498186361,0.9353280367,-0.178794517,-0.2979029736,0.1502408143,-0.3752575376,-0.438870916,-0.3816549941,0.3613371044,-0.1694004993,-0.7559270454,-0.4428904681,-0.5720708291,-0.0031109636,-0.4998652508,-0.0999298373,-0.2529912887,-0.0041285678,-0.4194620858,-0.2054828747,-0.3672675237,0.0978654814,0.9694159371,-3.8239854607,0.8510958881,-0.4507664779,-0.4478846641,-0.1390306552,0.4672494033,-0.150129851,-0.2632563516,-0.5842757209,0.495919128,0.2277249722,0.6320891575,-0.8976820031,-0.398011847,-0.2997717201,-0.1641517098,-0.1763063549,-0.1722100618,-0.1625803851,-0.6202437016,-1.0230080888,-0.3512857371,-0.0847058073,-0.2854357992,-0.7529994127,-0.7146985961,-0.4013909644,0.0331688543,-0.1999139351,7.707147873,-0.1259137611,-0.6767287913,-0.4180561141,-0.8184402942,-0.7961125642,-0.3228599049,0.1738220497,0.1635892412,-0.9134921958,-0.3905640584,-0.3597684734,-0.0994722083,-0.4208229441,-0.0117996858,-0.3262288891,-1.1356619036,-0.6294933283,-1.0224050644,-1.0346138114,-0.0471876367,1.4555519597,-1.7100355275,4.3995801294,-0.4359008993,-0.479972533,-0.5326566828,-0.225419278,-0.5279295615,-1.8104465955,-0.0337719795,3.2180372903,-0.5829791583,0.3424195224,-0.4732317348,-1.0585003121,-0.5883003499,-0.4001567948,-3.9035518264,-1.5699528584,1.0493838533,-0.5944643878,-0.4509118032,-0.369964607,-0.6206148186,-0.0971329172,-0.3087359834,-0.1893739725,-0.4631334877,-0.4940209166,-0.4852361789,0.1224885829,-0.1167555851,0.2312416958,-0.2029980399,-0.3477745532,-0.5969232885,0.2651238279,-0.1117209644,-0.3314204224,-0.8371704919,-0.4580198923,-0.6706194136,0.0060099914,-0.6893264487,-0.2395669741,-0.1282868712,-0.1968308779,-0.6759096737,-0.2858758723,-0.2204660391,-0.6833043994,0.5453090148,-2.5639604202,2.7263139951,-0.3479693574,-0.8127949812,-0.4629870684,3.0772410687,-0.0804347494,-0.4472696561,-0.3864707373,3.0423125189,-0.0766740598,1.8628472842,-0.4934136019,-0.2301540984,-0.1653524086,-0.3826378208,-6.3778563799,-1.6145418423,0.1915383689,-0.7641020119,-0.8573436575,-0.1540193351,-0.2170365437,-0.6582596728,-0.4375717063,-0.3349090256,-0.3833051864,-0.6070790586,-0.1594709182,0.9349524654,-0.1607721787,0.1085264057,-0.7194798967,-0.5238629294,-0.2645717007,-0.3337118616,-0.2245010373,0.0601550795,-1.1679266833,-0.2836058284,0.0043862729,-0.5171438094,-0.5983505314,-0.1170275784,0.0386821276,-0.2699243945,-0.3512419058,-0.6637278588,-0.6928759807,-0.1596936688,0.7887083562,-0.3137194849,0.4599675932,0.0633086926,-0.5658572907,-0.4928637065,-0.1930337389,-0.4473836212,-0.1662033978,-0.3431526234,0.2218015996,-0.2821705776,4.0083932779,-1.1495777594,-0.6373379834,-0.3178264275,-0.753566591,0.2900627616,-1.024721758,0.3324636545,-0.5449698814,-0.4247345216,-0.4097560363,-0.2798634545,-1.3161729849,-0.4748389799,-0.7766046058,-0.0387267799,0.2726245328,-0.5032746153,0.3614246544,-0.0278599953,0.2583195204,-0.3125806083,-0.2264472233,-0.5934072497,0.1008621579,-0.0813406548,0.2677029572,-0.5720751842,-0.5403842378,0.1624897542,0.226583779,-0.5929785762,0.1866223671,-0.0955973388,-0.4040936981,-0.5491271417,-0.1975390186,-0.5658733583,-0.2255147192,0.1923217626,-0.7975003898,0.2646671558,0.1547685055,-0.2927921824,0.3197058743,0.165714206,-0.3438354201,-0.2019039626,-0.5205505776,-0.0278015344,-0.0999315128,0.1029202553,-1.7822443888,-0.7498915303,-0.8002386692,-0.5403288776,0.2646777214,-0.4115220248,0.0652302444,-0.4896665062,-0.1110621746,-0.5030275589,-0.3558017039,-1.7973632578,0.0005253595,-0.5140650316,0.0771916071,0.0365669664,-0.1697823668,0.5771952692,-0.0157174695,0.2356572783,-0.2813505714,-0.3574475914,-0.5632152754,-0.0410000358,-0.0334270453,0.3672117363,-0.3700267126,-0.6630013016,-0.4092930844,0.1370991976,-0.378366161,-0.1965802927,-0.2954906325,-0.4149741246,-0.1850290536,0.0061793058,-0.0911712736,0.0929071106,0.0258907809,-0.3795122245,-0.2767664085,-0.2801311599,-0.5065214777,-0.4246420807,-0.1418407185,-0.1295814113,-0.2035165716,-0.4872681725,0.51129551,0.054886746,0.2310629336,-2.0995354753,-0.6204561128,-0.6109690042,-0.219962553,0.4176344162,-0.2078471205,-0.2460357187,-0.4791771567,-0.686879876,-0.288771882,-0.3447238019,-1.8308530087,-0.4101426484,-0.4331185461,-0.3543110201,0.0150711,-0.037216211,1.9833282268,-0.1475346628,-0.1586762048,-0.4553153595,-0.4910430047,0.051311927,-0.3843373345,-0.0335903985,0.3744347875,-0.465980605,-0.1639225245,0.0734331097,-0.2321667446,-0.3067054008,-0.3234129181,-0.0522219959,-0.3929974407,-0.4462708352,0.2102523797,-0.5464896405,-0.211291428,0.3976332424,-0.2383589036,0.3472770327,0.2147725096,-0.648816835,0.1400840817,-0.3202842234,-0.2889074988,0.2854411655,-0.0159766879,0.8846279664,0.1754595501,-0.2579353756,-3.3786643108,-0.6332513437,-0.172902279,-0.229207617,0.2917044305,-0.380029051,0.0334313712,-0.450138082,-0.3174708062,-0.1874891353,0.4259201789,-1.5846377443,0.1692694823,-0.3752650852,-0.7782437876,-0.6962940968,-0.2456973962,0.6248578795,0.7196062845,-0.0962260371,-0.4808175612,-0.3899409638,-0.3323592452,0.3135201997,0.1223109448,0.1462729647,-0.3824529928,-0.5373171984,-0.3731761324,-0.2503658838,-0.7443859891,-0.4632954895,-0.1200312026,-0.569526886,-0.4229900968,-0.160467102,-0.6080740432,-0.101851755,0.9634005792,-0.8794922075,0.2789056571,-0.0851576581,-0.4624686219,-0.8001759163,0.0138252013,-0.352715705,-0.5326299724,-0.5537305881,2.1030235571,0.4688012775,-0.4017329329,-1.6486241983,-0.211639258,-0.3980022915,-0.4405774651,-0.1874384612,-0.4942686473,0.5086910351,-0.523818263,-0.6998012001,-0.5221013552,-0.1935198158,-1.5211171402,0.1764583199,-0.4300367435,0.0697279725,0.002797466,-0.2814990039,0.1766264935,-0.106209308,-0.3000890128,-0.6462948502,0.0147727195,-0.7457190247,-0.3906784613,0.5064347921,-0.1059053552,-0.3568353278,-0.2151043807,-0.5912450988,0.0200126463,-0.0843837014,0.0681487543,-0.1865491062,-0.062531018,-0.2624037001,0.0286069851,-0.2891868842,0.1867642854,0.9868400593,-0.845139443,0.8752675708,-0.4040330122,-0.5539262856,-0.3023878582,-0.4278055981,-0.0144855211,-0.2320411156,-0.5845787028,0.4209899829,-0.0865770179,0.0827724878,-1.0081344016,-0.3433321479,-0.3144033188,-0.0376620929,0.5434186378,-1.3297316088,-0.0043961328,-0.5557251543,-0.0469422158,-0.6867413354,-0.0815449588,-0.3950571999,-0.5081077407,0.000481545,-0.7333119577,-0.6161505317,-0.4779499234,-0.0567553115,0.2312575153,-0.2698610295,-0.2057884726,-0.454505864,-0.4153786169,-0.085943976,-0.5435809866,0.2876029045,-0.7498109508,-0.2262869008,-0.401688651,-0.6006360414,-0.6272457,-0.1907696384,-0.3934251687,-0.7782293853,-0.1315675897,-0.2558902663,-0.5096297838,-0.1513597863,0.392805857,-0.5718037558,3.4571761943,-0.497403079,-0.6260262981,-0.5737641941,-0.1023435835,-0.6442590283,-0.4527004493,-0.7069587658,4.1868930886,-0.4933615156,1.2535775069,-0.8298914437,-0.6584501663,-0.4365381042,-0.206229867,-0.1179256686,-1.608266557,-0.2837919834,-0.4030754769,-0.3888304128,-0.0136698587,-0.2790564937,-1.250478734,0.2619565922,-0.6844376356,-0.4192013791,-0.1130593651,-0.0253428697,0.5308501906,0.185191885,-0.3274322476,-0.0730622433,-0.3572840069,-0.1930057069,-0.3928999531,-0.1134532569,0.383831415,-0.0811243369,-0.7566000637,-0.5101567702,-0.5086835474,-0.5155548726,-0.3902174687,-0.2742821746,-0.0857378386,-0.6076471417,-0.69642829,-0.6674483903,-0.1904140645,0.2953184739,-0.252761913,0.0756398644,-0.3383566248,-0.2853826569,-0.6367328794,-0.096176846,-0.0823205985,0.2453873611,-0.0207586751,0.5022437218,-0.4183925984,1.0234106212,-0.633517565,-0.8019557561,-0.694006226,-0.2584349797,0.980689617,-1.0006938433,0.3529508644,-0.2680801295,-0.2298390147,-0.5336493757,-0.5234228771,-0.4354179459,-0.5599764866,-0.4590781332,-0.185124813,-0.6787708944,-0.1458882372,0.0443675293,0.7506924912,0.8223994496,-0.3341632014,0.0285939046,-0.3104729077,0.3154271561,-0.1463779701,0.2757379209,-0.5532893001,-0.086845941,-0.5355119902,-0.6407107593,-0.751931539,0.3460556043,-0.0295389525,-0.5368761023,-0.7679474122,-0.4689932253,-0.7351931116,-0.7433382397,-0.1357769517,-0.090535543,-0.0514202931,-0.1314671626,-0.3054207096,0.0381244645,0.2146824105,-0.5267754926,-0.0736724293,-0.5690628707,-0.2557071865,-0.4864102462,2.9537715404,-1.6216712523,-0.6092645066,-0.6012760586,-0.156786861,2.2089124489,-1.4942420064,0.0468149536,-0.0726488971,0.2266575331,-0.1972627805,0.0488617769,-1.733660792,0.126207696,-0.560325787,-0.1610515385,-0.5777106382,-0.0276718975,-0.539745336,-0.1475017569,-0.2559614982,-0.5969590791,-0.4246432804,-0.1688556374,-0.2989065257,0.064964609,0.3412728704,-0.5920897327,-0.1787622292,-0.0202360294,-0.5627353798,-0.0374698109,-0.3912748812,-0.1857149249,-0.0034791754,-0.6039665081,-0.5025244107,-0.2169728683,-0.0840009616,-0.1620259154,0.0313484808,0.031809418,0.2668453537,-0.0876780036,0.1798358149,0.2041437272,-0.8917776763,0.0152469765,0.165250756,0.2937507835,-0.2206138436,0.049907193,-1.7621257915,0.015625702,-0.6624158112,-0.6616679523,0.7985594992,-0.6046597207,-0.118889516,-0.1283780085,-0.2463511397,-0.2507935547,-0.3167911409,-1.3374955827,-0.3503740919,-0.3810160658,-0.2530452956,-0.1200167609,0.1171414893,-0.2946866312,0.2671996437,-0.1162218722,-0.3412413661,-0.2067084145,-0.2463886407,-0.3436487348,-0.5740781867,-0.0816247909,-0.504780608,-0.7616852201,-0.2959777591,0.545900091,0.0661366654,-0.2199028444,-0.4704890767,-0.5585390996,-0.5707505802,-0.1476403045,-0.5145708637,0.0768171607,0.074264447,-0.4038723148,-0.0284784999,-0.1511097184,-0.3715520762,0.2865745009,-0.0034119638,-0.6388958751,0.2293224212,-0.3923962249,-0.2746418178,-0.008708366,0.0239776267,-1.4363622594,-0.0230175434,-0.2294154742,-0.2567607446,2.4769628509,-0.9056405635,0.9712423831,-0.6712060003,-0.3410217074,-0.2354718225,-0.00138213,-0.7783473274,0.1175463749,-0.0103939349,-0.4256790911,-0.6525782301,-0.502360094,-0.0784606786,1.8184053828,0.1466243057,-0.6106501959,-0.8073408163,-0.6579269092,0.0488067776,-0.0803177941,-0.3435115831,-0.0950380911,-0.2814220761,-0.0380744087,-0.4357764219,-0.4146021364,-0.07902737,-0.4822069441,-1.1857923151,-0.6029697888,-0.2685428149,-0.5140099842,-0.3972250282,0.1584772275,-0.6520795067,0.3200588966,-0.1308374192,-0.433876513,-0.4450305667,-0.1395689104,-0.5186809185,-0.0351130678,-0.1964385949,0.235753195,-0.0910308187,2.0543948395,-0.6124904908,-0.5609358303,-0.2959737033,-0.0691180418,2.0533870274,-1.3625342705,0.4935370296,-0.2941678915,-0.7637853965,-0.2651900613,-0.5184127844,-0.3490486028,-0.17802209,-0.1889832304,-0.0587148994,-0.5456364511,-0.1995036767,-0.0121644553,0.1612202142,0.039695532,-0.2069831957,-0.3324756852,-0.7226196721,0.1682908265,-0.3602491319,-0.167340344,-0.6329156993,-0.5591154838,-0.5034248388,-0.0524657929,-0.6833310769,-0.2179340877,-0.0970017829,-0.3778442802,-0.5936118342,-0.3779331294,-0.3464679027,-0.1134535277,-0.274287469,-0.5636061825,0.2031310945,-0.2080916813,-0.4227449863,-0.1999415928,-0.1541016401,-0.3163906401,0.0561844763,-0.6106829873,0.0944210451,0.0398390477,0.9148897751,-0.9759423731,-0.676563793,-0.6014117669,-0.1103822503,4.9253228394,-1.0089752855,0.0427436968,-0.3123071125,-0.159318907,0.2225375553,-0.0489945791,-1.1402412506,0.3254639756,-0.3793905036
   -0.3653975405,-0.0356075711,-0.4178840109,-0.1575699075,0.2891352334,-0.3494833428,-0.3187258488,-0.711914149,-0.4583038831,0.2622167911,-0.2483660821,0.2102669015,-0.7449789093,-0.2069716943,-0.4448173211,-0.2270118261,-0.0645986099,0.0004568294,-0.5980023133,-0.6768575161,-0.3918435798,-0.6892609388,-0.7833886432,-0.1478212752,1.2924458401,-0.9354717836,0.01404633,0.1324557447,-0.1581425857,-0.3364375873,0.3828803216,-0.255259264,-0.1556639085,-0.3967325627,0.3705443794,-0.2895541388,-0.3429350782,-0.836086914,-0.4386665792,-0.0707001512,-0.6547443741,0.7798476086,-1.024946398,-0.4666007595,-0.5326377844,-0.4489277967,-0.7258642167,-0.5110985839,-0.2814112336,-0.456091075,-0.1806966279,-0.2995594435,-0.2838092579,-0.6165296328,-0.44441983,-0.4003712988,-0.647700986,-0.1675238203,-0.5058783535,-0.4365577874,0.0614878629,-0.3734047293,0.1179651022,-0.4243128074,-0.7411761016,-0.5347207469,-0.1695438156,-0.2421971352,-0.4679163008,-0.0963228778,-0.7248927703,-0.0022254776,-0.5662095403,-0.1233560317,-0.4356938565,-0.2184162233,-1.0984925929,6.8727124483,-0.4023640459,-0.3565875681,-0.3862833667,-0.3888322586,-0.2446195919,-0.8172596069,-0.4223794439,-0.2828814161,-0.0197546717,2.0366036312,-0.4262518076,-0.5120709451,-0.4999708881,-0.4707890811,0.2313994218,-1.0357266249,0.218096205,-0.4282134783,-0.7392898453,0.0596431591,-0.381648337,-0.5293498021,-0.859810086,-0.6966389146,-0.419624347,-0.7229622951,-0.0689280394,0.7932847473,1.935152423,-0.2454777131,-0.326409286,-0.3248879735,-0.6038020954,-0.2764157248,0.0166891688,-0.2341141009,-0.1703225698,-0.6112762778,-0.2636934348,-0.3114280359,-0.0931285272,-0.29065304,-0.1863142213,-1.2696882776,-0.2435190763,-0.5042958723,-0.3585920902,-0.4717321119,-0.150606933,-0.4188659387,1.624942404,-0.4377353391,-0.5794274258,-0.447755218,-0.4173286976,-0.659710301,-0.9233691781,-0.4755512884,0.1134579889,-0.2880062625,2.0413298323,-0.4002366257,-0.3328457118,-0.6159258141,-0.4325876173,-0.0749205309,-1.1092080696,0.5000583908,-0.265342374,-0.0951003905,-0.1613175545,-0.2262813555,-0.8781389305,-0.3454972579,-0.7365497561,-0.3439706429,-0.7590049638,-0.559951539,0.0288331751,0.2122812649,-0.0297441563,-0.2620359162,-0.2006708425,-0.4195998174,0.295680937,-0.2516518496,-0.069823516,-0.7745924572,-0.7308847367,-0.39378934,-0.0353756538,0.0042217518,-0.0811925463,-0.5483161108,-0.7408616987,-0.2377156637,-0.2169066219,-0.6972110865,-0.6018795855,0.0681555961,-0.6819928396,0.3641250859,-0.4638163351,-0.0356203896,-0.213988572,0.7184352106,-0.4457493923,0.9785226701,-0.6933606267,-0.3577220013,-0.1040388852,0.6500242122,-0.6637276849,-0.4806310114,-0.6068216448,-0.7568281193,2.2815577621,-0.4502670745,0.2339538129,-0.6276821925,-0.6992538223,-0.1192453131,0.023956643,-0.5442538065,0.4531317518,-0.6233531243,-0.1772806275,-0.6715794472,-0.5314292827,0.2562603848,0.2217218472,-0.2845533801,-0.4262479575,-0.75503405,-0.4736689027,-0.1325398582,0.0024398043,-0.462944974,-0.2719234288,-0.6856389159,-0.0373186533,0.1730785563,-0.6348955905,-0.0532702631,-0.3360295587,-0.441041267,-0.3517550641,-0.5969167867,-0.5374172621,-0.7055618107,-0.3304346637,-0.14759327,-0.0126349867,-0.2546395804,-0.1671407709,0.1574551478,-0.1196653033,-0.2376856708,0.1635273994,-0.3254968213,0.2834717577,-0.036621265,0.192953411,-0.819313132,-0.2053038416,-0.8153481393,-0.7647918633,0.9885364877,-0.7438715524,-0.287731146,-0.4857917866,-0.3489815024,-0.6998400034,-0.7042385764,-0.7208536791,-0.384754973,-0.0946130422,-0.5772006713,-0.5116449414,-0.4020366636,-0.0358018552,0.2156013063,-0.4429299579,-0.1708039521,-0.3552181078,-0.3870041623,-0.0331832029,-0.3078680752,-0.6504127824,-0.689616716,-0.0336413574,-0.5191199021,-0.3183715012,-0.344098651,-0.5537387437,-0.382980854,-0.3884580085,-0.336591151,-0.4084586837,-0.2193606428,-0.6573486855,0.0059068094,-0.5108006482,-0.1924555133,-0.5455927784,-0.5801219582,-0.4430723347,-0.0955676297,-0.3032978605,-0.3798814379,-0.5227687744,-0.2912318763,-0.1596799217,4.545625492,-0.2345852648,0.0022849054,-0.6531036122,-0.3275332958,3.2357262522,-1.0042015713,0.0556285384,-0.4539297159,-0.6235084116,-0.2787944164,-0.4651916774,-0.590078948,0.1326584951,-0.8368235109,-0.393318123,-0.755002648,-0.0673404819,-0.5283324865,0.2774154375,-0.1493169025,-0.2594979734,-0.2549395935,-0.8274762239,-0.0714768927,-0.5882175896,0.0268490833,-0.3425600186,-0.4092484023,-0.4884804318,-0.3792104974,-0.1287433551,-0.5292977842,-0.1814423428,-0.3472926866,-0.548742973,-0.5950286233,-0.3055736304,-0.1158379813,-0.0353377649,0.0917656117,0.4048511246,-0.3682551432,-0.0235284487,-0.4792527415,-0.0642680082,-0.900919228,1.6126937631,-0.6232352445,-0.4823408095,-0.3594849815,1.2182223187,-0.2112844186,-0.3755235899,-0.9118589777,-0.3720223187,0.4486912214,-0.6652292685,0.6695187946,-0.38835361,-0.5891166423,-0.629185432,-0.1975282739,-0.2286869786,-0.3808162144,-0.2810934801,-0.2918988928,-0.0505600939,-0.0991991887,-0.0567037898,-0.0130142369,0.0131840087,-0.5991265967,-0.358918811,-0.4752154933,-0.7189050684,-0.234596754,-0.0884967247,0.0488853766,-0.4409046743,-0.6264666422,-0.424727012,-0.5066287938,-0.1716273354,0.044481767,-0.7489706787,-0.4822571543,-0.2714180605,-0.2376979282,0.0326783021,-0.2831066621,-0.2176457148,0.7790967224,-0.5111553058,-0.400228731,-0.692171677,-0.5653525707,-0.6717683221,0.4611508654,-0.4146359804,-0.5172301577,-0.0874675928,0.8378800774,-0.5899687197,-0.3574959954,-0.6078119419,-0.5181642744,2.4581582987,-1.3061164186,-0.1653741596,-0.4411807781,-0.0123004387,-0.7206710178,-0.2605801986,-0.3977184845,-0.0425463224,-0.1667071513,-0.6022363671,-0.3665678306,-0.6655043308,-0.461954995,-0.0916686851,0.0152692711,-0.2966317808,-0.6614508023,-0.2819115078,-0.0902536544,-0.6072395726,-0.6706703725,-0.59440106,-0.2104405215,-0.1552731058,0.0080173965,-0.7500236852,-0.0785257657,-0.2945538955,-0.7373912642,-0.7041303292,-0.2076330929,-0.3333875318,-0.0898082313,-0.685714434,-0.2413184977,0.6030868649,-0.1401938927,-0.269220265,-0.0742856765,-0.1846215881,-0.6138259977,-0.3136848153,-0.3104093393,0.0572043067,-0.151330195,0.0949442387,-0.7056156835,-0.7621696962,-0.1041077787,-0.084475966,3.9317221669,-0.9893362146,-0.3051999278,-0.235046088,-0.1149048643,-0.2454457851,-0.5686254132,-0.4889218595,-0.5719257855,-0.607496922,-0.1987835936,-0.0535475039,-0.5822429213,-0.4087571506,-0.3163499256,-0.4610975486,-0.1732369412,-0.5286257874,-0.6948396894,0.0589331229,-0.0358531204,0.0646848807,-0.7265388673,0.0233407004,-0.1802558103,-0.2069816698,-0.0108151913,-0.215220478,-0.354174467,-0.0323931828,-0.1564813855,-0.6638143523,-0.648117293,-0.7284706368,-0.6247872094,-0.2807088855,0.6167631392,-0.6741919492,-0.7360356167,-0.6426336547,-0.4774852039,-0.4834627771,-0.0321279916,-0.5065844415,-0.1587232614,-0.3695126892,2.0291995278,-0.4339466517,-0.0854062238,-0.3051633556,-0.364939955,4.5087533242,-0.8899677886,-0.4245874086,-0.4862385082,-0.0392959963,-0.0725531362,-0.4738089764,-0.1165021335,0.0653070409,-0.4300769671,-0.4626090444,-0.2376368789,-0.4519289288,-0.1331463544,-0.0394841267,-0.111405888,-0.6513461173,-0.6483601216,-0.1379874243,-1.2156913762,-0.2454171725,-0.1792320234,-0.1396697876,-0.1452505704,-0.1002690061,-0.053900018,-0.2756139454,-0.368835273,-0.5903944696,-0.2186866617,-0.5816602986,0.0066778105,-0.1696477846,-0.3509282554,-0.6090511803,-0.7482929551,3.9708458776,-0.3035658883,-0.7282567146,-0.4973177874,0.1386617613,-0.4207736845,-1.1328698307,-0.5072642785,0.058047796,-0.1292792067,0.6331397413,-0.4674110102,-0.3058909674,-0.6307123408,-0.3349589329,-0.3481416685,-1.2813581293,-0.3042767827,-0.1125026312,-0.1949347273,0.0241373658,-0.3170903192,-0.3651725526,-0.5658571538,-0.7778068097,-0.2657008582,-0.4964516936,-0.2112632704,2.6648077095,-0.0417780682,-0.0161103472,-0.0017065656,-1.3400547225,-0.6647895954,-0.4264287786,0.001079179,-0.2293041332,-0.1778207519,-0.5299802978,-0.5830740449,-0.0009747584,-0.1603969617,-0.1628997094,-0.5917785741,-1.1216437536,-0.3180975443,-0.8260383587,-0.9203827885,-0.5857853497,0.3127888643,-0.5300351778,1.1660547795,-0.0663957042,-0.2457631535,0.007840573,-0.3729700887,-0.0865579876,-4.024002969,-0.3201619446,1.3238246523,-0.2098238907,0.075921016,-0.4496371929,-0.4630074422,-0.2069900332,-0.765786787,-0.2829116147,-1.3492616561,-0.2093471182,-0.4489426607,-0.42341756,-0.0857567402,0.0157575147,-0.3049247777,-0.6320987458,-0.0439132528,-0.5883182974,-0.5887085197,-0.0699939974,0.8994082632,-0.3286056967,-0.6375935508,-0.1623280786,-0.715473731,-0.1543749536,0.0936938935,-0.1602914931,-0.4250614331,-0.3146778614,-0.5731916502,-0.1380115691,-0.0691757901,-0.2392687714,-0.5611847226,-0.3692887626,-0.4534869829,-0.2108199612,-0.494320438,-0.2819032348,-0.1212765765,-0.2613405106,-0.132054401,0.2105267389,-0.3302571157,-0.0904301878,-0.1533716759,-0.4577420215,-0.544811272,-0.0401776009,-0.5208794713,0.7009502401,-0.6992506266,0.5668823322,-0.5470911818,-0.2379211449,-0.5092098086,-0.5900913159,-0.1443014296,-1.1779738465,-0.055628228,-0.270549702,-0.4671867504,-0.0592242859,-0.8524447254,-0.7333228516,0.3133192758,-0.6464800507,-0.352459387,-0.663389914,-0.2263869055,-0.2859883678,-0.012917535,-0.4784373919,-0.3481787873,-0.3052444528,-0.791087953,0.242039822,-0.5224348373,-0.4989176137,-0.1161883014,-0.4290258204,-0.2023603315,0.0166896299,-0.5307800932,-0.603405751,-0.0816224512,-0.4283782831,-0.6040386257,-0.0542114111,-0.1486785633,-0.1863738552,-0.5566343495,-0.0022761086,0.0628769711,-0.2390861083,-0.3909236616,-0.1355725275,-0.3230585769,-0.7710673557,0.3784790866,-0.1924618201,0.4077428293,-0.6473069662,0.4028675258,-0.7065751197,-0.7444876393,-0.1790545051,-0.0872505447,0.5249168963,-0.3333460442,-0.2513679284,-0.2425000218,-0.3157519714,-0.0735511459,-0.6902385512,-0.3621432107,-0.4005132689,-0.271290047,-0.1269932137,-0.1239701422,-0.5233904993,-0.4690199562,-0.1876664816,-0.3064008698,-0.3992428139,-0.0611930454,-0.5942093548,-0.0474359712,-0.6279432399,-0.7276891098,-0.0094617755,-0.333619213,-0.7114007169,-0.3380947742,-0.3019442704,-0.3891777687,-0.2325103653,-0.5549701986,0.0108749637,-0.0622670687,-0.6306849036,-0.1034284199,-0.470318832,-0.3954136047,3.7078926668,-0.7304116838,-0.0800347825,-0.2429674475,-0.4694841912,-0.503845266,0.0453777701,-0.6067228347,-0.5845969012,-0.2324588188,0.349169553,-0.2764562494,-0.2437388554,0.0387339957,-0.4790082124,0.5617242288,-1.4921096886,0.5767175726,-0.6414172096,-0.3057299941,-0.198618617,-0.0760657893,-0.5435721612,-0.1316135838,-1.2199170737,-0.5949846272,-0.8384266968,-0.5370381399,-0.0507916692,-0.1166282457,0.0274234113,-0.5458437838,-0.7325028724,-0.2926103525,-0.2526178306,-0.0608966383,-0.2702531314,-0.0937260144,-0.4448930213,-0.458849894,-0.0209061703,-0.5357188311,-0.3189581552,-0.2210932654,-0.5382521699,-0.6848620823,-0.4542146562,-0.2367861318,-0.5269185171,-0.216343278,-0.238234019,-0.5165703818,-0.0576659707,-0.1053671311,-0.280268264,-0.6508759701,-0.4302627542,0.5610850208,-0.0825750592,0.7452244964,-0.1313294229,0.4632098922,-0.5186168195,-0.7120135412,-0.0842150335,-0.2358040662,0.1502383804,-0.4795584542,0.0928437531,-0.2983068644,-0.1570406592,-0.0610200142,-0.5363748787,-0.1203594575,0.0850353475,-0.1788232912,-0.1813624871,-0.3594300126,-0.3834073604,-0.083224131,0.044570902,-0.2790630653,-0.3686549637,-0.6683768497,-0.3199671274,-0.3229197909,-0.3667665151,-0.4051581872,-0.5133255017,-0.5534670336,-0.359578055,-0.3213079797,-0.3644235669,-0.75559833,-0.0365028188,-0.1729797118,-0.2639414232,-0.1195399571,-0.1074625157,-0.3738262383,0.0130815012,-0.2372919361,-0.3890650668,-0.7208378304,-0.6972617169,-0.1490144861,-0.6589241039,-0.4598609427,0.1445242375,-0.1025909133,0.0417054079,-0.5632343379,0.3967990746,-0.4685642605,-0.8054786404,-0.6159733417,-0.3362135038,0.4021915842,-0.8475483204,0.416940712,-0.1863637166,-0.6748447957,-0.0433800353,-0.7281897823,-0.2775376582,-0.277866959,-0.0215419855,-0.4104286743,-0.6971316629,-0.0113542877,1.6381275783,-0.2938485504,-0.1879942275,-0.2922192001,-0.3504129117,-0.4114178325,-0.09631341,-0.2017225355,-0.0100219877,-0.4101539933,-0.6908523978,-0.6040552372,-0.3749695726,-0.0840110229,-0.3582485358,-0.5777730964,-0.5710224085,-0.6257894915,-0.6074871479,-0.5183774268,-0.5069374473,-0.5452242784,-0.7174690162,2.0046421728,-0.3827148754,-0.0775586543,-0.1473349812,-0.4515282304,-0.736596752,-0.6940392687,-0.6576454549,-0.070443043,-0.0040865429,-0.0130279101,-0.7350598373,-0.3909705485,-0.0716443671,-0.5117920403,-0.4162233339,-0.4635897181,-0.4381908924,-0.2360082769,-0.4377306712,-0.7093568829,-0.5402948092,-0.0888072643,-0.2045420417,-0.5980037664,-0.225449009,-0.07131041,-0.4923159677,-0.2778233428,-0.4575023527,-0.1252907742,-0.1268816425,-0.5889482111,-0.3612564796,-0.0172603628,-0.6388091951,-0.5747904245,-0.1466048588,0.0151066165,-0.6129104179,-0.0867385052,-0.0773694338,-0.7023454344,-0.7190404024,-0.2834959414,-0.1890543176,-0.5542897914,-0.5601913527,-0.4890200958,-0.1244687889,-0.5335569702,-0.0180144445,-0.0635028546,-0.1286681564,-0.1082416704,-0.6305822625,-0.1801984365,0.0958721972,-0.097720177,-0.6705331782,-0.6263660443,-0.3954788371,-0.1870092638,-0.4920171818,-0.0627393977,-0.3193789358,5.8452225152,-1.2323558057,-0.493105631,-0.2755466116,-0.6054616034,-0.531287097,-0.3259315209,-0.3646662046,-0.5503137514,-0.0337460051,-0.0898147162,-0.682975355,0.0213518314,-0.0178149518,-0.4261156979,-0.3299839748,-0.0599534986,-0.3174058756,-0.7202961793,0.603861162,-0.4896110565,-0.6482033013,-0.0230022712,-0.1378160875,-0.2365350803,-0.1049244856,-0.3328709779,-0.4197291329,-0.045868382,-0.2879393633,-0.7256086216,-0.610974075,0.0362526924,-0.5442005607,-0.4195265545,-0.2322624768,0.3779464151,-0.0002002391,-0.3513904428,-0.4262486382,-0.1002468396,-0.4271571485,-0.0157106994,-0.0308001054,-0.4745172364,-0.4196004861,0.7524727577,-0.4623835511,-0.4391947492,-0.5363174871,0.0314345484,0.5860280007,-1.0968450359,0.3852943909,-0.0478596413,-0.2719040266,-0.5474741554,-0.5399831357,-0.198535936,-0.3399154134,-0.5269335745,0.0161610237,-0.0150599524,-0.3244855168,0.2526802514,-0.3272492551,-0.3638869358,-0.2164109795,-0.3172155974,-0.3029619711,-0.2980260236,-0.2274823279,-0.065225916,-0.5516321605,-0.2213455758,-0.6652932169,-0.1145843505,-0.4420955439,-0.237214951,-0.3104869433,-0.7398654708,-0.0623787823,-0.2036932235,-0.4722633439,-0.530834928,-0.4325263103,-0.5227981437,1.0667061059,-0.6184813274,-0.1253424793,-0.5780914655,-0.4128735406,-0.1611529011,0.0681922013,-0.1317625947,-0.3941762806,-0.6009437909,0.7753735883,-0.1620544192,-0.4058994028,-0.3439999504,-0.1622528872,0.5685594722,-1.5184500813,0.2024239925,-0.0103147206,-0.091637403,-0.6591701183,-0.3721741546,-0.3836228185,-0.1237688282,-0.1338460561,-0.6491558392,-0.3584898035,-0.3962618889,0.2229555544,-0.2720567896,-0.212714428,-0.7229974703,-0.0378895357,0.0054627077,-0.4716316905,-0.4445193705,-0.1289369891,-0.4510312543,-0.6139005131,-0.6900452601,-0.4833776831,-0.4622965645,-0.5266684893,-0.6792629511,-0.7059409531,-0.1247088681,-0.1941116112,-0.1532333709,-0.1123451986,-0.4006217327,-0.6168080201,1.59407192,-0.1044271352,-0.3198758413,-0.1123384085,-0.6327619183,-0.594517108,0.0517820885,0.0454250025,-0.2541730928,-0.3596210433,0.0076815861,-0.1619032194,0.0442430846,-0.3238629509,-0.6896774319,0.0080109678,-0.8989848286,0.2438463234,-0.2054247855,-0.4156292862,-0.3235980767,-0.5602247531,-0.0369817146,0.2990091706,-0.6678469295,-0.1680567776,-0.2763458262,-0.0945278214,-0.4599006883,0.0596726069,-0.5434433206,-0.7348422917,-0.1289746542,-0.0900394555,-0.2084726776,-0.0796860726,-0.6369218564,-0.7395086295,-0.5844936596,-0.3406989309,-0.2861526429,-0.7289452466,-0.2068282825,-0.7253041287,-0.2647010944,-0.6813786258,-0.0149086213,-0.0182474093,-0.106130805,-0.1987482773,-0.5612210733,1.5766623712,-0.0714533236,-0.3281432666,-0.5047281911,0.0020941119,-0.7199582412,-0.4173842372,-0.5884943971,-0.5925579143,-0.2736808795,0.9150941837,-0.4014433547,-0.4900567823,-0.4356654857,-0.7265547073,-0.259655397,-0.5244678185,-0.0752860587,-0.3741673781,-0.0145883517,-0.6581729436,-0.0947184314,-0.5151066082,-0.4087643652,-0.2567687586,-0.3934999915,-0.4850729624,-0.2825176719,-0.0787223116,-0.426660378,-0.1173736423,-0.6561288769,-0.445616613,-0.6466267147,0.0040069203,-0.2000291334,0.1127542732,-0.5007198122,-0.5564260446,0.0116364681,-0.5995008468,-0.3363753159,-0.1937449924,-0.4906294828,-0.4211350042,-0.1894724057,-0.5010939507,-0.4887392511,-0.4716578334,-0.6651160128,-0.0644804069,0.4897104721,-0.4534194378,-0.7017501491,-0.0010885202,0.0278418299,-0.6273410703,-0.111620771,-0.7238039091,-0.2896274487,-0.0828945275,0.3382727496,-0.0524006727,-0.6771029337,-0.5523222486,-0.2887242247,2.169184712,-0.4521394112,0.2100016022,-0.3211021004,-0.2708754792,-0.695382335,-0.5300339216,-0.4487423584,0.2734280286,-0.273241024,-0.2568476198,-0.649218968,-0.6773129863,-0.4684528861,-0.349972204,-0.06906519,-0.4197768226,-0.4076661398,-0.0050841516,0.1002620927,-0.3319758704,-0.3201932146,-0.333709456,-0.2354511453,-0.70626009,-0.6820482578,-0.546888309,-0.5613939242,-0.3492743853,-0.2902723414,-0.5306951467,-0.1289547593,-0.7346572512,-0.3389383924,-0.4562545412,-0.2926920517,-0.2661011538,-0.5810864049,-0.4080720137,-0.7492989394,-0.5991802753,-0.2534191664,-0.1432908754,-0.1407482176,-0.2132433186,-0.3207104818,0.9599598355,-0.7032966293,-0.1002483108,-0.5033037362,-0.5377896601,0.4688424312,-0.1801405402,0.1169297295,-0.1850384387,-0.4308557624,-0.2063047064,-0.5614964093,-0.1674172634,-0.4088768246,-0.0305125976,-0.6913755908,-0.6134667184,0.0405669394,-0.1796497425,-0.3870225986,0.0494949888,-0.1791331205,-0.1325896484,-0.5906853519,-0.3438280239,-0.0991097768,-0.4445179783,-0.6365870416,-0.0662736409,-0.3045178159,-0.6873682661,-0.1014167377,-0.6410472166,-0.3438030776,-0.0894594691,-0.4939469143,-0.1678974395,-0.1745503002,-0.1375640737,-0.1136151222,-0.5900994179,0.1978663551,-0.7404781399,-0.2147062117,-0.2701252618,-0.3641045521,-0.7424457164,0.0134174507,-0.5720519015,-0.3487296107,-0.3854170076,0.1014995864,0.0378644015,-0.6695746524,-0.5088045427,-0.3478145176,1.4440224357,-1.0609146103,-0.4020322508,-0.5498380121,-0.7286002087,-0.688116509,-0.403542125,-0.5452596137,-0.548221024,-0.4005164863,0.0165385727,-0.1095864033,-0.6183726725,-0.0463778389,-0.1056010229,-0.4693526342,-0.551713903,-0.3768502203,-0.3286019707,-0.3622271856,0.1525207726,0.0714748504,-0.0719988842,-0.5442478553,-0.6275064571,-0.1237911135,-0.4348339755,-0.4552028305,-0.5035894034,-0.1166760464,-0.1866035447,-0.0244934623,0.014790117,-0.1382617909,-0.090700196,-0.6941817273,-0.0687086556,-0.2720738844,-0.1298559729,-0.4796154636,-0.0046667044,-0.5820219315,-0.5171529006,-0.5831606872,0.0628208579,-0.6880697237,0.0607933784,-0.443058575,-0.0834053633,-0.5783056948,-0.4420831912,-0.3097251322,-0.3207109761,0.3011601833,-0.0133422058,-0.6190672622,-0.1139844491,-0.120593916,-0.7350400376,-0.5702123064,-0.1180636447,-0.6879983627,-0.2935467765,-0.6021007507,-0.5660867358,-0.1613809761,-0.5229406114,-0.2760589314,-0.7159991598,-0.6938193236,-0.4662306606,-0.1538919019,-0.3361842455,-0.5146234606,-0.1058493143,0.0213761037,-0.0572710187,-0.2941582433,-0.0544826499,-0.6693106947,-0.3240378945,-0.245539377,-0.6531712277,-0.5645107948,-0.5459514384,-0.4666681545,-0.5292901761,0.8014229007,-0.4587147308,-0.4815761188,-0.1248818593,-0.1537991456,-0.2778186062,-0.4165084548,-0.3637788938,-0.1416076109,-0.4946289707,-0.2443434498,-0.50211014,-0.0072839125,-0.0625795451,-0.6651125063,2.1596483704,-0.2944277239,0.3665283078,-0.3951423443,-0.6992734264,-0.1280838851,-0.3044097273,-0.3869099588,0.2786141088,-0.0868406214,-0.5876291512,-0.0283939453,-0.3568622649,-0.283340505,-0.0862030752,0.0984015886,-0.4621525448,-0.3080957262,-0.644465644,0.0640987249,-0.1277035765,-0.0138620113,-0.4390174743,-0.2481027719,-0.452445487,-0.434014506,-0.698836739,-0.4734895577,-0.1673795633,-0.444693687,-0.4599089269,-0.2058723813,-0.3871250745,-0.3841555475,-0.3752361682,0.0003184795,-0.1730891058,-0.684219084,-0.1649357414,-0.020873521,-0.3416481784,-0.4622013582,-0.3185386274,-0.6779556043,-0.5779924006,-0.4065759617,0.1423143693,-0.3267640888,-0.6295158805,-0.2912988009,-0.0749084566,0.601224305,-0.6709785575,-0.5360003831,-0.5715632034,-0.2454864389,-0.5181547458,-0.4736820641,-0.7236657098,-0.0087745483,-0.2627083157,-0.3184275397,-0.7367525447,-0.0442961102,-0.6497087808,-0.1995251912,-0.0683623301,-0.1643040034,-0.2709627366,-0.103103429,0.1604724754,-0.1449889842,-0.5164654337,-0.0330997873,-0.5374289636,-0.6506260187,-0.4370186247,-0.3501590444,-0.5903827311,-0.1855274541,0.0320965176,-0.30711796,-0.1106286482,-0.4088554933,-0.5089796174,-0.4787140584,-0.1513707138,0.191856105,-0.6844963025,0.0159452733,-0.4558007746,-0.2904627382,-0.3301789576,-0.5193428416,-0.2552491119,-0.0437585414,-0.6885218616,-0.0491815223,-0.0758101169,-0.2404939909,-0.5481948682,-0.6620404728,2.0093508504,-0.4643751515,-0.2462425583,-0.0194374023,-0.6458702617,-0.7667243253,-0.5934811414,-0.7798441864,-0.5527504037,-0.6652278598,-0.2483002534,-0.1898668558,-0.3513292624,-0.0690933212,-0.360142219,-0.0849046081,-0.4296773544,-0.0164615429,-0.1370396721,-0.2030249372,-0.2069676867,-0.2037678697,-0.7049990866,-0.6758473521,-0.1379976125,-0.043172888,-0.5655579486,-0.430068724,-0.1088245744,-0.1892715421,-0.2059193554,-0.4404526752,-0.2703348362,-0.5881231143,-0.2318609767,-0.4547008135,0.1798730983,-0.3957945998,-0.3840804805,-0.6127712432,-0.0088519322,-0.5215102855,-0.1786278716,-0.1135440653,-0.5503399004,-0.1628099605,0.1646782874,-0.1884414612,-0.6392310747,-0.1144862551,-0.6300751818,0.7777372413,-0.2000826962,-0.4451142712,-0.5507312455,-0.5482322754,-0.1870540036,0.1502536044,-0.1083250398,0.1450411358,-0.5511774073,-0.4001239666,-0.1748198138,-0.6375527705,-0.010641802,-0.0643674512,0.1735626774,-0.4681191378,-0.3478250609,-0.2278374968,0.2024361115,-0.0304331336,0.2654231719,-0.1797920955,-0.2623197822,-0.3924291247,-0.6149687157,-0.5764599882,-0.0662777807,-0.2010792975,-0.3062926522,0.045356377,-0.4711302056,-0.2452903929,-0.6112791678,-0.3460678641,-0.2232460359,-0.5282418068,-0.5667714551,-0.1171580853,-0.250668829,-0.3147763487,-0.1593085104,-0.2557131448,-0.4336868668,0.1075468119,-0.5897490504,-0.4951721152,-0.3917850258,0.1081931333,-0.4900947177,-0.4919324193,-0.1809161017,-1.3549960471,-0.119562962,-0.4749714811,-0.1829799635,-0.7011968004,-0.024488188,-0.3677881544,-0.4146078466,-0.5308044594,-0.6725975874,-0.0722399522,-0.684905493,-0.3302562311,0.0364912195,-0.4006315298,-0.0682943216,-0.3319650125,-0.1246025796,0.0890353506,-0.5091685785,-0.6124306648,-0.1487960285,-0.9508179553,-0.5100924965,-0.499033759,-0.1094324148,-0.1368157818,-0.0138162188,-0.293703455,-0.0726210666,-0.632524733,-0.2286919303,-0.5296682252,-0.1604295503,-0.5155366159,-0.5702184944,-0.1943927718,-0.2552197906,-0.2149214335,-0.6263575901,-0.5234936945,-0.2888876101,-0.235653505,-0.641765662,-0.1112636074,-0.0539739303,-0.6318432124,-0.4405719217,-0.6223112559,-0.496162174,0.2590784585,-0.2171874643,-0.1241351519,-0.6651731229,-0.4649259173,-0.2982671964,-0.4944037085,-0.152007504,0.2814914283,-0.6461516987,-0.1394544765,-0.4321070606,-0.4360080249,-0.2344051142,-0.6641086673,0.1146131027,-0.5446126488,-0.3275180583,-0.5124792463,-0.185623669,-0.4936917018,-0.3341523293,-0.0342326274,-0.6006598082,-0.1675074215,-0.361871579,-0.1316950032,-0.4865260177,-0.2080513222,0.0466467426,-0.0893164984,0.1731615351,-0.3048017273,-0.5179820275,-0.0127628036,-0.4910092353,0.2047262074,-0.6199145324,-0.2782306839,-0.2786427049,-0.3199611391,-0.2425332473,0.1171717442,-0.273840655,-0.5773745576,-0.4079808628,-0.4274745512,-0.5213084312,-0.4530178691,-0.435751003,-0.6128614747,-0.507610447,-0.7287950836,-0.3612822326,-0.2358742516,-0.4320374642,-0.5592866464,-0.0926997844,-0.3796068061,-0.2530207586,-0.3772455963,-0.1100597231,-0.2612033119,-0.3626657159,-0.3278804358,-0.3039476901,-0.067735459,-0.6574886884,-0.643705534,-0.1947716692,-0.4577614436,-0.042589737,-0.271181283,-0.0976313642,-0.3613575211,-0.3254178001,-0.2127271925,-0.3202320958,-0.0292973132,-0.5265692923,0.3812082539,-0.0065304477,-0.2501300238,0.4780045554,-0.7661211947,-0.4124103768,-0.7522843678,-0.8432517968,-0.3707381672,-0.7569459669,-0.2337731494,0.0096266629,-0.5060832891,-0.2218859471,-0.1615420286,-0.3938586922,-0.0769857674,-0.5799357708,-0.4008878721,-0.6963495492,-0.5794977316,-0.2961602817,-1.0027990074,-0.6777532231,-0.6525368919,-0.29473274,-0.0386868328,-0.4441903974,-0.6953104829,-0.1545933411,-0.4078717575,-0.4206461577,-0.7650592556,-0.3438653252,-0.5956327896,-0.159150643,-0.0259266789,-0.0558477518,-0.5017124065,-0.3509159793,-0.1714275194,0.1046453429,-0.1693257485,0.0378275402,-0.4005870449,-0.8000974223,-0.2142008198,-0.0537481546,-0.3770469862,-0.3286394164,-0.4941812088,-0.4803526157,-0.0765634906,-0.4310451798,-0.2800346282,-0.5701918377,-0.0643760968,-0.3869642418,0.0204075135,-0.5659813255,-0.4924233213,-0.1150617053,-0.4105364046,-0.1234175666,-0.0713097075,-0.548777806,0.1049111458,-0.700379146,-0.1942925358,-0.7636496663,-0.2090685432,-0.6712125924,-0.4403870148,-0.0550010093,-0.4225517122,-0.2228164875,-0.5904564297,-0.3000738702,-0.2972129114,-0.0042522137,-0.5439092753,-0.0192569351,-0.2418532315,-0.4540631196,-0.1065111649,-0.4550098585,-0.6905056433,-0.4185959846,0.2579738187,-0.3998919763,-0.3393524199,-0.5849499331,-0.1945212622,-0.2353285052,0.276012027,-0.3328748131,-0.2128169439,-0.5814813399,-0.0193816119,-0.6305315308,-0.3452390004,0.0105944588,0.5013342508,-0.3285049371,-0.160329323,-0.3788695721,-0.1337667584,-0.6323448775,-0.1319551541,0.2920707284,-0.0761686385,-0.5138139578,-0.559200735,-0.0520217184,-0.2187243864,-0.4189469955,-0.3707237489,0.4663365635,-0.3530022462,-0.6285727026,-0.210297891,-0.3382543162,-0.0114647088,-0.6146359591,-1.248062713,-1.1510542146,0.1278450867,-0.3483101999,-0.3737783509,-0.0559649047,0.1155229738,-0.621577684,0.0954982171,-0.0098964249,-0.2646577308,-0.6077129794,-0.5902019742,-0.0297021317,-0.0406716443,-0.1561357936,-0.0533046926,-0.4242228665,-0.6254695026,-0.0868936647,-0.1511932096,-0.3722098053,-0.3669651566,-0.9860971578,-0.4650779256,-0.1624752789,-0.6374298172,-0.6099433524,-0.4924284169,0.005939499,-0.0788617631,-0.4416874866,-0.5508166476,-0.0705473609,-0.0950723107,-0.3690534498,-0.477989623,-0.3989143068,-0.3400439122,-0.5300501244,-0.1517053904,-0.4816431036,-0.5066757226,-0.3092258601,-0.5183299031,-0.5418600575,0.0835149482,-0.2890019292,-0.4996257031,-0.6530224659,-0.5735694538,0.0430731313,-0.1012257973,0.2053556516,-0.4166214286,-0.2949340594,-0.0369823163,-0.4402082499,-0.1726205557,0.2501069649,-0.1499143454,-0.675953806,-0.0820760831,-0.6803854007,-0.5178669707,-0.6311301317,-0.5012330647,-0.2626380489,-0.1642311169,-0.0361282033,-0.4358251146,-0.2288335764,-0.0045145429,-0.3225715566,-0.3604541398,-0.0808548163,-0.0882369837,-0.3284381026,-0.4954405277,-0.6612692301,0.2231154919,-0.6111741148,-0.482777983,0.0054708431,-0.3899539123,-0.3481897971,-0.3413750113,-0.3651693042,-0.4874937484,-0.4426360631,-0.4343787016,-0.4889594952,-0.3156394872,0.1272039508,-0.170840005,-0.6645760737,-0.4741855193,0.1984076874,-0.2373648652,-0.3866677465,-0.2032603816,-0.0743241499,-0.3188442049,-1.2145561394,-0.0157796591,-0.4367386296,-0.7945010845,-0.3285485113,-0.1432423759,-0.350705365,-0.0143613173,-0.7067694942,-0.276599174,-0.7156184907,-0.4702421211,-0.3302291293,-0.3632098086,-0.4340733315,-0.0972523405,-0.2502530307,-0.2913869013,-0.6076128987,-0.2452683823,0.0045190938,-0.6131177706,-1.1595317166,-0.0164057548,-0.0097272398,-0.1255352565,-0.6539019298,-0.3786947102,-0.0418600123,-0.2928526676,-0.0715240562,-0.0647811674,-0.2301379711,-0.4255126016,-0.3485961561,0.0293004768,-0.6647216796,-0.0727223141,-0.1433928156,-0.1343012065,-0.2650560664,-0.489956885,-0.4277902767,-0.6336002051,-0.1525515648,-0.2999547877,-0.2006765031,-0.3766491113,-0.2708922283,-0.5167578523,-0.6174076355,-0.5485013335,0.2067982485,-0.2505966762,-0.6902894533,-0.5426646686,-0.7124461857,-0.3195138432,0.1845917872,-0.2433604078,-0.4397140812,-0.497007938,-0.0602723508,-0.1582868272,-0.5552329518,-0.3466547212,-0.3368705308,-0.0974629514
   -0.0203403149,-0.3870422188,-0.1405905717,-0.1964569267,-0.6675587295,-0.927403858,-0.5751251008,-0.2574621188,-0.7182463449,-0.5178470619,0.0176045172,-0.0952746866,-0.412724294,-0.70563258,-0.2232436384,-0.7353960737,-0.7222951389,-0.0777066079,-0.490715366,0.0716843111,-0.5047481343,-0.400733758,0.0210549208,-0.5655832268,-0.3363931603,-0.4736026834,-0.2891513925,0.0046384173,-0.1614870076,-0.6718505087,-0.6516202631,-0.2700239182,-0.4662969987,0.318591355,-0.2640417294,-0.5314341107,-0.5319415826,-0.0863604992,-0.0496092785,-0.4728995881,-0.2211968786,0.0214075988,-0.1529141069,-0.3272055547,-0.5375323881,-0.7087970396,-0.0265479855,-0.358179813,-0.3458117386,-0.4755300371,-0.3146743185,-0.0713390151,0.1088761403,-0.0679015305,-0.3994027656,-0.5825045044,-0.9159711936,-0.4095577271,-0.1170720743,-0.2011214483,-0.3300653234,-0.1554235612,0.444913591,-0.4591942643,-0.0729212325,-0.0010215558,-0.5225017181,-0.246832422,-0.0148103662,-0.167960992,-0.1725985982,-0.369595749,-0.2381817148,-0.351037453,0.0579189992,-0.4036195146,-0.5251761593,-0.264165673,-0.0808889851,-0.4656000012,-0.6879267301,-0.2596902315,-0.2134550295,-0.0830228913,0.0667969876,-1.2497647427,-0.7884225563,-0.2119138412,-0.5984422992,-0.2085399497,0.0357528838,-0.4613174119,-0.8455660374,-0.3873968267,-0.236382494,-0.5822819755,-0.4843096791,-0.0216861057,-0.2851345531,-0.5140188672,-0.7092623133,-0.2544065752,-0.0198886966,-0.5423058421,-0.0340237732,0.0607553686,-0.22548557,-0.6461848127,-0.0550754104,-0.4985443586,-0.1197819201,-0.456413027,-0.3431527109,0.3272416941,-0.4110802459,-0.4553059866,-0.048657875,-0.6872866846,-0.4154884804,-0.2937879255,0.185108702,-0.2436494788,-0.1098387555,-0.2621396616,-0.2840032492,-0.0732069476,-0.84430212,0.0606647779,-0.6257264497,-0.1499424951,-1.0584889428,-0.3963465136,-0.1332616159,-0.3993208793,-0.3532767739,-0.7186616487,-1.1541208811,0.1274901083,-0.6778161524,-0.5358503719,-0.6847608078,-0.6849448882,-0.801415201,0.6602261332,-0.3765289965,-0.5785927174,-0.1115601432,-0.2359937633,-0.0299158772,-0.6401722585,-0.2439964829,-0.0955005805,0.1261150805,-0.0707057076,-0.3034283126,-0.724150818,-0.4577658135,-0.26255085,-0.2879529367,-0.0309942618,-0.6115443386,-0.0423672155,0.0526840181,-0.4986943392,0.4461730984,-0.2105965478,-0.1608715435,0.331191985,-0.723131458,-0.595330241,-0.6100361693,-0.5995970205,-0.4705242196,-0.3500314994,-0.0534933549,0.0767270823,0.0111490037,-0.5971948312,-0.1589339712,-0.220493377,-0.0040778334,-0.0560680405,-0.0308328214,-0.6786050575,-0.0435995319,-0.678250343,-0.3950571948,-1.3500959275,-0.9715213393,-0.2943259386,0.0085605143,-0.6663999716,-0.047292543,-0.7073266116,0.2400217559,-0.2148316807,-0.5577824795,-0.3349847305,-0.1980528891,-0.2478515975,0.2028654188,-0.2742591904,-0.4669655439,-0.0953680964,-0.6935797333,-0.0898178449,-0.7096971877,-0.1537203922,-0.7128512647,-0.0724154898,-0.1323020817,-0.2998042509,-0.5038684053,-0.3199511822,-0.6942930679,0.3676844546,-0.449287952,-0.0185641554,0.1181366759,-0.1570341868,-0.1548426245,-0.1891038642,-0.3936252375,-0.5405855185,-0.5594522163,-0.6118062911,-0.3498444572,-0.082033481,-0.3254384556,-0.2077063917,-0.027787424,-0.4684264655,-0.2264458637,-0.1790533201,-0.1649713952,-0.1433060488,-0.2403511988,-0.1557425903,-1.3116364852,-0.2696646319,-0.6516559364,-0.3747700956,-0.4917942107,-0.02469973,-0.6394238374,0.0549998946,-0.1048472677,-0.647016644,-0.431231686,-0.4074551812,-0.6666266112,-0.2311241561,0.1628689986,-0.3884800455,-0.603179805,-0.0070386069,-0.0186493603,-0.4447874457,-0.127267844,-0.3344374139,-0.8668861897,-0.8147896877,-0.2552418041,-0.6295053368,-0.1296432823,-0.7711132068,0.4499516634,-0.5074894772,-0.5454118932,-0.1318779118,-0.2986631218,-0.1337375357,-0.3753794002,-0.1743116513,-0.096130875,0.0477944783,-0.3268887604,-0.0177955954,-0.2069359952,0.0967578732,-0.3564424711,0.1081589564,-0.7159781,-0.4553777552,-0.2037650296,-0.3176500589,-0.3459463066,-0.5997045214,-0.4787502943,-0.4347303472,-0.4986229765,-0.3693232706,-0.7386728742,0.1333246786,-0.0253462427,-0.5041926459,0.0603891273,-0.4100546622,-0.6703162865,-0.4297648108,-0.3336116932,-0.4001615086,-0.1886998432,-0.3519541354,-0.5362655898,-0.0499812296,-0.0254116352,-0.5122214074,-0.6068984458,-0.284149308,-0.3167186044,-0.1561294931,-0.0857723142,0.0118489719,-0.2523311368,-0.0533510877,-0.008272504,1.4016838036,-0.27710972,-0.3920988881,-0.0600722371,-0.4453624314,-0.6152701624,-0.4854742442,-0.4383807716,-0.3541964199,-0.4616626561,0.039911342,0.0236673983,0.0556057352,-0.3167166162,-0.0655904328,-0.5613159488,-0.7219435549,0.0505503642,-0.3989352536,-0.4208994447,-0.6006479962,-0.2459371081,-0.3141037174,-1.4272762958,-0.541493224,-0.3160426879,-0.5349678774,-0.0505123837,0.0026416178,-0.5826421032,-0.4309141001,-0.0649212251,-0.2946231907,-0.0096693477,-0.4648782745,-0.2358827662,-0.2158361347,-0.1657208713,-0.4865024875,-0.2938921932,-0.1896268878,-0.7750651969,-0.6511374146,-0.5867797759,-0.4690051174,-0.5963636622,-0.4416496918,-0.537789167,-0.5583899665,-0.6923106643,-0.5718792832,0.9393241864,-0.1117873362,-0.1838104138,-0.1870345504,-0.6104828316,-0.525865632,-0.3132590272,-0.0719372654,-0.491866445,-0.1794535894,-0.1217115935,-0.0154746943,-0.2955406218,-0.79513734,-0.2386599884,-0.7141944125,-0.245513851,-0.2158429754,-0.5074071766,-0.1352834178,-0.1089306702,-0.2701126609,-1.6838211692,-0.8644905635,-0.4488387497,-0.0629293919,-0.5088715764,-0.7237813866,-0.5399006933,-0.6347909129,0.1084671511,-0.547474918,-0.297018839,-0.6850448278,-0.5596785578,-0.3151772769,-0.2849542756,-0.1388053256,-0.4249026677,-0.0584689755,-0.0474419717,0.1088798005,-0.2301433975,-0.0053165057,-0.6726629415,-0.2508265316,-0.6178556706,-0.3256813375,-0.4373476493,0.0157850911,-0.7123526394,0.4307238452,-0.2111940103,-0.2807957225,0.4342410901,-0.0584968355,-0.2387534492,-0.394710944,-0.7030480877,-0.4814675648,-0.2638111163,0.0331639254,-0.2171231853,-0.0520757162,0.0700540363,0.0781317515,-0.0686701721,-0.4500192842,-0.4639020067,-0.6709927335,-0.3296879356,-0.5829904453,-0.6714400468,-0.4868066918,-0.8813256058,0.0913977925,-0.0884041314,-0.7401312173,-0.3228903735,-0.4751375585,-0.377119929,-0.3264967655,-0.5995954558,-0.5320592447,-0.1710957399,-0.6070908925,-0.6637152409,-0.2484130106,-0.0491752902,-0.235033096,-0.0721216582,-0.0172172062,-0.526607179,-0.6995007309,-0.3182882566,-0.5226702382,-0.9351079862,-0.3671647478,-0.3041872824,-0.0064885087,-0.1680081335,-0.0167702468,0.351631534,-0.422131154,-0.1357245824,0.027977473,-0.4557255855,0.0330511388,-0.3184516924,-0.3623183235,-0.1695864586,-0.3390217571,-0.0359352012,0.083770381,-0.4758043752,-0.3648352496,-0.6551902846,-0.3872930724,-0.5932491247,-0.2258662201,-0.6393336901,-0.6338595038,-0.592050661,-0.7341774124,-0.0981183868,-0.4989260228,0.0148332168,-0.0011871608,-0.8119020209,-0.555898121,-0.6460386464,-0.2364950125,-0.5706021478,-0.674031119,-0.1042865911,-0.4871769318,-0.6306876062,-0.1903505498,-0.1352291254,0.0346482074,-0.5626723279,-0.063385815,-0.2725579217,-0.6590572129,-0.1826888246,-0.6678377559,-0.7715208803,-0.8771673765,-0.0460207402,-0.3384813689,-0.1478565958,-0.0896664483,-0.1946799814,0.7141292231,-0.0114009537,-0.2454946321,0.9486787605,-0.2302313196,-0.7240269305,-0.430489495,-0.5778323411,-0.1981401891,-0.7139457686,-0.376177634,-0.3154171698,-0.2734122978,-0.440811078,-0.01385243,-0.0975112912,-0.1733987232,-0.239971913,-0.5494967361,-0.3827606516,-0.7337972983,-0.7059553692,0.4802492654,-0.8692302038,-0.7544726012,-0.4348818009,-0.8584193087,-0.0457204116,-0.206712929,-0.5461432019,0.1891599565,-0.3441000071,-0.7158375666,-0.3647762414,-0.5847386839,-0.3618559387,0.6361100784,0.3494583493,-0.6793366094,-0.2529687294,-0.4908242004,-0.3819641671,-0.2026546346,-0.2239804449,-0.016652478,-0.6487763759,-0.4973876183,-0.402442625,-0.5410199426,-0.159109857,-0.6615359147,2.4466527623,-0.3394295539,-0.3755581036,-0.1586625869,-0.226285296,-0.6773558129,-0.5207252165,-0.2120874889,-0.0934020996,-0.5056415089,-0.667922195,-0.0311519601,-0.3178702088,-0.3637892677,-0.4514616268,-0.181664802,-0.2581354121,-0.2028138838,-0.3106987356,0.0405220781,-0.4626699033,-0.4671372176,-1.0690745479,-0.8088022106,-0.1024705447,-0.3245508516,-0.6784255424,0.0917621603,-0.4324922266,-1.0206544328,-0.5780735022,-0.260719547,-0.6838987832,-0.7015965371,-0.1944850432,-0.2241856619,0.665205746,-0.5213163385,-0.709510125,-0.0389869893,-0.428196554,-0.2998583775,-0.25357323,0.112486587,-0.121656204,-1.0265665318,-0.4742938774,-0.2158310388,-0.0274846862,-0.7466192484,-0.1359405183,0.2596302846,-0.7178698942,-0.1981711349,0.1322408285,-0.7359063117,-0.1834243677,-0.0952403184,-0.6413522692,0.0216997762,0.1766846287,0.0324460277,0.2071476674,-0.6120189621,-0.2653028973,-0.1598096503,-0.0465612466,-0.4326047911,-0.2882948365,-0.3452767276,-0.6383479672,-0.5530176959,-0.4698746478,0.0131791966,-0.2324121815,-0.3236203543,-0.3265152212,-0.5530934687,-0.0695766145,-0.6153895006,-0.3890867858,0.5658501426,0.0108088811,-0.1669384779,-0.0601383514,-0.6884015486,-0.7221160015,-0.3114907517,-0.0946545307,0.0370488168,0.5496312485,-0.6042097688,0.0241197122,-0.3535284447,0.0054185467,-0.1172370894,-1.0929245636,-0.7379200408,-0.2186925195,-0.7195062079,-0.6708809084,-0.3127464045,1.3208275368,-0.1103891553,-0.5634478676,1.3903987473,-0.0592799406,-0.5366622,-0.4846693808,-0.027812521,-0.348260909,-0.465896897,-0.5969665406,-0.4673049915,-0.0649996752,0.0439327745,-0.6419933296,-0.1316045623,-0.3475162872,-0.5403386834,-0.3124918853,-0.6038029282,-0.6694838915,-0.2486443739,-0.5566578201,-1.2033783,-0.5233816517,-0.4942601415,-0.5110224681,-0.1171810997,-0.378109561,-1.0030821811,-0.4270455493,-0.390389177,-0.2048117186,-0.2404874948,-0.7421695406,-0.083562646,0.3036053301,-0.4378120415,-0.1911810941,0.0478807082,-0.1711853316,-0.6461156447,0.0398851575,-0.0911836082,-0.0822772993,-1.1520142107,-0.2845389562,-0.6195779285,-0.4422283964,-0.6498857903,-0.6406116498,-0.0378040196,-0.5977954359,-0.3014427229,-0.4436060223,-0.0515471483,-0.469606395,-0.1598167232,-0.0309767822,-0.1537649964,-0.0329009308,-0.5281972869,0.3154898808,0.0031648834,-0.5758031163,0.0800373168,-0.3500888657,-0.4507509405,-0.3710868063,-0.6268330963,-0.2702411067,-0.7867017122,-0.2419892502,-0.3997195705,-0.3507045271,-0.4610378515,0.034319666,-0.9779578043,-0.7000013202,-0.5438609869,-0.7840549237,0.1905100886,-0.6488235874,-0.0620265764,-0.5875170189,-0.5521475878,-0.1009213363,-0.3616223254,0.0267539304,-0.0463658927,0.6754408494,-0.2486119574,-0.1601055899,-0.6540015457,-0.0904197852,-0.1866757023,-0.7250251872,-0.372412963,-0.2706101951,-0.5811525072,-0.708804031,-0.2822625573,1.077921806,-0.3092820375,-0.0339146181,-0.228270755,0.0301856365,-0.3945967623,-0.2449639728,-0.6258077403,-0.6963291942,-0.3986222715,-0.4899268775,-0.1174720108,0.242242351,0.076558343,-0.1939401737,-0.3663497935,-0.2121495787,-0.6676901067,-0.1197613784,-0.0236460997,-0.1066638402,-0.5388391342,0.0090081556,-1.5519388343,-0.4268490986,-0.3498866734,-0.4641904395,-0.1183404824,-0.4088346731,-0.6047328621,0.0583337597,-0.2001465087,-0.3044984136,-0.0213481782,-0.0252718548,-0.2829454447,0.2767935142,-0.1085912078,-0.4715766841,0.0411098731,-0.3038459802,-0.842091254,-0.534023253,-0.2187044707,-0.7783679987,-1.4547831756,-0.4547135456,-0.3734689251,-0.0453666193,-0.75823741,-0.6352362527,0.2853266013,-0.5514809012,-0.0498899232,0.6508384396,-0.5951929875,-0.4610082489,-0.6875946231,-0.1865760059,-0.0234437113,-0.0943903362,-0.5091030167,0.190879426,-0.326897727,-0.6174501586,0.1701499166,-0.5878580752,-0.0685812536,-0.2906401243,-0.132942328,-0.6236577503,-0.0469923996,-0.230920055,-1.2139218443,-1.0547157559,-0.1704974897,-0.4055207947,-0.3880790392,-0.4659568102,-0.6960207558,-0.7544073589,-0.2280705009,-0.0315531909,-0.0820903785,-0.7284700527,-0.3390009169,-0.3416787824,-0.6434628629,0.0109827139,-0.1402071712,0.2173839436,-0.2916422542,-0.3221595768,-0.4867491512,-0.2312772784,-0.4304684821,-0.4885404577,-0.0953450425,-0.5063737535,-0.5920263661,-0.3492298456,-0.2896042678,2.4142255846,-0.2843267939,0.0787283456,0.6136215288,-0.5868558298,-0.0055339046,-0.3040586567,-0.4684070801,-0.3821314687,-0.2479855435,-0.5433067001,-0.2721904847,-0.2572847345,-0.1648504621,-0.6292497018,-0.5362408028,-0.2409795243,-0.6757128996,-0.6901094513,0.0079909934,-0.3319446133,-0.4855293546,-0.1744318388,-1.4511376759,0.0081394681,-0.5482415024,-0.2563947913,-0.3666024115,-0.3945985873,-0.9716493625,-0.3654413248,-0.4183118855,-0.3012181668,-0.1958289577,-0.563070246,-0.0789425744,-0.5066282228,-0.3239171353,-0.4843339454,0.7177324862,-0.1935492779,-0.5678276894,-0.6360529212,-0.086264798,-0.2298815792,-0.4278209615,-0.4177068119,-0.1607488963,-0.4376439397,-0.5102149323,-0.5612013557,1.6369565636,-0.7524272714,-0.5005584605,1.603019714,-0.0442795591,-0.5159434206,-0.0796039233,-0.1725013315,-0.3185431555,-0.3747680985,-0.5630577476,-0.2738521195,-0.1505727344,-0.1563391629,-0.1499711482,-0.5322090675,-0.1191445896,0.1393675162,-0.5609727149,-0.1076867369,-0.5037560579,-0.6197822994,-0.4261541046,-1.1612685375,-0.9818724871,-0.4242512277,-0.6516170271,-0.2980210833,-0.2178605767,-0.5905670037,-0.4703881058,-0.0900793882,-0.3066570098,-0.6131746968,-0.6637594631,-0.3031748231,-0.2340074245,0.1879779678,-0.5651573798,-0.4947772597,-0.2407122656,-0.5487680675,-0.5891674301,-0.012495034,-0.3982861749,-1.181859113,-0.1383850273,-0.223498308,-0.4062758793,-0.3436865144,-0.7759476051,0.3231404502,-0.3749926208,-0.0599895989,-0.240209776,-0.2555099129,-0.3559798707,-0.3269878174,0.024838273,-0.2025685131,-0.0239284957,0.3597994828,0.3976769063,-0.1481937877,-0.0937863057,-0.3047431685,0.0745606899,-0.2165818045,-0.3210003099,-0.9063843332,-0.2726684849,-0.3819461338,-0.8129223706,-0.2384099537,-0.700231217,-0.3414631053,-0.593286317,-0.7162477155,-0.3242196312,-0.5555030144,-0.7582411391,-0.4807466343,-0.3712474157,-0.8516211651,-0.5562158035,-0.2523120919,-0.2213821794,-0.4959717152,-0.5015194042,-0.4495438402,-0.4238915061,0.1942534691,0.0819521423,-0.3503908117,-0.3311984583,-0.9033523607,-1.2165443995,-0.4601113468,0.4299703898,-0.5199588336,-0.5577726559,-0.3138766253,0.0185938859,-0.1947236522,-0.5280251959,-0.2576203291,-0.5237493106,0.603007501,-0.6380811421,-0.3164477599,-0.4869866116,0.2734572498,0.6236715385,-0.0181148474,-0.1349836642,-0.2841660085,-0.1920209991,-0.3858046512,-0.4692931382,0.0119982702,-0.3171638871,-0.0535716266,-0.7636806911,-0.6061556484,-0.0379977996,-0.5428377313,-0.2150343709,-0.7632537573,-0.3996521758,-0.4301601548,-0.4746782788,-0.7690399172,-0.0735780261,-0.1657997524,-0.548759829,-0.2495462139,-0.6882802833,-0.4519648481,-0.5374338697,-0.0599939984,-0.7246111614,-0.5387274743,-0.3887414167,-0.3315140194,0.0340607507,-0.5751575626,-0.5554308199,-1.5561601928,-0.0366310918,0.0240240137,-0.0371547052,0.000343898,0.1101456874,-0.0823019205,-0.4832829224,-0.3625237815,-0.3795221563,-0.4458316084,-0.0297530404,-0.0937129632,-0.4269995684,-0.1399887873,-0.4562845282,-0.1990532589,-0.1559265279,0.0323228223,-0.0266683922,-0.4177159375,-0.4522060644,-0.5200447187,-0.413040131,-0.3670869411,-0.329048898,-0.7715390761,-0.0944207774,-0.3107063778,-0.4976697773,-0.3439391117,-0.2886922027,-0.8811790735,-0.2747701864,-0.1666636134,-0.9346001431,-0.0414322517,-0.1793562718,-0.1549498848,-0.3682792422,-0.5778066937,-0.511500007,0.9182178492,0.051491995,-0.5138625517,-0.437654057,-0.3404711292,-0.2484322978,-0.5031148433,0.7727889027,-0.4365270118,-1.006326635,-0.7440022141,-0.6991723958,-0.3630642322,-0.3985264127,-0.708287561,0.7363242029,-0.166101065,-0.0096015195,0.5580320804,-0.165344962,-0.0073197588,-0.3285279545,-0.4657046106,-0.3557070255,-0.3064498775,-0.4189454787,-0.0303852595,-0.5628649574,-0.3845809449,-0.1048853642,-0.3770495859,-0.6660161497,-0.4340549751,-0.3179612531,-0.6253573665,-0.4188322965,-0.6913350363,0.0181532522,-0.7111054205,-0.2778183355,-0.414037741,-0.5935599335,-0.6446970349,0.0136909378,-0.5348770764,-0.2239236129,-0.3225271815,-0.2184262877,-0.3014723293,-0.588531649,-0.065364064,0.2130322281,-0.0291276146,-0.1191483775,-0.4923420037,-0.2228539868,-0.3161779548,-0.191847266,0.5586787893,-0.0706656568,-1.2098922792,-0.6487488669,-0.3562789777,-0.1458975943,-0.375625132,-0.4617020488,0.9356633727,-0.2679971116,-0.4814691548,0.4404235369,-0.3661346571,-0.0992538768,-0.5764890795,-0.181849983,-0.2622799234,-0.0853055048,-0.3978870248,-0.0892415587,-0.1533414784,-0.6369467908,-0.4106436017,-0.0270902888,-0.7259123785,-0.9500869433,-0.2928117185,-0.6160865384,-0.553566567,-0.3162786495,-0.7163062183,-1.2137648164,-0.3628649009,-0.3372010227,-0.7607603299,-0.7009570765,-0.549121424,-0.9611551021,0.2984603279,-0.2614942737,-0.6087591446,-0.1715471563,-0.453542957,-0.2285942356,0.054490254,-0.1757633864,-0.2687595087,-0.1517960644,-0.3394705675,-0.6328836792,0.0133818896,0.5017628528,-0.3580969557,-1.1308222358,-0.5688450026,-0.2267517077,-0.5436185794,-0.3130359854,-0.1460024736,0.5210477777,-0.5506560505,-0.0494270461,0.5726426016,-0.3901378033,-0.0856194095,-0.5214454807,-0.5945169785,0.0121565519,-0.2220599581,-0.5084697613,-0.2724279522,-0.6358649501,-0.307158053,0.1001547892,-0.3346250952,-0.5111148119,-1.3539778064,-0.550759238,-0.3970986717,-0.9472518506,-0.5753807443,-0.1886982016,-0.3159289048,0.1390371455,-0.1195034144,-0.673151424,-0.3885484721,-0.5746324441,-0.2173010965,0.023208383,-0.5372713881,-0.2506653591,-0.1314161961,-0.2985726284,-0.538973888,-0.4626730588,-0.3868829638,-0.5654419276,-0.4846636228,-0.4402634466,-0.3507313904,-0.4272826781,-0.2324717254,-0.384771823,-1.6869917682,-0.7333031857,-0.0706629238,-0.1850061349,0.0015944673,0.0048841866,0.385341634,-0.765446469,-0.4486405584,-0.019629001,-0.0670700834,-0.4812993304,-0.5941316455,-0.395046979,-0.2709137323,-0.0202121565,0.0937287766,0.143693052,-0.3049275557,-0.139945401,-0.107392075,-0.0859294217,-0.8844017129,-0.6706679491,-0.0566295766,0.0249419743,-0.6901272662,-0.5477764035,-0.3703835551,-1.1727094441,-0.1671907457,-0.3918375171,-0.3145216972,-0.2111496695,-0.1198480347,-0.9906680012,-0.2453118133,-0.1790032378,-0.2950421443,-0.6478724604,-0.4353112237,-0.1747162352,0.1974505219,-0.0511916791,-0.5814469474,-0.6942762506,-0.7074960617,-0.3030431477,0.0831079069,-0.4619392697,-0.0359738623,-1.6010666236,-0.6645186342,-0.1393438833,-0.332694255,-0.4995580263,0.0637571035,-0.3570903925,-0.1779691623,-0.185138638,-0.2241990258,-0.2321929067,-0.0735536435,-0.4933181926,-0.2666576217,-0.5574516725,-0.2204206345,-0.5416152466,-0.4863381679,-0.0280501188,-0.1821864219,-0.3368990368,-0.359750766,-0.1588236881,-0.1462134373,-0.7268717881,-0.0834671611,-1.0239077394,0.2267819056,0.1239867113,-0.3434186356,-0.8423928137,-0.2429875574,-0.5322102401,-0.6852034705,-0.5190609079,-0.6103141816,0.2995509943,-0.6058771096,-0.5554443333,-0.7121215909,-0.4452455978,-0.5445470596,0.9612978943,0.2363816626,0.0436231059,0.158930446,-0.5363698692,-0.2799220695,-0.506832542,0.7539254618,-0.3631943847,-0.9123823168,-0.123457938,-0.1071749163,-0.5033963289,-0.6709238769,0.0564940406,0.0237876273,-0.5880927598,-0.0795406907,-0.3019055147,-0.2483130634,-0.6665045467,-0.3301807847,-0.4415342055,-0.517159301,-0.6358164688,-0.029950837,0.1024517085,-0.2143480453,-0.4039200567,-0.4455988639,-0.0215482754,-0.0539253941,0.192972788,-0.4408418118,-0.3072103562,-0.1918717268,-0.6500125986,-0.4457925341,-1.5080475534,-0.245814853,-0.1825796071,-0.4515576217,-0.1474266356,-0.2354452232,-0.3122638163,-0.3153021095,-0.589882447,-0.5083087007,-0.0760552533,-0.6953878392,-0.6164632113,0.4432191949,-0.3515726047,-0.1665168529,-0.0246044888,-0.2564053473,-0.5546565979,-0.288160601,-0.1474522251,-0.7561102921,-0.9634722038,-0.4499265823,-0.2853288958,-0.6894309006,0.0370560067,-0.5731249773,-0.0287575347,-0.2227513006,-0.2636394403,0.3743861364,-0.1039904851,0.0572737987,-0.5902013198,-0.0979793488,-0.5044042896,-0.2612911135,-0.1071736254,0.0471916856,-0.1846286423,-0.387208558,-0.5243610982,-0.1334965755,-0.1943573455,-0.1863100287,-0.5616543544,-0.2280899871,-0.4869513844,-0.4850917525,-0.9319569061,-1.5612939299,-0.1134215009,-0.3598183338,-0.4648171049,-0.4873105495,-0.2545846856,-1.4812534966,-0.81344607,-0.454934398,-0.5446254883,-0.5367064876,-0.4289088971,-0.4826350297,-0.4685770963,-0.325704779,-0.0584148909,-0.3956082782,-0.0389627704,-0.4839256409,-0.1783416897,-0.0557469528,-0.0117602993,-0.9419261795,-0.5602480264,-0.1898863936,-0.2445830275,-0.1152460247,-0.3678946441,-0.2068701955,-0.6086227389,-0.2873987881,-0.0075687506,-0.3818733017,-0.1422885922,-0.3066989774,-0.3997276834,-0.4644661283,-0.057572383,0.1021726955,-0.054769482,-0.0949994921,-0.2725655038,0.2524752526,0.0683381676,-0.0747183743,-0.2331442399,-0.7734993565,-0.1872354152,-0.621004928,-0.2360811159,-0.8166261606,-0.7009850436,-0.3854559166,-0.1303653817,-0.5814920864,-0.3137112237,-0.0883942285,-0.9944764905,-0.1272836383,-0.187785032,-0.2001904908,-0.3603512815,-0.723743831,0.070180607,-0.31637492,-0.6015298445,-0.0843827749,0.0021622572,-0.1067677848,-0.3354513001,-0.6032558808,0.1017955999,-0.4786071217,-1.6375180689,-0.5100565603,-0.5419023757,-0.4449536352,-0.1051286418,-0.1792740508,-0.4990391366,-0.5961749862,-0.5626625579,-0.5742409826,-0.5101121305,-0.0925651552,-0.6136981731,-0.3148059673,0.1210216254,-0.0613875171,-0.0771615884,-0.4414039835,-0.1737436069,-0.3664856485,-0.46405456,-0.2456256207,-0.125696684,-0.681895218,-0.514649455,-0.3172860514,-0.6202783946,-0.0140520364,-0.1812263174,-0.7121262935,-0.1368543378,-0.3102179459,-0.3719844696,0.0143552756,-0.4341296349,-1.110418771,-0.2747337389,-0.4159355229,-0.2942836708,-0.1322213352,-0.6546427524,0.0514856475,-0.3379539241,0.1409902117,-0.4303059171,-0.436571771,-0.2913585043,-0.1102036525,0.200021314,-0.4572323123,-0.2144361219,-1.2153858774,-0.1292960465,0.0103959004,-0.0612317562,-0.2585729091,-0.3746918358,-0.3783273879,-0.1191559512,-0.6556645212,-0.1894785218,-0.3111972081,0.0415419143,-0.457315612,-0.62909005,-0.6377179113,-0.4440229231,-0.1873329789,0.2298891085,-0.4523519853,-0.1136849309,-0.2380957444,-0.6257253607,-0.4117727835,-0.871538724,-0.5580578957,0.1417562633,-0.4388297728,-0.3326112371,-0.6703198156,-1.1304756605,0.0863292061,-0.5481935827,-0.4465637209,-0.0159275402,-0.3453342388,-0.5233799234,-0.2402748404,-0.552883935,-0.1608817718,-0.2327263251,-0.4687343293,-0.1979954463,-0.524013077,-0.1875045125,-0.6603024135,-0.3466956708,-0.1929319342,-0.4740294965,-0.3823434014,-0.360271821,-0.0912117654,-1.2063956882,-0.6636539588,-0.5096975329,-0.4048244939,-0.0946544941,0.0177738649,0.9733134826,-0.757133888,-0.0695840844,-0.094212643,-0.4012084771,0.1086080176,-0.1119326993,-0.242424629,0.1333131559,-0.3653169284,-0.0113740046,-0.0806229725,-0.3710135737,-0.3438463207,-0.4585137904,-0.2725381919,-0.6924513946,-0.1270328602,-0.3426274567,-0.1096035791,-0.4117733542,-0.2838693127,0.0420363902,-1.5563453326,-0.2641165548,-0.6726380097,-0.7097530118,-0.4433782848,-0.6565118032,-0.8412141784,-0.0946098504,-0.6272095049,-0.0953684077,-0.30772811,-0.4069827913,-0.5735605853,0.2192483209,0.4858211492,-0.6279272803,-0.3038335736,-0.0581117806,-0.2022397167,0.0457807705,-0.2298894511,-0.0101220084,-1.2117258065,-0.5393306132,-0.5494231221,-0.0441040882,-0.259915747,-0.4334449114,0.8049267827,-0.1543236392,-0.1352495011,0.0472395753,-0.4314011138,-0.4047015396,-0.6645620313,-0.3695128446,-0.5684983142,-0.3688089569,-0.0476541946,0.3296134947,-0.6612593048,0.0610963693,-0.2775485462,0.1313680915,-0.6770463058,0.0207700154,-0.6086637147,-0.2843547643,-0.3677952933,-0.6265928116,0.7506904926,-0.9627908189,-0.5829508163,-0.2585053702,-0.4919462515,-0.4525172869,-0.4290053848,-0.7791889546,-0.3945322832,-0.8395092992,-0.697636667,-0.1103242791,-0.8435590802,-0.7436875432,0.0193723206,0.0117708773,-0.4561112247,0.0196531909,-0.0582578282,-0.141441203,-0.5982195753,0.4973780338,-0.6319665426,-1.0523833718,-0.5146631542,0.2824964418,-0.1704384715,-0.1644630601,-0.2003918454,-0.1990133934,-0.508863681,-0.0614766664,-0.3254546154,-0.5710360948,-0.1992993403,-0.5780483644,-0.5450333174,-0.1477802699,-0.0632445408,-0.4234987532,0.5119650051,-0.505546592,-0.5256890538,0.0699773034,-0.1055618879,-0.6462336634,-0.2569649181,-0.7446835647,-0.0625373247,-0.711550656,-0.2206757269,-0.5906328211,-0.8765697605,0.0931498357,0.0539018445,-0.4879566748,-0.0406188203,-0.5770339152,-1.2875403095,0.1556365696,-0.4942204346,-0.5201416815,0.0373001126,-0.2879129244,-0.2195385451,-0.5657182471,-0.270290424,-0.4098528823,-0.2156962722,-0.1953603854,-0.4914059114,-0.1283658407,-0.5614938156,-0.2355245853,-1.4926592687,-0.0354231658,-0.1221070924,0.0371578919,-0.0515291031,-0.4161113754,-0.0733918413,-0.7940232023,0.0021381207,-0.4824843695,-0.3595305464,-0.587689375,-0.4946162785,-0.6733138529,-0.0005749134,0.0204306023,-0.2747380638,0.1620297254,-0.5226637533,-0.863578585,0.1894472445,-0.4871811894,-0.5484454835,-1.098484919,-0.8238152091,-0.2195181432,-0.6046151936,-0.5791735738,-0.56603115,-0.4456071064,0.1701247866,-0.6174307061,-0.8635453521,-0.4350641606,-0.3187028417,-1.3668401636,-0.0174667992,-0.0735879245,-0.2219403463,-0.724135968,-0.2609786825,-0.7698481862,0.6086271983,0.5030127546,-0.4102214846,-0.5086696914,-0.0295408522,-0.502188564,-0.1589343231,-0.079765915,-0.3906677532,-1.204942659,-0.4446813381,0.04875634,-0.4337477822,-0.8337954636,-0.6202198498,-0.180600784,-0.4607805909,-0.1157059354,-0.1186924228,-0.4140895626,-0.4884255319,-0.4481545418,0.0575374385,0.0717635773,-0.2519931381,-0.2993798877,0.1917589607,-0.7993023759,-0.2601787079,-0.6258955952,-0.0539971101,-0.6251692965,-0.518677191,-0.2621368075,-0.2090426457,-0.6432206669,-0.6727176046,-0.2501425868,-0.2204568545,0.0281857068,-0.4910700614,-0.6181259436,-0.1500174625,0.329326372,-1.0473846987,0.1337765818,-0.6487108314,-0.4550463471,-0.3793328386,-0.6669686785,-0.7005476346,0.0197179095,0.0107498252,-0.5167331985,-0.2261230318,-0.2941256654,-0.6982000906,-0.5021651403,0.4247881503,-0.3818648247,-0.8330132954,-0.5033370665,-0.0941699015,-0.4440804891,-0.1358725674,-0.5466492618,-0.3902914511,-0.6326075273,-0.4477630569,-0.3048878538,-0.453373837,0.1090041205,-0.3658238857,-0.0744851869,-0.0954367975,-0.412629815,-0.1321323268,-0.2208779941,-0.4943693794,-0.3799467284,0.3128381505,-0.3275538559,-0.180159298,-0.3931547381,-0.2206972703,0.1759139471,-0.653776317,-0.67113012,-0.5191290402,-1.1264863449,0.1080118128,-0.304012777,-0.2353970158,-0.6393742906,-0.2397587745,-1.3308056997,-0.3036248171,-0.6692490201,-0.5020187727,-0.3562519997,-0.4527969602,-0.4644248614,-0.117813479,0.1704255517,-0.6850954191,-0.3039168566,-0.3014409005,-0.4131510957,-0.7394034121,0.1767611411,-0.2497785719,-1.0895308787,-0.390150935,-0.2248584246,-0.3861498715,-0.2610034497,-0.0087562214,-0.2215053039,-0.4096328426,-0.2940978717,0.0147067836,-0.4681989846,-0.6032969861,-0.0653282253,-0.0993698881,-0.2889318814,0.001674461,-0.3436051116,0.3440005362,-0.4850111523,0.0254648349,-0.0972980802,-0.2876586506,-0.512409743,-0.2051805889,-0.5663951824,-0.122231134,-1.070041138,-0.769423052,-0.6812184426,-0.4763698182,-0.0458812058,-0.3718927896,-0.8824373442,-0.379360942,-0.3257383274,-0.4615399689,-0.0343188271,-0.4243756902,-0.1215920331,-0.2934888704,-0.2052605292,-0.4774774178,-0.0256170104,-0.1729274192,-0.6464789121,-0.3844375261,-0.5292980208,-0.6411294073,-0.0043493658,-0.3308408495,-0.3635782945,-1.6294762485,-0.2769810034,0.0076182755,-0.3881114495,-0.3139869524,-0.5900568496,0.0775852628,-0.2723253546,-0.2065278567,-0.1519168775,-0.3456413535,-0.3857700532,-0.2444524312,-0.2981626141,-0.0879113679,-0.0232097464,-0.0770930985,0.1081641939,-0.7462275137,-0.4201218986,-0.1434811446,0.0047293884,-0.3402171015,-0.6312925644,-0.8029890108,-0.1557773395,-0.9739335436,-0.3993785335,-0.5347935403,-0.9994153315,-0.1052912233,-0.1871857931,-0.27537199,-0.072100059,-0.1219048064,-1.1114795686,-0.5986016724,-0.4137997043,-0.7874962979,-0.6363229581,-0.2194773429,-0.0833851953,-0.1272631285,0.0272546308,-0.2939200821,-0.0090004132,0.0933223741,-0.4928949943,-0.3667815138,-0.0754435955,-0.4695500679,-1.0203608376,-0.4428638156,0.5596866311
